{"learner":{"attributes":{},"feature_names":[],"feature_types":[],"gradient_booster":{"model":{"gbtree_model_param":{"num_parallel_tree":"1","num_trees":"150"},"iteration_indptr":[0,1,2,3,4,5,6,7,8,9,10,11,12,13,14,15,16,17,18,19,20,21,22,23,24,25,26,27,28,29,30,31,32,33,34,35,36,37,38,39,40,41,42,43,44,45,46,47,48,49,50,51,52,53,54,55,56,57,58,59,60,61,62,63,64,65,66,67,68,69,70,71,72,73,74,75,76,77,78,79,80,81,82,83,84,85,86,87,88,89,90,91,92,93,94,95,96,97,98,99,100,101,102,103,104,105,106,107,108,109,110,111,112,113,114,115,116,117,118,119,120,121,122,123,124,125,126,127,128,129,130,131,132,133,134,135,136,137,138,139,140,141,142,143,144,145,146,147,148,149,150],"tree_info":[0,0,0,0,0,0,0,0,0,0,0,0,0,0,0,0,0,0,0,0,0,0,0,0,0,0,0,0,0,0,0,0,0,0,0,0,0,0,0,0,0,0,0,0,0,0,0,0,0,0,0,0,0,0,0,0,0,0,0,0,0,0,0,0,0,0,0,0,0,0,0,0,0,0,0,0,0,0,0,0,0,0,0,0,0,0,0,0,0,0,0,0,0,0,0,0,0,0,0,0,0,0,0,0,0,0,0,0,0,0,0,0,0,0,0,0,0,0,0,0,0,0,0,0,0,0,0,0,0,0,0,0,0,0,0,0,0,0,0,0,0,0,0,0,0,0,0,0,0,0],"trees":[{"base_weights":[5.9503003E-9,6.27112E-2,-3.8022697E-2,-7.44857E-3,8.802844E-2,-1.7675636E-2,-6.0880415E-2,-4.1173287E-2,5.2942326E-3,5.8464643E-2,1.275781E-1,-3.907361E-2,-2.6954195E-4,-5.0357565E-2,-7.3599786E-2,-3.0558513E-2,-6.595496E-2,9.408027E-3,-3.684699E-2,4.6942268E-2,1.4155266E-1,1.6398105E-1,8.940502E-2,-4.2760756E-2,1.4881656E-1,1.0953974E-2,-4.092014E-2,-5.476251E-2,9.141058E-2,-3.605004E-2,-7.768508E-2,-5.2708782E-2,-1.3685669E-2,-1.01431035E-1,-4.2325877E-2,5.469881E-4,8.443305E-2,-6.0372557E-2,-2.7396243E-2,1.1094094E-1,2.8199943E-2,2.300765E-1,9.9463016E-2,1.9662055E-1,1.4365272E-1,1.1258084E-1,6.4517066E-2,-6.1692394E-2,-3.3132054E-2,1.7772588E-1,-4.8288025E-2,-1.2827975E-2,4.7690816E-2,-1.30298035E-2,-5.07398E-2,-2.917221E-2,-5.8707077E-2,1.309E-1,-5.8045134E-2,-5.5024624E-2,-2.7492814E-2,-7.429166E-2,-9.509235E-2,-6.4933407E-3,-1.620762E-3,-3.3035714E-3,2.1812092E-3,-1.0594919E-2,-1.9215727E-3,-2.0804342E-3,-4.440425E-3,1.4195226E-3,-2.5930344E-3,1.16331745E-2,3.4317074E-4,-1.0743476E-2,-2.033579E-3,4.0070925E-2,-2.9562577E-3,1.5163933E-3,1.3397159E-2,4.2698383E-3,-2.682693E-4,8.464216E-3,2.5915489E-2,2.0160638E-2,8.167946E-3,2.3755128E-2,1.8494992E-2,1.285425E-2,1.9451048E-2,9.346441E-3,1.4284128E-2,7.6714973E-3,2.0233009E-3,-4.5877006E-3,-6.940504E-3,8.1104983E-4,-3.7360394E-3,-5.223953E-3,1.9612098E-2,-2.463058E-3,-5.8778594E-3,9.4353285E-4,-2.7181373E-3,3.2248031E-3,9.157017E-3,2.519181E-4,-7.1663633E-3,-1.6528718E-3,-5.7689003E-3,-5.02984E-3,-2.2579709E-3,-5.5731065E-3,-7.785454E-3,-6.4335703E-3,1.802769E-2,-1.729918E-4,-7.0230137E-3,-5.6093256E-3,7.0131444E-3,1.4100398E-4,-4.202929E-3,-8.211948E-3,-6.0945484E-3,-7.6705823E-3,-1.0578408E-2],"categories":[],"categories_nodes":[],"categories_segments":[],"categories_sizes":[],"default_left":[0,0,0,0,0,0,0,0,0,0,0,0,0,0,0,0,0,0,0,0,0,0,0,0,0,0,0,0,0,0,0,0,0,0,0,0,0,0,0,0,0,0,0,0,0,0,0,0,0,0,0,0,0,0,0,0,0,0,0,0,0,0,0,0,0,0,0,0,0,0,0,0,0,0,0,0,0,0,0,0,0,0,0,0,0,0,0,0,0,0,0,0,0,0,0,0,0,0,0,0,0,0,0,0,0,0,0,0,0,0,0,0,0,0,0,0,0,0,0,0,0,0,0,0,0,0,0],"id":0,"left_children":[1,3,5,7,9,11,13,15,17,19,21,23,25,27,29,31,33,35,37,39,41,43,45,47,49,51,53,55,57,59,61,63,65,67,69,71,73,75,77,79,81,83,85,87,89,91,93,95,97,99,101,103,105,107,109,111,113,115,117,119,121,123,125,-1,-1,-1,-1,-1,-1,-1,-1,-1,-1,-1,-1,-1,-1,-1,-1,-1,-1,-1,-1,-1,-1,-1,-1,-1,-1,-1,-1,-1,-1,-1,-1,-1,-1,-1,-1,-1,-1,-1,-1,-1,-1,-1,-1,-1,-1,-1,-1,-1,-1,-1,-1,-1,-1,-1,-1,-1,-1,-1,-1,-1,-1,-1,-1],"loss_changes":[1.4304287E3,4.0220782E2,1.7369183E2,2.580397E1,1.9454553E2,7.359117E1,2.3536804E1,4.329397E0,7.5552163E0,9.115332E1,9.889099E1,6.140663E1,4.971082E1,6.0113754E1,1.2212097E1,4.3084774E0,4.1342335E0,2.6395159E1,8.6011314E-1,1.0030252E2,4.3183075E1,2.414386E1,2.003363E1,1.5843079E1,9.729645E0,7.4597496E1,6.455635E0,9.421692E0,1.7129063E1,1.2674074E0,4.2349854E0,2.223319E0,4.497058E0,7.3085594E-1,1.3170004E-1,1.2832939E1,1.0836214E1,2.0892982E0,2.5780141E0,4.178035E1,2.896193E1,1.5777588E1,1.4262825E1,6.633667E0,1.7229492E1,1.0393356E1,9.049576E0,3.5712814E0,1.0048679E1,6.3048363E0,5.290371E-2,1.6563065E1,2.2733208E1,5.5979967E0,4.144039E0,1.7356167E0,4.6047363E0,2.21357E1,4.164021E-1,3.2866716E-1,2.263803E0,6.273926E0,2.2942657E0,0E0,0E0,0E0,0E0,0E0,0E0,0E0,0E0,0E0,0E0,0E0,0E0,0E0,0E0,0E0,0E0,0E0,0E0,0E0,0E0,0E0,0E0,0E0,0E0,0E0,0E0,0E0,0E0,0E0,0E0,0E0,0E0,0E0,0E0,0E0,0E0,0E0,0E0,0E0,0E0,0E0,0E0,0E0,0E0,0E0,0E0,0E0,0E0,0E0,0E0,0E0,0E0,0E0,0E0,0E0,0E0,0E0,0E0,0E0,0E0,0E0,0E0,0E0,0E0],"parents":[2147483647,0,0,1,1,2,2,3,3,4,4,5,5,6,6,7,7,8,8,9,9,10,10,11,11,12,12,13,13,14,14,15,15,16,16,17,17,18,18,19,19,20,20,21,21,22,22,23,23,24,24,25,25,26,26,27,27,28,28,29,29,30,30,31,31,32,32,33,33,34,34,35,35,36,36,37,37,38,38,39,39,40,40,41,41,42,42,43,43,44,44,45,45,46,46,47,47,48,48,49,49,50,50,51,51,52,52,53,53,54,54,55,55,56,56,57,57,58,58,59,59,60,60,61,61,62,62],"right_children":[2,4,6,8,10,12,14,16,18,20,22,24,26,28,30,32,34,36,38,40,42,44,46,48,50,52,54,56,58,60,62,64,66,68,70,72,74,76,78,80,82,84,86,88,90,92,94,96,98,100,102,104,106,108,110,112,114,116,118,120,122,124,126,-1,-1,-1,-1,-1,-1,-1,-1,-1,-1,-1,-1,-1,-1,-1,-1,-1,-1,-1,-1,-1,-1,-1,-1,-1,-1,-1,-1,-1,-1,-1,-1,-1,-1,-1,-1,-1,-1,-1,-1,-1,-1,-1,-1,-1,-1,-1,-1,-1,-1,-1,-1,-1,-1,-1,-1,-1,-1,-1,-1,-1,-1,-1,-1],"split_conditions":[6.3326335E-1,9.077779E-3,8.19982E-1,1.060106E-1,4.7349998E-1,3.4217143E-1,9.236924E-1,7.4600005E-1,7.483499E-1,7.4907494E-1,4.2554256E-1,8.190819E-1,7.298999E-1,9.224922E-1,9.7975016E-2,5.8509374E-1,7.497499E-1,7.0974994E-1,7.4942493E-1,8.55999E-2,4.5954594E-1,2.2202219E-1,5.508551E-1,6.602022E-3,9.490406E-3,1.2624991E-1,4.5759997E-1,1.0070002E-1,2.1429999E-1,7.649994E-2,7.4962497E-1,5.364143E-3,1.0315658E-3,4.745203E-3,7.527251E-1,6.2462497E-1,8.3333335E-4,2.0342034E-1,6.189395E-4,7.562494E-2,5.151515E-1,1.5473488E-2,7.493248E-1,1.2561256E-1,1.6332495E-1,1.8748116E-1,7.205374E-1,7.449745E-1,8.667493E-2,9.284093E-3,1.4545078E-2,7.1677166E-1,2.8264903E-2,7.601249E-1,6.7116714E-1,7.649994E-2,7.4967504E-1,2.0533332E-1,1.0380006E-1,6.9940165E-2,7.8750014E-2,1.6092427E-2,4.304E-1,-6.4933407E-3,-1.620762E-3,-3.3035714E-3,2.1812092E-3,-1.0594919E-2,-1.9215727E-3,-2.0804342E-3,-4.440425E-3,1.4195226E-3,-2.5930344E-3,1.16331745E-2,3.4317074E-4,-1.0743476E-2,-2.033579E-3,4.0070925E-2,-2.9562577E-3,1.5163933E-3,1.3397159E-2,4.2698383E-3,-2.682693E-4,8.464216E-3,2.5915489E-2,2.0160638E-2,8.167946E-3,2.3755128E-2,1.8494992E-2,1.285425E-2,1.9451048E-2,9.346441E-3,1.4284128E-2,7.6714973E-3,2.0233009E-3,-4.5877006E-3,-6.940504E-3,8.1104983E-4,-3.7360394E-3,-5.223953E-3,1.9612098E-2,-2.463058E-3,-5.8778594E-3,9.4353285E-4,-2.7181373E-3,3.2248031E-3,9.157017E-3,2.519181E-4,-7.1663633E-3,-1.6528718E-3,-5.7689003E-3,-5.02984E-3,-2.2579709E-3,-5.5731065E-3,-7.785454E-3,-6.4335703E-3,1.802769E-2,-1.729918E-4,-7.0230137E-3,-5.6093256E-3,7.0131444E-3,1.4100398E-4,-4.202929E-3,-8.211948E-3,-6.0945484E-3,-7.6705823E-3,-1.0578408E-2],"split_indices":[0,1,0,0,2,2,0,3,3,3,0,0,3,0,3,3,3,3,3,3,0,0,0,1,1,3,2,3,2,3,3,1,1,1,3,3,2,0,1,3,0,1,3,0,3,3,3,0,3,1,1,0,1,3,0,3,3,2,3,1,3,1,2,0,0,0,0,0,0,0,0,0,0,0,0,0,0,0,0,0,0,0,0,0,0,0,0,0,0,0,0,0,0,0,0,0,0,0,0,0,0,0,0,0,0,0,0,0,0,0,0,0,0,0,0,0,0,0,0,0,0,0,0,0,0,0,0],"split_type":[0,0,0,0,0,0,0,0,0,0,0,0,0,0,0,0,0,0,0,0,0,0,0,0,0,0,0,0,0,0,0,0,0,0,0,0,0,0,0,0,0,0,0,0,0,0,0,0,0,0,0,0,0,0,0,0,0,0,0,0,0,0,0,0,0,0,0,0,0,0,0,0,0,0,0,0,0,0,0,0,0,0,0,0,0,0,0,0,0,0,0,0,0,0,0,0,0,0,0,0,0,0,0,0,0,0,0,0,0,0,0,0,0,0,0,0,0,0,0,0,0,0,0,0,0,0,0],"sum_hessian":[5.99897E5,2.26435E5,3.73462E5,6.0043E4,1.66392E5,1.97583E5,1.75879E5,1.6465E4,4.3578E4,9.5218E4,7.1174E4,8.8628E4,1.08955E5,9.6253E4,7.9626E4,1.1529E4,4.936E3,3.9703E4,3.875E3,8.3623E4,1.1595E4,3.643E4,3.4744E4,8.6923E4,1.705E3,8.5382E4,2.3573E4,9.3353E4,2.9E3,7.814E3,7.1812E4,4.984E3,6.545E3,1.972E3,2.964E3,3.551E4,4.193E3,1.109E3,2.766E3,1.8941E4,6.4682E4,3.735E3,7.86E3,1.3978E4,2.2452E4,1.7989E4,1.6755E4,2.9303E4,5.762E4,1.487E3,2.18E2,5.183E4,3.3552E4,6.139E3,1.7434E4,1.2469E4,8.0884E4,2.294E3,6.06E2,2.427E3,5.387E3,6.0101E4,1.1711E4,3.733E3,1.251E3,4.236E3,2.309E3,1.869E3,1.03E2,2.62E2,2.702E3,2.3432E4,1.2078E4,3.008E3,1.185E3,5.09E2,6E2,1.3E1,2.753E3,3.672E3,1.5269E4,4.4017E4,2.0665E4,6.23E2,3.112E3,1.164E3,6.696E3,3.097E3,1.0881E4,1.7312E4,5.14E3,1.1027E4,6.962E3,1.3136E4,3.619E3,9.608E3,1.9695E4,5.358E3,5.2262E4,1.1E2,1.377E3,6.8E1,1.5E2,2.0317E4,3.1513E4,2.4819E4,8.733E3,4.853E3,1.286E3,2.944E3,1.449E4,2.964E3,9.505E3,7.0007E4,1.0877E4,4.63E2,1.831E3,1.08E2,4.98E2,2.407E3,2E1,1.803E3,3.584E3,3.7879E4,2.2222E4,4.309E3,7.402E3],"tree_param":{"num_deleted":"0","num_feature":"4","num_nodes":"127","size_leaf_vector":"1"}},{"base_weights":[2.25369E-7,5.070215E-2,-3.8282536E-2,-8.919418E-3,7.123164E-2,-2.0782465E-2,-5.4792665E-2,-3.705767E-2,4.1426567E-4,9.928367E-2,3.3723343E-2,-5.1770948E-2,-1.2544903E-2,-4.532198E-2,-6.624025E-2,-2.7503459E-2,-5.936332E-2,1.11113405E-2,-2.3330519E-2,7.121645E-2,1.4255425E-1,6.26983E-3,5.6263566E-2,-5.7689432E-2,-3.36851E-2,-1.4701014E-2,1.2705176E-1,-4.9286477E-2,8.227103E-2,-3.244538E-2,-6.991703E-2,-4.7439527E-2,-1.231727E-2,-9.1294274E-2,-3.8095485E-2,-2.4935598E-3,2.977594E-2,1.788142E-2,-2.9687345E-2,6.0171098E-2,1.835282E-1,1.797019E-1,1.2601002E-1,-5.348677E-3,5.9043303E-2,6.151507E-2,-5.4786718E-3,-4.326202E-2,-6.259135E-2,-4.7085457E-2,-2.2541407E-2,-1.6028225E-2,1.884496E-1,1.7335817E-1,-3.881696E-2,-2.6959883E-2,-5.29516E-2,1.17497385E-1,-5.3588163E-2,-4.952159E-2,-2.4744287E-2,-8.457851E-2,-6.640946E-2,-5.2825934E-3,2.8455225E-3,-3.407793E-3,1.3766041E-3,-9.535993E-3,-1.7312625E-3,-3.9400524E-3,-7.096149E-4,4.05699E-3,-1.2960479E-3,5.9628873E-3,1.5709245E-3,-5.6416295E-3,2.4419592E-3,-4.52002E-3,-1.0569305E-3,1.0609392E-2,3.4601223E-3,5.7138777E-3,2.0588696E-2,2.163488E-2,1.6905261E-2,1.1109241E-2,1.6466526E-2,3.6128783E-3,-1.3497809E-3,1.52955325E-2,4.162938E-3,3.515314E-3,7.762304E-3,-1.4724295E-3,1.0873417E-2,-1.4450576E-3,-5.2853334E-3,-2.2359164E-3,-6.352089E-3,-9.284687E-4,-5.675781E-3,1.13848625E-2,-2.478066E-3,-3.30132E-3,-6.2960247E-4,6.9359466E-3,2.2690793E-2,-4.5953644E-3,1.826246E-2,2.7053573E-3,-4.357691E-3,-4.9653896E-3,-2.1032211E-3,-6.3706124E-3,-4.7640963E-3,-5.7915994E-3,1.6164422E-2,-7.355312E-4,-6.3306503E-3,-5.0486266E-3,6.345226E-3,1.2691085E-4,-3.782753E-3,-5.781599E-3,-8.796808E-3,-5.8763353E-3,-7.965667E-3],"categories":[],"categories_nodes":[],"categories_segments":[],"categories_sizes":[],"default_left":[0,0,0,0,0,0,0,0,0,0,0,0,0,0,0,0,0,0,0,0,0,0,0,0,0,0,0,0,0,0,0,0,0,0,0,0,0,0,0,0,0,0,0,0,0,0,0,0,0,0,0,0,0,0,0,0,0,0,0,0,0,0,0,0,0,0,0,0,0,0,0,0,0,0,0,0,0,0,0,0,0,0,0,0,0,0,0,0,0,0,0,0,0,0,0,0,0,0,0,0,0,0,0,0,0,0,0,0,0,0,0,0,0,0,0,0,0,0,0,0,0,0,0,0,0,0,0],"id":1,"left_children":[1,3,5,7,9,11,13,15,17,19,21,23,25,27,29,31,33,35,37,39,41,43,45,47,49,51,53,55,57,59,61,63,65,67,69,71,73,75,77,79,81,83,85,87,89,91,93,95,97,99,101,103,105,107,109,111,113,115,117,119,121,123,125,-1,-1,-1,-1,-1,-1,-1,-1,-1,-1,-1,-1,-1,-1,-1,-1,-1,-1,-1,-1,-1,-1,-1,-1,-1,-1,-1,-1,-1,-1,-1,-1,-1,-1,-1,-1,-1,-1,-1,-1,-1,-1,-1,-1,-1,-1,-1,-1,-1,-1,-1,-1,-1,-1,-1,-1,-1,-1,-1,-1,-1,-1,-1,-1],"loss_changes":[1.1644098E3,3.1589923E2,9.875812E1,1.7361668E1,2.0199713E2,4.2356995E1,1.9065308E1,3.5074844E0,1.2609061E1,1.3338403E2,5.083291E1,3.7279968E0,3.9457508E1,4.869342E1,9.891876E0,3.4901562E0,3.3492508E0,8.690575E0,4.039694E0,8.263754E1,2.6535156E1,2.2710127E1,1.4626785E1,1.8539581E0,1.2822771E0,3.4810116E1,1.5322216E1,7.6376953E0,1.3889975E1,1.0264902E0,3.687439E0,2.0393705E0,3.7159128E0,5.917969E-1,1.1967039E-1,8.92341E0,6.058263E0,1.0025523E0,3.961176E0,7.122575E1,1.6844803E1,5.159027E0,1.7223907E1,1.0260976E1,1.0922855E1,1.7651154E1,3.7365627E0,1.8399343E0,7.3130035E-1,1.425766E0,1.4364231E0,2.1200993E1,3.8223076E0,3.1766548E0,1.3788247E-1,1.7700796E0,4.576828E0,1.7851408E1,2.682197E-1,2.678132E-1,1.833797E0,1.2522049E0,5.865448E0,0E0,0E0,0E0,0E0,0E0,0E0,0E0,0E0,0E0,0E0,0E0,0E0,0E0,0E0,0E0,0E0,0E0,0E0,0E0,0E0,0E0,0E0,0E0,0E0,0E0,0E0,0E0,0E0,0E0,0E0,0E0,0E0,0E0,0E0,0E0,0E0,0E0,0E0,0E0,0E0,0E0,0E0,0E0,0E0,0E0,0E0,0E0,0E0,0E0,0E0,0E0,0E0,0E0,0E0,0E0,0E0,0E0,0E0,0E0,0E0,0E0,0E0,0E0,0E0],"parents":[2147483647,0,0,1,1,2,2,3,3,4,4,5,5,6,6,7,7,8,8,9,9,10,10,11,11,12,12,13,13,14,14,15,15,16,16,17,17,18,18,19,19,20,20,21,21,22,22,23,23,24,24,25,25,26,26,27,27,28,28,29,29,30,30,31,31,32,32,33,33,34,34,35,35,36,36,37,37,38,38,39,39,40,40,41,41,42,42,43,43,44,44,45,45,46,46,47,47,48,48,49,49,50,50,51,51,52,52,53,53,54,54,55,55,56,56,57,57,58,58,59,59,60,60,61,61,62,62],"right_children":[2,4,6,8,10,12,14,16,18,20,22,24,26,28,30,32,34,36,38,40,42,44,46,48,50,52,54,56,58,60,62,64,66,68,70,72,74,76,78,80,82,84,86,88,90,92,94,96,98,100,102,104,106,108,110,112,114,116,118,120,122,124,126,-1,-1,-1,-1,-1,-1,-1,-1,-1,-1,-1,-1,-1,-1,-1,-1,-1,-1,-1,-1,-1,-1,-1,-1,-1,-1,-1,-1,-1,-1,-1,-1,-1,-1,-1,-1,-1,-1,-1,-1,-1,-1,-1,-1,-1,-1,-1,-1,-1,-1,-1,-1,-1,-1,-1,-1,-1,-1,-1,-1,-1,-1,-1,-1],"split_conditions":[6.7116714E-1,9.077779E-3,8.19982E-1,1.060106E-1,5.0745076E-1,6.602022E-3,9.236924E-1,7.4600005E-1,5.5575556E-1,4.97E-1,3.9959997E-1,3.49E-1,8.190819E-1,9.224922E-1,9.7975016E-2,5.8509374E-1,7.497499E-1,4.951516E-3,1.237879E-3,7.488251E-1,2.2202219E-1,7.4907494E-1,7.4994993E-1,7.4757475E-1,4.3325764E-3,8.5359997E-1,9.490406E-3,1.01799846E-1,2.2662857E-1,7.649994E-2,5.570456E-3,1.0649999E-1,6.189395E-4,4.745203E-3,1.4441921E-3,1.237879E-3,3.5263526E-1,5.2332497E-1,1.56E-1,9.7975016E-2,1.5060862E-2,1.2561256E-1,1.6332495E-1,8.55999E-2,7.493248E-1,1.20000005E-1,7.6672506E-1,1.0315658E-3,1.0517502E-1,3.5145E-1,3.5145E-1,3.3499998E-1,7.749775E-1,9.284093E-3,8.384991E-2,1.1657142E-2,1.2624991E-1,2.0533332E-1,1.0380006E-1,6.9940165E-2,7.8750014E-2,1.099E-1,7.414501E-1,-5.2825934E-3,2.8455225E-3,-3.407793E-3,1.3766041E-3,-9.535993E-3,-1.7312625E-3,-3.9400524E-3,-7.096149E-4,4.05699E-3,-1.2960479E-3,5.9628873E-3,1.5709245E-3,-5.6416295E-3,2.4419592E-3,-4.52002E-3,-1.0569305E-3,1.0609392E-2,3.4601223E-3,5.7138777E-3,2.0588696E-2,2.163488E-2,1.6905261E-2,1.1109241E-2,1.6466526E-2,3.6128783E-3,-1.3497809E-3,1.52955325E-2,4.162938E-3,3.515314E-3,7.762304E-3,-1.4724295E-3,1.0873417E-2,-1.4450576E-3,-5.2853334E-3,-2.2359164E-3,-6.352089E-3,-9.284687E-4,-5.675781E-3,1.13848625E-2,-2.478066E-3,-3.30132E-3,-6.2960247E-4,6.9359466E-3,2.2690793E-2,-4.5953644E-3,1.826246E-2,2.7053573E-3,-4.357691E-3,-4.9653896E-3,-2.1032211E-3,-6.3706124E-3,-4.7640963E-3,-5.7915994E-3,1.6164422E-2,-7.355312E-4,-6.3306503E-3,-5.0486266E-3,6.345226E-3,1.2691085E-4,-3.782753E-3,-5.781599E-3,-8.796808E-3,-5.8763353E-3,-7.965667E-3],"split_indices":[0,1,0,0,0,1,0,3,0,2,2,2,0,0,3,3,3,1,1,3,0,3,3,0,1,2,1,3,2,3,1,2,1,1,1,1,0,3,2,3,1,0,3,3,3,3,3,1,3,2,2,2,0,1,3,2,3,2,3,1,3,3,3,0,0,0,0,0,0,0,0,0,0,0,0,0,0,0,0,0,0,0,0,0,0,0,0,0,0,0,0,0,0,0,0,0,0,0,0,0,0,0,0,0,0,0,0,0,0,0,0,0,0,0,0,0,0,0,0,0,0,0,0,0,0,0,0],"split_type":[0,0,0,0,0,0,0,0,0,0,0,0,0,0,0,0,0,0,0,0,0,0,0,0,0,0,0,0,0,0,0,0,0,0,0,0,0,0,0,0,0,0,0,0,0,0,0,0,0,0,0,0,0,0,0,0,0,0,0,0,0,0,0,0,0,0,0,0,0,0,0,0,0,0,0,0,0,0,0,0,0,0,0,0,0,0,0,0,0,0,0,0,0,0,0,0,0,0,0,0,0,0,0,0,0,0,0,0,0,0,0,0,0,0,0,0,0,0,0,0,0,0,0,0,0,0,0],"sum_hessian":[5.99897E5,2.58086E5,3.41811E5,6.6105E4,1.91981E5,1.65932E5,1.75879E5,1.6465E4,4.964E4,1.09835E5,8.2146E4,3.4845E4,1.31087E5,9.6253E4,7.9626E4,1.1529E4,4.936E3,3.4223E4,1.5417E4,6.6623E4,4.3212E4,3.7037E4,4.5109E4,2.6252E4,8.593E3,1.29094E5,1.993E3,9.3353E4,2.9E3,7.814E3,7.1812E4,4.984E3,6.545E3,1.972E3,2.964E3,1.9795E4,1.4428E4,2.06E3,1.3357E4,6.0659E4,5.964E3,1.3312E4,2.99E4,3.0355E4,6.682E3,4.1573E4,3.536E3,6.66E3,1.9592E4,3.9E3,4.693E3,1.28257E5,8.37E2,1.558E3,4.35E2,1.3165E4,8.0188E4,2.303E3,5.97E2,2.427E3,5.387E3,1.3859E4,5.7953E4,4.654E3,3.3E2,3.568E3,2.977E3,1.869E3,1.03E2,2.844E3,1.2E2,3.87E3,1.5925E4,4.62E3,9.808E3,1.66E2,1.894E3,7.373E3,5.984E3,2.1694E4,3.8965E4,8.97E2,5.067E3,2.993E3,1.0319E4,2.1577E4,8.323E3,4.984E3,2.5371E4,1.044E3,5.638E3,1.5769E4,2.5804E4,3.272E3,2.64E2,1.664E3,4.996E3,4.43E2,1.9149E4,7.95E2,3.105E3,7.5E1,4.618E3,4.6719E4,8.1538E4,2.05E2,6.32E2,6.3E1,1.495E3,2.9E1,4.06E2,2.725E3,1.044E4,2.6504E4,5.3684E4,4.63E2,1.84E3,1.04E2,4.93E2,2.407E3,2E1,1.803E3,3.584E3,1.56E3,1.2299E4,3.6748E4,2.1205E4],"tree_param":{"num_deleted":"0","num_feature":"4","num_nodes":"127","size_leaf_vector":"1"}},{"base_weights":[3.8449036E-7,5.098867E-2,-3.0914549E-2,-2.9191647E-3,7.275066E-2,-1.4536369E-2,-4.9313657E-2,-3.2422215E-2,7.362641E-3,4.649363E-2,1.0292023E-1,-3.2102227E-2,-5.632956E-4,-4.0789932E-2,-5.9616614E-2,-3.8190927E-2,2.2107547E-3,4.3556434E-3,6.5575115E-2,3.6411196E-2,1.1905648E-1,1.439805E-1,8.043725E-2,-3.5107616E-2,1.2021751E-1,9.399202E-3,-3.6669895E-2,-4.4358023E-2,7.404507E-2,-2.9201142E-2,-6.2925726E-2,-3.0099753E-2,-5.4132137E-2,-1.7845635E-3,1.08635314E-1,5.451257E-2,1.7944315E-3,9.056633E-2,1.0982242E-2,9.0075746E-2,2.0177562E-2,1.93931E-1,8.1900336E-2,1.2188547E-1,1.6483408E-1,9.576556E-2,5.2516386E-2,7.757327E-3,-3.8045444E-2,1.4363311E-1,-3.9821606E-2,-1.1540249E-2,4.164895E-2,-1.1698212E-2,-4.578278E-2,-2.3564933E-2,-4.7563136E-2,1.0608713E-1,-4.722443E-2,-4.641382E-2,-2.296662E-2,-7.00295E-2,-5.6791306E-2,-5.3433008E-3,-1.5074606E-3,-8.506797E-3,-3.4356273E-3,-1.4555078E-3,2.008423E-3,1.5155931E-2,3.0123477E-3,1.2874398E-4,8.720928E-3,5.3261756E-4,-3.4079924E-3,6.130275E-3,1.5018227E-2,8.014067E-3,3.2473265E-4,-5.9297035E-4,1.1258165E-2,-4.6793954E-3,2.695119E-3,8.466197E-3,2.1659516E-2,1.6828595E-2,6.5268213E-3,9.760787E-3,1.36555275E-2,1.5121341E-2,2.0644432E-2,7.727728E-3,1.3075704E-2,3.0670671E-3,7.153061E-3,-2.3102283E-3,3.0548908E-3,-4.2011836E-3,-1.1411946E-3,-4.1139023E-3,1.5837476E-2,-4.195533E-3,5.903952E-3,3.7531173E-4,-2.7068327E-3,-1.3614622E-3,5.1636375E-3,2.0594486E-4,-6.4220503E-3,-3.180618E-3,-5.938714E-3,-4.263585E-3,-1.7614078E-3,-6.7310506E-3,-4.5025037E-3,-5.137704E-3,1.4634268E-2,-1.4499118E-4,-5.7128635E-3,-4.7451193E-3,5.740919E-3,-4.5248817E-4,-3.4045835E-3,-5.2395877E-3,-7.1997973E-3,-4.6163076E-3,-6.9079013E-3],"categories":[],"categories_nodes":[],"categories_segments":[],"categories_sizes":[],"default_left":[0,0,0,0,0,0,0,0,0,0,0,0,0,0,0,0,0,0,0,0,0,0,0,0,0,0,0,0,0,0,0,0,0,0,0,0,0,0,0,0,0,0,0,0,0,0,0,0,0,0,0,0,0,0,0,0,0,0,0,0,0,0,0,0,0,0,0,0,0,0,0,0,0,0,0,0,0,0,0,0,0,0,0,0,0,0,0,0,0,0,0,0,0,0,0,0,0,0,0,0,0,0,0,0,0,0,0,0,0,0,0,0,0,0,0,0,0,0,0,0,0,0,0,0,0,0,0],"id":2,"left_children":[1,3,5,7,9,11,13,15,17,19,21,23,25,27,29,31,33,35,37,39,41,43,45,47,49,51,53,55,57,59,61,63,65,67,69,71,73,75,77,79,81,83,85,87,89,91,93,95,97,99,101,103,105,107,109,111,113,115,117,119,121,123,125,-1,-1,-1,-1,-1,-1,-1,-1,-1,-1,-1,-1,-1,-1,-1,-1,-1,-1,-1,-1,-1,-1,-1,-1,-1,-1,-1,-1,-1,-1,-1,-1,-1,-1,-1,-1,-1,-1,-1,-1,-1,-1,-1,-1,-1,-1,-1,-1,-1,-1,-1,-1,-1,-1,-1,-1,-1,-1,-1,-1,-1,-1,-1,-1],"loss_changes":[9.456205E2,2.6564166E2,1.125401E2,1.9754646E1,1.2778308E2,4.8496796E1,1.5443237E1,3.3625126E0,8.453151E0,6.3098495E1,6.92843E1,4.0077354E1,3.9585564E1,3.944255E1,8.012512E0,1.8592091E0,1.0223746E0,5.8991575E0,3.2352247E0,6.597282E1,2.925682E1,1.2216797E1,2.0755005E1,1.0810738E1,6.353838E0,5.8244415E1,5.4150352E0,6.2203827E0,1.1277499E1,8.3758354E-1,3.1254578E0,3.3549995E0,2.9678936E0,6.476535E-1,2.886281E-1,3.8824663E0,5.5359163E0,2.8292189E0,3.98801E-1,3.800287E1,2.6377714E1,8.622131E0,1.0095303E1,4.580612E0,7.710724E0,2.0247925E1,7.139839E0,3.8739953E0,8.486435E0,4.0323544E0,4.82516E-2,1.2419176E1,1.8741852E1,4.5986557E0,3.3132477E0,1.4144483E0,4.050995E0,1.455508E1,2.751068E-1,2.2642279E-1,1.1724381E0,1.1511688E0,5.030121E0,0E0,0E0,0E0,0E0,0E0,0E0,0E0,0E0,0E0,0E0,0E0,0E0,0E0,0E0,0E0,0E0,0E0,0E0,0E0,0E0,0E0,0E0,0E0,0E0,0E0,0E0,0E0,0E0,0E0,0E0,0E0,0E0,0E0,0E0,0E0,0E0,0E0,0E0,0E0,0E0,0E0,0E0,0E0,0E0,0E0,0E0,0E0,0E0,0E0,0E0,0E0,0E0,0E0,0E0,0E0,0E0,0E0,0E0,0E0,0E0,0E0,0E0,0E0,0E0],"parents":[2147483647,0,0,1,1,2,2,3,3,4,4,5,5,6,6,7,7,8,8,9,9,10,10,11,11,12,12,13,13,14,14,15,15,16,16,17,17,18,18,19,19,20,20,21,21,22,22,23,23,24,24,25,25,26,26,27,27,28,28,29,29,30,30,31,31,32,32,33,33,34,34,35,35,36,36,37,37,38,38,39,39,40,40,41,41,42,42,43,43,44,44,45,45,46,46,47,47,48,48,49,49,50,50,51,51,52,52,53,53,54,54,55,55,56,56,57,57,58,58,59,59,60,60,61,61,62,62],"right_children":[2,4,6,8,10,12,14,16,18,20,22,24,26,28,30,32,34,36,38,40,42,44,46,48,50,52,54,56,58,60,62,64,66,68,70,72,74,76,78,80,82,84,86,88,90,92,94,96,98,100,102,104,106,108,110,112,114,116,118,120,122,124,126,-1,-1,-1,-1,-1,-1,-1,-1,-1,-1,-1,-1,-1,-1,-1,-1,-1,-1,-1,-1,-1,-1,-1,-1,-1,-1,-1,-1,-1,-1,-1,-1,-1,-1,-1,-1,-1,-1,-1,-1,-1,-1,-1,-1,-1,-1,-1,-1,-1,-1,-1,-1,-1,-1,-1,-1,-1,-1,-1,-1,-1,-1,-1,-1],"split_conditions":[6.3326335E-1,1.0109345E-2,8.19982E-1,1.060106E-1,4.4959998E-1,3.3499998E-1,9.236924E-1,5.364143E-3,6.0499996E-1,7.488251E-1,3.339334E-1,8.190819E-1,7.298999E-1,9.224922E-1,9.7975016E-2,7.4600005E-1,4.6049997E-1,1.8871886E-1,5.0295025E-1,8.55999E-2,4.5954594E-1,5.8849996E-1,5.5575556E-1,8.667493E-2,9.490406E-3,1.2624991E-1,4.5759997E-1,1.0070002E-1,2.1429999E-1,7.562494E-2,1.237879E-2,6.451874E-1,7.497499E-1,5.8509374E-1,8.080808E-2,1.8568184E-3,7.483499E-1,8.046214E-3,9.350002E-2,7.562494E-2,1.0701071E-2,1.6092427E-2,7.493248E-1,2.0631315E-2,1.4625001E-1,1.8748116E-1,2.6614398E-2,7.649994E-2,7.4907494E-1,9.284093E-3,3.208E-1,7.391739E-1,7.6335873E-3,7.601249E-1,7.349735E-1,7.649994E-2,4.951516E-3,2.1299998E-1,1.0380006E-1,6.9940165E-2,7.8750014E-2,1.099E-1,7.395749E-1,-5.3433008E-3,-1.5074606E-3,-8.506797E-3,-3.4356273E-3,-1.4555078E-3,2.008423E-3,1.5155931E-2,3.0123477E-3,1.2874398E-4,8.720928E-3,5.3261756E-4,-3.4079924E-3,6.130275E-3,1.5018227E-2,8.014067E-3,3.2473265E-4,-5.9297035E-4,1.1258165E-2,-4.6793954E-3,2.695119E-3,8.466197E-3,2.1659516E-2,1.6828595E-2,6.5268213E-3,9.760787E-3,1.36555275E-2,1.5121341E-2,2.0644432E-2,7.727728E-3,1.3075704E-2,3.0670671E-3,7.153061E-3,-2.3102283E-3,3.0548908E-3,-4.2011836E-3,-1.1411946E-3,-4.1139023E-3,1.5837476E-2,-4.195533E-3,5.903952E-3,3.7531173E-4,-2.7068327E-3,-1.3614622E-3,5.1636375E-3,2.0594486E-4,-6.4220503E-3,-3.180618E-3,-5.938714E-3,-4.263585E-3,-1.7614078E-3,-6.7310506E-3,-4.5025037E-3,-5.137704E-3,1.4634268E-2,-1.4499118E-4,-5.7128635E-3,-4.7451193E-3,5.740919E-3,-4.5248817E-4,-3.4045835E-3,-5.2395877E-3,-7.1997973E-3,-4.6163076E-3,-6.9079013E-3],"split_indices":[0,1,0,0,2,2,0,1,2,3,0,0,3,0,3,3,2,0,0,3,0,2,0,3,1,3,2,3,2,3,1,3,3,3,0,1,3,1,3,3,0,1,3,1,3,3,1,3,3,1,2,0,1,3,0,3,1,2,3,1,3,3,3,0,0,0,0,0,0,0,0,0,0,0,0,0,0,0,0,0,0,0,0,0,0,0,0,0,0,0,0,0,0,0,0,0,0,0,0,0,0,0,0,0,0,0,0,0,0,0,0,0,0,0,0,0,0,0,0,0,0,0,0,0,0,0,0],"split_type":[0,0,0,0,0,0,0,0,0,0,0,0,0,0,0,0,0,0,0,0,0,0,0,0,0,0,0,0,0,0,0,0,0,0,0,0,0,0,0,0,0,0,0,0,0,0,0,0,0,0,0,0,0,0,0,0,0,0,0,0,0,0,0,0,0,0,0,0,0,0,0,0,0,0,0,0,0,0,0,0,0,0,0,0,0,0,0,0,0,0,0,0,0,0,0,0,0,0,0,0,0,0,0,0,0,0,0,0,0,0,0,0,0,0,0,0,0,0,0,0,0,0,0,0,0,0,0],"sum_hessian":[5.99897E5,2.26435E5,3.73462E5,6.5121E4,1.61314E5,1.97583E5,1.75879E5,1.6829E4,4.8292E4,8.6251E4,7.5063E4,8.7537E4,1.10046E5,9.6253E4,7.9626E4,1.4426E4,2.403E3,4.5921E4,2.371E3,7.573E4,1.0521E4,2.6557E4,4.8506E4,8.5844E4,1.693E3,8.6249E4,2.3797E4,9.3353E4,2.9E3,7.814E3,7.1812E4,9.571E3,4.855E3,2.317E3,8.6E1,2.23E3,4.3691E4,1.626E3,7.45E2,1.7587E4,5.8143E4,3.488E3,7.033E3,1.2898E4,1.3659E4,3.1313E4,1.7193E4,5.506E3,8.0338E4,1.477E3,2.16E2,5.2295E4,3.3954E4,6.363E3,1.7434E4,1.2469E4,8.0884E4,2.294E3,6.06E2,2.076E3,5.738E3,3.3272E4,3.854E4,3.748E3,5.823E3,1.892E3,2.963E3,1.463E3,8.54E2,5.5E1,3.1E1,8.49E2,1.381E3,3.9776E4,3.915E3,1.092E3,5.34E2,7.4E1,6.71E2,3.34E3,1.4247E4,5.34E3,5.2803E4,6E2,2.888E3,1.134E3,5.899E3,4.861E3,8.037E3,1.0294E4,3.365E3,2.049E4,1.0823E4,8.002E3,9.191E3,2.339E3,3.167E3,6.9924E4,1.0414E4,1.09E2,1.368E3,2.12E2,4E0,2.6347E4,2.5948E4,5.197E3,2.8757E4,5.043E3,1.32E3,8.601E3,8.833E3,2.964E3,9.505E3,9.209E3,7.1675E4,4.67E2,1.827E3,1.08E2,4.98E2,2.056E3,2E1,2.154E3,3.584E3,3.344E3,2.9928E4,2.0668E4,1.7872E4],"tree_param":{"num_deleted":"0","num_feature":"4","num_nodes":"127","size_leaf_vector":"1"}},{"base_weights":[5.836917E-7,4.1245874E-2,-3.1141896E-2,-7.379652E-3,5.7989098E-2,-1.733761E-2,-4.461427E-2,-3.0042708E-2,1.3786902E-4,9.013458E-2,3.461801E-2,-4.3004148E-2,-1.0556353E-2,-3.69026E-2,-5.365529E-2,-2.2290561E-2,-4.814119E-2,1.0701358E-2,-1.7790511E-2,-3.806212E-2,9.9814884E-2,1.2771184E-2,5.3435724E-2,-4.7876675E-2,-2.8281726E-2,-1.1861533E-2,1.4617425E-1,-4.022284E-2,6.664182E-2,-2.4731345E-2,-5.6490388E-2,-3.8488902E-2,-9.951573E-3,-7.409444E-2,-3.0854879E-2,1.8868594E-3,3.6713142E-2,1.4479018E-2,-2.2707006E-2,-4.5723822E-2,2.0442478E-1,1.3815121E-1,8.2207724E-2,2.0462512E-3,6.5961994E-2,6.992112E-2,3.35376E-2,-3.4621473E-2,-5.2092966E-2,-4.0643487E-2,-1.82436E-2,-4.346697E-3,-3.237121E-2,4.774558E-2,1.8740977E-1,-3.7410848E-2,-6.126049E-2,9.5482565E-2,-4.2511635E-2,-4.053266E-2,-1.653354E-2,-5.3764906E-2,-7.0635855E-2,-4.3034162E-3,2.5549377E-3,-2.5570414E-3,1.8700799E-3,-7.905537E-3,-3.520218E-3,-1.1761093E-3,-3.2701276E-3,4.5817993E-3,-4.269817E-4,6.7865825E-3,2.4153802E-3,-3.1231474E-3,2.815517E-3,-3.6673096E-3,-8.331751E-4,-6.896719E-3,-1.2375425E-3,1.2229687E-2,2.8329644E-2,1.2802382E-2,1.5653098E-2,7.4370257E-3,1.7236242E-2,5.309634E-4,-8.19591E-3,1.08251E-2,2.3530128E-3,5.227582E-3,8.468281E-3,4.467927E-3,-3.585858E-4,-7.9570117E-4,-4.3441434E-3,-1.3695458E-3,-5.299919E-3,-6.756318E-4,-4.9242796E-3,1.0426184E-2,-2.0191646E-3,-2.0687066E-3,2.365856E-3,-2.4224692E-3,-4.776219E-3,7.8241285E-3,-1.5687088E-3,1.3981879E-2,2.3077777E-2,-4.785649E-3,-3.1269714E-3,-4.4832923E-3,-7.245298E-3,-4.6250313E-3,1.3171643E-2,-1.3062544E-4,-5.142722E-3,-4.633458E-3,-2.7389026E-3,-2.9156671E-3,2.319259E-4,-6.0062115E-3,-4.3030432E-3,-5.4619564E-3,-8.06543E-3],"categories":[],"categories_nodes":[],"categories_segments":[],"categories_sizes":[],"default_left":[0,0,0,0,0,0,0,0,0,0,0,0,0,0,0,0,0,0,0,0,0,0,0,0,0,0,0,0,0,0,0,0,0,0,0,0,0,0,0,0,0,0,0,0,0,0,0,0,0,0,0,0,0,0,0,0,0,0,0,0,0,0,0,0,0,0,0,0,0,0,0,0,0,0,0,0,0,0,0,0,0,0,0,0,0,0,0,0,0,0,0,0,0,0,0,0,0,0,0,0,0,0,0,0,0,0,0,0,0,0,0,0,0,0,0,0,0,0,0,0,0,0,0,0,0,0,0],"id":3,"left_children":[1,3,5,7,9,11,13,15,17,19,21,23,25,27,29,31,33,35,37,39,41,43,45,47,49,51,53,55,57,59,61,63,65,67,69,71,73,75,77,79,81,83,85,87,89,91,93,95,97,99,101,103,105,107,109,111,113,115,117,119,121,123,125,-1,-1,-1,-1,-1,-1,-1,-1,-1,-1,-1,-1,-1,-1,-1,-1,-1,-1,-1,-1,-1,-1,-1,-1,-1,-1,-1,-1,-1,-1,-1,-1,-1,-1,-1,-1,-1,-1,-1,-1,-1,-1,-1,-1,-1,-1,-1,-1,-1,-1,-1,-1,-1,-1,-1,-1,-1,-1,-1,-1,-1,-1,-1,-1],"loss_changes":[7.705586E2,2.1012152E2,6.3568237E1,1.1262483E1,1.4422815E2,2.9384293E1,1.2058746E1,2.3091412E0,9.401513E0,1.00298706E2,4.5699646E1,2.529686E0,2.7320131E1,3.2098785E1,6.5281982E0,2.304131E0,2.2126293E0,7.1619773E0,2.9203362E0,1.05527115E1,5.071106E1,2.9346443E1,1.958818E1,1.4796677E0,1.088263E0,2.0413038E1,4.467861E0,5.34906E0,9.136602E0,9.203315E-1,2.7920074E0,1.4520869E0,2.9299235E0,3.7788963E-1,1.04145765E-1,6.3107963E0,3.0916405E0,1.5224787E0,3.2063313E0,4.2639055E0,1.0924497E0,4.3819885E0,3.6374176E1,1.1736985E1,1.5486725E1,8.50293E0,1.119347E1,1.5048032E0,6.990051E-1,1.1454763E0,1.158345E0,4.4357227E1,4.4518166E0,6.33784E-1,1.5714073E0,5.117256E0,1.957489E0,1.17921295E1,2.2292638E-1,1.8388629E-1,1.114534E0,4.1078186E0,1.8748817E0,0E0,0E0,0E0,0E0,0E0,0E0,0E0,0E0,0E0,0E0,0E0,0E0,0E0,0E0,0E0,0E0,0E0,0E0,0E0,0E0,0E0,0E0,0E0,0E0,0E0,0E0,0E0,0E0,0E0,0E0,0E0,0E0,0E0,0E0,0E0,0E0,0E0,0E0,0E0,0E0,0E0,0E0,0E0,0E0,0E0,0E0,0E0,0E0,0E0,0E0,0E0,0E0,0E0,0E0,0E0,0E0,0E0,0E0,0E0,0E0,0E0,0E0,0E0,0E0],"parents":[2147483647,0,0,1,1,2,2,3,3,4,4,5,5,6,6,7,7,8,8,9,9,10,10,11,11,12,12,13,13,14,14,15,15,16,16,17,17,18,18,19,19,20,20,21,21,22,22,23,23,24,24,25,25,26,26,27,27,28,28,29,29,30,30,31,31,32,32,33,33,34,34,35,35,36,36,37,37,38,38,39,39,40,40,41,41,42,42,43,43,44,44,45,45,46,46,47,47,48,48,49,49,50,50,51,51,52,52,53,53,54,54,55,55,56,56,57,57,58,58,59,59,60,60,61,61,62,62],"right_children":[2,4,6,8,10,12,14,16,18,20,22,24,26,28,30,32,34,36,38,40,42,44,46,48,50,52,54,56,58,60,62,64,66,68,70,72,74,76,78,80,82,84,86,88,90,92,94,96,98,100,102,104,106,108,110,112,114,116,118,120,122,124,126,-1,-1,-1,-1,-1,-1,-1,-1,-1,-1,-1,-1,-1,-1,-1,-1,-1,-1,-1,-1,-1,-1,-1,-1,-1,-1,-1,-1,-1,-1,-1,-1,-1,-1,-1,-1,-1,-1,-1,-1,-1,-1,-1,-1,-1,-1,-1,-1,-1,-1,-1,-1,-1,-1,-1,-1,-1,-1,-1,-1,-1,-1,-1,-1],"split_conditions":[6.7116714E-1,9.077779E-3,8.2208216E-1,1.060106E-1,4.2554256E-1,6.602022E-3,9.236924E-1,7.4600005E-1,5.3245324E-1,1.0701071E-2,3.9119998E-1,3.49E-1,8.119E-1,9.224922E-1,9.592497E-2,5.8509374E-1,7.497499E-1,6.602022E-3,1.237879E-3,1.025E-1,2.2202219E-1,7.4907494E-1,5.9275925E-1,7.449745E-1,4.3325764E-3,7.039499E-1,7.749775E-1,7.4967504E-1,2.1429999E-1,7.649994E-2,7.4962497E-1,1.0649999E-1,1.0315658E-3,2.6820714E-3,7.527251E-1,1.0315658E-3,1.09375E-1,5.586748E-1,1.518E-1,4.0666246E-1,1.3410357E-2,5.9275E-1,7.4907494E-1,7.483499E-1,5.687569E-1,1.2624991E-1,7.205374E-1,1.0315658E-3,1.0517502E-1,3.5145E-1,3.5145E-1,1.2624991E-1,4.994E-1,6.93825E-1,9.2300004E-1,1.432E-1,4.5347998E-1,2.1299998E-1,1.0380006E-1,4.68E-1,2.4551267E-2,1.6092427E-2,4.3906665E-1,-4.3034162E-3,2.5549377E-3,-2.5570414E-3,1.8700799E-3,-7.905537E-3,-3.520218E-3,-1.1761093E-3,-3.2701276E-3,4.5817993E-3,-4.269817E-4,6.7865825E-3,2.4153802E-3,-3.1231474E-3,2.815517E-3,-3.6673096E-3,-8.331751E-4,-6.896719E-3,-1.2375425E-3,1.2229687E-2,2.8329644E-2,1.2802382E-2,1.5653098E-2,7.4370257E-3,1.7236242E-2,5.309634E-4,-8.19591E-3,1.08251E-2,2.3530128E-3,5.227582E-3,8.468281E-3,4.467927E-3,-3.585858E-4,-7.9570117E-4,-4.3441434E-3,-1.3695458E-3,-5.299919E-3,-6.756318E-4,-4.9242796E-3,1.0426184E-2,-2.0191646E-3,-2.0687066E-3,2.365856E-3,-2.4224692E-3,-4.776219E-3,7.8241285E-3,-1.5687088E-3,1.3981879E-2,2.3077777E-2,-4.785649E-3,-3.1269714E-3,-4.4832923E-3,-7.245298E-3,-4.6250313E-3,1.3171643E-2,-1.3062544E-4,-5.142722E-3,-4.633458E-3,-2.7389026E-3,-2.9156671E-3,2.319259E-4,-6.0062115E-3,-4.3030432E-3,-5.4619564E-3,-8.06543E-3],"split_indices":[0,1,0,0,0,1,0,3,0,0,2,2,2,0,3,3,3,1,1,2,0,3,0,0,1,3,0,3,2,3,3,2,1,1,3,1,3,3,2,3,1,2,3,3,0,3,3,1,3,2,2,3,2,3,2,2,2,2,3,2,1,1,2,0,0,0,0,0,0,0,0,0,0,0,0,0,0,0,0,0,0,0,0,0,0,0,0,0,0,0,0,0,0,0,0,0,0,0,0,0,0,0,0,0,0,0,0,0,0,0,0,0,0,0,0,0,0,0,0,0,0,0,0,0,0,0,0],"split_type":[0,0,0,0,0,0,0,0,0,0,0,0,0,0,0,0,0,0,0,0,0,0,0,0,0,0,0,0,0,0,0,0,0,0,0,0,0,0,0,0,0,0,0,0,0,0,0,0,0,0,0,0,0,0,0,0,0,0,0,0,0,0,0,0,0,0,0,0,0,0,0,0,0,0,0,0,0,0,0,0,0,0,0,0,0,0,0,0,0,0,0,0,0,0,0,0,0,0,0,0,0,0,0,0,0,0,0,0,0,0,0,0,0,0,0,0,0,0,0,0,0,0,0,0,0,0,0],"sum_hessian":[5.99897E5,2.58086E5,3.41811E5,6.6105E4,1.91981E5,1.68827E5,1.72984E5,1.6465E4,4.964E4,8.0818E4,1.11163E5,3.5282E4,1.33545E5,9.3358E4,7.9626E4,1.1529E4,4.936E3,3.1236E4,1.8404E4,5.674E3,7.5144E4,5.1442E4,5.9721E4,2.6507E4,8.775E3,1.32443E5,1.102E3,9.0458E4,2.9E3,7.109E3,7.2517E4,4.984E3,6.545E3,1.972E3,2.964E3,2.3331E4,7.905E3,2.433E3,1.5971E4,5.501E3,1.73E2,2.3648E4,5.1496E4,4.2811E4,8.631E3,3.266E4,2.7061E4,6.399E3,2.0108E4,3.931E3,4.844E3,9.6929E4,3.5514E4,3.26E2,7.76E2,7.9795E4,1.0663E4,2.294E3,6.06E2,2.427E3,4.682E3,6.0806E4,1.1711E4,4.654E3,3.3E2,4.236E3,2.309E3,1.748E3,2.24E2,2.62E2,2.702E3,2.867E3,2.0464E4,2.27E3,5.635E3,5.6E2,1.873E3,8.1E3,7.871E3,3.241E3,2.26E3,8.6E1,8.7E1,1.5252E4,8.396E3,4.7379E4,4.117E3,4.1211E4,1.6E3,4.322E3,4.309E3,1.4879E4,1.7781E4,2.0814E4,6.247E3,1.591E3,4.808E3,4.64E2,1.9644E4,7.96E2,3.135E3,7.5E1,4.769E3,6.1213E4,3.5716E4,2.3224E4,1.229E4,2.2E2,1.06E2,3.72E2,4.04E2,2.9541E4,5.0254E4,4.323E3,6.34E3,4.67E2,1.827E3,1.08E2,4.98E2,1.682E3,7.45E2,2.804E3,1.878E3,3.8321E4,2.2485E4,4.509E3,7.202E3],"tree_param":{"num_deleted":"0","num_feature":"4","num_nodes":"127","size_leaf_vector":"1"}},{"base_weights":[6.531371E-7,4.4837397E-2,-2.3356682E-2,4.4090557E-3,6.727032E-2,-6.883515E-4,-3.3594314E-2,-1.46331005E-2,2.3538545E-2,4.6206478E-2,9.643978E-2,-1.9460019E-2,1.2922542E-2,-3.4459166E-2,1.05104715E-1,-2.9195415E-2,-1.7889965E-3,1.8083679E-2,8.671833E-2,3.606438E-2,1.19138494E-1,1.253273E-1,7.863054E-2,1.2968491E-2,-2.2669705E-2,2.2469556E-2,-1.906667E-2,-2.8639859E-2,-4.8393697E-2,6.828519E-2,1.8470587E-1,-1.9837389E-2,-4.6947766E-2,-1.4996756E-2,4.7153343E-2,4.3401435E-2,9.853252E-3,1.0658441E-1,2.5890857E-2,8.243047E-2,2.0534499E-2,2.1438292E-1,9.9729255E-2,1.6685985E-1,1.18685156E-1,6.701218E-2,9.973915E-2,-1.8904617E-2,3.3335723E-2,-2.7506217E-2,4.5005954E-3,4.574878E-3,4.9137298E-2,5.929455E-5,-3.3712704E-2,-3.00102E-2,5.997876E-2,-2.3590527E-2,-5.1092535E-2,8.613965E-2,-1.1371359E-2,6.275137E-2,1.9530156E-1,-3.7303192E-3,-8.747526E-4,-7.76631E-3,-2.3911013E-3,7.0646196E-3,-2.2671642E-3,1.037434E-2,-2.0833728E-3,6.4177173E-3,2.872548E-3,-1.3096243E-3,2.1259156E-3,7.220765E-3,1.20660495E-2,8.175216E-3,1.8448839E-3,1.5836699E-3,1.0308719E-2,-4.0756254E-3,2.7026422E-3,1.2961313E-2,2.6561162E-2,-6.745435E-3,1.2754485E-2,1.4798999E-2,2.1103049E-2,1.2547453E-2,9.318386E-3,9.194582E-3,5.9599387E-3,1.3576577E-2,6.962585E-3,-4.210102E-3,-1.5837612E-3,5.1499372E-3,3.2358497E-4,-2.5565114E-3,-7.4620866E-3,1.5415452E-2,-2.3847671E-4,2.3437382E-3,-1.3957171E-4,2.454342E-3,9.911831E-3,1.3221771E-3,-5.0246282E-3,-2.0003298E-3,-5.105249E-3,-5.004775E-3,-2.621913E-3,8.570579E-3,-3.924372E-3,-3.5933617E-3,-1.6233827E-3,-6.5385923E-3,-4.8564137E-3,1.2978695E-3,1.0340474E-2,-3.9108304E-6,-7.511405E-3,-2.4065589E-4,9.6536735E-3,1.2825349E-2,2.0455783E-2],"categories":[],"categories_nodes":[],"categories_segments":[],"categories_sizes":[],"default_left":[0,0,0,0,0,0,0,0,0,0,0,0,0,0,0,0,0,0,0,0,0,0,0,0,0,0,0,0,0,0,0,0,0,0,0,0,0,0,0,0,0,0,0,0,0,0,0,0,0,0,0,0,0,0,0,0,0,0,0,0,0,0,0,0,0,0,0,0,0,0,0,0,0,0,0,0,0,0,0,0,0,0,0,0,0,0,0,0,0,0,0,0,0,0,0,0,0,0,0,0,0,0,0,0,0,0,0,0,0,0,0,0,0,0,0,0,0,0,0,0,0,0,0,0,0,0,0],"id":4,"left_children":[1,3,5,7,9,11,13,15,17,19,21,23,25,27,29,31,33,35,37,39,41,43,45,47,49,51,53,55,57,59,61,63,65,67,69,71,73,75,77,79,81,83,85,87,89,91,93,95,97,99,101,103,105,107,109,111,113,115,117,119,121,123,125,-1,-1,-1,-1,-1,-1,-1,-1,-1,-1,-1,-1,-1,-1,-1,-1,-1,-1,-1,-1,-1,-1,-1,-1,-1,-1,-1,-1,-1,-1,-1,-1,-1,-1,-1,-1,-1,-1,-1,-1,-1,-1,-1,-1,-1,-1,-1,-1,-1,-1,-1,-1,-1,-1,-1,-1,-1,-1,-1,-1,-1,-1,-1,-1],"loss_changes":[6.282543E2,1.8634854E2,9.153441E1,2.671093E1,8.118945E1,3.1353577E1,3.259665E1,6.8732896E0,1.2605261E1,5.675682E1,2.8497131E1,5.3689137E0,2.1725464E1,2.1895172E1,4.922985E0,2.8601065E0,1.2623324E1,7.016423E0,3.510069E0,4.8508736E1,1.7296509E1,5.8094788E0,8.400635E0,3.0166602E0,6.167692E0,2.6144238E1,4.5802374E0,2.3133728E1,5.323654E0,1.6408052E0,6.751919E-1,2.1843414E0,4.204008E0,1.0109559E1,1.5968837E1,2.5169659E0,6.6526394E0,1.0514908E0,2.9656354E-1,2.3250282E1,2.0082058E1,6.848671E0,3.620661E1,2.3950653E0,3.1430664E0,4.08181E0,1.3191391E1,1.2824523E-1,1.5497944E0,3.641819E0,7.309148E0,3.6925168E0,2.704055E1,4.696604E0,2.2002487E0,1.42482605E1,7.408742E0,7.084174E-1,2.5894623E0,1.1885266E0,1.5313488E-1,9.709321E-2,2.7724266E-1,0E0,0E0,0E0,0E0,0E0,0E0,0E0,0E0,0E0,0E0,0E0,0E0,0E0,0E0,0E0,0E0,0E0,0E0,0E0,0E0,0E0,0E0,0E0,0E0,0E0,0E0,0E0,0E0,0E0,0E0,0E0,0E0,0E0,0E0,0E0,0E0,0E0,0E0,0E0,0E0,0E0,0E0,0E0,0E0,0E0,0E0,0E0,0E0,0E0,0E0,0E0,0E0,0E0,0E0,0E0,0E0,0E0,0E0,0E0,0E0,0E0,0E0,0E0,0E0],"parents":[2147483647,0,0,1,1,2,2,3,3,4,4,5,5,6,6,7,7,8,8,9,9,10,10,11,11,12,12,13,13,14,14,15,15,16,16,17,17,18,18,19,19,20,20,21,21,22,22,23,23,24,24,25,25,26,26,27,27,28,28,29,29,30,30,31,31,32,32,33,33,34,34,35,35,36,36,37,37,38,38,39,39,40,40,41,41,42,42,43,43,44,44,45,45,46,46,47,47,48,48,49,49,50,50,51,51,52,52,53,53,54,54,55,55,56,56,57,57,58,58,59,59,60,60,61,61,62,62],"right_children":[2,4,6,8,10,12,14,16,18,20,22,24,26,28,30,32,34,36,38,40,42,44,46,48,50,52,54,56,58,60,62,64,66,68,70,72,74,76,78,80,82,84,86,88,90,92,94,96,98,100,102,104,106,108,110,112,114,116,118,120,122,124,126,-1,-1,-1,-1,-1,-1,-1,-1,-1,-1,-1,-1,-1,-1,-1,-1,-1,-1,-1,-1,-1,-1,-1,-1,-1,-1,-1,-1,-1,-1,-1,-1,-1,-1,-1,-1,-1,-1,-1,-1,-1,-1,-1,-1,-1,-1,-1,-1,-1,-1,-1,-1,-1,-1,-1,-1,-1,-1,-1,-1,-1,-1,-1,-1],"split_conditions":[6.0066E-1,1.25851035E-2,7.449745E-1,4.951516E-3,4.87E-1,3.49E-1,7.63E-1,2.0342034E-1,6.0499996E-1,7.488251E-1,3.1183118E-1,8.779991E-2,7.205374E-1,9.236924E-1,9.2300004E-1,7.4600005E-1,7.0974994E-1,1.09375E-1,5.0295025E-1,8.55999E-2,7.493248E-1,1.2561256E-1,1.6332495E-1,7.649994E-2,7.4907494E-1,1.2624991E-1,5.22E-1,9.224922E-1,9.7975016E-2,7.268748E-1,5.1578293E-3,5.586748E-1,7.4977493E-1,6.189395E-4,7.4927497E-1,3.6673668E-1,1.6332495E-1,8.046214E-3,9.350002E-2,7.649994E-2,1.0701071E-2,7.4927497E-1,7.494998E-1,6.974E-1,4.4769958E-2,8.987498E-2,4.8634863E-1,7.0249915E-2,7.8750014E-2,7.483499E-1,7.4917483E-1,9.1799855E-2,2.7027026E-2,7.562499E-1,7.4994993E-1,4.951516E-3,2.2662857E-1,1.432E-1,4.53889E-3,7.0146476E-3,7.5E-1,3.507324E-3,7.749775E-1,-3.7303192E-3,-8.747526E-4,-7.76631E-3,-2.3911013E-3,7.0646196E-3,-2.2671642E-3,1.037434E-2,-2.0833728E-3,6.4177173E-3,2.872548E-3,-1.3096243E-3,2.1259156E-3,7.220765E-3,1.20660495E-2,8.175216E-3,1.8448839E-3,1.5836699E-3,1.0308719E-2,-4.0756254E-3,2.7026422E-3,1.2961313E-2,2.6561162E-2,-6.745435E-3,1.2754485E-2,1.4798999E-2,2.1103049E-2,1.2547453E-2,9.318386E-3,9.194582E-3,5.9599387E-3,1.3576577E-2,6.962585E-3,-4.210102E-3,-1.5837612E-3,5.1499372E-3,3.2358497E-4,-2.5565114E-3,-7.4620866E-3,1.5415452E-2,-2.3847671E-4,2.3437382E-3,-1.3957171E-4,2.454342E-3,9.911831E-3,1.3221771E-3,-5.0246282E-3,-2.0003298E-3,-5.105249E-3,-5.004775E-3,-2.621913E-3,8.570579E-3,-3.924372E-3,-3.5933617E-3,-1.6233827E-3,-6.5385923E-3,-4.8564137E-3,1.2978695E-3,1.0340474E-2,-3.9108304E-6,-7.511405E-3,-2.4065589E-4,9.6536735E-3,1.2825349E-2,2.0455783E-2],"split_indices":[0,1,0,1,2,2,2,0,2,3,0,3,3,0,2,3,3,3,0,3,3,0,3,3,3,3,2,0,3,3,1,3,3,1,3,0,3,1,3,3,0,3,3,2,1,3,0,3,3,3,3,3,1,3,3,1,2,2,1,1,3,1,0,0,0,0,0,0,0,0,0,0,0,0,0,0,0,0,0,0,0,0,0,0,0,0,0,0,0,0,0,0,0,0,0,0,0,0,0,0,0,0,0,0,0,0,0,0,0,0,0,0,0,0,0,0,0,0,0,0,0,0,0,0,0,0,0],"split_type":[0,0,0,0,0,0,0,0,0,0,0,0,0,0,0,0,0,0,0,0,0,0,0,0,0,0,0,0,0,0,0,0,0,0,0,0,0,0,0,0,0,0,0,0,0,0,0,0,0,0,0,0,0,0,0,0,0,0,0,0,0,0,0,0,0,0,0,0,0,0,0,0,0,0,0,0,0,0,0,0,0,0,0,0,0,0,0,0,0,0,0,0,0,0,0,0,0,0,0,0,0,0,0,0,0,0,0,0,0,0,0,0,0,0,0,0,0,0,0,0,0,0,0,0,0,0,0],"sum_hessian":[5.99897E5,2.05472E5,3.94425E5,7.3326E4,1.32146E5,1.22713E5,2.71712E5,3.6747E4,3.6579E4,7.6736E4,5.541E4,5.1578E4,7.1135E4,2.70029E5,1.683E3,1.7221E4,1.9526E4,3.3673E4,2.906E3,6.7369E4,9.367E3,2.113E4,3.428E4,4.645E3,4.6933E4,5.4785E4,1.635E4,1.90483E5,7.9546E4,1.152E3,5.31E2,1.1278E4,5.943E3,1.5377E4,4.149E3,8.26E3,2.5413E4,2.19E3,7.16E2,1.6902E4,5.0467E4,1.584E3,7.783E3,2.91E3,1.822E4,2.2113E4,1.2167E4,1.811E3,2.834E3,3.9841E4,7.092E3,3.2786E4,2.1999E4,7.091E3,9.259E3,1.87583E5,2.9E3,7.807E3,7.1739E4,9.41E2,2.11E2,4.3E1,4.88E2,4.379E3,6.899E3,2.546E3,3.397E3,1.264E3,1.4113E4,2.264E3,1.885E3,3.418E3,4.842E3,8.437E3,1.6976E4,6.38E2,1.552E3,8.3E1,6.33E2,4.002E3,1.29E4,4.833E3,4.5634E4,5.98E2,9.86E2,1.11E3,6.673E3,2.042E3,8.68E2,1.4386E4,3.834E3,5.065E3,1.7048E4,5.538E3,6.629E3,2.1E2,1.601E3,1.767E3,1.067E3,3.8266E4,1.575E3,3.11E2,6.781E3,7.882E3,2.4904E4,1.4745E4,7.254E3,5.621E3,1.47E3,5.172E3,4.087E3,2.9842E4,1.57741E5,2.303E3,5.97E2,2.914E3,4.893E3,1.0779E4,6.096E4,1.8E2,7.61E2,1.8E2,3.1E1,1.5E1,2.8E1,6.1E1,4.27E2],"tree_param":{"num_deleted":"0","num_feature":"4","num_nodes":"127","size_leaf_vector":"1"}},{"base_weights":[9.605388E-7,4.113781E-2,-2.0689543E-2,-2.7003402E-3,5.8489665E-2,-3.3667742E-4,-3.0234782E-2,-2.4443848E-2,6.278172E-3,4.032583E-2,8.662708E-2,-1.7374048E-2,1.2157986E-2,-3.0958405E-2,1.0475502E-1,-2.837145E-2,1.1836088E-3,3.9738943E-3,5.9303034E-2,3.2557353E-2,9.922196E-2,1.1092027E-1,6.934112E-2,1.0850304E-2,-2.0190775E-2,2.0808365E-2,-1.650072E-2,-2.5706235E-2,-4.3544147E-2,6.8965316E-2,1.6631554E-1,-5.152293E-2,-2.4595803E-2,-1.9671323E-3,9.906775E-2,-1.3293014E-3,2.691753E-2,2.0967115E-2,7.7081166E-2,6.488099E-2,1.6018104E-2,2.745836E-2,1.2235382E-1,9.378056E-2,1.2364519E-1,5.907608E-2,8.710217E-2,-1.8568764E-2,2.9548237E-2,-2.3485571E-2,1.1693939E-2,4.3751206E-3,4.547041E-2,3.4463473E-4,-2.9476352E-2,-2.693713E-2,5.398249E-2,-1.9978506E-2,-4.5853905E-2,8.391023E-2,-5.7218256E-3,5.6690164E-2,1.7583947E-1,-7.721552E-3,-1.5862178E-3,-1.710557E-3,-4.128743E-3,-1.1943582E-3,1.399757E-3,1.3137159E-2,2.4083543E-3,9.4523927E-4,-2.1908777E-3,9.15875E-3,-2.1521251E-3,1.7489336E-2,8.797233E-4,9.453337E-3,2.7326846E-3,1.2599192E-2,4.6902727E-3,1.9051643E-3,-8.963519E-3,7.7370815E-3,-5.8958754E-3,2.2203267E-2,1.0724216E-2,7.7184597E-3,1.1435388E-2,1.1146072E-2,1.6113246E-2,7.97723E-3,5.1290835E-3,1.0024425E-2,1.7424937E-3,-2.2006538E-3,-1.5683708E-4,4.573266E-3,2.5719067E-4,5.742617E-4,-2.5537133E-3,-3.1837826E-3,2.800345E-3,2.1234208E-3,-1.0275501E-4,2.2898316E-3,9.087645E-3,1.2161954E-3,-4.5103254E-3,-3.1685678E-3,6.4284094E-3,-4.5017274E-3,-2.3518435E-3,-5.094729E-3,7.393058E-3,-3.4249276E-3,-1.2581242E-3,-4.346106E-3,-5.9211776E-3,5.4807565E-3,1.3498348E-2,3.0912408E-3,-3.0746118E-3,-2.180946E-4,8.721595E-3,1.7841367E-2,-2.689997E-3],"categories":[],"categories_nodes":[],"categories_segments":[],"categories_sizes":[],"default_left":[0,0,0,0,0,0,0,0,0,0,0,0,0,0,0,0,0,0,0,0,0,0,0,0,0,0,0,0,0,0,0,0,0,0,0,0,0,0,0,0,0,0,0,0,0,0,0,0,0,0,0,0,0,0,0,0,0,0,0,0,0,0,0,0,0,0,0,0,0,0,0,0,0,0,0,0,0,0,0,0,0,0,0,0,0,0,0,0,0,0,0,0,0,0,0,0,0,0,0,0,0,0,0,0,0,0,0,0,0,0,0,0,0,0,0,0,0,0,0,0,0,0,0,0,0,0,0],"id":5,"left_children":[1,3,5,7,9,11,13,15,17,19,21,23,25,27,29,31,33,35,37,39,41,43,45,47,49,51,53,55,57,59,61,63,65,67,69,71,73,75,77,79,81,83,85,87,89,91,93,95,97,99,101,103,105,107,109,111,113,115,117,119,121,123,125,-1,-1,-1,-1,-1,-1,-1,-1,-1,-1,-1,-1,-1,-1,-1,-1,-1,-1,-1,-1,-1,-1,-1,-1,-1,-1,-1,-1,-1,-1,-1,-1,-1,-1,-1,-1,-1,-1,-1,-1,-1,-1,-1,-1,-1,-1,-1,-1,-1,-1,-1,-1,-1,-1,-1,-1,-1,-1,-1,-1,-1,-1,-1,-1],"loss_changes":[5.105993E2,1.5270987E2,7.754268E1,1.1114276E1,7.350409E1,2.7127241E1,2.6544632E1,1.6747208E0,4.922925E0,3.998793E1,2.3685669E1,4.286476E0,1.8225845E1,1.7864044E1,3.181013E0,1.2598238E0,6.823924E-1,4.6986213E0,1.1420093E0,4.1282516E1,1.6904E1,5.1039734E0,6.0055237E0,2.6920695E0,5.150318E0,2.2886625E1,3.7259092E0,1.8706062E1,4.330429E0,1.025145E0,5.4547405E-1,1.8513656E0,1.550344E0,3.416443E-1,1.6397333E-1,6.959968E0,2.2712847E1,9.9691117E-1,9.9251366E-1,2.8711075E1,1.6374624E1,1.0718774E1,1.1577805E1,3.404831E0,6.1291504E0,3.3627777E0,1.1053551E1,1.1112499E-1,1.3061786E0,2.6644402E0,3.2611277E0,3.086953E0,2.3142422E1,3.98455E0,1.9966602E0,1.16064E1,6.0759897E0,7.496059E-1,2.3138275E0,1.129673E0,1.4212927E-1,7.926202E-2,2.600031E-1,0E0,0E0,0E0,0E0,0E0,0E0,0E0,0E0,0E0,0E0,0E0,0E0,0E0,0E0,0E0,0E0,0E0,0E0,0E0,0E0,0E0,0E0,0E0,0E0,0E0,0E0,0E0,0E0,0E0,0E0,0E0,0E0,0E0,0E0,0E0,0E0,0E0,0E0,0E0,0E0,0E0,0E0,0E0,0E0,0E0,0E0,0E0,0E0,0E0,0E0,0E0,0E0,0E0,0E0,0E0,0E0,0E0,0E0,0E0,0E0,0E0,0E0,0E0,0E0],"parents":[2147483647,0,0,1,1,2,2,3,3,4,4,5,5,6,6,7,7,8,8,9,9,10,10,11,11,12,12,13,13,14,14,15,15,16,16,17,17,18,18,19,19,20,20,21,21,22,22,23,23,24,24,25,25,26,26,27,27,28,28,29,29,30,30,31,31,32,32,33,33,34,34,35,35,36,36,37,37,38,38,39,39,40,40,41,41,42,42,43,43,44,44,45,45,46,46,47,47,48,48,49,49,50,50,51,51,52,52,53,53,54,54,55,55,56,56,57,57,58,58,59,59,60,60,61,61,62,62],"right_children":[2,4,6,8,10,12,14,16,18,20,22,24,26,28,30,32,34,36,38,40,42,44,46,48,50,52,54,56,58,60,62,64,66,68,70,72,74,76,78,80,82,84,86,88,90,92,94,96,98,100,102,104,106,108,110,112,114,116,118,120,122,124,126,-1,-1,-1,-1,-1,-1,-1,-1,-1,-1,-1,-1,-1,-1,-1,-1,-1,-1,-1,-1,-1,-1,-1,-1,-1,-1,-1,-1,-1,-1,-1,-1,-1,-1,-1,-1,-1,-1,-1,-1,-1,-1,-1,-1,-1,-1,-1,-1,-1,-1,-1,-1,-1,-1,-1,-1,-1,-1,-1,-1,-1,-1,-1,-1],"split_conditions":[5.9275925E-1,9.490406E-3,7.449745E-1,1.060106E-1,4.953333E-1,3.49E-1,7.8499997E-1,5.364143E-3,6.168E-1,7.488251E-1,3.270327E-1,8.779991E-2,7.0974994E-1,9.236924E-1,9.2300004E-1,3.30033E-3,4.6049997E-1,7.0974994E-1,4.745203E-3,9.7975016E-2,1.7123992E-2,5.8849996E-1,1.6332495E-1,7.649994E-2,7.4952483E-1,1.2624991E-1,5.22E-1,9.224922E-1,9.592497E-2,7.268748E-1,5.1578293E-3,6.189395E-4,9.10091E-3,5.8509374E-1,8.080808E-2,6.2462497E-1,7.4600005E-1,2.0342034E-1,5.0295025E-1,2.2202219E-1,7.483499E-1,7.4987507E-1,7.493248E-1,2.5582831E-2,1.4625001E-1,9.4375014E-2,7.4994993E-1,3.466061E-2,7.8750014E-2,1.0315658E-3,1.5267175E-2,9.1799855E-2,2.7027026E-2,7.562499E-1,7.6672506E-1,4.951516E-3,2.0533332E-1,7.649994E-2,7.4967504E-1,8.024802E-1,2.0425003E-2,3.507324E-3,2.991541E-2,-7.721552E-3,-1.5862178E-3,-1.710557E-3,-4.128743E-3,-1.1943582E-3,1.399757E-3,1.3137159E-2,2.4083543E-3,9.4523927E-4,-2.1908777E-3,9.15875E-3,-2.1521251E-3,1.7489336E-2,8.797233E-4,9.453337E-3,2.7326846E-3,1.2599192E-2,4.6902727E-3,1.9051643E-3,-8.963519E-3,7.7370815E-3,-5.8958754E-3,2.2203267E-2,1.0724216E-2,7.7184597E-3,1.1435388E-2,1.1146072E-2,1.6113246E-2,7.97723E-3,5.1290835E-3,1.0024425E-2,1.7424937E-3,-2.2006538E-3,-1.5683708E-4,4.573266E-3,2.5719067E-4,5.742617E-4,-2.5537133E-3,-3.1837826E-3,2.800345E-3,2.1234208E-3,-1.0275501E-4,2.2898316E-3,9.087645E-3,1.2161954E-3,-4.5103254E-3,-3.1685678E-3,6.4284094E-3,-4.5017274E-3,-2.3518435E-3,-5.094729E-3,7.393058E-3,-3.4249276E-3,-1.2581242E-3,-4.346106E-3,-5.9211776E-3,5.4807565E-3,1.3498348E-2,3.0912408E-3,-3.0746118E-3,-2.180946E-4,8.721595E-3,1.7841367E-2,-2.689997E-3],"split_indices":[0,1,0,0,2,2,2,1,2,3,0,3,3,0,2,0,2,3,1,3,1,2,3,3,3,3,2,0,3,3,1,1,0,3,0,3,3,0,0,0,3,3,3,1,3,3,3,1,3,1,1,3,1,3,3,1,2,3,3,0,1,1,1,0,0,0,0,0,0,0,0,0,0,0,0,0,0,0,0,0,0,0,0,0,0,0,0,0,0,0,0,0,0,0,0,0,0,0,0,0,0,0,0,0,0,0,0,0,0,0,0,0,0,0,0,0,0,0,0,0,0,0,0,0,0,0,0],"split_type":[0,0,0,0,0,0,0,0,0,0,0,0,0,0,0,0,0,0,0,0,0,0,0,0,0,0,0,0,0,0,0,0,0,0,0,0,0,0,0,0,0,0,0,0,0,0,0,0,0,0,0,0,0,0,0,0,0,0,0,0,0,0,0,0,0,0,0,0,0,0,0,0,0,0,0,0,0,0,0,0,0,0,0,0,0,0,0,0,0,0,0,0,0,0,0,0,0,0,0,0,0,0,0,0,0,0,0,0,0,0,0,0,0,0,0,0,0,0,0,0,0,0,0,0,0,0,0],"sum_hessian":[5.99897E5,2.00755E5,3.99142E5,5.6929E4,1.43826E5,1.2743E5,2.71712E5,1.6637E4,4.0292E4,8.7405E4,5.6421E4,5.3914E4,7.3516E4,2.70264E5,1.448E3,1.4426E4,2.211E3,3.8615E4,1.677E3,7.7221E4,1.0184E4,2.3454E4,3.2967E4,4.892E3,4.9022E4,5.6471E4,1.7045E4,1.9069E5,7.9574E4,9.17E2,5.31E2,2.021E3,1.2405E4,2.143E3,6.8E1,3.1366E4,7.249E3,5.32E2,1.145E3,2.6137E4,5.1084E4,2.483E3,7.701E3,9.997E3,1.3457E4,2.0895E4,1.2072E4,1.901E3,2.991E3,4.4431E4,4.591E3,3.389E4,2.2581E4,7.417E3,9.628E3,1.8779E5,2.9E3,7.104E3,7.247E4,7.64E2,1.53E2,4.3E1,4.88E2,1.174E3,8.47E2,8.564E3,3.841E3,1.319E3,8.24E2,4.7E1,2.1E1,2.0583E4,1.0783E4,3.104E3,4.145E3,3.8E1,4.94E2,8.47E2,2.98E2,5.94E3,2.0197E4,4.9659E4,1.425E3,1.574E3,9.09E2,1.012E3,6.689E3,5.536E3,4.461E3,1.0159E4,3.298E3,5.709E3,1.5186E4,1.0156E4,1.916E3,1.581E3,3.2E2,1.869E3,1.122E3,2.914E3,4.1517E4,1.251E3,3.34E3,8.224E3,2.5666E4,1.5084E4,7.497E3,5.887E3,1.53E3,9.407E3,2.21E2,2.986E4,1.5793E5,4.63E2,2.437E3,2.424E3,4.68E3,6.1464E4,1.1006E4,4.88E2,2.76E2,6.2E1,9.1E1,1.5E1,2.8E1,4.82E2,6E0],"tree_param":{"num_deleted":"0","num_feature":"4","num_nodes":"127","size_leaf_vector":"1"}},{"base_weights":[1.1822517E-6,2.843892E-2,-2.4483224E-2,-1.2930043E-3,4.2773005E-2,-1.5129942E-2,-3.4373317E-2,-1.115621E-2,1.2888102E-2,6.328152E-2,1.8258262E-2,-1.6404582E-2,7.1924E-2,-3.171992E-2,-5.2895896E-2,-7.2333547E-3,-3.109955E-2,2.8722899E-2,-8.152757E-3,-3.6358826E-2,6.83714E-2,-2.930118E-3,3.2280438E-2,-3.3735044E-2,-1.1643539E-2,4.9186986E-2,1.4830196E-1,-4.7685303E-2,-2.805017E-2,-3.7651096E-2,-6.302058E-2,-1.364475E-2,1.6568264E-2,-4.8469804E-2,-1.9286742E-2,2.1383336E-3,4.1121256E-2,2.5555836E-2,-1.4078008E-2,-4.2449854E-2,2.0738138E-1,1.0711637E-1,5.6922197E-2,-1.116857E-2,3.506196E-2,3.7476122E-2,-1.7171936E-2,-3.670561E-2,-2.4636026E-2,-5.4918304E-3,-2.753468E-2,2.7403516E-1,4.5191217E-2,1.5332091E-1,-2.816042E-2,-5.2185476E-2,-3.4501825E-2,-3.715001E-2,-2.316589E-2,-5.58174E-2,-2.4962736E-2,-6.42303E-2,-3.1581312E-2,1.537402E-3,-1.9088626E-3,-1.0392364E-3,6.0231662E-3,-6.58426E-3,2.3747729E-4,-1.752614E-3,-4.867233E-3,-9.862658E-4,4.4249035E-3,4.2179845E-2,3.624955E-3,-6.9646386E-4,2.9243533E-3,-2.7041142E-3,-4.130712E-4,-6.058786E-3,-6.136256E-4,-4.207146E-3,2.2076216E-2,1.1446734E-2,7.963704E-3,4.922337E-3,1.1515663E-2,1.9184739E-3,-1.6586593E-3,1.3374517E-2,2.0720412E-3,1.5056115E-3,5.204875E-3,-2.7877453E-3,6.7352965E-3,-5.956704E-4,-3.7466798E-3,-3.54317E-3,-1.661627E-3,-1.8060285E-3,2.1627273E-3,-2.1324325E-3,-4.1642166E-3,-3.4183712E-4,3.137935E-2,1.0329649E-3,6.961079E-3,5.0618616E-3,1.6200295E-2,-4.1340096E-3,4.2731534E-3,-3.1837837E-3,-5.6582447E-3,-2.875783E-3,-6.93961E-3,-4.00519E-3,5.8998798E-5,-1.7400108E-3,-4.2840405E-3,-4.8444667E-3,-6.3699814E-3,2.4087562E-3,-3.3486877E-3,-6.736295E-3,-5.6153885E-3,-3.7921336E-3,9.642113E-3],"categories":[],"categories_nodes":[],"categories_segments":[],"categories_sizes":[],"default_left":[0,0,0,0,0,0,0,0,0,0,0,0,0,0,0,0,0,0,0,0,0,0,0,0,0,0,0,0,0,0,0,0,0,0,0,0,0,0,0,0,0,0,0,0,0,0,0,0,0,0,0,0,0,0,0,0,0,0,0,0,0,0,0,0,0,0,0,0,0,0,0,0,0,0,0,0,0,0,0,0,0,0,0,0,0,0,0,0,0,0,0,0,0,0,0,0,0,0,0,0,0,0,0,0,0,0,0,0,0,0,0,0,0,0,0,0,0,0,0,0,0,0,0,0,0,0,0],"id":6,"left_children":[1,3,5,7,9,11,13,15,17,19,21,23,25,27,29,31,33,35,37,39,41,43,45,47,49,51,53,55,57,59,61,63,65,67,69,71,73,75,77,79,81,83,85,87,89,91,93,95,97,99,101,103,105,107,109,111,113,115,117,119,121,123,125,-1,-1,-1,-1,-1,-1,-1,-1,-1,-1,-1,-1,-1,-1,-1,-1,-1,-1,-1,-1,-1,-1,-1,-1,-1,-1,-1,-1,-1,-1,-1,-1,-1,-1,-1,-1,-1,-1,-1,-1,-1,-1,-1,-1,-1,-1,-1,-1,-1,-1,-1,-1,-1,-1,-1,-1,-1,-1,-1,-1,-1,-1,-1,-1],"loss_changes":[4.1769836E2,1.1828328E2,2.981897E1,1.2627992E1,9.414691E1,1.8384987E1,7.6988525E0,4.165625E0,1.233947E1,5.1713318E1,2.534363E1,1.3472511E1,4.1449327E0,8.028336E0,3.027649E0,6.7905393E0,1.7949009E0,6.965126E0,3.176896E0,7.366621E0,4.3026093E1,1.0633175E1,1.3189575E1,9.5025635E-1,1.2522314E1,1.644341E0,4.896555E-1,1.5177689E0,4.9521713E0,1.8050394E0,4.4657135E-1,5.5380926E0,1.1116856E1,3.128849E0,2.6874483E-1,3.397535E0,2.6710588E1,2.853868E-1,1.7441695E0,3.1848898E0,4.1317034E-1,4.460312E0,3.356668E1,4.591571E0,8.565272E0,1.5175613E1,4.41861E0,6.206589E-1,7.4952936E-1,3.1477106E1,3.1311703E0,3.540671E-1,1.542696E0,4.6705627E-1,1.671585E-2,1.7064095E0,1.3050251E0,4.2625465E0,8.225739E0,1.8416023E-1,1.9308095E0,2.8355408E-1,3.599218E-1,0E0,0E0,0E0,0E0,0E0,0E0,0E0,0E0,0E0,0E0,0E0,0E0,0E0,0E0,0E0,0E0,0E0,0E0,0E0,0E0,0E0,0E0,0E0,0E0,0E0,0E0,0E0,0E0,0E0,0E0,0E0,0E0,0E0,0E0,0E0,0E0,0E0,0E0,0E0,0E0,0E0,0E0,0E0,0E0,0E0,0E0,0E0,0E0,0E0,0E0,0E0,0E0,0E0,0E0,0E0,0E0,0E0,0E0,0E0,0E0,0E0,0E0,0E0,0E0],"parents":[2147483647,0,0,1,1,2,2,3,3,4,4,5,5,6,6,7,7,8,8,9,9,10,10,11,11,12,12,13,13,14,14,15,15,16,16,17,17,18,18,19,19,20,20,21,21,22,22,23,23,24,24,25,25,26,26,27,27,28,28,29,29,30,30,31,31,32,32,33,33,34,34,35,35,36,36,37,37,38,38,39,39,40,40,41,41,42,42,43,43,44,44,45,45,46,46,47,47,48,48,49,49,50,50,51,51,52,52,53,53,54,54,55,55,56,56,57,57,58,58,59,59,60,60,61,61,62,62],"right_children":[2,4,6,8,10,12,14,16,18,20,22,24,26,28,30,32,34,36,38,40,42,44,46,48,50,52,54,56,58,60,62,64,66,68,70,72,74,76,78,80,82,84,86,88,90,92,94,96,98,100,102,104,106,108,110,112,114,116,118,120,122,124,126,-1,-1,-1,-1,-1,-1,-1,-1,-1,-1,-1,-1,-1,-1,-1,-1,-1,-1,-1,-1,-1,-1,-1,-1,-1,-1,-1,-1,-1,-1,-1,-1,-1,-1,-1,-1,-1,-1,-1,-1,-1,-1,-1,-1,-1,-1,-1,-1,-1,-1,-1,-1,-1,-1,-1,-1,-1,-1,-1,-1,-1,-1,-1,-1],"split_conditions":[6.910691E-1,1.2172477E-2,8.3778375E-1,6.602022E-3,5.151515E-1,7.3599994E-1,7.4967504E-1,7.4600005E-1,5.3245324E-1,1.0701071E-2,3.82E-1,6.602022E-3,9.2300004E-1,5.7767686E-3,4.5347998E-1,7.0974994E-1,7.5E-1,2.8714284E-2,1.0380006E-1,5.06E-2,2.2202219E-1,7.4907494E-1,7.4994993E-1,3.49E-1,6.93825E-1,7.762492E-2,2.991541E-2,6.112249E-1,1.11499995E-1,7.4994993E-1,7.6672506E-1,1.237879E-3,8.080808E-2,2.1372135E-1,5E-4,7.0974994E-1,4.3E-2,6.687498E-2,1.56E-1,4.0666246E-1,9.70097E-3,4.415102E-2,7.4907494E-1,8.112502E-2,7.493248E-1,1.20000005E-1,7.6094985E-1,1.0237503E-1,4.3325764E-3,1.3312495E-1,5.1060003E-1,6.687498E-2,7.79978E-1,5.1578293E-3,7.494998E-1,1.099E-1,9.985998E-1,7.4907494E-1,7.348249E-1,7.4987507E-1,7.535E-1,2.9296469E-2,9.9339926E-1,1.537402E-3,-1.9088626E-3,-1.0392364E-3,6.0231662E-3,-6.58426E-3,2.3747729E-4,-1.752614E-3,-4.867233E-3,-9.862658E-4,4.4249035E-3,4.2179845E-2,3.624955E-3,-6.9646386E-4,2.9243533E-3,-2.7041142E-3,-4.130712E-4,-6.058786E-3,-6.136256E-4,-4.207146E-3,2.2076216E-2,1.1446734E-2,7.963704E-3,4.922337E-3,1.1515663E-2,1.9184739E-3,-1.6586593E-3,1.3374517E-2,2.0720412E-3,1.5056115E-3,5.204875E-3,-2.7877453E-3,6.7352965E-3,-5.956704E-4,-3.7466798E-3,-3.54317E-3,-1.661627E-3,-1.8060285E-3,2.1627273E-3,-2.1324325E-3,-4.1642166E-3,-3.4183712E-4,3.137935E-2,1.0329649E-3,6.961079E-3,5.0618616E-3,1.6200295E-2,-4.1340096E-3,4.2731534E-3,-3.1837837E-3,-5.6582447E-3,-2.875783E-3,-6.93961E-3,-4.00519E-3,5.8998798E-5,-1.7400108E-3,-4.2840405E-3,-4.8444667E-3,-6.3699814E-3,2.4087562E-3,-3.3486877E-3,-6.736295E-3,-5.6153885E-3,-3.7921336E-3,9.642113E-3],"split_indices":[0,1,0,1,0,2,3,3,0,0,2,1,2,1,2,3,3,2,3,2,0,3,3,2,3,3,1,3,2,3,3,1,0,0,2,3,2,3,2,3,0,1,3,3,3,3,3,3,1,3,2,3,0,1,3,3,0,3,3,3,3,1,0,0,0,0,0,0,0,0,0,0,0,0,0,0,0,0,0,0,0,0,0,0,0,0,0,0,0,0,0,0,0,0,0,0,0,0,0,0,0,0,0,0,0,0,0,0,0,0,0,0,0,0,0,0,0,0,0,0,0,0,0,0,0,0,0],"split_type":[0,0,0,0,0,0,0,0,0,0,0,0,0,0,0,0,0,0,0,0,0,0,0,0,0,0,0,0,0,0,0,0,0,0,0,0,0,0,0,0,0,0,0,0,0,0,0,0,0,0,0,0,0,0,0,0,0,0,0,0,0,0,0,0,0,0,0,0,0,0,0,0,0,0,0,0,0,0,0,0,0,0,0,0,0,0,0,0,0,0,0,0,0,0,0,0,0,0,0,0,0,0,0,0,0,0,0,0,0,0,0,0,0,0,0,0,0,0,0,0,0,0,0,0,0,0,0],"sum_hessian":[5.99897E5,2.77542E5,3.22355E5,9.0281E4,1.87261E5,1.65675E5,1.5668E5,5.3247E4,3.7034E4,1.01961E5,8.53E4,1.63285E5,2.39E3,1.3705E5,1.963E4,4.4496E4,8.751E3,2.1131E4,1.5903E4,4.955E3,9.7006E4,3.397E4,5.133E4,3.5189E4,1.28096E5,1.843E3,5.47E2,2.5612E4,1.11438E5,7.836E3,1.1794E4,3.5054E4,9.442E3,3.541E3,5.21E3,6.721E3,1.441E4,2.377E3,1.3526E4,4.835E3,1.2E2,2.2125E4,7.4881E4,2.7917E4,6.053E3,4.645E4,4.88E3,2.6526E4,8.663E3,9.2348E4,3.5748E4,3.1E1,1.812E3,5.32E2,1.5E1,1.9092E4,6.52E3,3.892E4,7.2518E4,3.221E3,4.615E3,1.1356E4,4.38E2,5.537E3,2.9517E4,5.838E3,3.604E3,2.639E3,9.02E2,4.917E3,2.93E2,5.231E3,1.49E3,1.81E2,1.4229E4,2.42E2,2.135E3,5.872E3,7.654E3,3.224E3,1.611E3,6E0,1.14E2,1.7453E4,4.672E3,6.6139E4,8.742E3,4.228E3,2.3689E4,7.67E2,5.286E3,1.8299E4,2.8151E4,4.332E3,5.48E2,6.41E2,2.5885E4,3.691E3,4.972E3,6.3103E4,2.9245E4,2.4823E4,1.0925E4,4E0,2.7E1,7.47E2,1.065E3,4.2E1,4.9E2,1.3E1,2E0,3.394E3,1.5698E4,5.6E3,9.2E2,3.6141E4,2.779E3,5.6084E4,1.6434E4,1.668E3,1.553E3,6.83E2,3.932E3,8.177E3,3.179E3,4.18E2,2E1],"tree_param":{"num_deleted":"0","num_feature":"4","num_nodes":"127","size_leaf_vector":"1"}},{"base_weights":[1.2502237E-6,3.4506414E-2,-1.6464422E-2,3.7901483E-3,5.1833432E-2,-6.2028337E-3,-2.989681E-2,-1.0874553E-2,1.8947117E-2,3.420974E-2,7.352095E-2,-1.9245248E-2,3.4715235E-3,-1.1151265E-2,-3.2118663E-2,-2.189692E-2,-5.025864E-4,1.4556826E-2,7.2056726E-2,2.6237829E-2,9.4847955E-2,9.379055E-2,6.178189E-2,-2.1463387E-2,1.1059689E-1,1.004319E-2,-1.9151744E-2,-2.8073497E-2,-4.2143683E-3,-2.9768968E-2,-4.656631E-2,-1.8426044E-2,-5.5704277E-2,-1.1222882E-2,3.790701E-2,1.657846E-2,-7.0292115E-2,8.589882E-2,2.0535192E-2,6.350828E-2,1.3360005E-2,1.7186874E-1,7.72544E-2,1.2757511E-1,8.803894E-2,5.1397596E-2,8.164746E-2,1.1414972E-2,-2.3533953E-2,1.306804E-1,-2.97458E-2,-4.870102E-3,3.3217926E-2,4.197289E-3,-2.5042243E-2,-2.9721964E-2,7.7791545E-3,1.832689E-2,-1.1799089E-2,-3.9221432E-2,-2.3866951E-2,-3.4294758E-2,-5.5029776E-2,-2.3798223E-3,3.6675276E-3,-5.9596715E-3,2.9035756E-2,9.045314E-3,-1.6529755E-3,8.31849E-3,-1.5142852E-3,-2.7942708E-5,2.5361741E-3,-5.345714E-3,-8.605606E-3,5.670043E-3,9.771033E-3,1.0925774E-2,1.5632566E-3,-2.6989882E-4,8.259767E-3,-3.4727633E-3,1.9158366E-3,9.350891E-3,2.1605993E-2,-8.177139E-3,1.0495729E-2,1.1110562E-2,1.6709534E-2,9.088258E-3,3.4587549E-3,8.051223E-3,4.27027E-3,9.667391E-3,1.2400036E-3,-1.676035E-3,3.891388E-3,-2.6497708E-3,-3.5048588E-4,-2.9115472E-3,1.43261E-2,-4.914207E-4,-4.0824874E-3,8.401905E-4,-1.301524E-3,2.0429408E-3,6.3750283E-3,-1.9992029E-3,3.996454E-3,-5.613704E-4,-3.2225978E-3,-5.307669E-3,-2.7380679E-3,4.5478484E-4,8.985165E-3,-1.0246172E-3,2.7882073E-3,-4.88291E-3,-1.7235811E-4,-5.007165E-3,-3.0787836E-3,-8.603853E-4,-2.868504E-3,-5.0937706E-3,-2.1084552E-3,-4.110623E-3,-5.8344463E-3],"categories":[],"categories_nodes":[],"categories_segments":[],"categories_sizes":[],"default_left":[0,0,0,0,0,0,0,0,0,0,0,0,0,0,0,0,0,0,0,0,0,0,0,0,0,0,0,0,0,0,0,0,0,0,0,0,0,0,0,0,0,0,0,0,0,0,0,0,0,0,0,0,0,0,0,0,0,0,0,0,0,0,0,0,0,0,0,0,0,0,0,0,0,0,0,0,0,0,0,0,0,0,0,0,0,0,0,0,0,0,0,0,0,0,0,0,0,0,0,0,0,0,0,0,0,0,0,0,0,0,0,0,0,0,0,0,0,0,0,0,0,0,0,0,0,0,0],"id":7,"left_children":[1,3,5,7,9,11,13,15,17,19,21,23,25,27,29,31,33,35,37,39,41,43,45,47,49,51,53,55,57,59,61,63,65,67,69,71,73,75,77,79,81,83,85,87,89,91,93,95,97,99,101,103,105,107,109,111,113,115,117,119,121,123,125,-1,-1,-1,-1,-1,-1,-1,-1,-1,-1,-1,-1,-1,-1,-1,-1,-1,-1,-1,-1,-1,-1,-1,-1,-1,-1,-1,-1,-1,-1,-1,-1,-1,-1,-1,-1,-1,-1,-1,-1,-1,-1,-1,-1,-1,-1,-1,-1,-1,-1,-1,-1,-1,-1,-1,-1,-1,-1,-1,-1,-1,-1,-1,-1],"loss_changes":[3.4083307E2,1.0314003E2,5.5976654E1,1.5535492E1,4.735379E1,2.9049541E1,7.3250275E0,4.0612216E0,8.012888E0,3.304097E1,1.32109375E1,2.8240673E1,1.9652027E1,2.1878724E0,5.3365784E0,2.0198221E0,7.5369096E0,5.4468355E0,1.8695822E0,2.8996075E1,1.0748688E1,3.9467926E0,7.252472E0,6.5629425E0,4.64608E0,3.540081E1,4.092396E0,3.2050467E-1,2.2605991E0,7.5444183E0,2.2824059E0,4.6246123E0,2.1765852E0,7.7229066E0,9.5947895E0,4.5914354E0,1.9152021E-1,7.076645E-1,2.4057221E-1,1.9607681E1,1.2520666E1,5.090908E0,2.849878E1,1.9086838E0,2.6429749E0,5.84531E0,1.2562309E1,4.426255E0,5.3833885E0,2.9010525E0,5.6747377E-2,6.7374787E0,1.565863E1,5.1875854E0,3.3159876E0,2.8184414E-1,6.297449E-2,9.091722E-1,3.690956E0,4.7555084E0,6.122898E0,1.973239E0,5.982704E-1,0E0,0E0,0E0,0E0,0E0,0E0,0E0,0E0,0E0,0E0,0E0,0E0,0E0,0E0,0E0,0E0,0E0,0E0,0E0,0E0,0E0,0E0,0E0,0E0,0E0,0E0,0E0,0E0,0E0,0E0,0E0,0E0,0E0,0E0,0E0,0E0,0E0,0E0,0E0,0E0,0E0,0E0,0E0,0E0,0E0,0E0,0E0,0E0,0E0,0E0,0E0,0E0,0E0,0E0,0E0,0E0,0E0,0E0,0E0,0E0,0E0,0E0,0E0,0E0],"parents":[2147483647,0,0,1,1,2,2,3,3,4,4,5,5,6,6,7,7,8,8,9,9,10,10,11,11,12,12,13,13,14,14,15,15,16,16,17,17,18,18,19,19,20,20,21,21,22,22,23,23,24,24,25,25,26,26,27,27,28,28,29,29,30,30,31,31,32,32,33,33,34,34,35,35,36,36,37,37,38,38,39,39,40,40,41,41,42,42,43,43,44,44,45,45,46,46,47,47,48,48,49,49,50,50,51,51,52,52,53,53,54,54,55,55,56,56,57,57,58,58,59,59,60,60,61,61,62,62],"right_children":[2,4,6,8,10,12,14,16,18,20,22,24,26,28,30,32,34,36,38,40,42,44,46,48,50,52,54,56,58,60,62,64,66,68,70,72,74,76,78,80,82,84,86,88,90,92,94,96,98,100,102,104,106,108,110,112,114,116,118,120,122,124,126,-1,-1,-1,-1,-1,-1,-1,-1,-1,-1,-1,-1,-1,-1,-1,-1,-1,-1,-1,-1,-1,-1,-1,-1,-1,-1,-1,-1,-1,-1,-1,-1,-1,-1,-1,-1,-1,-1,-1,-1,-1,-1,-1,-1,-1,-1,-1,-1,-1,-1,-1,-1,-1,-1,-1,-1,-1,-1,-1,-1,-1,-1,-1,-1],"split_conditions":[5.8055806E-1,1.25851035E-2,8.19982E-1,4.951516E-3,4.68E-1,3.096E-1,9.7975016E-2,2.0342034E-1,6.0959995E-1,7.488251E-1,2.9542953E-1,8.190819E-1,7.205374E-1,7.649994E-2,7.4967504E-1,1.8871886E-1,7.072501E-1,7.4967504E-1,5.0295025E-1,8.55999E-2,7.493248E-1,1.2561256E-1,1.6332495E-1,7.969999E-2,9.490406E-3,1.2624991E-1,6.5496546E-1,5.81E-1,7.8750014E-2,1.2624991E-1,4.5347998E-1,1.060106E-1,6.142E-1,2.0631317E-4,7.4927497E-1,2.8714284E-2,7.535E-1,8.046214E-3,7.969999E-2,7.649994E-2,1.0701071E-2,7.4927497E-1,7.494998E-1,6.974E-1,5.756137E-2,8.987498E-2,7.5E-1,7.649994E-2,7.4907494E-1,9.284093E-3,1.4545078E-2,6.9666964E-1,2.6614398E-2,2.8677529E-2,4.4959998E-1,4.6049953E-2,5.6323495E-2,1.836187E-2,1.1657142E-2,2.1299998E-1,4.3147492E-1,7.4994993E-1,8.574857E-1,-2.3798223E-3,3.6675276E-3,-5.9596715E-3,2.9035756E-2,9.045314E-3,-1.6529755E-3,8.31849E-3,-1.5142852E-3,-2.7942708E-5,2.5361741E-3,-5.345714E-3,-8.605606E-3,5.670043E-3,9.771033E-3,1.0925774E-2,1.5632566E-3,-2.6989882E-4,8.259767E-3,-3.4727633E-3,1.9158366E-3,9.350891E-3,2.1605993E-2,-8.177139E-3,1.0495729E-2,1.1110562E-2,1.6709534E-2,9.088258E-3,3.4587549E-3,8.051223E-3,4.27027E-3,9.667391E-3,1.2400036E-3,-1.676035E-3,3.891388E-3,-2.6497708E-3,-3.5048588E-4,-2.9115472E-3,1.43261E-2,-4.914207E-4,-4.0824874E-3,8.401905E-4,-1.301524E-3,2.0429408E-3,6.3750283E-3,-1.9992029E-3,3.996454E-3,-5.613704E-4,-3.2225978E-3,-5.307669E-3,-2.7380679E-3,4.5478484E-4,8.985165E-3,-1.0246172E-3,2.7882073E-3,-4.88291E-3,-1.7235811E-4,-5.007165E-3,-3.0787836E-3,-8.603853E-4,-2.868504E-3,-5.0937706E-3,-2.1084552E-3,-4.110623E-3,-5.8344463E-3],"split_indices":[0,1,0,1,2,2,3,0,2,3,0,0,3,3,3,0,3,3,0,3,3,0,3,3,1,3,0,2,3,3,2,0,2,1,3,2,3,1,3,3,0,3,3,2,1,3,3,3,3,1,1,0,1,1,2,3,1,1,2,2,3,3,0,0,0,0,0,0,0,0,0,0,0,0,0,0,0,0,0,0,0,0,0,0,0,0,0,0,0,0,0,0,0,0,0,0,0,0,0,0,0,0,0,0,0,0,0,0,0,0,0,0,0,0,0,0,0,0,0,0,0,0,0,0,0,0,0],"split_type":[0,0,0,0,0,0,0,0,0,0,0,0,0,0,0,0,0,0,0,0,0,0,0,0,0,0,0,0,0,0,0,0,0,0,0,0,0,0,0,0,0,0,0,0,0,0,0,0,0,0,0,0,0,0,0,0,0,0,0,0,0,0,0,0,0,0,0,0,0,0,0,0,0,0,0,0,0,0,0,0,0,0,0,0,0,0,0,0,0,0,0,0,0,0,0,0,0,0,0,0,0,0,0,0,0,0,0,0,0,0,0,0,0,0,0,0,0,0,0,0,0,0,0,0,0,0,0],"sum_hessian":[5.99897E5,1.93791E5,4.06106E5,6.9892E4,1.23899E5,2.30227E5,1.75879E5,3.5523E4,3.4369E4,6.8355E4,5.5544E4,9.8046E4,1.32181E5,1.8638E4,1.57241E5,1.7221E4,1.8302E4,3.1746E4,2.623E3,6.0414E4,7.941E3,2.0368E4,3.5176E4,9.64E4,1.646E3,1.02428E5,2.9753E4,5.418E3,1.322E4,1.35248E5,2.1993E4,1.5619E4,1.602E3,1.4309E4,3.993E3,3.1008E4,7.38E2,2.067E3,5.56E2,1.5513E4,4.4901E4,1.475E3,6.466E3,2.96E3,1.7408E4,2.3103E4,1.2073E4,5.711E3,9.0689E4,1.44E3,2.06E2,6.2323E4,4.0105E4,5.994E3,2.3759E4,5.18E3,2.38E2,3.328E3,9.892E3,5.1985E4,8.3263E4,8.979E3,1.3014E4,1.4232E4,1.387E3,1.585E3,1.7E1,7.09E2,1.36E4,2.154E3,1.839E3,1.0622E4,2.0386E4,3.59E2,3.79E2,5.97E2,1.47E3,2.8E1,5.28E2,3.472E3,1.2041E4,4.831E3,4.007E4,5.33E2,9.42E2,9.59E2,5.507E3,2.092E3,8.68E2,1.6528E4,8.8E2,5.311E3,1.7792E4,9.92E3,2.153E3,2.821E3,2.89E3,7.8999E4,1.169E4,1.05E2,1.335E3,6.4E1,1.42E2,2.3702E4,3.8621E4,2.8267E4,1.1838E4,3.576E3,2.418E3,6.414E3,1.7345E4,4.7E2,4.71E3,2.3E2,8E0,8.34E2,2.494E3,2.115E3,7.777E3,2.2733E4,2.9252E4,1.9978E4,6.3285E4,3.972E3,5.007E3,2.505E3,1.0509E4],"tree_param":{"num_deleted":"0","num_feature":"4","num_nodes":"127","size_leaf_vector":"1"}},{"base_weights":[1.3574147E-6,2.319931E-2,-1.9971684E-2,8.829158E-3,4.4275276E-2,-1.2849938E-2,-2.84109E-2,3.622688E-2,2.1973106E-3,6.971454E-2,2.8308447E-2,-1.39347045E-2,6.427531E-2,-2.4826482E-2,-3.816355E-2,9.296783E-2,2.383351E-2,-2.3415072E-3,2.6437156E-2,5.6040645E-2,9.0639204E-2,3.2654677E-2,-2.023018E-2,-2.4532408E-2,-8.390614E-3,4.418302E-2,1.3269143E-1,-3.5895206E-2,-1.7957121E-2,-2.1879973E-2,-5.2550763E-2,1.5032081E-1,8.252203E-2,-2.2858536E-2,3.1945944E-2,-5.4785254E-4,-6.572023E-2,-1.8207254E-2,6.617462E-2,1.9237159E-2,6.585658E-2,7.8450605E-2,1.23299755E-1,1.5083713E-2,4.372648E-2,-2.713945E-2,8.0788046E-2,6.764139E-3,-2.62898E-2,-4.0659206E-3,-2.3636844E-2,2.4866162E-1,4.061256E-2,1.20639026E-1,1.9631553E-1,-1.3425071E-2,-3.8451903E-2,-3.0010534E-2,-8.941668E-3,1.0457981E-2,-2.7961563E-2,-5.5730682E-2,-4.409848E-2,1.0897843E-3,1.5706485E-2,5.1798555E-3,9.44903E-3,-2.4813171E-3,2.146722E-2,4.914261E-3,5.00727E-4,6.672797E-4,-1.2592993E-3,-7.49571E-3,-4.3518757E-4,1.5283366E-3,-2.3235946E-3,1.3035456E-2,4.2339056E-3,5.39023E-4,7.102195E-3,6.2196464E-3,1.2134127E-2,1.13708805E-2,6.4791287E-3,1.4484428E-2,1.0043454E-2,3.1601065E-3,1.0107134E-4,2.1820692E-3,7.992859E-3,-1.1933259E-3,-4.4860705E-3,6.651902E-3,1.7561274E-2,-1.1226981E-3,2.4188808E-3,-3.4210514E-3,-1.6146289E-3,-1.3603446E-3,1.7467302E-3,-6.787236E-4,-3.4323048E-3,-2.1036834E-4,2.8456038E-2,7.043909E-4,6.0429354E-3,1.249437E-2,-3.8642175E-3,2.1090213E-2,4.808552E-3,-4.1225834E-5,-2.2239704E-3,-5.029586E-3,-3.0661132E-3,-2.775702E-4,-3.30902E-3,1.3260408E-2,-1.3672932E-3,-1.4054126E-3,1.5154727E-2,-4.1987915E-3,-1.976404E-3,-6.42958E-3,-5.280264E-3,-4.617929E-3,-1.5413172E-3],"categories":[],"categories_nodes":[],"categories_segments":[],"categories_sizes":[],"default_left":[0,0,0,0,0,0,0,0,0,0,0,0,0,0,0,0,0,0,0,0,0,0,0,0,0,0,0,0,0,0,0,0,0,0,0,0,0,0,0,0,0,0,0,0,0,0,0,0,0,0,0,0,0,0,0,0,0,0,0,0,0,0,0,0,0,0,0,0,0,0,0,0,0,0,0,0,0,0,0,0,0,0,0,0,0,0,0,0,0,0,0,0,0,0,0,0,0,0,0,0,0,0,0,0,0,0,0,0,0,0,0,0,0,0,0,0,0,0,0,0,0,0,0,0,0,0,0],"id":8,"left_children":[1,3,5,7,9,11,13,15,17,19,21,23,25,27,29,31,33,35,37,39,41,43,45,47,49,51,53,55,57,59,61,63,65,67,69,71,73,75,77,79,81,83,85,87,89,91,93,95,97,99,101,103,105,107,109,111,113,115,117,119,121,123,125,-1,-1,-1,-1,-1,-1,-1,-1,-1,-1,-1,-1,-1,-1,-1,-1,-1,-1,-1,-1,-1,-1,-1,-1,-1,-1,-1,-1,-1,-1,-1,-1,-1,-1,-1,-1,-1,-1,-1,-1,-1,-1,-1,-1,-1,-1,-1,-1,-1,-1,-1,-1,-1,-1,-1,-1,-1,-1,-1,-1,-1,-1,-1,-1],"loss_changes":[2.779534E2,8.405763E1,1.9373856E1,2.998473E1,4.570108E1,1.4627338E1,5.1563797E0,2.2613777E1,1.46180105E1,1.2409134E1,1.4584534E1,1.0129208E1,3.327629E0,8.202324E0,9.2873955E0,3.4413948E0,9.999549E0,1.272207E1,3.7176537E1,9.479301E0,6.815933E0,1.2343056E1,3.9680138E0,3.2569122E0,7.4631166E0,1.3595366E0,3.9806938E-1,2.3728867E0,7.2339096E0,3.6582842E0,5.6328964E-1,8.323078E-1,1.7891502E0,1.8197567E0,1.0418367E1,9.465696E0,1.7455759E0,1.6624329E0,1.6954987E1,3.9628103E0,4.1996765E0,6.0073624E0,2.2800827E0,5.7014704E0,3.0865585E1,1.43279E0,4.8083043E-1,9.874494E-1,4.503929E0,1.8109879E1,4.5033855E0,2.886678E-1,1.2269106E0,3.2365704E-1,1.7580533E-1,4.842676E-1,3.421074E0,2.3891506E0,2.5508303E1,1.0187105E1,1.7993183E0,3.800888E-1,3.4303474E-1,0E0,0E0,0E0,0E0,0E0,0E0,0E0,0E0,0E0,0E0,0E0,0E0,0E0,0E0,0E0,0E0,0E0,0E0,0E0,0E0,0E0,0E0,0E0,0E0,0E0,0E0,0E0,0E0,0E0,0E0,0E0,0E0,0E0,0E0,0E0,0E0,0E0,0E0,0E0,0E0,0E0,0E0,0E0,0E0,0E0,0E0,0E0,0E0,0E0,0E0,0E0,0E0,0E0,0E0,0E0,0E0,0E0,0E0,0E0,0E0,0E0,0E0,0E0,0E0],"parents":[2147483647,0,0,1,1,2,2,3,3,4,4,5,5,6,6,7,7,8,8,9,9,10,10,11,11,12,12,13,13,14,14,15,15,16,16,17,17,18,18,19,19,20,20,21,21,22,22,23,23,24,24,25,25,26,26,27,27,28,28,29,29,30,30,31,31,32,32,33,33,34,34,35,35,36,36,37,37,38,38,39,39,40,40,41,41,42,42,43,43,44,44,45,45,46,46,47,47,48,48,49,49,50,50,51,51,52,52,53,53,54,54,55,55,56,56,57,57,58,58,59,59,60,60,61,61,62,62],"right_children":[2,4,6,8,10,12,14,16,18,20,22,24,26,28,30,32,34,36,38,40,42,44,46,48,50,52,54,56,58,60,62,64,66,68,70,72,74,76,78,80,82,84,86,88,90,92,94,96,98,100,102,104,106,108,110,112,114,116,118,120,122,124,126,-1,-1,-1,-1,-1,-1,-1,-1,-1,-1,-1,-1,-1,-1,-1,-1,-1,-1,-1,-1,-1,-1,-1,-1,-1,-1,-1,-1,-1,-1,-1,-1,-1,-1,-1,-1,-1,-1,-1,-1,-1,-1,-1,-1,-1,-1,-1,-1,-1,-1,-1,-1,-1,-1,-1,-1,-1,-1,-1,-1,-1,-1,-1,-1],"split_conditions":[6.910691E-1,4.4099998E-1,8.474847E-1,9.7975016E-2,4.2554256E-1,7.3599994E-1,7.395749E-1,2.2202219E-1,7.4907494E-1,6.006E-1,7.4994993E-1,1.56E-1,9.2300004E-1,9.077779E-3,4.4759998E-1,1.060106E-1,7.562494E-2,7.483499E-1,1.4545078E-2,1.2791417E-2,1.4625001E-1,1.20000005E-1,7.6672506E-1,8.667493E-2,7.3317504E-1,7.762492E-2,8.043805E-1,1.0517502E-1,2.1E-1,8.665154E-3,2.9296469E-2,8.871466E-3,7.762492E-2,5.529193E-2,8.499992E-2,5.3245324E-1,7.488251E-1,7.493248E-1,4.5954594E-1,1.6332495E-1,7.494998E-1,8.879995E-2,3.8693762E-1,9.740007E-2,2.8264903E-2,6.515652E-1,4.3532077E-2,7.687497E-2,5.698874E-1,1.3874996E-1,4.4759998E-1,6.687498E-2,7.749775E-1,3.321642E-2,8.190819E-1,9.236924E-1,1.2812495E-1,7.969999E-2,2.1429999E-1,8.45884E-3,4E-3,7.4907494E-1,9.989999E-1,1.0897843E-3,1.5706485E-2,5.1798555E-3,9.44903E-3,-2.4813171E-3,2.146722E-2,4.914261E-3,5.00727E-4,6.672797E-4,-1.2592993E-3,-7.49571E-3,-4.3518757E-4,1.5283366E-3,-2.3235946E-3,1.3035456E-2,4.2339056E-3,5.39023E-4,7.102195E-3,6.2196464E-3,1.2134127E-2,1.13708805E-2,6.4791287E-3,1.4484428E-2,1.0043454E-2,3.1601065E-3,1.0107134E-4,2.1820692E-3,7.992859E-3,-1.1933259E-3,-4.4860705E-3,6.651902E-3,1.7561274E-2,-1.1226981E-3,2.4188808E-3,-3.4210514E-3,-1.6146289E-3,-1.3603446E-3,1.7467302E-3,-6.787236E-4,-3.4323048E-3,-2.1036834E-4,2.8456038E-2,7.043909E-4,6.0429354E-3,1.249437E-2,-3.8642175E-3,2.1090213E-2,4.808552E-3,-4.1225834E-5,-2.2239704E-3,-5.029586E-3,-3.0661132E-3,-2.775702E-4,-3.30902E-3,1.3260408E-2,-1.3672932E-3,-1.4054126E-3,1.5154727E-2,-4.1987915E-3,-1.976404E-3,-6.42958E-3,-5.280264E-3,-4.617929E-3,-1.5413172E-3],"split_indices":[0,2,0,3,0,2,3,0,3,2,3,2,2,1,2,0,3,3,1,1,3,3,3,3,3,3,0,3,2,1,1,1,3,1,3,0,3,3,0,3,3,3,3,3,1,0,1,3,3,3,2,3,0,1,0,0,3,3,2,1,2,3,0,0,0,0,0,0,0,0,0,0,0,0,0,0,0,0,0,0,0,0,0,0,0,0,0,0,0,0,0,0,0,0,0,0,0,0,0,0,0,0,0,0,0,0,0,0,0,0,0,0,0,0,0,0,0,0,0,0,0,0,0,0,0,0,0],"split_type":[0,0,0,0,0,0,0,0,0,0,0,0,0,0,0,0,0,0,0,0,0,0,0,0,0,0,0,0,0,0,0,0,0,0,0,0,0,0,0,0,0,0,0,0,0,0,0,0,0,0,0,0,0,0,0,0,0,0,0,0,0,0,0,0,0,0,0,0,0,0,0,0,0,0,0,0,0,0,0,0,0,0,0,0,0,0,0,0,0,0,0,0,0,0,0,0,0,0,0,0,0,0,0,0,0,0,0,0,0,0,0,0,0,0,0,0,0,0,0,0,0,0,0,0,0,0,0],"sum_hessian":[5.99897E5,2.77542E5,3.22355E5,1.65025E5,1.12517E5,1.74825E5,1.4753E5,3.216E4,1.32865E5,4.3387E4,6.913E4,1.72401E5,2.424E3,1.07883E5,3.9647E4,5.764E3,2.6396E4,1.11911E5,2.0954E4,2.6242E4,1.7145E4,6.3449E4,5.681E3,5.9212E4,1.13189E5,1.875E3,5.49E2,4.1312E4,6.6571E4,1.8599E4,2.1048E4,8.86E2,4.878E3,3.907E3,2.2489E4,1.08832E5,3.079E3,9.868E3,1.1086E4,5.526E3,2.0716E4,1.2488E4,4.657E3,2.4527E4,3.8922E4,5.318E3,3.63E2,3.148E3,5.6064E4,8.8178E4,2.5011E4,3.1E1,1.844E3,4.64E2,8.5E1,4.221E3,3.7091E4,2.8485E4,3.8086E4,2.944E3,1.5655E4,1.529E4,5.758E3,4.1E1,8.45E2,1.369E3,3.509E3,3.876E3,3.1E1,1.3726E4,8.763E3,6.8043E4,4.0789E4,2.676E3,4.03E2,1.288E3,8.58E3,3.001E3,8.085E3,4.361E3,1.165E3,1.9436E4,1.28E3,3.485E3,9.003E3,2.395E3,2.262E3,1.1283E4,1.3244E4,2.425E4,1.4672E4,2.863E3,2.455E3,3.17E2,4.6E1,1.549E3,1.599E3,3.148E4,2.4584E4,6.1111E4,2.7067E4,9.707E3,1.5304E4,4E0,2.7E1,6.85E2,1.159E3,4.52E2,1.2E1,7.7E1,8E0,1.705E3,2.516E3,1.4715E4,2.2376E4,2.894E3,2.5591E4,1.231E3,3.6855E4,2.509E3,4.35E2,5.773E3,9.882E3,3.89E3,1.14E4,5.368E3,3.9E2],"tree_param":{"num_deleted":"0","num_feature":"4","num_nodes":"127","size_leaf_vector":"1"}},{"base_weights":[1.5788114E-6,2.9876301E-2,-1.2783821E-2,-4.7059814E-3,4.1844256E-2,1.7563519E-3,-1.968983E-2,-2.0198846E-2,3.230927E-3,2.9191695E-2,6.297175E-2,-1.1018607E-2,1.2845422E-2,-2.0344354E-2,5.9401404E-2,-4.015327E-2,-1.7135926E-2,-1.248189E-2,1.0994632E-2,-2.597658E-2,3.3750482E-2,7.605897E-2,5.1448766E-2,-1.3366617E-2,1.3168769E-2,1.87313E-2,-7.4799773E-3,-1.7045176E-2,-3.0673176E-2,4.096481E-2,1.2056518E-1,-6.079183E-2,-1.7370746E-3,-3.0208604E-2,-1.0220094E-2,1.4705498E-3,-4.7967475E-2,3.9347675E-2,8.9895737E-4,-2.9948274E-2,1.357866E-1,8.394863E-2,2.686605E-2,6.938418E-2,9.975685E-2,4.1656647E-2,6.8925284E-2,5.6595295E-3,-1.6412888E-2,-1.37757715E-2,3.915723E-2,2.0629785E-3,3.360662E-2,1.1364653E-2,-2.1977555E-2,-2.8814852E-2,-1.0465957E-2,-1.8823994E-2,-4.298823E-2,5.4720964E-2,-9.497407E-3,1.8605744E-2,1.2693866E-1,-6.841264E-3,-4.541572E-3,1.2733808E-3,-3.3590787E-3,-3.5025317E-3,-9.514533E-5,6.01496E-4,-2.722375E-3,-2.249336E-3,1.864396E-3,-5.3195856E-3,3.644344E-3,1.8392273E-3,1.2108755E-2,-1.5007545E-3,2.4815307E-3,-5.0687264E-3,-6.213815E-4,7.3559494E-3,2.4850741E-2,8.224927E-3,2.813879E-2,1.9985647E-3,7.4325055E-3,1.5746035E-2,6.6514546E-3,7.7219503E-3,1.1858953E-2,6.432216E-3,3.317541E-3,8.030411E-3,6.6533196E-4,-1.5458274E-3,1.3856603E-3,9.488637E-4,-1.8355089E-3,2.1570004E-3,-2.5135137E-3,1.5809272E-3,5.9414553E-3,1.7534122E-3,-9.474995E-4,1.1619859E-3,6.5823193E-3,2.4710144E-3,-3.7275427E-3,-2.7770547E-3,1.4782915E-3,-8.430117E-4,-3.0629903E-3,-1.98084E-3,6.2857114E-4,-3.7161831E-3,-1.0407652E-3,-3.5422693E-3,-4.7841165E-3,-7.8136113E-4,6.4501585E-3,5.437317E-4,-6.244787E-3,3.070868E-3,-7.6817707E-3,7.278822E-3,1.3555028E-2],"categories":[],"categories_nodes":[],"categories_segments":[],"categories_sizes":[],"default_left":[0,0,0,0,0,0,0,0,0,0,0,0,0,0,0,0,0,0,0,0,0,0,0,0,0,0,0,0,0,0,0,0,0,0,0,0,0,0,0,0,0,0,0,0,0,0,0,0,0,0,0,0,0,0,0,0,0,0,0,0,0,0,0,0,0,0,0,0,0,0,0,0,0,0,0,0,0,0,0,0,0,0,0,0,0,0,0,0,0,0,0,0,0,0,0,0,0,0,0,0,0,0,0,0,0,0,0,0,0,0,0,0,0,0,0,0,0,0,0,0,0,0,0,0,0,0,0],"id":9,"left_children":[1,3,5,7,9,11,13,15,17,19,21,23,25,27,29,31,33,35,37,39,41,43,45,47,49,51,53,55,57,59,61,63,65,67,69,71,73,75,77,79,81,83,85,87,89,91,93,95,97,99,101,103,105,107,109,111,113,115,117,119,121,123,125,-1,-1,-1,-1,-1,-1,-1,-1,-1,-1,-1,-1,-1,-1,-1,-1,-1,-1,-1,-1,-1,-1,-1,-1,-1,-1,-1,-1,-1,-1,-1,-1,-1,-1,-1,-1,-1,-1,-1,-1,-1,-1,-1,-1,-1,-1,-1,-1,-1,-1,-1,-1,-1,-1,-1,-1,-1,-1,-1,-1,-1,-1,-1,-1],"loss_changes":[2.2913757E2,7.441237E1,4.218489E1,5.6841435E0,3.570314E1,1.9164515E1,1.4745811E1,9.5637083E-1,3.7289953E0,2.101149E1,7.540497E0,3.5703049E0,8.663947E0,9.625763E0,2.6315107E0,1.6514113E0,1.2271667E0,5.005142E0,5.8562117E0,4.101122E0,2.6664864E1,3.6979218E0,4.550438E0,3.321189E0,3.8960142E0,1.3924116E1,4.4433255E0,1.65789E1,9.978294E0,1.2486305E0,3.491993E-1,1.5566969E-1,3.3646122E-1,6.618829E-1,2.451811E0,2.98698E0,1.2610598E0,9.199429E0,5.7402315E0,3.0638084E0,1.0549064E0,3.0991974E0,2.2157322E1,4.6092377E0,2.1745758E0,3.2763767E0,6.768547E0,1.3692951E0,2.4849367E0,1.0974551E0,1.3385034E0,4.7277093E0,2.1019169E1,4.5915384E0,1.9578748E0,2.8401413E0,2.1493412E1,5.378893E0,1.2294731E0,8.6473274E-1,3.055885E-1,4.04708E-2,2.2749233E-1,0E0,0E0,0E0,0E0,0E0,0E0,0E0,0E0,0E0,0E0,0E0,0E0,0E0,0E0,0E0,0E0,0E0,0E0,0E0,0E0,0E0,0E0,0E0,0E0,0E0,0E0,0E0,0E0,0E0,0E0,0E0,0E0,0E0,0E0,0E0,0E0,0E0,0E0,0E0,0E0,0E0,0E0,0E0,0E0,0E0,0E0,0E0,0E0,0E0,0E0,0E0,0E0,0E0,0E0,0E0,0E0,0E0,0E0,0E0,0E0,0E0,0E0,0E0,0E0],"parents":[2147483647,0,0,1,1,2,2,3,3,4,4,5,5,6,6,7,7,8,8,9,9,10,10,11,11,12,12,13,13,14,14,15,15,16,16,17,17,18,18,19,19,20,20,21,21,22,22,23,23,24,24,25,25,26,26,27,27,28,28,29,29,30,30,31,31,32,32,33,33,34,34,35,35,36,36,37,37,38,38,39,39,40,40,41,41,42,42,43,43,44,44,45,45,46,46,47,47,48,48,49,49,50,50,51,51,52,52,53,53,54,54,55,55,56,56,57,57,58,58,59,59,60,60,61,61,62,62],"right_children":[2,4,6,8,10,12,14,16,18,20,22,24,26,28,30,32,34,36,38,40,42,44,46,48,50,52,54,56,58,60,62,64,66,68,70,72,74,76,78,80,82,84,86,88,90,92,94,96,98,100,102,104,106,108,110,112,114,116,118,120,122,124,126,-1,-1,-1,-1,-1,-1,-1,-1,-1,-1,-1,-1,-1,-1,-1,-1,-1,-1,-1,-1,-1,-1,-1,-1,-1,-1,-1,-1,-1,-1,-1,-1,-1,-1,-1,-1,-1,-1,-1,-1,-1,-1,-1,-1,-1,-1,-1,-1,-1,-1,-1,-1,-1,-1,-1,-1,-1,-1,-1,-1,-1,-1,-1,-1],"split_conditions":[5.5575556E-1,8.046214E-3,7.3247325E-1,1.060106E-1,5.0259995E-1,3.784E-1,7.3599994E-1,3.30033E-3,1.9445002E-1,1.0701071E-2,3.270327E-1,7.4952483E-1,7.0974994E-1,7.348249E-1,9.2300004E-1,8.252527E-4,6.451874E-1,1.2367487E-1,6.2462497E-1,1.025E-1,2.0342034E-1,1.5104997E-1,1.6332495E-1,9.507501E-2,2.2488136E-2,1.20000005E-1,5.326666E-1,8.665154E-3,4.4959998E-1,7.268748E-1,4.1262633E-3,4.1262637E-4,7.4600005E-1,1.010101E-2,7.4600005E-1,4.745203E-3,5.966667E-1,5.535166E-1,7.0974994E-1,4.7597504E-1,1.3410357E-2,7.494998E-1,7.488251E-1,8.080808E-2,5.76E-1,9.4375014E-2,7.527251E-1,7.649994E-2,1.237879E-3,7.4967504E-1,5E-4,9.8449945E-2,2.6614398E-2,7.562499E-1,7.535E-1,1.04375005E-1,1.35625E-1,7.4907494E-1,8.574857E-1,5.7767686E-3,7.5E-1,7.298999E-1,7.749775E-1,-6.841264E-3,-4.541572E-3,1.2733808E-3,-3.3590787E-3,-3.5025317E-3,-9.514533E-5,6.01496E-4,-2.722375E-3,-2.249336E-3,1.864396E-3,-5.3195856E-3,3.644344E-3,1.8392273E-3,1.2108755E-2,-1.5007545E-3,2.4815307E-3,-5.0687264E-3,-6.213815E-4,7.3559494E-3,2.4850741E-2,8.224927E-3,2.813879E-2,1.9985647E-3,7.4325055E-3,1.5746035E-2,6.6514546E-3,7.7219503E-3,1.1858953E-2,6.432216E-3,3.317541E-3,8.030411E-3,6.6533196E-4,-1.5458274E-3,1.3856603E-3,9.488637E-4,-1.8355089E-3,2.1570004E-3,-2.5135137E-3,1.5809272E-3,5.9414553E-3,1.7534122E-3,-9.474995E-4,1.1619859E-3,6.5823193E-3,2.4710144E-3,-3.7275427E-3,-2.7770547E-3,1.4782915E-3,-8.430117E-4,-3.0629903E-3,-1.98084E-3,6.2857114E-4,-3.7161831E-3,-1.0407652E-3,-3.5422693E-3,-4.7841165E-3,-7.8136113E-4,6.4501585E-3,5.437317E-4,-6.244787E-3,3.070868E-3,-7.6817707E-3,7.278822E-3,1.3555028E-2],"split_indices":[0,1,0,0,2,2,2,0,3,0,0,3,3,3,2,1,3,3,3,2,0,3,3,3,1,3,2,1,2,3,1,1,3,0,3,1,2,3,3,3,1,3,3,0,2,3,3,3,1,3,2,3,1,3,3,3,3,3,0,1,3,3,0,0,0,0,0,0,0,0,0,0,0,0,0,0,0,0,0,0,0,0,0,0,0,0,0,0,0,0,0,0,0,0,0,0,0,0,0,0,0,0,0,0,0,0,0,0,0,0,0,0,0,0,0,0,0,0,0,0,0,0,0,0,0,0,0],"split_type":[0,0,0,0,0,0,0,0,0,0,0,0,0,0,0,0,0,0,0,0,0,0,0,0,0,0,0,0,0,0,0,0,0,0,0,0,0,0,0,0,0,0,0,0,0,0,0,0,0,0,0,0,0,0,0,0,0,0,0,0,0,0,0,0,0,0,0,0,0,0,0,0,0,0,0,0,0,0,0,0,0,0,0,0,0,0,0,0,0,0,0,0,0,0,0,0,0,0,0,0,0,0,0,0,0,0,0,0,0,0,0,0,0,0,0,0,0,0,0,0,0,0,0,0,0,0,0],"sum_hessian":[5.99897E5,1.79791E5,4.20106E5,4.6224E4,1.33567E5,1.35281E5,2.84825E5,1.5658E4,3.0566E4,8.354E4,5.0027E4,6.2862E4,7.2419E4,2.82488E5,2.337E3,2.082E3,1.3576E4,1.0108E4,2.0458E4,6.376E3,7.7164E4,2.3421E4,2.6606E4,5.73E4,5.562E3,5.6157E4,1.6262E4,2.14103E5,6.8385E4,1.797E3,5.4E2,1.354E3,7.28E2,4.696E3,8.88E3,7.256E3,2.852E3,5.371E3,1.5087E4,6.224E3,1.52E2,9.305E3,6.7859E4,1.8277E4,5.144E3,1.7054E4,9.552E3,7.908E3,4.9392E4,2.731E3,2.831E3,2.6483E4,2.9674E4,7.071E3,9.191E3,7.6768E4,1.37335E5,3.4853E4,3.3532E4,1.412E3,3.85E2,3.2E1,5.08E2,9.03E2,4.51E2,5.01E2,2.27E2,4.032E3,6.64E2,4.543E3,4.337E3,3.029E3,4.227E3,2.686E3,1.66E2,4.276E3,1.095E3,9.061E3,6.026E3,3.321E3,2.903E3,9.9E1,5.3E1,9.227E3,7.8E1,5.9268E4,8.591E3,5.75E2,1.7702E4,2.344E3,2.8E3,4.642E3,1.2412E4,8.076E3,1.476E3,2.211E3,5.697E3,3.445E3,4.5947E4,6.64E2,2.067E3,1.316E3,1.515E3,1.1313E4,1.517E4,1.7638E4,1.2036E4,5.549E3,1.522E3,7.94E3,1.251E3,6.277E3,7.0491E4,8.8165E4,4.917E4,1.0963E4,2.389E4,1.3107E4,2.0425E4,1.91E2,1.221E3,3.01E2,8.4E1,2.9E1,3E0,7.1E1,4.37E2],"tree_param":{"num_deleted":"0","num_feature":"4","num_nodes":"127","size_leaf_vector":"1"}},{"base_weights":[1.6493286E-6,2.6889374E-2,-1.1505415E-2,7.871829E-3,4.486329E-2,2.7590173E-3,-1.7281214E-2,-2.0877883E-2,1.6334675E-2,6.104253E-2,3.137676E-2,-9.010122E-3,1.2956464E-2,-1.7682867E-2,7.780449E-2,-1.5761362E-2,-4.7189705E-2,1.9168734E-3,2.9103363E-2,5.8370374E-2,1.5750961E-1,2.353651E-2,8.01674E-2,-1.1157349E-2,1.32965855E-2,1.8429695E-2,-5.7796114E-3,-1.2018493E-2,-2.3456752E-2,1.8003326E-2,9.081248E-2,-1.6238008E-2,1.6853485E-1,4.434186E-3,-4.7316782E-2,5.580745E-3,-2.1152046E-2,3.2082297E-2,-5.978683E-2,6.447357E-2,1.9954575E-2,2.1766108E-1,4.8996553E-2,2.5741147E-2,-1.076629E-1,1.1264065E-1,1.3582792E-2,3.92269E-3,-1.419097E-2,-1.3340891E-2,3.7924577E-2,5.9775175E-3,3.628282E-2,-3.0564085E-2,4.550803E-3,-2.6529506E-2,-8.972576E-3,-8.348531E-3,-2.5209462E-2,-9.986462E-3,6.4550936E-2,1.6870862E-2,1.0681765E-1,-3.5945051E-3,-1.3376911E-3,1.119079E-2,1.7828077E-2,-4.732599E-3,-8.789599E-4,-1.4621757E-4,7.925615E-3,-4.6802363E-3,-8.997565E-5,5.413934E-3,2.2289683E-3,-2.9535482E-3,-8.479892E-3,1.2312139E-2,6.0145305E-3,6.0291955E-4,9.495127E-3,1.2262605E-2,2.6102861E-2,-1.0378156E-3,1.418822E-2,2.3374925E-3,2.0035725E-2,-1.3867522E-2,-8.943233E-3,6.860006E-3,1.4447289E-2,-1.8736972E-3,5.518778E-3,2.0092924E-3,-7.092447E-4,-2.4528492E-3,-9.108047E-4,2.018825E-3,-2.4056083E-3,3.135192E-3,9.607314E-3,-1.7067088E-3,1.0056003E-3,1.6074972E-3,7.0779915E-3,-2.7859642E-4,-4.823906E-3,6.250868E-3,-5.184542E-4,-3.8847195E-3,-2.4046588E-3,-4.428303E-4,-2.089553E-3,-2.3569704E-3,-2.2948247E-4,-2.1560118E-3,-3.098037E-3,-2.736137E-3,2.8074149E-3,-5.0304057E-3,9.837743E-3,8.98254E-3,-2.531371E-3,8.735208E-3,1.5284578E-2],"categories":[],"categories_nodes":[],"categories_segments":[],"categories_sizes":[],"default_left":[0,0,0,0,0,0,0,0,0,0,0,0,0,0,0,0,0,0,0,0,0,0,0,0,0,0,0,0,0,0,0,0,0,0,0,0,0,0,0,0,0,0,0,0,0,0,0,0,0,0,0,0,0,0,0,0,0,0,0,0,0,0,0,0,0,0,0,0,0,0,0,0,0,0,0,0,0,0,0,0,0,0,0,0,0,0,0,0,0,0,0,0,0,0,0,0,0,0,0,0,0,0,0,0,0,0,0,0,0,0,0,0,0,0,0,0,0,0,0,0,0,0,0,0,0],"id":10,"left_children":[1,3,5,7,9,11,13,15,17,19,21,23,25,27,29,31,33,35,37,39,41,43,45,47,49,51,53,55,57,59,61,63,65,-1,67,69,71,73,75,77,79,81,83,85,87,89,91,93,95,97,99,101,103,105,107,109,111,113,115,117,119,121,123,-1,-1,-1,-1,-1,-1,-1,-1,-1,-1,-1,-1,-1,-1,-1,-1,-1,-1,-1,-1,-1,-1,-1,-1,-1,-1,-1,-1,-1,-1,-1,-1,-1,-1,-1,-1,-1,-1,-1,-1,-1,-1,-1,-1,-1,-1,-1,-1,-1,-1,-1,-1,-1,-1,-1,-1,-1,-1,-1,-1,-1,-1],"loss_changes":[1.8560802E2,6.145613E1,3.4612038E1,2.1255657E1,2.01669E1,1.4531553E1,1.1421677E1,2.6739855E0,1.2425348E1,1.082251E1,1.9282635E1,2.692422E0,6.652527E0,9.738449E0,9.769535E-1,1.4640203E0,3.9715767E-2,2.6795359E0,9.480097E0,9.58551E0,7.378147E0,1.2566214E1,1.5088593E1,2.345694E0,3.2386582E0,1.1161093E1,3.755388E0,6.6435013E0,3.9045486E0,2.9509047E-1,1.2207003E0,9.3509436E-1,3.7800074E-3,0E0,7.300377E-4,1.4195391E1,2.2570887E0,7.479603E0,8.759651E-1,8.948959E0,5.8551397E0,2.968399E0,2.2350712E0,1.764556E1,3.9353466E-1,6.566452E0,3.0789685E0,1.5298142E0,2.2427568E0,8.526768E-1,9.773073E-1,2.7801216E0,1.4379589E1,2.1184335E0,5.8419E0,7.9659843E-1,6.7312117E0,1.4125212E0,2.7819977E0,9.4672695E-2,3.3518586E-1,5.7162166E-1,7.4732304E-1,0E0,0E0,0E0,0E0,0E0,0E0,0E0,0E0,0E0,0E0,0E0,0E0,0E0,0E0,0E0,0E0,0E0,0E0,0E0,0E0,0E0,0E0,0E0,0E0,0E0,0E0,0E0,0E0,0E0,0E0,0E0,0E0,0E0,0E0,0E0,0E0,0E0,0E0,0E0,0E0,0E0,0E0,0E0,0E0,0E0,0E0,0E0,0E0,0E0,0E0,0E0,0E0,0E0,0E0,0E0,0E0,0E0,0E0,0E0,0E0,0E0,0E0],"parents":[2147483647,0,0,1,1,2,2,3,3,4,4,5,5,6,6,7,7,8,8,9,9,10,10,11,11,12,12,13,13,14,14,15,15,16,16,17,17,18,18,19,19,20,20,21,21,22,22,23,23,24,24,25,25,26,26,27,27,28,28,29,29,30,30,31,31,32,32,34,34,35,35,36,36,37,37,38,38,39,39,40,40,41,41,42,42,43,43,44,44,45,45,46,46,47,47,48,48,49,49,50,50,51,51,52,52,53,53,54,54,55,55,56,56,57,57,58,58,59,59,60,60,61,61,62,62],"right_children":[2,4,6,8,10,12,14,16,18,20,22,24,26,28,30,32,34,36,38,40,42,44,46,48,50,52,54,56,58,60,62,64,66,-1,68,70,72,74,76,78,80,82,84,86,88,90,92,94,96,98,100,102,104,106,108,110,112,114,116,118,120,122,124,-1,-1,-1,-1,-1,-1,-1,-1,-1,-1,-1,-1,-1,-1,-1,-1,-1,-1,-1,-1,-1,-1,-1,-1,-1,-1,-1,-1,-1,-1,-1,-1,-1,-1,-1,-1,-1,-1,-1,-1,-1,-1,-1,-1,-1,-1,-1,-1,-1,-1,-1,-1,-1,-1,-1,-1,-1,-1,-1,-1,-1,-1],"split_conditions":[5.5575556E-1,1.6711365E-2,7.1677166E-1,1.0701071E-2,3.5263526E-1,3.784E-1,8.119E-1,1.6505053E-2,8.046214E-3,7.4952483E-1,7.494998E-1,7.4952483E-1,7.0974994E-1,8.474847E-1,7.749775E-1,4.87E-1,9.10091E-3,7.4574995E-1,7.4967504E-1,2.2593749E-1,7.4994993E-1,7.4944997E-1,7.4994993E-1,9.9049926E-2,2.2488136E-2,1.2624991E-1,7.4952483E-1,4.951516E-3,9.7975016E-2,9.2300004E-1,6.808335E-3,3.30033E-3,5.01E-1,4.434186E-3,2.5E-3,7.22075E-1,1.9491948E-1,3.1933194E-1,7.535E-1,1.060106E-1,6.704E-1,3.0740662E-2,4.2913135E-2,7.4927497E-1,4.5384538E-1,3.2597482E-2,3.2803793E-2,2.2900762E-2,1.2749994E-1,7.4967504E-1,7.6672506E-1,1.2172477E-2,2.6614398E-2,1.9806065E-2,7.4967504E-1,1.3E-1,7.039499E-1,7.649994E-2,9.5179516E-1,7.6037604E-1,1.5473488E-2,7.924792E-1,8.043805E-1,-3.5945051E-3,-1.3376911E-3,1.119079E-2,1.7828077E-2,-4.732599E-3,-8.789599E-4,-1.4621757E-4,7.925615E-3,-4.6802363E-3,-8.997565E-5,5.413934E-3,2.2289683E-3,-2.9535482E-3,-8.479892E-3,1.2312139E-2,6.0145305E-3,6.0291955E-4,9.495127E-3,1.2262605E-2,2.6102861E-2,-1.0378156E-3,1.418822E-2,2.3374925E-3,2.0035725E-2,-1.3867522E-2,-8.943233E-3,6.860006E-3,1.4447289E-2,-1.8736972E-3,5.518778E-3,2.0092924E-3,-7.092447E-4,-2.4528492E-3,-9.108047E-4,2.018825E-3,-2.4056083E-3,3.135192E-3,9.607314E-3,-1.7067088E-3,1.0056003E-3,1.6074972E-3,7.0779915E-3,-2.7859642E-4,-4.823906E-3,6.250868E-3,-5.184542E-4,-3.8847195E-3,-2.4046588E-3,-4.428303E-4,-2.089553E-3,-2.3569704E-3,-2.2948247E-4,-2.1560118E-3,-3.098037E-3,-2.736137E-3,2.8074149E-3,-5.0304057E-3,9.837743E-3,8.98254E-3,-2.531371E-3,8.735208E-3,1.5284578E-2],"split_indices":[0,1,0,0,0,2,2,1,1,3,3,3,3,0,0,2,0,3,3,3,3,3,3,3,1,3,3,1,3,2,1,0,2,0,2,3,0,0,3,0,2,1,1,3,0,1,1,1,3,3,3,1,1,1,3,3,3,3,0,0,1,0,0,0,0,0,0,0,0,0,0,0,0,0,0,0,0,0,0,0,0,0,0,0,0,0,0,0,0,0,0,0,0,0,0,0,0,0,0,0,0,0,0,0,0,0,0,0,0,0,0,0,0,0,0,0,0,0,0,0,0,0,0,0,0],"split_type":[0,0,0,0,0,0,0,0,0,0,0,0,0,0,0,0,0,0,0,0,0,0,0,0,0,0,0,0,0,0,0,0,0,0,0,0,0,0,0,0,0,0,0,0,0,0,0,0,0,0,0,0,0,0,0,0,0,0,0,0,0,0,0,0,0,0,0,0,0,0,0,0,0,0,0,0,0,0,0,0,0,0,0,0,0,0,0,0,0,0,0,0,0,0,0,0,0,0,0,0,0,0,0,0,0,0,0,0,0,0,0,0,0,0,0,0,0,0,0,0,0,0,0,0,0],"sum_hessian":[5.99897E5,1.79791E5,4.20106E5,8.736E4,9.2431E4,1.21079E5,2.99027E5,1.9867E4,6.7493E4,4.2019E4,5.0412E4,5.6208E4,6.4871E4,2.9777E5,1.257E3,1.6634E4,3.233E3,3.17E4,3.5793E4,4.0888E4,1.131E3,4.3434E4,6.978E3,5.1273E4,4.935E3,5.0205E4,1.4666E4,1.50312E5,1.47458E5,2.25E2,1.032E3,1.6592E4,4.2E1,4E0,3.229E3,2.7356E4,4.344E3,3.4633E4,1.16E3,3.5282E4,5.606E3,7.27E2,4.04E2,4.2717E4,7.17E2,4.69E3,2.288E3,8.587E3,4.2686E4,2.371E3,2.564E3,2.9577E4,2.0628E4,4.314E3,1.0352E4,2.6076E4,1.24236E5,1.5329E4,1.32129E5,1.41E2,8.4E1,1.84E2,8.48E2,2.102E3,1.449E4,8E0,3.4E1,3.228E3,1E0,2.497E4,2.386E3,1.916E3,2.428E3,1.0647E4,2.3986E4,5.26E2,6.34E2,2.423E3,3.2859E4,4.729E3,8.77E2,2.29E2,4.98E2,2.47E2,1.57E2,4.2147E4,5.7E2,2.63E2,4.54E2,1.969E3,2.721E3,1.288E3,1E3,3.479E3,5.108E3,1.4069E4,2.8617E4,5.74E2,1.797E3,2.305E3,2.59E2,4.447E3,2.513E4,1.3009E4,7.619E3,1.678E3,2.636E3,1.488E3,8.864E3,4.372E3,2.1704E4,8.9953E4,3.4283E4,4.361E3,1.0968E4,8.0946E4,5.1183E4,9.7E1,4.4E1,1.9E1,6.5E1,6.7E1,1.17E2,5.98E2,2.5E2],"tree_param":{"num_deleted":"0","num_feature":"4","num_nodes":"125","size_leaf_vector":"1"}},{"base_weights":[1.7585323E-6,2.4442945E-2,-1.0265683E-2,4.4993563E-3,3.9459642E-2,-3.2826406E-3,-2.0054866E-2,-1.859485E-2,1.3030988E-2,7.266176E-2,3.3207234E-2,-4.1084485E-3,9.3830206E-2,-5.732436E-3,-2.16838E-2,-3.9788637E-2,-1.41553255E-2,3.5756636E-2,8.165278E-3,7.951608E-2,4.8580837E-2,-1.4073452E-2,3.7407763E-2,-1.7235436E-2,2.2231024E-3,1.2307381E-1,-1.6652139E-2,-2.0388458E-2,5.9941324E-4,-2.7867112E-2,-1.858991E-2,5.7332024E-2,-4.209425E-2,-1.2631855E-2,-5.222277E-2,-3.4019172E-2,4.748408E-2,-5.5058295E-4,3.260415E-2,4.148748E-2,8.5025646E-2,4.4394918E-2,1.2641102E-1,1.2581743E-1,-1.7134838E-2,3.1147595E-2,5.5696905E-2,6.169448E-3,-1.872976E-2,1.0487256E-2,-4.240195E-3,-2.164643E-2,1.3740551E-1,4.1122966E-2,-2.0869832E-2,-2.1881338E-2,1.205922E-2,1.938603E-2,-6.1867465E-3,-4.2950675E-2,-2.332645E-2,-1.1728955E-2,-2.7226439E-2,1.621476E-3,2.426493E-2,-4.260101E-3,1.7586108E-3,3.8739052E-3,-1.4493169E-3,-5.904642E-3,1.0518386E-3,-3.7010375E-3,1.9985493E-2,-2.5254583E-3,5.543721E-3,4.364492E-3,-6.0860376E-4,9.22639E-3,1.2008215E-3,3.5996921E-3,1.1609012E-2,1.2732289E-2,8.153756E-3,6.1854385E-3,2.4308283E-3,4.8905658E-3,1.6349226E-2,4.791025E-3,2.6198912E-2,-3.319284E-3,8.458015E-4,2.6229084E-3,7.427476E-3,5.9303916E-3,-1.5798047E-3,-1.3799046E-3,2.4376838E-3,-2.085789E-3,-2.845647E-4,-6.7899626E-4,1.4550397E-3,-5.6352746E-4,5.1195817E-3,2.6867907E-3,-2.8098035E-3,1.3002276E-2,2.3202809E-2,-1.0785515E-3,9.375048E-3,-2.6366767E-3,1.0143219E-3,-4.341926E-3,-1.9723359E-3,1.710323E-3,-3.8470482E-3,-6.5563E-4,2.8060365E-3,-3.923194E-3,2.440483E-4,-3.8987745E-3,-4.8972303E-3,-1.7702756E-3,-3.90744E-3,-1.8110889E-3,2.9597033E-4,-1.6304062E-3,-3.9585E-3],"categories":[],"categories_nodes":[],"categories_segments":[],"categories_sizes":[],"default_left":[0,0,0,0,0,0,0,0,0,0,0,0,0,0,0,0,0,0,0,0,0,0,0,0,0,0,0,0,0,0,0,0,0,0,0,0,0,0,0,0,0,0,0,0,0,0,0,0,0,0,0,0,0,0,0,0,0,0,0,0,0,0,0,0,0,0,0,0,0,0,0,0,0,0,0,0,0,0,0,0,0,0,0,0,0,0,0,0,0,0,0,0,0,0,0,0,0,0,0,0,0,0,0,0,0,0,0,0,0,0,0,0,0,0,0,0,0,0,0,0,0,0,0,0,0,0,0],"id":11,"left_children":[1,3,5,7,9,11,13,15,17,19,21,23,25,27,29,31,33,35,37,39,41,43,45,47,49,51,53,55,57,59,61,63,65,67,69,71,73,75,77,79,81,83,85,87,89,91,93,95,97,99,101,103,105,107,109,111,113,115,117,119,121,123,125,-1,-1,-1,-1,-1,-1,-1,-1,-1,-1,-1,-1,-1,-1,-1,-1,-1,-1,-1,-1,-1,-1,-1,-1,-1,-1,-1,-1,-1,-1,-1,-1,-1,-1,-1,-1,-1,-1,-1,-1,-1,-1,-1,-1,-1,-1,-1,-1,-1,-1,-1,-1,-1,-1,-1,-1,-1,-1,-1,-1,-1,-1,-1,-1],"loss_changes":[1.5054372E2,5.314704E1,2.8877064E1,1.5019344E1,2.1013275E1,1.977357E1,4.1032104E0,1.9343114E0,6.1548347E0,2.6440048E0,1.6920395E1,2.0319874E1,6.7190933E0,1.6668808E0,3.0205536E0,7.998018E-1,9.854808E-1,8.03397E0,9.766121E0,2.6125565E0,1.1532259E0,2.9794188E0,8.956551E0,2.7823715E0,8.809616E0,3.4127731E0,1.0710171E-1,2.6276278E-1,1.5993418E0,3.605854E0,6.236664E0,6.285039E-1,1.0596609E-1,1.5640011E0,2.8061402E-1,9.9588084E-1,4.8631115E0,8.268437E0,1.4808997E1,6.438241E-1,1.5985031E0,1.1828165E0,5.121975E-1,1.5681522E0,2.7965207E0,1.2363247E1,5.1459618E0,1.736403E0,2.5276642E0,5.0812984E0,7.157887E0,4.739123E-2,1.0149002E0,8.296557E-2,6.965144E-2,2.3994803E-1,6.1572462E-2,7.4931705E-1,2.6274714E0,2.8884125E-1,3.5842857E0,5.4989614E0,6.289379E0,0E0,0E0,0E0,0E0,0E0,0E0,0E0,0E0,0E0,0E0,0E0,0E0,0E0,0E0,0E0,0E0,0E0,0E0,0E0,0E0,0E0,0E0,0E0,0E0,0E0,0E0,0E0,0E0,0E0,0E0,0E0,0E0,0E0,0E0,0E0,0E0,0E0,0E0,0E0,0E0,0E0,0E0,0E0,0E0,0E0,0E0,0E0,0E0,0E0,0E0,0E0,0E0,0E0,0E0,0E0,0E0,0E0,0E0,0E0,0E0,0E0,0E0,0E0,0E0],"parents":[2147483647,0,0,1,1,2,2,3,3,4,4,5,5,6,6,7,7,8,8,9,9,10,10,11,11,12,12,13,13,14,14,15,15,16,16,17,17,18,18,19,19,20,20,21,21,22,22,23,23,24,24,25,25,26,26,27,27,28,28,29,29,30,30,31,31,32,32,33,33,34,34,35,35,36,36,37,37,38,38,39,39,40,40,41,41,42,42,43,43,44,44,45,45,46,46,47,47,48,48,49,49,50,50,51,51,52,52,53,53,54,54,55,55,56,56,57,57,58,58,59,59,60,60,61,61,62,62],"right_children":[2,4,6,8,10,12,14,16,18,20,22,24,26,28,30,32,34,36,38,40,42,44,46,48,50,52,54,56,58,60,62,64,66,68,70,72,74,76,78,80,82,84,86,88,90,92,94,96,98,100,102,104,106,108,110,112,114,116,118,120,122,124,126,-1,-1,-1,-1,-1,-1,-1,-1,-1,-1,-1,-1,-1,-1,-1,-1,-1,-1,-1,-1,-1,-1,-1,-1,-1,-1,-1,-1,-1,-1,-1,-1,-1,-1,-1,-1,-1,-1,-1,-1,-1,-1,-1,-1,-1,-1,-1,-1,-1,-1,-1,-1,-1,-1,-1,-1,-1,-1,-1,-1,-1,-1,-1,-1],"split_conditions":[5.508551E-1,1.56E-1,8.19982E-1,1.0701071E-2,1.9491948E-1,8.190819E-1,9.740007E-2,4.7597504E-1,8.55999E-2,4.415102E-2,6.602022E-3,1.56E-1,9.490406E-3,7.649994E-2,1.2624991E-1,3.74825E-1,5E-4,7.562494E-2,7.0974994E-1,1.0109345E-2,1.4625001E-1,1.66E-1,5.87E-1,7.969999E-2,6.9666964E-1,9.284093E-3,8.384991E-2,5.81E-1,7.8750014E-2,1.1657142E-2,7.395749E-1,1.175985E-2,1.7742932E-2,5.0600004E-1,2.8714284E-2,5.3228796E-2,7.6335873E-3,1.9491948E-1,7.4574995E-1,6.6660005E-1,8.080808E-2,7.8750014E-2,5.555E-1,2.6660633E-1,5.06E-1,7.4952483E-1,7.4962497E-1,7.649994E-2,7.4907494E-1,1.2172477E-2,7.3599994E-1,1.1384988E-1,3.55E-1,7.7199936E-2,7.499001E-1,4.6049953E-2,9.8069805E-1,1.836187E-2,6.9999998E-3,1.14374995E-1,1.2367487E-1,1.5886113E-2,4.716E-1,1.621476E-3,2.426493E-2,-4.260101E-3,1.7586108E-3,3.8739052E-3,-1.4493169E-3,-5.904642E-3,1.0518386E-3,-3.7010375E-3,1.9985493E-2,-2.5254583E-3,5.543721E-3,4.364492E-3,-6.0860376E-4,9.22639E-3,1.2008215E-3,3.5996921E-3,1.1609012E-2,1.2732289E-2,8.153756E-3,6.1854385E-3,2.4308283E-3,4.8905658E-3,1.6349226E-2,4.791025E-3,2.6198912E-2,-3.319284E-3,8.458015E-4,2.6229084E-3,7.427476E-3,5.9303916E-3,-1.5798047E-3,-1.3799046E-3,2.4376838E-3,-2.085789E-3,-2.845647E-4,-6.7899626E-4,1.4550397E-3,-5.6352746E-4,5.1195817E-3,2.6867907E-3,-2.8098035E-3,1.3002276E-2,2.3202809E-2,-1.0785515E-3,9.375048E-3,-2.6366767E-3,1.0143219E-3,-4.341926E-3,-1.9723359E-3,1.710323E-3,-3.8470482E-3,-6.5563E-4,2.8060365E-3,-3.923194E-3,2.440483E-4,-3.8987745E-3,-4.8972303E-3,-1.7702756E-3,-3.90744E-3,-1.8110889E-3,2.9597033E-4,-1.6304062E-3,-3.9585E-3],"split_indices":[0,2,0,0,0,0,3,3,3,1,1,2,1,3,3,3,2,3,3,1,3,2,2,3,0,1,3,2,3,2,3,1,1,3,2,1,1,0,3,2,0,3,2,3,2,3,3,3,3,1,2,3,2,3,3,3,0,1,2,3,3,1,2,0,0,0,0,0,0,0,0,0,0,0,0,0,0,0,0,0,0,0,0,0,0,0,0,0,0,0,0,0,0,0,0,0,0,0,0,0,0,0,0,0,0,0,0,0,0,0,0,0,0,0,0,0,0,0,0,0,0,0,0,0,0,0,0],"split_type":[0,0,0,0,0,0,0,0,0,0,0,0,0,0,0,0,0,0,0,0,0,0,0,0,0,0,0,0,0,0,0,0,0,0,0,0,0,0,0,0,0,0,0,0,0,0,0,0,0,0,0,0,0,0,0,0,0,0,0,0,0,0,0,0,0,0,0,0,0,0,0,0,0,0,0,0,0,0,0,0,0,0,0,0,0,0,0,0,0,0,0,0,0,0,0,0,0,0,0,0,0,0,0,0,0,0,0,0,0,0,0,0,0,0,0,0,0,0,0,0,0,0,0,0,0,0,0],"sum_hessian":[5.99897E5,1.7746E5,4.22437E5,7.6226E4,1.01234E5,2.46558E5,1.75879E5,2.0563E4,5.5663E4,1.6041E4,8.5193E4,2.4448E5,2.078E3,1.7961E4,1.57918E5,3.56E3,1.7003E4,9.815E3,4.5848E4,1.2485E4,3.556E3,6.951E3,7.8242E4,7.955E4,1.6493E5,1.643E3,4.35E2,5.418E3,1.2543E4,5.2662E4,1.05256E5,8.2E1,3.478E3,1.635E4,6.53E2,1.412E3,8.403E3,3.3796E4,1.2052E4,1.581E3,1.0904E4,3.376E3,1.8E2,1.48E2,6.803E3,5.8292E4,1.995E4,4.774E3,7.4776E4,7.2381E4,9.2549E4,1.48E2,1.495E3,2.9E1,4.06E2,5.18E3,2.38E2,3.328E3,9.215E3,1.2183E4,4.0479E4,5.8659E4,4.6597E4,6.8E1,1.4E1,3.449E3,2.9E1,5.71E2,1.5779E4,5.89E2,6.4E1,1.395E3,1.7E1,8.28E2,7.575E3,3.761E3,3.0035E4,3.092E3,8.96E3,1.474E3,1.07E2,8.28E2,1.0076E4,1.805E3,1.571E3,5.9E1,1.21E2,9.5E1,5.3E1,4.18E3,2.623E3,5.2326E4,5.966E3,1.8992E4,9.58E2,2.277E3,2.497E3,6.5941E4,8.835E3,1.3781E4,5.86E4,9.0278E4,2.271E3,1.7E1,1.31E2,1.389E3,1.06E2,1.5E1,1.4E1,3.45E2,6.1E1,4.7E2,4.71E3,2.17E2,2.1E1,8.34E2,2.494E3,1.907E3,7.308E3,7.352E3,4.831E3,2.9829E4,1.065E4,4.0892E4,1.7767E4,2.4737E4,2.186E4],"tree_param":{"num_deleted":"0","num_feature":"4","num_nodes":"127","size_leaf_vector":"1"}},{"base_weights":[1.880797E-6,1.7519983E-2,-1.169848E-2,5.6350757E-3,3.2988664E-2,-5.6208074E-3,-1.804956E-2,2.461069E-2,9.119226E-4,4.7481097E-2,2.178926E-2,-6.651473E-3,8.4467754E-2,-2.8505256E-2,-1.6194776E-2,6.488974E-2,1.4911731E-2,-1.5976822E-2,4.9033714E-3,2.1375543E-2,5.3682398E-2,1.1902163E-2,3.4689702E-2,-1.7700639E-2,-1.4104745E-3,1.10788375E-1,-1.4971617E-2,-3.207718E-2,-1.7958349E-2,-1.3902296E-2,-2.9563308E-2,5.195626E-2,9.397392E-2,-2.9414449E-2,2.2310877E-2,-2.4706932E-2,-7.92392E-3,-1.4822885E-3,2.2150142E-2,9.544094E-3,5.9757E-2,7.90211E-2,4.898205E-2,1.6770707E-2,-3.813621E-2,3.4162395E-3,5.5387907E-2,9.262396E-3,-1.9060683E-2,2.418436E-3,-1.5458414E-2,-1.9482616E-2,1.2368917E-1,3.728722E-2,-1.8786835E-2,-1.6933683E-2,-3.5472576E-2,-1.2986034E-2,-4.8634537E-2,-2.0825047E-2,-9.931709E-3,-3.147433E-2,-9.25442E-3,2.1361501E-3,5.8828E-3,1.2024817E-2,6.1759935E-3,-3.1145297E-3,1.9530686E-2,-5.7437248E-3,2.7355924E-3,-2.829066E-3,8.9834444E-4,-1.4001903E-3,1.9880433E-3,4.091714E-3,-4.4889745E-4,4.005999E-3,6.551275E-4,3.717328E-3,-1.6333498E-3,8.0029685E-3,-2.660605E-3,8.984243E-3,5.311688E-3,3.7820265E-3,6.820686E-3,4.9460767E-4,3.5833053E-3,-4.226393E-3,4.1597653E-3,1.0886171E-4,1.5289932E-2,6.885337E-3,3.0494719E-3,-7.767777E-4,3.2971997E-3,-2.7836976E-3,-1.6105354E-3,-6.7926286E-4,1.7671386E-3,-2.2979845E-4,-2.3384409E-3,-9.2976604E-4,-4.6084505E-3,1.1702985E-2,2.0904213E-2,1.929384E-3,1.9279636E-2,-2.373771E-3,9.145257E-4,-5.10169E-3,-1.5325459E-3,-4.201608E-3,-2.781632E-3,-1.0283425E-3,-3.4340792E-3,-2.9810364E-3,-4.8846975E-3,-2.3319924E-3,1.0603064E-3,-6.105955E-4,-2.239861E-3,-2.4813402E-3,-3.4946164E-3,-1.3295496E-3,9.711901E-3],"categories":[],"categories_nodes":[],"categories_segments":[],"categories_sizes":[],"default_left":[0,0,0,0,0,0,0,0,0,0,0,0,0,0,0,0,0,0,0,0,0,0,0,0,0,0,0,0,0,0,0,0,0,0,0,0,0,0,0,0,0,0,0,0,0,0,0,0,0,0,0,0,0,0,0,0,0,0,0,0,0,0,0,0,0,0,0,0,0,0,0,0,0,0,0,0,0,0,0,0,0,0,0,0,0,0,0,0,0,0,0,0,0,0,0,0,0,0,0,0,0,0,0,0,0,0,0,0,0,0,0,0,0,0,0,0,0,0,0,0,0,0,0,0,0,0,0],"id":12,"left_children":[1,3,5,7,9,11,13,15,17,19,21,23,25,27,29,31,33,35,37,39,41,43,45,47,49,51,53,55,57,59,61,63,65,67,69,71,73,75,77,79,81,83,85,87,89,91,93,95,97,99,101,103,105,107,109,111,113,115,117,119,121,123,125,-1,-1,-1,-1,-1,-1,-1,-1,-1,-1,-1,-1,-1,-1,-1,-1,-1,-1,-1,-1,-1,-1,-1,-1,-1,-1,-1,-1,-1,-1,-1,-1,-1,-1,-1,-1,-1,-1,-1,-1,-1,-1,-1,-1,-1,-1,-1,-1,-1,-1,-1,-1,-1,-1,-1,-1,-1,-1,-1,-1,-1,-1,-1,-1],"loss_changes":[1.2296016E2,4.4163895E1,1.3883198E1,1.2175589E1,1.693988E1,1.706606E1,3.410389E0,1.05762825E1,7.3327966E0,7.364441E0,7.5094833E0,1.0522905E1,5.443038E0,9.9767685E-1,4.5777435E0,1.9714622E0,7.157746E0,1.4616785E0,9.689888E0,3.9660656E0,4.374756E0,8.121271E0,1.6535849E1,2.1440659E0,6.629661E0,2.765314E0,8.762967E-2,1.0171185E0,1.0222454E0,3.5049305E0,8.483429E-1,7.638035E-1,1.3603535E0,1.2204106E0,7.5256014E0,1.2048488E0,1.8284595E0,8.185916E0,6.6415577E0,4.775222E0,3.6052976E0,1.6073341E0,6.652504E0,6.8474064E0,9.7463226E-1,3.5401247E0,5.1505737E0,1.1340663E0,1.4430923E0,1.3607992E1,2.753613E0,3.994144E-2,8.2585144E-1,8.022428E-2,5.6500435E-2,1.9802654E-1,8.0877686E-1,3.327694E-1,2.282858E-3,3.6446304E0,3.8650913E0,4.61298E-1,8.1029356E-1,0E0,0E0,0E0,0E0,0E0,0E0,0E0,0E0,0E0,0E0,0E0,0E0,0E0,0E0,0E0,0E0,0E0,0E0,0E0,0E0,0E0,0E0,0E0,0E0,0E0,0E0,0E0,0E0,0E0,0E0,0E0,0E0,0E0,0E0,0E0,0E0,0E0,0E0,0E0,0E0,0E0,0E0,0E0,0E0,0E0,0E0,0E0,0E0,0E0,0E0,0E0,0E0,0E0,0E0,0E0,0E0,0E0,0E0,0E0,0E0,0E0,0E0,0E0,0E0],"parents":[2147483647,0,0,1,1,2,2,3,3,4,4,5,5,6,6,7,7,8,8,9,9,10,10,11,11,12,12,13,13,14,14,15,15,16,16,17,17,18,18,19,19,20,20,21,21,22,22,23,23,24,24,25,25,26,26,27,27,28,28,29,29,30,30,31,31,32,32,33,33,34,34,35,35,36,36,37,37,38,38,39,39,40,40,41,41,42,42,43,43,44,44,45,45,46,46,47,47,48,48,49,49,50,50,51,51,52,52,53,53,54,54,55,55,56,56,57,57,58,58,59,59,60,60,61,61,62,62],"right_children":[2,4,6,8,10,12,14,16,18,20,22,24,26,28,30,32,34,36,38,40,42,44,46,48,50,52,54,56,58,60,62,64,66,68,70,72,74,76,78,80,82,84,86,88,90,92,94,96,98,100,102,104,106,108,110,112,114,116,118,120,122,124,126,-1,-1,-1,-1,-1,-1,-1,-1,-1,-1,-1,-1,-1,-1,-1,-1,-1,-1,-1,-1,-1,-1,-1,-1,-1,-1,-1,-1,-1,-1,-1,-1,-1,-1,-1,-1,-1,-1,-1,-1,-1,-1,-1,-1,-1,-1,-1,-1,-1,-1,-1,-1,-1,-1,-1,-1,-1,-1,-1,-1,-1,-1,-1,-1],"split_conditions":[6.515652E-1,3.9119998E-1,8.19982E-1,9.7975016E-2,4.1374138E-1,8.190819E-1,5.570456E-3,2.2202219E-1,1.0701071E-2,1.3204043E-2,2.5995458E-2,1.56E-1,9.490406E-3,6.2462497E-1,7.4967504E-1,8.55999E-2,7.562494E-2,5.8509374E-1,7.0974994E-1,1.6332495E-1,7.8750014E-2,7.4967504E-1,1.20000005E-1,7.8750014E-2,7.3317504E-1,9.284093E-3,8.384991E-2,1.1097503E-1,9.985998E-1,1.432E-1,7.6672506E-1,7.687497E-2,3.1153288E-2,5.529193E-2,2.3032303E-1,1.7330306E-2,1.8568184E-3,1.9491948E-1,4.7554755E-1,1.099E-1,7.395749E-1,5.4879304E-2,1.4625001E-1,1.8748116E-1,7.6672506E-1,8.5359997E-1,6.006E-1,7.687497E-2,1.6332495E-1,1.2812495E-1,4.516E-1,7.220961E-3,3.55E-1,5.847333E-1,7.499001E-1,8.249998E-2,1.35625E-1,3.94E-1,6.189395E-4,7.4907494E-1,7.298999E-1,4.3279997E-1,9.9339926E-1,2.1361501E-3,5.8828E-3,1.2024817E-2,6.1759935E-3,-3.1145297E-3,1.9530686E-2,-5.7437248E-3,2.7355924E-3,-2.829066E-3,8.9834444E-4,-1.4001903E-3,1.9880433E-3,4.091714E-3,-4.4889745E-4,4.005999E-3,6.551275E-4,3.717328E-3,-1.6333498E-3,8.0029685E-3,-2.660605E-3,8.984243E-3,5.311688E-3,3.7820265E-3,6.820686E-3,4.9460767E-4,3.5833053E-3,-4.226393E-3,4.1597653E-3,1.0886171E-4,1.5289932E-2,6.885337E-3,3.0494719E-3,-7.767777E-4,3.2971997E-3,-2.7836976E-3,-1.6105354E-3,-6.7926286E-4,1.7671386E-3,-2.2979845E-4,-2.3384409E-3,-9.2976604E-4,-4.6084505E-3,1.1702985E-2,2.0904213E-2,1.929384E-3,1.9279636E-2,-2.373771E-3,9.145257E-4,-5.10169E-3,-1.5325459E-3,-4.201608E-3,-2.781632E-3,-1.0283425E-3,-3.4340792E-3,-2.9810364E-3,-4.8846975E-3,-2.3319924E-3,1.0603064E-3,-6.105955E-4,-2.239861E-3,-2.4813402E-3,-3.4946164E-3,-1.3295496E-3,9.711901E-3],"split_indices":[0,2,0,3,0,0,1,0,0,1,1,2,1,3,3,3,3,3,3,3,3,3,3,3,3,1,3,3,0,2,3,3,1,1,0,1,1,0,0,3,3,1,3,3,3,2,2,3,3,3,2,1,2,2,3,3,3,2,1,3,3,2,0,0,0,0,0,0,0,0,0,0,0,0,0,0,0,0,0,0,0,0,0,0,0,0,0,0,0,0,0,0,0,0,0,0,0,0,0,0,0,0,0,0,0,0,0,0,0,0,0,0,0,0,0,0,0,0,0,0,0,0,0,0,0,0,0],"split_type":[0,0,0,0,0,0,0,0,0,0,0,0,0,0,0,0,0,0,0,0,0,0,0,0,0,0,0,0,0,0,0,0,0,0,0,0,0,0,0,0,0,0,0,0,0,0,0,0,0,0,0,0,0,0,0,0,0,0,0,0,0,0,0,0,0,0,0,0,0,0,0,0,0,0,0,0,0,0,0,0,0,0,0,0,0,0,0,0,0,0,0,0,0,0,0,0,0,0,0,0,0,0,0,0,0,0,0,0,0,0,0,0,0,0,0,0,0,0,0,0,0,0,0,0,0,0,0],"sum_hessian":[5.99897E5,2.40225E5,3.59672E5,1.3585E5,1.04375E5,1.83793E5,1.75879E5,2.7074E4,1.08776E5,4.5497E4,5.8878E4,1.81715E5,2.078E3,2.6497E4,1.49382E5,5.253E3,2.1821E4,2.0793E4,8.7983E4,8.734E3,3.6763E4,3.3333E4,2.5545E4,5.8462E4,1.23253E5,1.643E3,4.35E2,1.9792E4,6.705E3,1.27517E5,2.1865E4,3.638E3,1.615E3,3.121E3,1.87E4,9.976E3,1.0817E4,6.421E4,2.3773E4,6.677E3,2.057E3,5.75E3,3.1013E4,3.0378E4,2.955E3,1.0174E4,1.5371E4,2.807E3,5.5655E4,9.6855E4,2.6398E4,1.48E2,1.495E3,2.9E1,4.06E2,3.626E3,1.6166E4,5.771E3,9.34E2,4.6478E4,8.1039E4,1.9984E4,1.881E3,6.68E2,2.97E3,8.88E2,7.27E2,3.098E3,2.3E1,1.112E3,1.7588E4,9.017E3,9.59E2,8.877E3,1.94E3,4.251E3,5.9959E4,1.1066E4,1.2707E4,3.229E3,3.448E3,1.666E3,3.91E2,4.054E3,1.696E3,1.9623E4,1.139E4,1.8749E4,1.1629E4,2.81E3,1.45E2,1.0019E4,1.55E2,9.974E3,5.397E3,1.634E3,1.173E3,1.4018E4,4.1637E4,6.0388E4,3.6467E4,9.923E3,1.6475E4,1.08E2,4E1,1.389E3,1.06E2,2.7E1,2E0,3.45E2,6.1E1,1.62E2,3.464E3,8.714E3,7.452E3,5.124E3,6.47E2,1.2E1,9.22E2,4.306E4,3.418E3,6.2011E4,1.9028E4,6.85E3,1.3134E4,1.813E3,6.8E1],"tree_param":{"num_deleted":"0","num_feature":"4","num_nodes":"127","size_leaf_vector":"1"}},{"base_weights":[1.8990442E-6,2.0034818E-2,-8.413683E-3,-6.3279486E-4,3.015506E-2,7.3326705E-4,-1.3487694E-2,3.4151482E-3,-2.2146242E-2,1.6397666E-2,4.0250067E-2,-6.0698283E-3,9.076321E-3,-1.41298985E-2,3.5801277E-2,-4.637615E-3,1.2370522E-2,-1.7233716E-2,-4.404499E-2,1.0880269E-2,6.516915E-2,5.343404E-2,3.22357E-2,-8.400327E-3,1.33927055E-2,1.5513431E-2,-1.3798806E-2,-2.261318E-2,-1.1795303E-2,5.0676413E-2,-8.66141E-3,-2.2845061E-2,5.9911157E-3,8.714266E-3,5.0723467E-2,-2.4629388E-2,3.2625985E-3,-5.4832898E-2,-3.3344667E-2,1.3164249E-2,-8.847681E-2,1.3147774E-1,4.3009054E-2,1.0983235E-1,5.16421E-2,2.3211215E-2,5.0321102E-2,8.842096E-3,-1.10483775E-2,-6.971953E-3,4.2487778E-2,8.6476846E-4,3.0176485E-2,4.221488E-3,