{"learner":{"attributes":{},"feature_names":[],"feature_types":[],"gradient_booster":{"model":{"gbtree_model_param":{"num_parallel_tree":"1","num_trees":"150"},"iteration_indptr":[0,1,2,3,4,5,6,7,8,9,10,11,12,13,14,15,16,17,18,19,20,21,22,23,24,25,26,27,28,29,30,31,32,33,34,35,36,37,38,39,40,41,42,43,44,45,46,47,48,49,50,51,52,53,54,55,56,57,58,59,60,61,62,63,64,65,66,67,68,69,70,71,72,73,74,75,76,77,78,79,80,81,82,83,84,85,86,87,88,89,90,91,92,93,94,95,96,97,98,99,100,101,102,103,104,105,106,107,108,109,110,111,112,113,114,115,116,117,118,119,120,121,122,123,124,125,126,127,128,129,130,131,132,133,134,135,136,137,138,139,140,141,142,143,144,145,146,147,148,149,150],"tree_info":[0,0,0,0,0,0,0,0,0,0,0,0,0,0,0,0,0,0,0,0,0,0,0,0,0,0,0,0,0,0,0,0,0,0,0,0,0,0,0,0,0,0,0,0,0,0,0,0,0,0,0,0,0,0,0,0,0,0,0,0,0,0,0,0,0,0,0,0,0,0,0,0,0,0,0,0,0,0,0,0,0,0,0,0,0,0,0,0,0,0,0,0,0,0,0,0,0,0,0,0,0,0,0,0,0,0,0,0,0,0,0,0,0,0,0,0,0,0,0,0,0,0,0,0,0,0,0,0,0,0,0,0,0,0,0,0,0,0,0,0,0,0,0,0,0,0,0,0,0,0],"trees":[{"base_weights":[5.0027044E-10,5.9928014E-3,-1.5975004E-2,1.4859704E-2,-1.7471779E-3,-9.794746E-3,-2.7475052E-2,-1.4956806E-2,2.0554405E-2,-8.690331E-3,8.083159E-3,-1.9099448E-2,4.876879E-3,-2.2709994E-2,-3.296673E-2,-4.9191387E-3,-3.0464193E-2,1.16495425E-2,2.832974E-2,2.7777036E-4,-1.1929432E-2,1.6941197E-2,-1.8595952E-3,-2.9461572E-2,-1.2314422E-2,-1.3770736E-2,2.3623828E-2,-1.8974101E-2,-3.0076262E-2,-3.4489095E-2,-2.4755942E-2,2.1712203E-3,-2.8977431E-2,-3.4386586E-2,-9.7476505E-3,9.147901E-3,6.306758E-2,6.387231E-2,2.3749158E-2,-1.327659E-2,3.800235E-3,-2.4405712E-2,-6.360895E-3,-3.9251722E-2,2.1337317E-2,1.17843505E-2,-8.360242E-3,-1.4194963E-2,-3.1500883E-2,-4.937119E-3,-2.2188075E-2,-8.942287E-3,-2.3524912E-2,1.051617E-1,1.4588191E-2,8.96299E-3,-1.987397E-2,-2.1833027E-2,-3.257587E-2,-3.0580403E-2,-3.949015E-2,-3.5397682E-2,-2.3850892E-2,-8.3396735E-4,7.1230845E-4,-3.069732E-3,-1.336903E-4,-3.4390376E-3,-9.3174813E-4,-1.7897235E-3,-1.9171977E-4,2.0519511E-3,1.1149019E-4,7.5952793E-3,2.6525243E-3,4.3690423E-3,9.201654E-3,3.0753294E-3,1.259015E-3,5.467939E-4,-1.9265347E-3,1.1546215E-3,-3.2037156E-4,-1.7928364E-3,-2.9905841E-3,3.142366E-4,-9.237517E-4,-4.757711E-3,1.8913251E-3,8.984297E-3,1.8690386E-3,-1.5185471E-3,1.7575551E-3,3.6781814E-5,-2.3000964E-3,-6.286638E-4,-1.9387571E-3,-3.8628045E-3,-2.4675925E-3,2.3106155E-3,-1.0260312E-3,-2.013771E-3,-3.9301994E-3,-1.6556553E-3,6.561807E-3,-3.3499175E-3,-1.7975804E-3,-4.0012184E-3,1.1144585E-2,1.6509112E-3,-2.57229E-3,-1.6875932E-3,7.190564E-3,-2.7070115E-3,-1.5683484E-3,-2.7235E-3,1.4026485E-3,-3.6802122E-3,-2.206016E-3,-2.7922418E-3,-3.6354684E-3,-4.1781864E-3,-3.2986333E-3,-4.740086E-3,-3.2433444E-3,-2.1886693E-3,-3.008161E-3],"categories":[],"categories_nodes":[],"categories_segments":[],"categories_sizes":[],"default_left":[0,0,0,0,0,0,0,0,0,0,0,0,0,0,0,0,0,0,0,0,0,0,0,0,0,0,0,0,0,0,0,0,0,0,0,0,0,0,0,0,0,0,0,0,0,0,0,0,0,0,0,0,0,0,0,0,0,0,0,0,0,0,0,0,0,0,0,0,0,0,0,0,0,0,0,0,0,0,0,0,0,0,0,0,0,0,0,0,0,0,0,0,0,0,0,0,0,0,0,0,0,0,0,0,0,0,0,0,0,0,0,0,0,0,0,0,0,0,0,0,0,0,0,0,0,0,0],"id":0,"left_children":[1,3,5,7,9,11,13,15,17,19,21,23,25,27,29,31,33,35,37,39,41,43,45,47,49,51,53,55,57,59,61,63,65,67,69,71,73,75,77,79,81,83,85,87,89,91,93,95,97,99,101,103,105,107,109,111,113,115,117,119,121,123,125,-1,-1,-1,-1,-1,-1,-1,-1,-1,-1,-1,-1,-1,-1,-1,-1,-1,-1,-1,-1,-1,-1,-1,-1,-1,-1,-1,-1,-1,-1,-1,-1,-1,-1,-1,-1,-1,-1,-1,-1,-1,-1,-1,-1,-1,-1,-1,-1,-1,-1,-1,-1,-1,-1,-1,-1,-1,-1,-1,-1,-1,-1,-1,-1],"loss_changes":[5.7431343E1,2.9939505E1,1.1631012E1,3.452359E1,1.5898094E1,1.4531851E1,1.4962044E0,5.0752354E0,1.1819824E1,3.9654245E0,8.491796E0,4.5793133E0,1.4442068E1,8.4240913E-1,3.31316E-1,3.376732E0,1.0407467E0,1.0235758E1,1.4836258E1,1.7295088E0,6.9673166E0,1.2596935E1,4.0293107E0,8.019848E-1,2.8672738E0,9.7522664E-1,1.5176182E1,5.1119184E-1,2.1164322E-1,4.369526E-1,3.9222002E-2,7.958813E-1,2.1416807E-1,7.02858E-4,1.3021198E-1,6.9322953E0,1.7363834E0,5.905491E0,6.3097954E0,8.388853E-1,1.5599036E0,1.102026E0,1.8956239E0,1.7926106E0,8.573589E0,2.2899776E0,3.9318278E0,1.246742E-1,1.1049824E0,3.3638082E0,5.899105E-1,7.8668795E0,3.789208E-1,1.8792248E0,1.4366002E0,1.0339586E0,5.934253E-1,4.6548462E-1,3.5054684E-1,1.9215488E-1,1.4513683E-1,9.990662E-3,4.6300173E-2,0E0,0E0,0E0,0E0,0E0,0E0,0E0,0E0,0E0,0E0,0E0,0E0,0E0,0E0,0E0,0E0,0E0,0E0,0E0,0E0,0E0,0E0,0E0,0E0,0E0,0E0,0E0,0E0,0E0,0E0,0E0,0E0,0E0,0E0,0E0,0E0,0E0,0E0,0E0,0E0,0E0,0E0,0E0,0E0,0E0,0E0,0E0,0E0,0E0,0E0,0E0,0E0,0E0,0E0,0E0,0E0,0E0,0E0,0E0,0E0,0E0,0E0,0E0,0E0],"parents":[2147483647,0,0,1,1,2,2,3,3,4,4,5,5,6,6,7,7,8,8,9,9,10,10,11,11,12,12,13,13,14,14,15,15,16,16,17,17,18,18,19,19,20,20,21,21,22,22,23,23,24,24,25,25,26,26,27,27,28,28,29,29,30,30,31,31,32,32,33,33,34,34,35,35,36,36,37,37,38,38,39,39,40,40,41,41,42,42,43,43,44,44,45,45,46,46,47,47,48,48,49,49,50,50,51,51,52,52,53,53,54,54,55,55,56,56,57,57,58,58,59,59,60,60,61,61,62,62],"right_children":[2,4,6,8,10,12,14,16,18,20,22,24,26,28,30,32,34,36,38,40,42,44,46,48,50,52,54,56,58,60,62,64,66,68,70,72,74,76,78,80,82,84,86,88,90,92,94,96,98,100,102,104,106,108,110,112,114,116,118,120,122,124,126,-1,-1,-1,-1,-1,-1,-1,-1,-1,-1,-1,-1,-1,-1,-1,-1,-1,-1,-1,-1,-1,-1,-1,-1,-1,-1,-1,-1,-1,-1,-1,-1,-1,-1,-1,-1,-1,-1,-1,-1,-1,-1,-1,-1,-1,-1,-1,-1,-1,-1,-1,-1,-1,-1,-1,-1,-1,-1,-1,-1,-1,-1,-1,-1],"split_conditions":[8.3058304E-1,1.6505053E-2,6.93825E-1,1.4441921E-3,1.4499998E-1,1.2624991E-1,9.376937E-1,7.6037604E-1,2.2662857E-1,8.55999E-2,6.366636E-1,1.745E-1,1.66E-1,4.9199998E-1,7.535E-1,7.4600005E-1,7.6047605E-1,7.4987507E-1,4.745203E-3,7.0249915E-2,3.55E-1,1.6711365E-2,6.3205814E-1,7.969999E-2,9.236924E-1,6.329999E-1,4.1262633E-3,4.1262633E-3,7.483499E-1,4.68E-1,9.077779E-3,9.10091E-3,2.8732872E-1,1.237879E-3,5.9507513E-1,5.246525E-1,5E-4,1.6332495E-1,5.1212E-1,4.6049953E-2,4.6994698E-1,2.5995458E-2,2.3726013E-2,8.080808E-2,8.080808E-2,1.872E-1,5.3433335E-1,7.4450016E-2,1.1097503E-1,6.189395E-3,9.9339926E-1,6.2462497E-1,6.391125E-1,1.4441921E-3,9.9509954E-1,1.66E-1,7.4759984E-1,7.4794984E-1,7.535E-1,9.9339926E-1,3.053435E-2,7.6094985E-1,9.985998E-1,-8.3396735E-4,7.1230845E-4,-3.069732E-3,-1.336903E-4,-3.4390376E-3,-9.3174813E-4,-1.7897235E-3,-1.9171977E-4,2.0519511E-3,1.1149019E-4,7.5952793E-3,2.6525243E-3,4.3690423E-3,9.201654E-3,3.0753294E-3,1.259015E-3,5.467939E-4,-1.9265347E-3,1.1546215E-3,-3.2037156E-4,-1.7928364E-3,-2.9905841E-3,3.142366E-4,-9.237517E-4,-4.757711E-3,1.8913251E-3,8.984297E-3,1.8690386E-3,-1.5185471E-3,1.7575551E-3,3.6781814E-5,-2.3000964E-3,-6.286638E-4,-1.9387571E-3,-3.8628045E-3,-2.4675925E-3,2.3106155E-3,-1.0260312E-3,-2.013771E-3,-3.9301994E-3,-1.6556553E-3,6.561807E-3,-3.3499175E-3,-1.7975804E-3,-4.0012184E-3,1.1144585E-2,1.6509112E-3,-2.57229E-3,-1.6875932E-3,7.190564E-3,-2.7070115E-3,-1.5683484E-3,-2.7235E-3,1.4026485E-3,-3.6802122E-3,-2.206016E-3,-2.7922418E-3,-3.6354684E-3,-4.1781864E-3,-3.2986333E-3,-4.740086E-3,-3.2433444E-3,-2.1886693E-3,-3.008161E-3],"split_indices":[0,1,3,1,3,3,0,0,2,3,0,2,2,2,3,3,0,3,1,3,2,1,3,3,0,3,1,1,3,2,1,0,0,1,3,0,2,3,2,3,0,1,1,0,0,2,2,3,3,1,0,3,3,1,0,2,3,3,3,0,1,3,0,0,0,0,0,0,0,0,0,0,0,0,0,0,0,0,0,0,0,0,0,0,0,0,0,0,0,0,0,0,0,0,0,0,0,0,0,0,0,0,0,0,0,0,0,0,0,0,0,0,0,0,0,0,0,0,0,0,0,0,0,0,0,0,0],"split_type":[0,0,0,0,0,0,0,0,0,0,0,0,0,0,0,0,0,0,0,0,0,0,0,0,0,0,0,0,0,0,0,0,0,0,0,0,0,0,0,0,0,0,0,0,0,0,0,0,0,0,0,0,0,0,0,0,0,0,0,0,0,0,0,0,0,0,0,0,0,0,0,0,0,0,0,0,0,0,0,0,0,0,0,0,0,0,0,0,0,0,0,0,0,0,0,0,0,0,0,0,0,0,0,0,0,0,0,0,0,0,0,0,0,0,0,0,0,0,0,0,0,0,0,0,0,0,0],"sum_hessian":[5.99897E5,4.36246E5,1.63651E5,2.03321E5,2.32925E5,1.06447E5,5.7204E4,3.2605E4,1.70716E5,1.36509E5,9.6416E4,6.5137E4,4.131E4,3.0631E4,2.6573E4,1.9794E4,1.2811E4,7.9579E4,9.1137E4,3.6222E4,1.00287E5,5.0989E4,4.5427E4,2.5773E4,3.9364E4,2.071E4,2.06E4,2.0326E4,1.0305E4,2.2414E4,4.159E3,1.5289E4,4.505E3,1.0771E4,2.04E3,7.5888E4,3.691E3,1.0403E4,8.0734E4,7.471E3,2.8751E4,3.0947E4,6.934E4,3.699E3,4.729E4,1.4659E4,3.0768E4,3.038E3,2.2735E4,2.2531E4,1.6833E4,1.3854E4,6.856E3,2.054E3,1.8546E4,6.34E2,1.9692E4,2.4E3,7.905E3,1.2585E4,9.829E3,3.23E2,3.836E3,4.896E3,1.0393E4,4.241E3,2.64E2,1.0769E4,2E0,9.99E2,1.041E3,3.1415E4,4.4473E4,2.728E3,9.63E2,6.06E3,4.343E3,4.96E4,3.1134E4,1.809E3,5.662E3,1.3652E4,1.5099E4,1.4213E4,1.6734E4,1.6112E4,5.3228E4,3.236E3,4.63E2,1.758E3,4.5532E4,2.591E3,1.2068E4,1.9277E4,1.1491E4,1.205E3,1.833E3,1.1119E4,1.1616E4,3.594E3,1.8937E4,1.5034E4,1.799E3,1.2571E4,1.283E3,2.449E3,4.407E3,8.5E1,1.969E3,1.7703E4,8.43E2,4.5E2,1.84E2,7.245E3,1.2447E4,2.086E3,3.14E2,5.637E3,2.268E3,8.622E3,3.963E3,7.264E3,2.565E3,6.1E1,2.62E2,2.92E3,9.16E2],"tree_param":{"num_deleted":"0","num_feature":"4","num_nodes":"127","size_leaf_vector":"1"}},{"base_weights":[-3.2283694E-8,5.3935694E-3,-1.4377751E-2,1.3373837E-2,-1.5724596E-3,-8.878597E-3,-2.4856204E-2,-1.3461422E-2,1.8499143E-2,-7.821341E-3,7.274905E-3,-1.718971E-2,3.953006E-3,-1.9917632E-2,-2.9257007E-2,-4.4168914E-3,-2.740758E-2,1.0484745E-2,2.5496963E-2,6.6042616E-4,-1.0595666E-2,1.5247236E-2,-1.6736812E-3,-2.596698E-2,-1.065267E-2,-1.286989E-2,2.1293936E-2,-1.6320242E-2,-2.6715796E-2,-3.0705981E-2,-2.1703674E-2,1.9739554E-3,-2.60804E-2,-3.093071E-2,-8.773858E-3,8.23314E-3,5.6763597E-2,4.7167182E-2,1.941127E-2,-1.1949116E-2,4.2598243E-3,-2.1559574E-2,-5.6648105E-3,-3.5327327E-2,1.9203816E-2,1.0605932E-2,-7.5242925E-3,-1.2596282E-2,-2.7743634E-2,-3.9937706E-3,-1.9734304E-2,-8.047704E-3,-2.1703336E-2,9.458612E-2,1.3187095E-2,-3.4578934E-2,-1.5024053E-2,-1.936156E-2,-2.8893175E-2,-2.704879E-2,-3.5376944E-2,-2.0250998E-2,-2.718536E-2,-7.505878E-4,6.4465223E-4,-2.762831E-3,-1.2037183E-4,-3.094527E-3,6.3052042E-3,-1.3651411E-3,2.0473893E-4,3.5888532E-3,5.4534053E-4,6.83603E-3,2.3875467E-3,5.698212E-3,2.8956537E-3,6.77861E-4,2.5075246E-3,4.921447E-4,-1.7339152E-3,9.48668E-4,-3.9607557E-4,-1.664373E-3,-2.713874E-3,2.3059244E-4,-8.513746E-4,-4.272626E-3,1.7800836E-3,9.9231675E-3,1.7354366E-3,-1.3667509E-3,1.5818141E-3,3.310366E-5,-2.0701068E-3,-5.5904564E-4,-1.7086643E-3,-3.3662138E-3,-2.0945675E-3,-6.225034E-4,5.7615736E-3,-1.7865252E-3,-3.5552282E-3,-1.4901028E-3,5.906137E-3,-1.4025848E-3,-2.7991955E-3,-3.6057488E-3,1.0020142E-2,1.490565E-3,-2.311521E-3,-3.571484E-3,6.751614E-3,1.223605E-3,-1.5811994E-3,-2.504083E-3,1.3907681E-3,-3.251303E-3,-1.9770812E-3,-3.6369383E-3,-2.49542E-3,-3.735666E-3,-2.9876297E-3,-3.4808505E-3,-1.9495543E-3,-2.8731308E-3,-2.2343565E-3],"categories":[],"categories_nodes":[],"categories_segments":[],"categories_sizes":[],"default_left":[0,0,0,0,0,0,0,0,0,0,0,0,0,0,0,0,0,0,0,0,0,0,0,0,0,0,0,0,0,0,0,0,0,0,0,0,0,0,0,0,0,0,0,0,0,0,0,0,0,0,0,0,0,0,0,0,0,0,0,0,0,0,0,0,0,0,0,0,0,0,0,0,0,0,0,0,0,0,0,0,0,0,0,0,0,0,0,0,0,0,0,0,0,0,0,0,0,0,0,0,0,0,0,0,0,0,0,0,0,0,0,0,0,0,0,0,0,0,0,0,0,0,0,0,0,0,0],"id":1,"left_children":[1,3,5,7,9,11,13,15,17,19,21,23,25,27,29,31,33,35,37,39,41,43,45,47,49,51,53,55,57,59,61,63,65,67,69,71,73,75,77,79,81,83,85,87,89,91,93,95,97,99,101,103,105,107,109,111,113,115,117,119,121,123,125,-1,-1,-1,-1,-1,-1,-1,-1,-1,-1,-1,-1,-1,-1,-1,-1,-1,-1,-1,-1,-1,-1,-1,-1,-1,-1,-1,-1,-1,-1,-1,-1,-1,-1,-1,-1,-1,-1,-1,-1,-1,-1,-1,-1,-1,-1,-1,-1,-1,-1,-1,-1,-1,-1,-1,-1,-1,-1,-1,-1,-1,-1,-1,-1],"loss_changes":[4.6520782E1,2.425133E1,9.429836E0,2.7964935E1,1.2877636E1,1.14460535E1,1.223568E0,4.1126833E0,9.574116E0,3.2122478E0,6.878519E0,3.7371693E0,1.230843E1,6.48716E-1,3.2528305E-1,2.738556E0,8.418083E-1,8.291903E0,1.2018211E1,1.5271792E0,5.560855E0,1.0203896E1,3.2637746E0,6.601372E-1,2.2577066E0,9.120724E-1,1.2343189E1,4.1035843E-1,1.4650393E-1,4.258709E-1,3.764844E-2,6.4769596E-1,1.7347884E-1,1.6710281E-2,1.07754394E-1,5.8337445E0,1.4064732E0,3.5698586E0,5.0911903E0,6.795362E-1,1.1247622E0,8.747225E-1,1.6112735E0,1.4551988E0,6.9976997E0,1.8549736E0,3.1848416E0,1.0255414E-1,9.867115E-1,2.9616735E0,4.663086E-1,6.3730755E0,3.6470675E-1,1.5214405E0,1.1674902E0,1.3577688E-1,3.4841633E-1,3.9732188E-1,2.3328257E-1,2.7276325E-1,1.1833382E-1,4.1067958E-2,6.8582296E-3,0E0,0E0,0E0,0E0,0E0,0E0,0E0,0E0,0E0,0E0,0E0,0E0,0E0,0E0,0E0,0E0,0E0,0E0,0E0,0E0,0E0,0E0,0E0,0E0,0E0,0E0,0E0,0E0,0E0,0E0,0E0,0E0,0E0,0E0,0E0,0E0,0E0,0E0,0E0,0E0,0E0,0E0,0E0,0E0,0E0,0E0,0E0,0E0,0E0,0E0,0E0,0E0,0E0,0E0,0E0,0E0,0E0,0E0,0E0,0E0,0E0,0E0,0E0,0E0],"parents":[2147483647,0,0,1,1,2,2,3,3,4,4,5,5,6,6,7,7,8,8,9,9,10,10,11,11,12,12,13,13,14,14,15,15,16,16,17,17,18,18,19,19,20,20,21,21,22,22,23,23,24,24,25,25,26,26,27,27,28,28,29,29,30,30,31,31,32,32,33,33,34,34,35,35,36,36,37,37,38,38,39,39,40,40,41,41,42,42,43,43,44,44,45,45,46,46,47,47,48,48,49,49,50,50,51,51,52,52,53,53,54,54,55,55,56,56,57,57,58,58,59,59,60,60,61,61,62,62],"right_children":[2,4,6,8,10,12,14,16,18,20,22,24,26,28,30,32,34,36,38,40,42,44,46,48,50,52,54,56,58,60,62,64,66,68,70,72,74,76,78,80,82,84,86,88,90,92,94,96,98,100,102,104,106,108,110,112,114,116,118,120,122,124,126,-1,-1,-1,-1,-1,-1,-1,-1,-1,-1,-1,-1,-1,-1,-1,-1,-1,-1,-1,-1,-1,-1,-1,-1,-1,-1,-1,-1,-1,-1,-1,-1,-1,-1,-1,-1,-1,-1,-1,-1,-1,-1,-1,-1,-1,-1,-1,-1,-1,-1,-1,-1,-1,-1,-1,-1,-1,-1,-1,-1,-1,-1,-1,-1],"split_conditions":[8.3058304E-1,1.6505053E-2,7.039499E-1,1.4441921E-3,1.4499998E-1,1.2624991E-1,9.236924E-1,7.5997597E-1,2.2662857E-1,8.384991E-2,6.366636E-1,2.01E-1,1.66E-1,4.904E-1,7.535E-1,7.4600005E-1,7.6047605E-1,7.4987507E-1,6.189395E-3,7.0249915E-2,3.55E-1,1.6711365E-2,6.3205814E-1,7.969999E-2,9.236924E-1,6.329999E-1,4.1262633E-3,7.064998E-1,7.483499E-1,4.664E-1,9.985998E-1,9.10091E-3,2.8732872E-1,7.225499E-1,6.8210006E-1,1.0701071E-2,5E-4,4.994E-1,1.1829996E-1,4.6049953E-2,5.687569E-1,2.8264903E-2,2.475758E-2,1.5621561E-1,1.0701071E-2,1.872E-1,5.3433335E-1,7.4450016E-2,1.128E-1,9.224922E-1,9.9339926E-1,6.2462497E-1,5.1578293E-3,1.4441921E-3,9.9509954E-1,1.56E-1,4.1262633E-3,7.4794984E-1,7.535E-1,7.072501E-1,2.991541E-2,8.046214E-3,8.2318954E-2,-7.505878E-4,6.4465223E-4,-2.762831E-3,-1.2037183E-4,-3.094527E-3,6.3052042E-3,-1.3651411E-3,2.0473893E-4,3.5888532E-3,5.4534053E-4,6.83603E-3,2.3875467E-3,5.698212E-3,2.8956537E-3,6.77861E-4,2.5075246E-3,4.921447E-4,-1.7339152E-3,9.48668E-4,-3.9607557E-4,-1.664373E-3,-2.713874E-3,2.3059244E-4,-8.513746E-4,-4.272626E-3,1.7800836E-3,9.9231675E-3,1.7354366E-3,-1.3667509E-3,1.5818141E-3,3.310366E-5,-2.0701068E-3,-5.5904564E-4,-1.7086643E-3,-3.3662138E-3,-2.0945675E-3,-6.225034E-4,5.7615736E-3,-1.7865252E-3,-3.5552282E-3,-1.4901028E-3,5.906137E-3,-1.4025848E-3,-2.7991955E-3,-3.6057488E-3,1.0020142E-2,1.490565E-3,-2.311521E-3,-3.571484E-3,6.751614E-3,1.223605E-3,-1.5811994E-3,-2.504083E-3,1.3907681E-3,-3.251303E-3,-1.9770812E-3,-3.6369383E-3,-2.49542E-3,-3.735666E-3,-2.9876297E-3,-3.4808505E-3,-1.9495543E-3,-2.8731308E-3,-2.2343565E-3],"split_indices":[0,1,3,1,3,3,0,0,2,3,0,2,2,2,3,3,0,3,1,3,2,1,3,3,0,3,1,3,3,2,0,0,0,3,3,0,2,2,3,3,0,1,1,0,0,2,2,3,3,0,0,3,1,1,0,2,1,3,3,3,1,1,1,0,0,0,0,0,0,0,0,0,0,0,0,0,0,0,0,0,0,0,0,0,0,0,0,0,0,0,0,0,0,0,0,0,0,0,0,0,0,0,0,0,0,0,0,0,0,0,0,0,0,0,0,0,0,0,0,0,0,0,0,0,0,0,0],"split_type":[0,0,0,0,0,0,0,0,0,0,0,0,0,0,0,0,0,0,0,0,0,0,0,0,0,0,0,0,0,0,0,0,0,0,0,0,0,0,0,0,0,0,0,0,0,0,0,0,0,0,0,0,0,0,0,0,0,0,0,0,0,0,0,0,0,0,0,0,0,0,0,0,0,0,0,0,0,0,0,0,0,0,0,0,0,0,0,0,0,0,0,0,0,0,0,0,0,0,0,0,0,0,0,0,0,0,0,0,0,0,0,0,0,0,0,0,0,0,0,0,0,0,0,0,0,0,0],"sum_hessian":[5.99897E5,4.36246E5,1.63651E5,2.03321E5,2.32925E5,1.07327E5,5.6324E4,3.2605E4,1.70716E5,1.36509E5,9.6416E4,6.5137E4,4.219E4,2.6543E4,2.9781E4,1.9779E4,1.2826E4,7.9579E4,9.1137E4,3.3646E4,1.02863E5,5.0989E4,4.5427E4,2.7803E4,3.7334E4,2.1415E4,2.0775E4,1.736E4,9.183E3,2.4985E4,4.796E3,1.5274E4,4.505E3,1.0786E4,2.04E3,7.5888E4,3.691E3,1.9981E4,7.1156E4,7.471E3,2.6175E4,3.1909E4,7.0954E4,3.699E3,4.729E4,1.4659E4,3.0768E4,3.262E3,2.4541E4,2.1541E4,1.5793E4,1.3854E4,7.561E3,2.068E3,1.8707E4,1.149E3,1.6211E4,2.1E3,7.083E3,1.4017E4,1.0968E4,3.795E3,1.001E3,4.896E3,1.0378E4,4.241E3,2.64E2,1.0785E4,1E0,1.406E3,6.34E2,6.93E3,6.8958E4,2.728E3,9.63E2,1.2982E4,6.999E3,2.2028E4,4.9128E4,1.809E3,5.662E3,1.6001E4,1.0174E4,1.6965E4,1.4944E4,1.8683E4,5.2271E4,3.247E3,4.52E2,1.067E3,4.6223E4,2.591E3,1.2068E4,1.9277E4,1.1491E4,1.275E3,1.987E3,1.3117E4,1.1424E4,2.0789E4,7.52E2,1.4126E4,1.667E3,1.2571E4,1.283E3,3.406E3,4.155E3,8.5E1,1.983E3,1.7862E4,8.45E2,1.137E3,1.2E1,4.55E2,1.5756E4,1.794E3,3.06E2,5.069E3,2.014E3,2.569E3,1.1448E4,8.061E3,2.907E3,1.85E2,3.61E3,7.55E2,2.46E2],"tree_param":{"num_deleted":"0","num_feature":"4","num_nodes":"127","size_leaf_vector":"1"}},{"base_weights":[-3.4781912E-8,6.884341E-3,-9.385988E-3,-1.6653005E-3,1.5216666E-2,-1.8352928E-2,-3.6975336E-3,1.3474697E-2,-6.0269167E-3,-1.3967157E-2,1.7288115E-2,-2.572027E-2,-1.6167255E-2,4.548529E-3,-2.122667E-2,1.2827167E-4,2.3795357E-2,1.2836858E-3,-8.6996425E-3,-1.605364E-2,1.800905E-2,2.3574254E-2,1.009356E-2,-1.0576414E-2,-2.9051756E-2,-2.784661E-2,-1.4235108E-2,-5.190536E-3,2.190266E-2,-1.3636828E-2,-2.5462681E-2,2.0005155E-2,-4.531326E-3,3.0805351E-2,9.137426E-3,-1.3857305E-2,4.8758998E-3,-1.8914482E-2,-4.7278265E-3,-1.0870081E-2,-2.4102543E-2,4.920071E-2,-3.0290946E-2,6.232384E-2,2.1266734E-2,-2.955563E-2,1.2274502E-2,-3.5907063E-3,-1.5706874E-2,-3.1166634E-2,-2.2283502E-2,-2.7860822E-3,-1.982931E-3,-1.00369835E-2,-2.012514E-2,-6.5710995E-4,-1.8104792E-2,8.637754E-2,1.5082184E-2,5.0593738E-2,-1.4462004E-2,-2.797235E-2,-1.4938114E-2,9.427972E-4,3.946099E-3,-9.3068165E-4,5.9041556E-4,2.5233354E-3,5.9571555E-3,-1.2352273E-3,1.1968676E-3,3.6011807E-5,-1.6927358E-3,1.0438998E-3,-9.8287725E-5,-1.5050857E-3,-2.4980085E-3,5.145442E-4,-8.391778E-4,-5.2826316E-4,-1.99861E-3,-4.1712862E-3,-2.1279685E-3,2.6531026E-2,4.7075967E-3,-9.208321E-4,-3.4288862E-3,3.7742131E-3,1.9376967E-2,1.2394126E-3,3.3202977E-3,-3.861054E-3,9.480258E-4,8.2940115E-3,1.0649303E-3,-2.7536044E-3,-2.9174675E-4,-1.9289864E-3,-8.8069023E-4,-2.939385E-3,-3.5125401E-3,-1.7877602E-3,-3.125944E-3,6.528292E-4,-6.693079E-4,-4.1252116E-4,-1.3767759E-3,-1.573936E-3,-2.3821092E-3,2.3192342E-3,-4.518292E-4,-1.6438494E-3,-3.1911766E-3,-2.9887045E-3,8.964391E-3,1.9262547E-3,4.2754673E-5,3.2702812E-3,8.478913E-3,-6.8185874E-4,-2.0893007E-3,-2.3663428E-3,-3.138377E-3,-1.1300611E-3,-2.1754846E-3],"categories":[],"categories_nodes":[],"categories_segments":[],"categories_sizes":[],"default_left":[0,0,0,0,0,0,0,0,0,0,0,0,0,0,0,0,0,0,0,0,0,0,0,0,0,0,0,0,0,0,0,0,0,0,0,0,0,0,0,0,0,0,0,0,0,0,0,0,0,0,0,0,0,0,0,0,0,0,0,0,0,0,0,0,0,0,0,0,0,0,0,0,0,0,0,0,0,0,0,0,0,0,0,0,0,0,0,0,0,0,0,0,0,0,0,0,0,0,0,0,0,0,0,0,0,0,0,0,0,0,0,0,0,0,0,0,0,0,0,0,0,0,0,0,0],"id":2,"left_children":[1,3,5,7,9,11,13,15,17,19,21,23,25,27,29,31,33,35,37,39,41,43,45,47,49,51,53,55,57,59,61,63,65,67,69,71,73,75,77,79,81,83,85,87,89,91,93,95,97,99,101,-1,103,105,107,109,111,113,115,117,119,121,123,-1,-1,-1,-1,-1,-1,-1,-1,-1,-1,-1,-1,-1,-1,-1,-1,-1,-1,-1,-1,-1,-1,-1,-1,-1,-1,-1,-1,-1,-1,-1,-1,-1,-1,-1,-1,-1,-1,-1,-1,-1,-1,-1,-1,-1,-1,-1,-1,-1,-1,-1,-1,-1,-1,-1,-1,-1,-1,-1,-1,-1,-1],"loss_changes":[3.876333E1,2.465328E1,1.2947403E1,1.1279299E1,1.0595257E1,1.5860786E0,2.244945E1,5.2620897E0,2.5910301E0,7.752831E-1,7.4008102E0,1.1368723E0,1.7142982E0,1.7851774E1,1.5971203E0,1.5431113E0,2.2133045E0,1.93101E0,3.939602E0,4.5471597E-1,1.0741589E0,7.807865E0,6.59917E0,1.4566863E-1,2.6375675E-1,3.909111E-3,1.6120291E0,3.960964E0,1.6695103E1,9.4415903E-1,8.4184647E-1,6.50741E-1,6.726717E-1,2.3343334E0,4.2428237E-1,2.9716337E-1,9.352652E-1,6.36734E-1,2.5294116E0,3.3784997E-1,2.1142983E-1,1.8633378E-1,2.3284525E-2,1.5851234E1,8.729279E0,1.4068093E0,8.306247E0,2.7696028E-2,5.777973E-2,9.774017E-2,1.7352772E-1,0E0,3.243182E-4,8.3959556E-1,4.394245E-1,4.6116414E0,4.0390778E-1,1.3819752E0,2.1035352E0,1.3549107E-1,8.637531E-1,3.777275E-1,1.5205038E-1,0E0,0E0,0E0,0E0,0E0,0E0,0E0,0E0,0E0,0E0,0E0,0E0,0E0,0E0,0E0,0E0,0E0,0E0,0E0,0E0,0E0,0E0,0E0,0E0,0E0,0E0,0E0,0E0,0E0,0E0,0E0,0E0,0E0,0E0,0E0,0E0,0E0,0E0,0E0,0E0,0E0,0E0,0E0,0E0,0E0,0E0,0E0,0E0,0E0,0E0,0E0,0E0,0E0,0E0,0E0,0E0,0E0,0E0,0E0,0E0,0E0,0E0],"parents":[2147483647,0,0,1,1,2,2,3,3,4,4,5,5,6,6,7,7,8,8,9,9,10,10,11,11,12,12,13,13,14,14,15,15,16,16,17,17,18,18,19,19,20,20,21,21,22,22,23,23,24,24,25,25,26,26,27,27,28,28,29,29,30,30,31,31,32,32,33,33,34,34,35,35,36,36,37,37,38,38,39,39,40,40,41,41,42,42,43,43,44,44,45,45,46,46,47,47,48,48,49,49,50,50,52,52,53,53,54,54,55,55,56,56,57,57,58,58,59,59,60,60,61,61,62,62],"right_children":[2,4,6,8,10,12,14,16,18,20,22,24,26,28,30,32,34,36,38,40,42,44,46,48,50,52,54,56,58,60,62,64,66,68,70,72,74,76,78,80,82,84,86,88,90,92,94,96,98,100,102,-1,104,106,108,110,112,114,116,118,120,122,124,-1,-1,-1,-1,-1,-1,-1,-1,-1,-1,-1,-1,-1,-1,-1,-1,-1,-1,-1,-1,-1,-1,-1,-1,-1,-1,-1,-1,-1,-1,-1,-1,-1,-1,-1,-1,-1,-1,-1,-1,-1,-1,-1,-1,-1,-1,-1,-1,-1,-1,-1,-1,-1,-1,-1,-1,-1,-1,-1,-1,-1,-1],"split_conditions":[7.6037604E-1,1.4812493E-1,1.56E-1,1.2791417E-2,9.10091E-3,1.1654997E-1,7.205374E-1,3.096E-1,8.55999E-2,8.45884E-3,1.6505053E-2,7.969999E-2,7.6047605E-1,1.2624991E-1,4.5759997E-1,7.969999E-2,5.4039997E-1,7.0249915E-2,3.0269998E-1,7.4600005E-1,8.871466E-3,1.0701071E-2,1.6711365E-2,7.4450016E-2,1.1097503E-1,7.205374E-1,9.173917E-1,9.236924E-1,4.745203E-3,4.1262633E-3,7.535E-1,7.774985E-2,1.2367487E-1,1.2624991E-1,7.562494E-2,4.6049953E-2,4.4944495E-1,2.8677529E-2,2.1869196E-2,8.252527E-4,3.30033E-3,5.8509374E-1,6.2625E-1,5E-4,1.66E-1,1.0701071E-2,8.080808E-2,5.9049964E-2,1.1657142E-2,2.475758E-2,2.0631315E-2,-2.7860822E-3,1.4441921E-2,6.329999E-1,6.329999E-1,6.189395E-3,9.9339926E-1,1.4441921E-3,9.265927E-1,9.139914E-1,8.674867E-1,8.8538855E-1,7.6094985E-1,9.427972E-4,3.946099E-3,-9.3068165E-4,5.9041556E-4,2.5233354E-3,5.9571555E-3,-1.2352273E-3,1.1968676E-3,3.6011807E-5,-1.6927358E-3,1.0438998E-3,-9.8287725E-5,-1.5050857E-3,-2.4980085E-3,5.145442E-4,-8.391778E-4,-5.2826316E-4,-1.99861E-3,-4.1712862E-3,-2.1279685E-3,2.6531026E-2,4.7075967E-3,-9.208321E-4,-3.4288862E-3,3.7742131E-3,1.9376967E-2,1.2394126E-3,3.3202977E-3,-3.861054E-3,9.480258E-4,8.2940115E-3,1.0649303E-3,-2.7536044E-3,-2.9174675E-4,-1.9289864E-3,-8.8069023E-4,-2.939385E-3,-3.5125401E-3,-1.7877602E-3,-3.125944E-3,6.528292E-4,-6.693079E-4,-4.1252116E-4,-1.3767759E-3,-1.573936E-3,-2.3821092E-3,2.3192342E-3,-4.518292E-4,-1.6438494E-3,-3.1911766E-3,-2.9887045E-3,8.964391E-3,1.9262547E-3,4.2754673E-5,3.2702812E-3,8.478913E-3,-6.8185874E-4,-2.0893007E-3,-2.3663428E-3,-3.138377E-3,-1.1300611E-3,-2.1754846E-3],"split_indices":[0,3,2,1,0,3,3,2,3,1,1,3,0,3,2,3,2,3,2,3,1,0,1,3,3,3,0,0,1,1,3,3,3,3,3,3,0,1,1,1,0,3,3,2,2,0,0,3,2,1,1,0,1,3,3,1,0,1,0,0,0,0,3,0,0,0,0,0,0,0,0,0,0,0,0,0,0,0,0,0,0,0,0,0,0,0,0,0,0,0,0,0,0,0,0,0,0,0,0,0,0,0,0,0,0,0,0,0,0,0,0,0,0,0,0,0,0,0,0,0,0,0,0,0,0],"split_type":[0,0,0,0,0,0,0,0,0,0,0,0,0,0,0,0,0,0,0,0,0,0,0,0,0,0,0,0,0,0,0,0,0,0,0,0,0,0,0,0,0,0,0,0,0,0,0,0,0,0,0,0,0,0,0,0,0,0,0,0,0,0,0,0,0,0,0,0,0,0,0,0,0,0,0,0,0,0,0,0,0,0,0,0,0,0,0,0,0,0,0,0,0,0,0,0,0,0,0,0,0,0,0,0,0,0,0,0,0,0,0,0,0,0,0,0,0,0,0,0,0,0,0,0,0],"sum_hessian":[5.99897E5,3.46066E5,2.53831E5,1.70806E5,1.7526E5,9.8523E4,1.55308E5,3.8201E4,1.32605E5,1.1615E4,1.63645E5,2.2539E4,7.5984E4,1.05622E5,4.9686E4,1.6659E4,2.1542E4,3.5501E4,9.7104E4,1.0904E4,7.11E2,8.7335E4,7.631E4,4.065E3,1.8474E4,1.0784E4,6.52E4,6.7655E4,3.7967E4,1.7799E4,3.1887E4,3.163E3,1.3496E4,1.4572E4,6.97E3,6.807E3,2.8694E4,2.7185E4,6.9919E4,6.634E3,4.27E3,4.32E2,2.79E2,4.907E3,8.2428E4,3.978E3,7.2332E4,1.722E3,2.343E3,1.4073E4,4.401E3,1.0778E4,6E0,3.8069E4,2.7131E4,5.0077E4,1.7578E4,3.631E3,3.4336E4,2.25E2,1.7574E4,2.5746E4,6.141E3,2.05E3,1.113E3,9.259E3,4.237E3,1.2209E4,2.363E3,8.11E2,6.159E3,1.209E3,5.598E3,1.4718E4,1.3976E4,1.6609E4,1.0576E4,1.8924E4,5.0995E4,4.114E3,2.52E3,5.88E2,3.682E3,3E0,4.29E2,4.5E1,2.34E2,4.135E3,7.72E2,4.7283E4,3.5145E4,3.229E3,7.49E2,1.625E3,7.0707E4,4.6E1,1.676E3,1.541E3,8.02E2,9.726E3,4.347E3,2.954E3,1.447E3,2E0,4E0,1.473E4,2.3339E4,1.241E4,1.4721E4,6.977E3,4.31E4,1.5687E4,1.891E3,9.9E1,3.532E3,2.6715E4,7.621E3,1.49E2,7.6E1,8.031E3,9.543E3,1.138E4,1.4366E4,4.006E3,2.135E3],"tree_param":{"num_deleted":"0","num_feature":"4","num_nodes":"125","size_leaf_vector":"1"}},{"base_weights":[3.4362838E-8,6.1960807E-3,-8.447471E-3,-2.470204E-3,1.2873612E-2,-1.6517896E-2,-3.327748E-3,9.297147E-3,-6.229743E-3,-1.2568886E-2,1.44810835E-2,-2.2702802E-2,-1.4325003E-2,4.0937224E-3,-1.9104E-2,-1.2002774E-3,1.7119534E-2,-1.20049015E-4,-1.0536588E-2,-1.4449085E-2,1.6245909E-2,2.1518923E-2,7.300239E-3,-9.520214E-3,-2.516932E-2,-2.5061587E-2,-1.2456147E-2,-4.6715266E-3,1.97126E-2,-1.2367515E-2,-2.2975171E-2,1.6750384E-2,-5.8299433E-3,2.9127333E-2,1.12053165E-2,-1.24579575E-2,1.9223575E-3,-1.921449E-2,-7.4026817E-3,-9.783452E-3,-2.1693762E-2,4.4352785E-2,-2.7277384E-2,5.5736564E-2,1.9601159E-2,-2.606394E-2,8.854994E-3,-3.2334037E-3,-1.4137386E-2,-2.805043E-2,-1.986485E-2,-2.507438E-2,-1.7869925E-3,-8.717759E-3,-1.7741285E-2,-5.913616E-4,-1.629459E-2,8.2537875E-2,1.4008686E-2,4.4964522E-2,-1.3103246E-2,-2.5211163E-2,-1.3526152E-2,5.9024675E-4,2.9985567E-3,-1.4797918E-3,-4.592909E-5,2.5216541E-3,6.294722E-3,1.608726E-3,3.6035886E-4,7.823286E-4,-1.4204097E-3,-7.070528E-4,5.676146E-4,-1.5718635E-3,-2.5242672E-3,1.12943795E-4,-1.0566412E-3,-4.7544955E-4,-1.7988284E-3,-3.7548658E-3,-1.9152295E-3,2.45412E-2,4.237932E-3,-2.3492428E-3,-5.227842E-3,3.3945346E-3,1.6980788E-2,1.1003303E-3,2.9810115E-3,-3.4750681E-3,8.060289E-4,8.624824E-3,7.926197E-4,-1.8936093E-4,-1.3090562E-3,-1.7362129E-3,-7.92731E-4,-2.1995613E-3,-2.9096256E-3,-1.676126E-3,-2.8046987E-3,-2.5076934E-3,-1.1923208E-3,6.0930714E-4,-6.157632E-4,-2.0971759E-4,-1.2391043E-3,-1.2766169E-3,-2.1439143E-3,2.0873442E-3,-4.0664733E-4,-1.3686408E-3,-2.3501301E-3,-2.6928228E-3,8.608706E-3,3.611225E-3,1.1223392E-3,3.009402E-3,7.247054E-3,-8.653469E-4,-2.1716112E-3,-2.1732196E-3,-2.9095956E-3,-9.841836E-4,-1.9295054E-3],"categories":[],"categories_nodes":[],"categories_segments":[],"categories_sizes":[],"default_left":[0,0,0,0,0,0,0,0,0,0,0,0,0,0,0,0,0,0,0,0,0,0,0,0,0,0,0,0,0,0,0,0,0,0,0,0,0,0,0,0,0,0,0,0,0,0,0,0,0,0,0,0,0,0,0,0,0,0,0,0,0,0,0,0,0,0,0,0,0,0,0,0,0,0,0,0,0,0,0,0,0,0,0,0,0,0,0,0,0,0,0,0,0,0,0,0,0,0,0,0,0,0,0,0,0,0,0,0,0,0,0,0,0,0,0,0,0,0,0,0,0,0,0,0,0,0,0],"id":3,"left_children":[1,3,5,7,9,11,13,15,17,19,21,23,25,27,29,31,33,35,37,39,41,43,45,47,49,51,53,55,57,59,61,63,65,67,69,71,73,75,77,79,81,83,85,87,89,91,93,95,97,99,101,103,105,107,109,111,113,115,117,119,121,123,125,-1,-1,-1,-1,-1,-1,-1,-1,-1,-1,-1,-1,-1,-1,-1,-1,-1,-1,-1,-1,-1,-1,-1,-1,-1,-1,-1,-1,-1,-1,-1,-1,-1,-1,-1,-1,-1,-1,-1,-1,-1,-1,-1,-1,-1,-1,-1,-1,-1,-1,-1,-1,-1,-1,-1,-1,-1,-1,-1,-1,-1,-1,-1,-1],"loss_changes":[3.1399395E1,2.0026718E1,1.0487865E1,6.6628838E0,7.9941635E0,1.3359394E0,1.818412E1,2.9945056E0,3.0034485E0,6.295612E-1,9.290985E0,8.382273E-1,1.4591866E0,1.4460234E1,1.2954559E0,1.2942176E0,1.4836392E0,1.1892667E0,1.8205576E0,3.683877E-1,8.7220216E-1,6.0916595E0,4.720684E0,1.1797926E-1,3.3141327E-1,3.1661987E-3,1.2239656E0,3.20851E0,1.3604677E1,7.6554084E-1,6.6630936E-1,4.5825535E-1,5.962619E-1,9.103637E-1,5.195732E-1,2.3749018E-1,1.3669446E0,3.7391376E-1,1.3277326E0,2.7368617E-1,1.7137957E-1,1.6140676E-1,2.526763E-2,1.2241537E1,7.7169533E0,1.2014079E0,6.2494345E0,2.2730125E-2,4.6803117E-2,8.848095E-2,1.9376874E-1,6.2942505E-5,2.786053E-4,8.825207E-1,4.719286E-1,3.735532E0,3.3010054E-1,1.2300282E0,2.1426091E0,9.189555E-2,6.8606544E-1,3.441906E-1,1.2818706E-1,0E0,0E0,0E0,0E0,0E0,0E0,0E0,0E0,0E0,0E0,0E0,0E0,0E0,0E0,0E0,0E0,0E0,0E0,0E0,0E0,0E0,0E0,0E0,0E0,0E0,0E0,0E0,0E0,0E0,0E0,0E0,0E0,0E0,0E0,0E0,0E0,0E0,0E0,0E0,0E0,0E0,0E0,0E0,0E0,0E0,0E0,0E0,0E0,0E0,0E0,0E0,0E0,0E0,0E0,0E0,0E0,0E0,0E0,0E0,0E0,0E0,0E0,0E0,0E0],"parents":[2147483647,0,0,1,1,2,2,3,3,4,4,5,5,6,6,7,7,8,8,9,9,10,10,11,11,12,12,13,13,14,14,15,15,16,16,17,17,18,18,19,19,20,20,21,21,22,22,23,23,24,24,25,25,26,26,27,27,28,28,29,29,30,30,31,31,32,32,33,33,34,34,35,35,36,36,37,37,38,38,39,39,40,40,41,41,42,42,43,43,44,44,45,45,46,46,47,47,48,48,49,49,50,50,51,51,52,52,53,53,54,54,55,55,56,56,57,57,58,58,59,59,60,60,61,61,62,62],"right_children":[2,4,6,8,10,12,14,16,18,20,22,24,26,28,30,32,34,36,38,40,42,44,46,48,50,52,54,56,58,60,62,64,66,68,70,72,74,76,78,80,82,84,86,88,90,92,94,96,98,100,102,104,106,108,110,112,114,116,118,120,122,124,126,-1,-1,-1,-1,-1,-1,-1,-1,-1,-1,-1,-1,-1,-1,-1,-1,-1,-1,-1,-1,-1,-1,-1,-1,-1,-1,-1,-1,-1,-1,-1,-1,-1,-1,-1,-1,-1,-1,-1,-1,-1,-1,-1,-1,-1,-1,-1,-1,-1,-1,-1,-1,-1,-1,-1,-1,-1,-1,-1,-1,-1,-1,-1,-1],"split_conditions":[7.6037604E-1,1.2749994E-1,1.56E-1,1.3410357E-2,9.10091E-3,1.22274876E-1,7.205374E-1,2.762E-1,9.4375014E-2,8.45884E-3,1.6505053E-2,7.969999E-2,7.6047605E-1,1.2624991E-1,4.5939997E-1,8.112502E-2,6.189395E-3,7.0249915E-2,2.417E-1,7.4600005E-1,8.871466E-3,1.0701071E-2,1.6711365E-2,7.4450016E-2,1.1097503E-1,7.205374E-1,9.173917E-1,9.236924E-1,4.1262633E-3,4.1262633E-3,7.535E-1,6.9999998E-3,1.084249E-1,7.4997497E-1,5.188E-1,4.346E-1,5.06E-2,2.8677529E-2,2.1869196E-2,8.252527E-4,3.30033E-3,5.8509374E-1,1.691768E-2,5E-4,1.66E-1,1.0701071E-2,1.0701071E-2,3.6311116E-2,1.1657142E-2,9.257507E-2,2.0631315E-2,5.698874E-1,1.4441921E-2,6.329999E-1,6.329999E-1,6.189395E-3,9.8069805E-1,1.4441921E-3,6.808335E-3,9.139914E-1,9.236924E-1,7.495749E-1,5.632E-1,5.9024675E-4,2.9985567E-3,-1.4797918E-3,-4.592909E-5,2.5216541E-3,6.294722E-3,1.608726E-3,3.6035886E-4,7.823286E-4,-1.4204097E-3,-7.070528E-4,5.676146E-4,-1.5718635E-3,-2.5242672E-3,1.12943795E-4,-1.0566412E-3,-4.7544955E-4,-1.7988284E-3,-3.7548658E-3,-1.9152295E-3,2.45412E-2,4.237932E-3,-2.3492428E-3,-5.227842E-3,3.3945346E-3,1.6980788E-2,1.1003303E-3,2.9810115E-3,-3.4750681E-3,8.060289E-4,8.624824E-3,7.926197E-4,-1.8936093E-4,-1.3090562E-3,-1.7362129E-3,-7.92731E-4,-2.1995613E-3,-2.9096256E-3,-1.676126E-3,-2.8046987E-3,-2.5076934E-3,-1.1923208E-3,6.0930714E-4,-6.157632E-4,-2.0971759E-4,-1.2391043E-3,-1.2766169E-3,-2.1439143E-3,2.0873442E-3,-4.0664733E-4,-1.3686408E-3,-2.3501301E-3,-2.6928228E-3,8.608706E-3,3.611225E-3,1.1223392E-3,3.009402E-3,7.247054E-3,-8.653469E-4,-2.1716112E-3,-2.1732196E-3,-2.9095956E-3,-9.841836E-4,-1.9295054E-3],"split_indices":[0,3,2,1,0,3,3,2,3,1,1,3,0,3,2,3,1,3,2,3,1,0,1,3,3,3,0,0,1,1,3,2,3,0,2,2,2,1,1,1,0,3,1,2,2,0,0,1,2,3,1,3,1,3,3,1,0,1,1,0,0,3,2,0,0,0,0,0,0,0,0,0,0,0,0,0,0,0,0,0,0,0,0,0,0,0,0,0,0,0,0,0,0,0,0,0,0,0,0,0,0,0,0,0,0,0,0,0,0,0,0,0,0,0,0,0,0,0,0,0,0,0,0,0,0,0,0],"split_type":[0,0,0,0,0,0,0,0,0,0,0,0,0,0,0,0,0,0,0,0,0,0,0,0,0,0,0,0,0,0,0,0,0,0,0,0,0,0,0,0,0,0,0,0,0,0,0,0,0,0,0,0,0,0,0,0,0,0,0,0,0,0,0,0,0,0,0,0,0,0,0,0,0,0,0,0,0,0,0,0,0,0,0,0,0,0,0,0,0,0,0,0,0,0,0,0,0,0,0,0,0,0,0,0,0,0,0,0,0,0,0,0,0,0,0,0,0,0,0,0,0,0,0,0,0,0,0],"sum_hessian":[5.99897E5,3.46066E5,2.53831E5,1.50606E5,1.9546E5,9.8523E4,1.55308E5,3.6466E4,1.1414E5,1.1615E4,1.83845E5,2.5786E4,7.2737E4,1.05622E5,4.9686E4,1.5571E4,2.0895E4,4.7193E4,6.6947E4,1.0904E4,7.11E2,9.2846E4,9.0999E4,4.065E3,2.1721E4,1.0782E4,6.1955E4,6.7655E4,3.7967E4,1.8134E4,3.1552E4,3.192E3,1.2379E4,6.894E3,1.4001E4,6.702E3,4.0491E4,1.7761E4,4.9186E4,6.634E3,4.27E3,4.32E2,2.79E2,4.926E3,8.792E4,4.051E3,8.6948E4,1.722E3,2.343E3,1.4073E4,7.648E3,1.0776E4,6E0,3.6289E4,2.5666E4,5.0077E4,1.7578E4,3.159E3,3.4808E4,2.29E2,1.7905E4,2.5513E4,6.039E3,1.755E3,1.437E3,4.636E3,7.743E3,6.181E3,7.13E2,8.525E3,5.476E3,5.31E2,6.171E3,1.1924E4,2.8567E4,1.1244E4,6.517E3,1.3305E4,3.5881E4,4.114E3,2.52E3,5.88E2,3.682E3,3E0,4.29E2,2.44E2,3.5E1,4.137E3,7.89E2,4.7727E4,4.0193E4,3.229E3,8.22E2,1.03E3,8.5918E4,1.517E3,2.05E2,1.541E3,8.02E2,2.076E3,1.1997E4,5.547E3,2.101E3,1.0773E4,3E0,2E0,4E0,1.295E4,2.3339E4,1.0945E4,1.4721E4,6.977E3,4.31E4,1.2909E4,4.669E3,9.9E1,3.06E3,3.894E3,3.0914E4,1.5E2,7.9E1,1.1807E4,6.098E3,1.3463E4,1.205E4,3.687E3,2.352E3],"tree_param":{"num_deleted":"0","num_feature":"4","num_nodes":"127","size_leaf_vector":"1"}},{"base_weights":[9.264344E-8,4.3309103E-3,-1.0104002E-2,8.998819E-3,-3.4326622E-3,-5.962756E-3,-1.823536E-2,-1.0649938E-2,1.1751441E-2,9.576928E-2,-3.7266936E-3,-1.3976646E-2,1.09846E-3,-1.5227274E-2,-2.220359E-2,-4.602643E-3,-2.0260613E-2,3.68267E-3,1.6761921E-2,7.661626E-3,1.6374719E-1,-5.703208E-3,8.779827E-3,-1.911859E-2,-6.500516E-3,7.008397E-2,-1.0213933E-3,-1.2650121E-2,-2.0306904E-2,-2.32974E-2,-1.6406845E-2,1.0968699E-4,-2.0576065E-2,-2.1871299E-2,3.6590446E-3,1.9461349E-2,5.4838974E-4,2.2845378E-2,9.524111E-3,-1.51665E-2,1.405703E-1,-7.9041235E-3,2.309964E-1,-1.0506192E-2,-3.1043345E-3,2.4029478E-2,-1.8125288E-2,-1.7703038E-2,-3.0522639E-2,-1.3862778E-3,-1.3687538E-2,9.0759695E-2,2.346092E-2,-7.799959E-3,1.2636797E-2,-1.8776884E-2,-9.195535E-3,-1.3574768E-2,-2.2278167E-2,-2.2047406E-2,-3.0867642E-2,-2.4989424E-2,-1.5677849E-2,-1.0112651E-4,2.3591544E-3,-3.0394269E-3,-1.5627351E-3,-5.4892583E-4,-2.228422E-3,1.8808795E-3,-1.0639386E-3,7.006716E-4,2.6632054E-3,-8.9976017E-4,4.567268E-4,2.0460158E-3,7.911255E-3,3.1188887E-4,3.4659994E-3,1.7996619E-2,-2.5591815E-3,3.7112128E-2,-1.2439265E-3,3.1820107E-3,-4.1622273E-3,1.6639315E-2,3.269748E-2,2.7786588E-4,-1.453251E-3,-5.399633E-4,6.017161E-4,3.7540805E-3,-6.219337E-4,1.0923793E-3,-2.4008802E-3,-2.0286757E-3,-1.0804794E-3,-1.0564941E-3,-3.185434E-3,-7.948218E-4,5.9042047E-3,-2.3569902E-3,-9.753589E-4,9.639514E-3,-2.2226858E-3,-3.0574582E-3,4.179148E-3,-3.8259983E-5,-1.2527978E-3,6.6130827E-3,8.062307E-4,5.5075593E-6,-2.0227393E-3,3.0232773E-3,-9.50389E-4,-1.7845584E-3,1.6117416E-3,-2.5799684E-3,-1.5997248E-3,-2.0223432E-3,-2.6063402E-3,-3.23025E-3,-2.8508205E-3,-3.667562E-3,-2.2139486E-3,-1.6045539E-3,1.0378083E-3],"categories":[],"categories_nodes":[],"categories_segments":[],"categories_sizes":[],"default_left":[0,0,0,0,0,0,0,0,0,0,0,0,0,0,0,0,0,0,0,0,0,0,0,0,0,0,0,0,0,0,0,0,0,0,0,0,0,0,0,0,0,0,0,0,0,0,0,0,0,0,0,0,0,0,0,0,0,0,0,0,0,0,0,0,0,0,0,0,0,0,0,0,0,0,0,0,0,0,0,0,0,0,0,0,0,0,0,0,0,0,0,0,0,0,0,0,0,0,0,0,0,0,0,0,0,0,0,0,0,0,0,0,0,0,0,0,0,0,0,0,0,0,0,0,0,0,0],"id":4,"left_children":[1,3,5,7,9,11,13,15,17,19,21,23,25,27,29,31,33,35,37,39,41,43,45,47,49,51,53,55,57,59,61,63,65,67,69,71,73,75,77,79,81,83,85,87,89,91,93,95,97,99,101,103,105,107,109,111,113,115,117,119,121,123,125,-1,-1,-1,-1,-1,-1,-1,-1,-1,-1,-1,-1,-1,-1,-1,-1,-1,-1,-1,-1,-1,-1,-1,-1,-1,-1,-1,-1,-1,-1,-1,-1,-1,-1,-1,-1,-1,-1,-1,-1,-1,-1,-1,-1,-1,-1,-1,-1,-1,-1,-1,-1,-1,-1,-1,-1,-1,-1,-1,-1,-1,-1,-1,-1],"loss_changes":[2.6250977E1,1.5217603E1,6.060663E0,1.4183586E1,4.5994973E0,6.748225E0,7.24617E-1,1.87272E0,9.299202E0,2.7897935E0,3.8861732E0,2.1471586E0,9.270903E0,4.5202446E-1,1.656456E-1,1.4888834E0,4.7954893E-1,4.357848E0,6.2478104E0,6.210794E-1,3.037744E0,1.6945219E0,8.803285E0,5.337124E-1,8.366979E-1,1.8197651E0,5.6945043E0,4.8500228E-1,1.5399742E-1,2.077465E-1,2.5635958E-2,4.0209296E-1,2.184602E-1,7.8751564E-2,1.704616E-1,1.3039846E0,2.820422E0,1.0345669E1,1.0433395E1,3.606116E-1,1.0629115E0,1.0178147E-1,1.1174917E0,2.5495944E0,1.8443756E0,5.5969925E0,1.3268707E0,5.245476E-1,9.675193E-2,5.274675E0,3.676995E-1,8.356209E-1,5.7774925E-1,1.4415586E0,4.9917526E0,2.2573996E-1,1.7852211E-1,3.345584E-1,1.9847584E-1,1.379757E-1,9.638548E-3,9.978816E-3,3.6926985E-2,0E0,0E0,0E0,0E0,0E0,0E0,0E0,0E0,0E0,0E0,0E0,0E0,0E0,0E0,0E0,0E0,0E0,0E0,0E0,0E0,0E0,0E0,0E0,0E0,0E0,0E0,0E0,0E0,0E0,0E0,0E0,0E0,0E0,0E0,0E0,0E0,0E0,0E0,0E0,0E0,0E0,0E0,0E0,0E0,0E0,0E0,0E0,0E0,0E0,0E0,0E0,0E0,0E0,0E0,0E0,0E0,0E0,0E0,0E0,0E0,0E0,0E0,0E0,0E0],"parents":[2147483647,0,0,1,1,2,2,3,3,4,4,5,5,6,6,7,7,8,8,9,9,10,10,11,11,12,12,13,13,14,14,15,15,16,16,17,17,18,18,19,19,20,20,21,21,22,22,23,23,24,24,25,25,26,26,27,27,28,28,29,29,30,30,31,31,32,32,33,33,34,34,35,35,36,36,37,37,38,38,39,39,40,40,41,41,42,42,43,43,44,44,45,45,46,46,47,47,48,48,49,49,50,50,51,51,52,52,53,53,54,54,55,55,56,56,57,57,58,58,59,59,60,60,61,61,62,62],"right_children":[2,4,6,8,10,12,14,16,18,20,22,24,26,28,30,32,34,36,38,40,42,44,46,48,50,52,54,56,58,60,62,64,66,68,70,72,74,76,78,80,82,84,86,88,90,92,94,96,98,100,102,104,106,108,110,112,114,116,118,120,122,124,126,-1,-1,-1,-1,-1,-1,-1,-1,-1,-1,-1,-1,-1,-1,-1,-1,-1,-1,-1,-1,-1,-1,-1,-1,-1,-1,-1,-1,-1,-1,-1,-1,-1,-1,-1,-1,-1,-1,-1,-1,-1,-1,-1,-1,-1,-1,-1,-1,-1,-1,-1,-1,-1,-1,-1,-1,-1,-1,-1,-1,-1,-1,-1,-1],"split_conditions":[8.168817E-1,2.3313386E-2,7.039499E-1,1.4441921E-3,1.0701071E-2,2.1299998E-1,9.376937E-1,7.5997597E-1,1.2624991E-1,5.0600004E-1,7.4952483E-1,2.4453747E-1,2.1429999E-1,4.9199998E-1,7.535E-1,7.4600005E-1,6.329999E-1,6.189395E-3,6.329999E-1,5E-4,1.010101E-2,3.55E-1,5.54E-1,9.8779875E-1,6.3205814E-1,1.4029295E-2,1.2749994E-1,7.4759984E-1,7.483499E-1,7.499001E-1,9.077779E-3,8.3333335E-4,7.4977493E-1,2.0631317E-4,7.22075E-1,2.4569999E-1,1.6239999E-1,6.2462497E-1,7.4987507E-1,4.7597504E-1,1.9E-2,5.1874995E-1,2.9709097E-2,8.112502E-2,1.5104997E-1,7.4994993E-1,5.508551E-1,1.2109995E-1,8.779991E-2,6.2462497E-1,6.391125E-1,9.236924E-1,1.4545078E-2,8.7248725E-1,4.1262633E-3,4.1262633E-3,4.1262633E-3,7.4794984E-1,7.527251E-1,9.9339926E-1,9.5279527E-1,7.6094985E-1,7.8524995E-1,-1.0112651E-4,2.3591544E-3,-3.0394269E-3,-1.5627351E-3,-5.4892583E-4,-2.228422E-3,1.8808795E-3,-1.0639386E-3,7.006716E-4,2.6632054E-3,-8.9976017E-4,4.567268E-4,2.0460158E-3,7.911255E-3,3.1188887E-4,3.4659994E-3,1.7996619E-2,-2.5591815E-3,3.7112128E-2,-1.2439265E-3,3.1820107E-3,-4.1622273E-3,1.6639315E-2,3.269748E-2,2.7786588E-4,-1.453251E-3,-5.399633E-4,6.017161E-4,3.7540805E-3,-6.219337E-4,1.0923793E-3,-2.4008802E-3,-2.0286757E-3,-1.0804794E-3,-1.0564941E-3,-3.185434E-3,-7.948218E-4,5.9042047E-3,-2.3569902E-3,-9.753589E-4,9.639514E-3,-2.2226858E-3,-3.0574582E-3,4.179148E-3,-3.8259983E-5,-1.2527978E-3,6.6130827E-3,8.062307E-4,5.5075593E-6,-2.0227393E-3,3.0232773E-3,-9.50389E-4,-1.7845584E-3,1.6117416E-3,-2.5799684E-3,-1.5997248E-3,-2.0223432E-3,-2.6063402E-3,-3.23025E-3,-2.8508205E-3,-3.667562E-3,-2.2139486E-3,-1.6045539E-3,1.0378083E-3],"split_indices":[0,1,3,1,0,2,0,0,3,3,3,3,2,2,3,3,3,1,3,2,0,2,2,0,3,1,3,3,3,3,1,2,3,1,3,2,2,3,3,3,2,3,1,3,3,3,0,3,3,3,3,0,1,0,1,1,1,3,3,0,0,3,3,0,0,0,0,0,0,0,0,0,0,0,0,0,0,0,0,0,0,0,0,0,0,0,0,0,0,0,0,0,0,0,0,0,0,0,0,0,0,0,0,0,0,0,0,0,0,0,0,0,0,0,0,0,0,0,0,0,0,0,0,0,0,0,0],"split_type":[0,0,0,0,0,0,0,0,0,0,0,0,0,0,0,0,0,0,0,0,0,0,0,0,0,0,0,0,0,0,0,0,0,0,0,0,0,0,0,0,0,0,0,0,0,0,0,0,0,0,0,0,0,0,0,0,0,0,0,0,0,0,0,0,0,0,0,0,0,0,0,0,0,0,0,0,0,0,0,0,0,0,0,0,0,0,0,0,0,0,0,0,0,0,0,0,0,0,0,0,0,0,0,0,0,0,0,0,0,0,0,0,0,0,0,0,0,0,0,0,0,0,0,0,0,0,0],"sum_hessian":[5.99897E5,4.19914E5,1.79983E5,2.6224E5,1.57674E5,1.19251E5,6.0732E4,3.2223E4,2.30017E5,4.65E2,1.57209E5,5.5857E4,6.3394E4,3.4548E4,2.6184E4,1.9779E4,1.2444E4,8.8117E4,1.419E5,2.03E2,2.62E2,1.35755E5,2.1454E4,3.3094E4,2.2763E4,1.889E3,6.1505E4,2.2922E4,1.1626E4,2.2025E4,4.159E3,1.5274E4,4.505E3,1.1659E4,7.85E2,1.4602E4,7.3515E4,7.7097E4,6.4803E4,1.74E2,2.9E1,7.4E1,1.88E2,4.7664E4,8.8091E4,1.3693E4,7.761E3,2.9442E4,3.652E3,1.33E4,9.463E3,1.308E3,5.81E2,4.1105E4,2.04E4,8.263E3,1.4659E4,2.635E3,8.991E3,1.8907E4,3.118E3,3.23E2,3.836E3,1.4579E4,6.95E2,1.508E3,2.997E3,2.87E2,1.1372E4,3.81E2,4.04E2,5.336E3,9.266E3,2.178E4,5.1735E4,7.3963E4,3.134E3,5.1644E4,1.3159E4,8E0,1.66E2,1.1E1,1.8E1,3.4E1,4E1,1.14E2,7.4E1,1.1086E4,3.6578E4,7.0381E4,1.771E4,9.465E3,4.228E3,1.307E3,6.454E3,2.1418E4,8.024E3,2.29E2,3.423E3,1.1998E4,1.302E3,2.693E3,6.77E3,1.246E3,6.2E1,1.47E2,4.34E2,1.6002E4,2.5103E4,1.606E3,1.8794E4,5.91E2,7.672E3,1.13E2,1.4546E4,2.304E3,3.31E2,5.759E3,3.232E3,1.3006E4,5.901E3,1.931E3,1.187E3,6.1E1,2.62E2,3.783E3,5.3E1],"tree_param":{"num_deleted":"0","num_feature":"4","num_nodes":"127","size_leaf_vector":"1"}},{"base_weights":[2.5020194E-7,3.975544E-3,-8.952026E-3,8.490488E-3,-2.6486306E-3,-5.150561E-3,-1.6284833E-2,1.0588116E-3,1.5214555E-2,-6.639757E-3,3.919675E-3,-1.062383E-2,3.2869598E-3,-1.3636376E-2,-1.9912867E-2,4.484736E-3,-1.1801145E-2,3.284904E-2,1.182646E-2,2.902129E-4,-8.999538E-3,1.3274613E-2,-3.8547334E-3,-1.7217092E-2,-5.8738925E-3,-7.325351E-3,1.4208607E-2,-1.14053115E-2,-1.828365E-2,-1.7966636E-2,-2.2439446E-2,-6.5950854E-3,9.348315E-3,-1.8418623E-2,-5.0925636E-3,2.0138714E-2,4.658218E-2,1.6109828E-2,2.0694153E-3,-9.517933E-3,2.6549695E-3,-1.7299773E-2,-5.4426715E-3,6.895896E-2,1.1177897E-2,-6.090135E-4,-1.778322E-2,-7.2310558E-3,-1.8556936E-2,6.2046003E-2,-6.868009E-3,-4.993088E-3,-1.932897E-2,6.40603E-2,9.178514E-3,-1.6680507E-2,-8.282121E-3,-1.1823616E-2,-2.0177204E-2,-2.2014424E-2,-1.5368493E-2,-2.4080198E-2,-1.310359E-2,-3.3561033E-3,-3.030897E-4,-1.0873077E-3,1.378995E-3,-5.8055844E-4,-2.0341098E-3,-6.749813E-4,1.1300471E-3,-1.5240202E-4,2.2655462E-3,6.0980036E-3,2.9827866E-3,6.823481E-4,2.310226E-3,-1.7358294E-3,3.38215E-4,3.850549E-4,-1.4943451E-3,7.425271E-4,-3.267663E-4,-1.2457951E-4,-1.8880509E-3,-1.1564413E-3,-3.7637222E-4,7.7084673E-4,1.4226362E-2,3.2440602E-4,2.9506467E-3,-3.353372E-4,1.9163961E-3,-4.3746093E-3,-1.2478892E-3,-2.3529107E-4,-1.0431203E-3,-2.3172384E-3,-1.4259525E-3,9.854599E-3,2.989284E-3,-4.1301522E-5,-1.1342709E-3,-4.3409536E-4,-3.963508E-3,-2.2767687E-3,-9.817199E-4,-3.427316E-3,6.7959004E-3,1.3631007E-3,-4.1837837E-5,-2.0310143E-3,-9.341434E-4,-4.5531322E-4,-1.1621325E-3,-1.5565599E-3,1.5045189E-3,-2.2841438E-3,-1.3282237E-3,-2.2814441E-3,-1.0932047E-3,-1.0967258E-3,-1.7578515E-3,-2.5869329E-3,-1.9005331E-3,-1.0339039E-3,-1.9160362E-3],"categories":[],"categories_nodes":[],"categories_segments":[],"categories_sizes":[],"default_left":[0,0,0,0,0,0,0,0,0,0,0,0,0,0,0,0,0,0,0,0,0,0,0,0,0,0,0,0,0,0,0,0,0,0,0,0,0,0,0,0,0,0,0,0,0,0,0,0,0,0,0,0,0,0,0,0,0,0,0,0,0,0,0,0,0,0,0,0,0,0,0,0,0,0,0,0,0,0,0,0,0,0,0,0,0,0,0,0,0,0,0,0,0,0,0,0,0,0,0,0,0,0,0,0,0,0,0,0,0,0,0,0,0,0,0,0,0,0,0,0,0,0,0,0,0,0,0],"id":5,"left_children":[1,3,5,7,9,11,13,15,17,19,21,23,25,27,29,31,33,35,37,39,41,43,45,47,49,51,53,55,57,59,61,63,65,67,69,71,73,75,77,79,81,83,85,87,89,91,93,95,97,99,101,103,105,107,109,111,113,115,117,119,121,123,125,-1,-1,-1,-1,-1,-1,-1,-1,-1,-1,-1,-1,-1,-1,-1,-1,-1,-1,-1,-1,-1,-1,-1,-1,-1,-1,-1,-1,-1,-1,-1,-1,-1,-1,-1,-1,-1,-1,-1,-1,-1,-1,-1,-1,-1,-1,-1,-1,-1,-1,-1,-1,-1,-1,-1,-1,-1,-1,-1,-1,-1,-1,-1,-1],"loss_changes":[2.1349163E1,1.2424523E1,5.14215E0,1.2345089E1,4.414176E0,5.61059E0,6.0490227E-1,5.1701255E0,7.748657E0,1.7128377E0,4.6288223E0,2.3076916E0,5.5405436E0,3.772936E-1,1.3027E-1,4.9935007E0,1.0958142E0,3.647562E0,4.546879E0,6.171448E-1,2.306642E0,3.3717928E0,1.5713732E0,4.1272354E-1,2.8925905E0,6.786567E-1,5.906785E0,4.0519047E-1,1.44202E-1,1.5758085E-1,1.7674303E-1,2.7167845E0,5.7840343E0,3.0121422E-1,3.3314788E-1,5.919547E-1,2.4215393E0,4.909189E0,8.465685E-1,3.7497002E-1,6.057347E-1,5.947647E-1,5.6213737E-1,4.704368E0,4.0481367E0,1.5298241E0,9.041078E-1,5.698602E-2,5.392866E-1,7.2233295E-1,1.2193977E0,4.5847535E-1,1.2877786E-1,8.300333E-1,9.1442955E-1,2.4349618E-1,1.9239032E-1,2.6958784E-1,1.6741252E-1,5.1776886E-2,8.879781E-2,8.876085E-2,2.8769463E-2,0E0,0E0,0E0,0E0,0E0,0E0,0E0,0E0,0E0,0E0,0E0,0E0,0E0,0E0,0E0,0E0,0E0,0E0,0E0,0E0,0E0,0E0,0E0,0E0,0E0,0E0,0E0,0E0,0E0,0E0,0E0,0E0,0E0,0E0,0E0,0E0,0E0,0E0,0E0,0E0,0E0,0E0,0E0,0E0,0E0,0E0,0E0,0E0,0E0,0E0,0E0,0E0,0E0,0E0,0E0,0E0,0E0,0E0,0E0,0E0,0E0,0E0,0E0,0E0],"parents":[2147483647,0,0,1,1,2,2,3,3,4,4,5,5,6,6,7,7,8,8,9,9,10,10,11,11,12,12,13,13,14,14,15,15,16,16,17,17,18,18,19,19,20,20,21,21,22,22,23,23,24,24,25,25,26,26,27,27,28,28,29,29,30,30,31,31,32,32,33,33,34,34,35,35,36,36,37,37,38,38,39,39,40,40,41,41,42,42,43,43,44,44,45,45,46,46,47,47,48,48,49,49,50,50,51,51,52,52,53,53,54,54,55,55,56,56,57,57,58,58,59,59,60,60,61,61,62,62],"right_children":[2,4,6,8,10,12,14,16,18,20,22,24,26,28,30,32,34,36,38,40,42,44,46,48,50,52,54,56,58,60,62,64,66,68,70,72,74,76,78,80,82,84,86,88,90,92,94,96,98,100,102,104,106,108,110,112,114,116,118,120,122,124,126,-1,-1,-1,-1,-1,-1,-1,-1,-1,-1,-1,-1,-1,-1,-1,-1,-1,-1,-1,-1,-1,-1,-1,-1,-1,-1,-1,-1,-1,-1,-1,-1,-1,-1,-1,-1,-1,-1,-1,-1,-1,-1,-1,-1,-1,-1,-1,-1,-1,-1,-1,-1,-1,-1,-1,-1,-1,-1,-1,-1,-1,-1,-1,-1],"split_conditions":[8.124812E-1,2.1869196E-2,6.93825E-1,1.66E-1,1.4499998E-1,1.2624991E-1,9.376937E-1,7.5247526E-1,6.189395E-3,8.384991E-2,6.0066E-1,2.1299998E-1,1.8333334E-1,4.953333E-1,4.68E-1,3.8693762E-1,7.6047605E-1,1.2624991E-1,5.4766667E-1,6.687498E-2,3.82E-1,8.080808E-2,7.4994993E-1,7.969999E-2,2.1429999E-1,9.9509954E-1,4.1262633E-3,7.4759984E-1,7.483499E-1,7.395749E-1,7.535E-1,1.0701071E-2,9.10091E-3,7.6037604E-1,7.4917483E-1,2.2253333E-1,4.745203E-3,1.2624991E-1,7.649994E-2,4.6049953E-2,3.321642E-2,2.2202219E-1,4.1374138E-1,5.0600004E-1,7.4952483E-1,7.4987507E-1,7.5E-1,7.4450016E-2,1.1097503E-1,9.284093E-3,8.7248725E-1,2.5500306E-1,6.6875005E-1,1.237879E-3,4.79E-1,1.8333334E-1,7.495749E-1,7.4794984E-1,7.535E-1,3.85E-1,1.9E-2,3.053435E-2,7.6094985E-1,-3.3561033E-3,-3.030897E-4,-1.0873077E-3,1.378995E-3,-5.8055844E-4,-2.0341098E-3,-6.749813E-4,1.1300471E-3,-1.5240202E-4,2.2655462E-3,6.0980036E-3,2.9827866E-3,6.823481E-4,2.310226E-3,-1.7358294E-3,3.38215E-4,3.850549E-4,-1.4943451E-3,7.425271E-4,-3.267663E-4,-1.2457951E-4,-1.8880509E-3,-1.1564413E-3,-3.7637222E-4,7.7084673E-4,1.4226362E-2,3.2440602E-4,2.9506467E-3,-3.353372E-4,1.9163961E-3,-4.3746093E-3,-1.2478892E-3,-2.3529107E-4,-1.0431203E-3,-2.3172384E-3,-1.4259525E-3,9.854599E-3,2.989284E-3,-4.1301522E-5,-1.1342709E-3,-4.3409536E-4,-3.963508E-3,-2.2767687E-3,-9.817199E-4,-3.427316E-3,6.7959004E-3,1.3631007E-3,-4.1837837E-5,-2.0310143E-3,-9.341434E-4,-4.5531322E-4,-1.1621325E-3,-1.5565599E-3,1.5045189E-3,-2.2841438E-3,-1.3282237E-3,-2.2814441E-3,-1.0932047E-3,-1.0967258E-3,-1.7578515E-3,-2.5869329E-3,-1.9005331E-3,-1.0339039E-3,-1.9160362E-3],"split_indices":[0,1,3,2,3,3,0,0,1,3,0,2,2,2,2,3,0,3,2,3,2,0,3,3,2,0,1,3,3,3,3,0,0,0,3,2,1,3,3,3,1,0,0,3,3,3,3,3,3,1,0,1,3,1,2,2,3,3,3,2,2,1,3,0,0,0,0,0,0,0,0,0,0,0,0,0,0,0,0,0,0,0,0,0,0,0,0,0,0,0,0,0,0,0,0,0,0,0,0,0,0,0,0,0,0,0,0,0,0,0,0,0,0,0,0,0,0,0,0,0,0,0,0,0,0,0,0],"split_type":[0,0,0,0,0,0,0,0,0,0,0,0,0,0,0,0,0,0,0,0,0,0,0,0,0,0,0,0,0,0,0,0,0,0,0,0,0,0,0,0,0,0,0,0,0,0,0,0,0,0,0,0,0,0,0,0,0,0,0,0,0,0,0,0,0,0,0,0,0,0,0,0,0,0,0,0,0,0,0,0,0,0,0,0,0,0,0,0,0,0,0,0,0,0,0,0,0,0,0,0,0,0,0,0,0,0,0,0,0,0,0,0,0,0,0,0,0,0,0,0,0,0,0,0,0,0,0],"sum_hessian":[5.99897E5,4.15426E5,1.84471E5,2.47044E5,1.68382E5,1.2149E5,6.2981E4,1.17348E5,1.29696E5,1.04739E5,6.3643E4,7.3689E4,4.7801E4,3.6408E4,2.6573E4,9.2663E4,2.4685E4,2.0901E4,1.08795E5,2.6606E4,7.8133E4,2.8885E4,3.4758E4,3.0856E4,4.2833E4,2.4244E4,2.3557E4,2.4601E4,1.1807E4,1.5015E4,1.1558E4,2.8267E4,6.4396E4,1.2426E4,1.2259E4,1.0856E4,1.0045E4,7.5604E4,3.3191E4,5.168E3,2.1438E4,2.3437E4,5.4696E4,1.047E3,2.7838E4,2.819E4,6.568E3,3.651E3,2.7205E4,6.17E2,4.2216E4,2.0301E4,3.943E3,2.158E3,2.1399E4,9.147E3,1.5454E4,2.678E3,9.129E3,5.867E3,9.148E3,9.829E3,1.729E3,3.299E3,2.4968E4,1.1597E4,5.2799E4,1.644E3,1.0782E4,1.1134E4,1.125E3,1.13E3,9.726E3,5.401E3,4.644E3,3.2476E4,4.3128E4,2.1E3,3.1091E4,1.492E3,3.676E3,1.1874E4,9.564E3,2.101E3,2.1336E4,1.1771E4,4.2925E4,5.71E2,4.76E2,1.9429E4,8.409E3,2.4755E4,3.435E3,1.113E3,5.455E3,1.447E3,2.204E3,1.3115E4,1.409E4,2.88E2,3.29E2,1.7284E4,2.4932E4,1.9927E4,3.74E2,2.895E3,1.048E3,8.2E1,2.076E3,1.4617E4,6.782E3,6.119E3,3.028E3,7.302E3,8.152E3,2.351E3,3.27E2,6.583E3,2.546E3,5.471E3,3.96E2,3.06E3,6.088E3,7.264E3,2.565E3,1.189E3,5.4E2],"tree_param":{"num_deleted":"0","num_feature":"4","num_nodes":"127","size_leaf_vector":"1"}},{"base_weights":[2.2398844E-7,3.2347275E-3,-8.972653E-3,6.927615E-3,-3.0032771E-3,-5.7117604E-3,-1.5018767E-2,9.0059615E-4,1.2920777E-2,4.2613182E-2,-3.414774E-3,-1.0332832E-2,3.917506E-3,-1.2368583E-2,-1.7922096E-2,1.5339268E-4,4.549111E-2,3.9393343E-2,1.0841818E-2,6.6871755E-3,1.3768429E-1,-4.984755E-3,6.405259E-3,-1.6066846E-2,-6.1001605E-3,-6.3367747E-3,1.563962E-2,8.357217E-3,-1.28190415E-2,-1.5977206E-2,-2.0028925E-2,-9.042783E-3,3.019442E-3,8.478745E-2,3.6708362E-2,2.417811E-2,6.0892254E-2,1.6230756E-2,3.2368589E-3,1.7866036E-2,-1.0727135E-2,-2.1163456E-2,1.735864E-1,-1.04601355E-2,-2.676319E-3,1.9281767E-2,-1.635612E-2,-1.4739372E-2,-2.5853261E-2,4.6018437E-3,-8.862589E-3,-2.0973193E-3,-1.3479111E-2,6.2790975E-2,1.1147132E-2,-1.0591239E-2,5.0972287E-2,-1.30878715E-2,1.0097811E-2,-2.0092908E-2,-1.3090145E-2,-2.1495983E-2,-1.2074745E-2,-4.299937E-4,-1.6185445E-3,-4.93539E-4,8.760022E-4,1.0287521E-3,1.059754E-2,2.5296418E-3,7.69357E-3,1.4365137E-3,4.413352E-3,3.238601E-3,7.0904973E-3,5.0158426E-4,2.1188434E-3,5.310668E-4,-7.6464075E-4,-8.967514E-4,3.2029995E-3,7.0848246E-4,-2.0553363E-3,-6.488241E-3,7.808979E-4,1.8575465E-2,-2.309223E-3,1.2775369E-3,-1.2667925E-3,-4.498593E-4,4.2216605E-4,3.0758118E-3,-6.0962135E-4,3.7149154E-3,-1.9120671E-3,-1.705651E-3,-1.0068322E-3,-8.90362E-4,-2.6985323E-3,1.8335677E-3,-1.4961537E-3,-5.953326E-4,-1.4455406E-3,-8.5562747E-4,4.9051875E-3,-7.237307E-4,-1.9251046E-3,-3.083932E-3,6.7746597E-3,1.6813636E-3,2.5574962E-4,2.5421686E-3,-1.2226322E-3,2.736042E-3,9.632206E-3,-1.1421731E-3,-1.6356222E-3,-1.0368286E-3,1.4303155E-3,-2.25036E-3,-1.7395461E-3,-1.1313774E-3,-1.810213E-3,3.7714862E-3,-2.164285E-3,-1.351547E-3,-4.688242E-4],"categories":[],"categories_nodes":[],"categories_segments":[],"categories_sizes":[],"default_left":[0,0,0,0,0,0,0,0,0,0,0,0,0,0,0,0,0,0,0,0,0,0,0,0,0,0,0,0,0,0,0,0,0,0,0,0,0,0,0,0,0,0,0,0,0,0,0,0,0,0,0,0,0,0,0,0,0,0,0,0,0,0,0,0,0,0,0,0,0,0,0,0,0,0,0,0,0,0,0,0,0,0,0,0,0,0,0,0,0,0,0,0,0,0,0,0,0,0,0,0,0,0,0,0,0,0,0,0,0,0,0,0,0,0,0,0,0,0,0,0,0,0,0,0,0,0,0],"id":6,"left_children":[1,3,5,7,9,11,13,15,17,19,21,23,25,27,29,31,33,35,37,39,41,43,45,47,49,51,53,55,57,59,61,63,65,67,69,71,73,75,77,79,81,83,85,87,89,91,93,95,97,99,101,103,105,107,109,111,113,115,117,119,121,123,125,-1,-1,-1,-1,-1,-1,-1,-1,-1,-1,-1,-1,-1,-1,-1,-1,-1,-1,-1,-1,-1,-1,-1,-1,-1,-1,-1,-1,-1,-1,-1,-1,-1,-1,-1,-1,-1,-1,-1,-1,-1,-1,-1,-1,-1,-1,-1,-1,-1,-1,-1,-1,-1,-1,-1,-1,-1,-1,-1,-1,-1,-1,-1,-1],"loss_changes":[1.7410751E1,1.0157808E1,3.133748E0,1.0004684E1,3.0780506E0,4.5949E0,4.2828465E-1,4.6012344E0,7.6428337E0,5.006239E0,2.5054302E0,1.6933789E0,4.025179E0,2.7195597E-1,1.08569145E-1,3.5799253E0,7.82403E-1,3.3062735E0,5.2772036E0,2.075175E-1,2.296268E0,1.7708635E0,6.5654664E0,3.8457346E-1,1.1868682E0,5.408262E-1,3.3090959E0,5.011835E-1,1.7570639E-1,1.6398549E-1,1.4854622E-1,1.0932281E0,4.728827E0,6.539874E-1,8.5284615E-1,1.1592188E0,1.1936321E0,4.1901264E0,1.2053816E0,2.4695219E-1,7.313077E-2,9.550499E-2,7.8926945E-1,2.13169E0,1.2388813E0,4.1670523E0,1.1979585E0,2.822671E-1,6.764722E-2,2.2133934E0,5.19104E-1,3.703871E0,2.3955011E-1,6.3265944E-1,6.9437766E-1,2.5630988E-2,2.0188597E-1,1.5320873E-1,2.863647E-2,3.665471E-2,7.2150946E-2,9.442949E-2,2.1092772E-2,0E0,0E0,0E0,0E0,0E0,0E0,0E0,0E0,0E0,0E0,0E0,0E0,0E0,0E0,0E0,0E0,0E0,0E0,0E0,0E0,0E0,0E0,0E0,0E0,0E0,0E0,0E0,0E0,0E0,0E0,0E0,0E0,0E0,0E0,0E0,0E0,0E0,0E0,0E0,0E0,0E0,0E0,0E0,0E0,0E0,0E0,0E0,0E0,0E0,0E0,0E0,0E0,0E0,0E0,0E0,0E0,0E0,0E0,0E0,0E0,0E0,0E0,0E0,0E0],"parents":[2147483647,0,0,1,1,2,2,3,3,4,4,5,5,6,6,7,7,8,8,9,9,10,10,11,11,12,12,13,13,14,14,15,15,16,16,17,17,18,18,19,19,20,20,21,21,22,22,23,23,24,24,25,25,26,26,27,27,28,28,29,29,30,30,31,31,32,32,33,33,34,34,35,35,36,36,37,37,38,38,39,39,40,40,41,41,42,42,43,43,44,44,45,45,46,46,47,47,48,48,49,49,50,50,51,51,52,52,53,53,54,54,55,55,56,56,57,57,58,58,59,59,60,60,61,61,62,62],"right_children":[2,4,6,8,10,12,14,16,18,20,22,24,26,28,30,32,34,36,38,40,42,44,46,48,50,52,54,56,58,60,62,64,66,68,70,72,74,76,78,80,82,84,86,88,90,92,94,96,98,100,102,104,106,108,110,112,114,116,118,120,122,124,126,-1,-1,-1,-1,-1,-1,-1,-1,-1,-1,-1,-1,-1,-1,-1,-1,-1,-1,-1,-1,-1,-1,-1,-1,-1,-1,-1,-1,-1,-1,-1,-1,-1,-1,-1,-1,-1,-1,-1,-1,-1,-1,-1,-1,-1,-1,-1,-1,-1,-1,-1,-1,-1,-1,-1,-1,-1,-1,-1,-1,-1,-1,-1,-1],"split_conditions":[8.356835E-1,2.3313386E-2,6.93825E-1,2.2662857E-1,8.080808E-2,2.4453747E-1,9.376937E-1,8.626623E-1,4.53889E-3,5.0600004E-1,7.4952483E-1,2.01E-1,1.66E-1,4.1262633E-3,4.3906665E-1,1.4441921E-3,1.8871886E-1,1.6332495E-1,5.176E-1,5.4599994E-1,1.010101E-2,2.762E-1,5.54E-1,9.8779875E-1,6.189395E-3,6.329999E-1,3.7136371E-3,1.9719999E-1,7.7532506E-1,7.395749E-1,7.535E-1,7.5997597E-1,3.8693762E-1,1.2561256E-1,4.8634863E-1,7.4997497E-1,2.269445E-3,1.1884987E-1,7.205374E-1,2.6408084E-2,1.01799846E-1,9.70097E-3,5.351999E-1,7.562494E-2,1.5104997E-1,7.4994993E-1,7.495749E-1,1.1749995E-1,8.779991E-2,9.5279527E-1,2.537652E-2,6.2462497E-1,5.1578293E-3,1.4441921E-3,4.7597504E-1,8.3778375E-1,9.1999197E-1,4.953333E-1,1.0521972E-2,7.0974994E-1,9.961996E-1,3.507324E-3,5.756137E-2,-4.299937E-4,-1.6185445E-3,-4.93539E-4,8.760022E-4,1.0287521E-3,1.059754E-2,2.5296418E-3,7.69357E-3,1.4365137E-3,4.413352E-3,3.238601E-3,7.0904973E-3,5.0158426E-4,2.1188434E-3,5.310668E-4,-7.6464075E-4,-8.967514E-4,3.2029995E-3,7.0848246E-4,-2.0553363E-3,-6.488241E-3,7.808979E-4,1.8575465E-2,-2.309223E-3,1.2775369E-3,-1.2667925E-3,-4.498593E-4,4.2216605E-4,3.0758118E-3,-6.0962135E-4,3.7149154E-3,-1.9120671E-3,-1.705651E-3,-1.0068322E-3,-8.90362E-4,-2.6985323E-3,1.8335677E-3,-1.4961537E-3,-5.953326E-4,-1.4455406E-3,-8.5562747E-4,4.9051875E-3,-7.237307E-4,-1.9251046E-3,-3.083932E-3,6.7746597E-3,1.6813636E-3,2.5574962E-4,2.5421686E-3,-1.2226322E-3,2.736042E-3,9.632206E-3,-1.1421731E-3,-1.6356222E-3,-1.0368286E-3,1.4303155E-3,-2.25036E-3,-1.7395461E-3,-1.1313774E-3,-1.810213E-3,3.7714862E-3,-2.164285E-3,-1.351547E-3,-4.688242E-4],"split_indices":[0,1,3,2,0,3,0,3,1,3,3,2,2,1,2,1,0,3,2,2,0,2,2,0,1,3,1,2,3,3,3,0,3,0,0,0,1,3,3,1,3,0,3,3,3,3,3,3,3,0,1,3,1,1,3,0,0,2,1,3,0,1,1,0,0,0,0,0,0,0,0,0,0,0,0,0,0,0,0,0,0,0,0,0,0,0,0,0,0,0,0,0,0,0,0,0,0,0,0,0,0,0,0,0,0,0,0,0,0,0,0,0,0,0,0,0,0,0,0,0,0,0,0,0,0,0,0],"split_type":[0,0,0,0,0,0,0,0,0,0,0,0,0,0,0,0,0,0,0,0,0,0,0,0,0,0,0,0,0,0,0,0,0,0,0,0,0,0,0,0,0,0,0,0,0,0,0,0,0,0,0,0,0,0,0,0,0,0,0,0,0,0,0,0,0,0,0,0,0,0,0,0,0,0,0,0,0,0,0,0,0,0,0,0,0,0,0,0,0,0,0,0,0,0,0,0,0,0,0,0,0,0,0,0,0,0,0,0,0,0,0,0,0,0,0,0,0,0,0,0,0,0,0,0,0,0,0],"sum_hessian":[5.99897E5,4.40947E5,1.5895E5,2.76977E5,1.6397E5,1.0326E5,5.569E4,1.38099E5,1.38878E5,1.465E3,1.62505E5,6.9775E4,3.3485E4,2.9117E4,2.6573E4,1.35824E5,2.275E3,1.0111E4,1.28767E5,1.064E3,4.01E2,1.40106E5,2.2399E4,2.9631E4,4.0144E4,1.7861E4,1.5624E4,6.19E2,2.8498E4,1.3822E4,1.2751E4,3.2272E4,1.03552E5,4.14E2,1.861E3,5.922E3,4.189E3,7.5363E4,5.3404E4,6.48E2,4.16E2,7.4E1,3.27E2,4.155E4,9.8556E4,1.4306E4,8.093E3,2.6094E4,3.537E3,8.236E3,3.1908E4,1.1209E4,6.652E3,1.358E3,1.4266E4,4.29E2,1.9E2,2.8168E4,3.3E2,5.696E3,8.126E3,1.0764E4,1.987E3,1.9395E4,1.2877E4,4.3405E4,6.0147E4,9.2E1,3.22E2,1.451E3,4.1E2,3.971E3,1.951E3,1.09E3,3.099E3,2.3103E4,5.226E4,4.4857E4,8.547E3,2.24E2,4.24E2,1.48E2,2.68E2,2.9E1,4.5E1,3.08E2,1.9E1,3.605E3,3.7945E4,7.7961E4,2.0595E4,9.851E3,4.455E3,3.97E2,7.696E3,1.744E4,8.654E3,2.22E2,3.315E3,4.839E3,3.397E3,2.0991E4,1.0917E4,9.953E3,1.256E3,3.197E3,3.455E3,6.8E1,1.29E3,8.595E3,5.671E3,1.8E1,4.11E2,1.26E2,6.4E1,1.866E4,9.508E3,5.6E1,2.74E2,3.004E3,2.692E3,6.002E3,2.124E3,2.6E1,1.0738E4,1.662E3,3.25E2],"tree_param":{"num_deleted":"0","num_feature":"4","num_nodes":"127","size_leaf_vector":"1"}},{"base_weights":[2.9772434E-7,4.2721136E-3,-5.823769E-3,-1.1409707E-3,9.697199E-3,-2.861528E-3,-1.2642327E-2,1.2978477E-2,-3.2629964E-3,-9.792406E-3,1.1101317E-2,-1.1197606E-2,3.1305265E-3,-1.0432324E-2,-1.654398E-2,1.0369112E-2,4.572684E-2,-4.0412653E-4,-7.129764E-3,-1.1359196E-2,1.4218326E-2,1.5322645E-2,5.6706914E-3,-1.2931125E-2,-4.1047432E-3,-2.9206362E-3,1.4263992E-2,-1.52332345E-2,-7.5261565E-3,-1.8066622E-2,-9.890736E-3,1.4290318E-3,1.7828962E-2,6.9393E-2,9.676742E-3,5.335838E-3,-3.0245446E-3,-1.9062606E-3,-8.917882E-3,-5.425883E-3,-1.601985E-2,3.9871603E-2,-2.5503412E-2,1.2514859E-2,3.634663E-2,1.917362E-2,1.0327462E-3,-1.4805682E-2,-7.241721E-3,4.1115705E-2,-1.078021E-2,-3.5507586E-5,-1.1233215E-2,5.472154E-2,9.9198595E-3,2.4507602E-3,-1.6665038E-2,3.323425E-3,-9.108809E-3,-1.283771E-2,-2.0449212E-2,-7.141394E-3,-1.49696125E-2,2.1420857E-3,-3.9832806E-4,1.3978301E-3,3.5006688E-3,8.301553E-3,4.7040195E-3,-5.37406E-4,3.5882373E-3,-1.0959546E-3,7.8317814E-4,-9.451559E-4,2.2387695E-4,-2.2132767E-4,4.5544393E-3,-1.6442258E-3,-6.435876E-4,-2.699387E-4,-2.179684E-3,-1.3943161E-3,-2.1801968E-3,2.2563007E-2,3.805089E-3,-2.167804E-3,-5.082877E-3,6.6463463E-4,1.7669298E-3,6.59937E-3,2.886374E-3,5.5870707E-3,1.4824058E-3,5.524016E-4,-1.1227444E-3,5.0175127E-5,-1.5302832E-3,-4.3934197E-4,-1.7544912E-3,-6.836318E-4,8.356401E-3,-1.744497E-3,-7.4991555E-4,1.4857799E-3,-2.760135E-4,-4.0487447E-4,-1.3449405E-3,-2.5157887E-3,5.697179E-3,1.2997426E-3,-2.4178182E-4,-4.039056E-4,5.332027E-3,-2.24986E-3,-1.5337805E-3,7.193062E-4,-1.0475976E-3,-5.5847154E-4,-1.1958185E-3,-1.496863E-3,9.438907E-4,-2.224084E-3,-1.5585616E-3,-1.0837818E-3,3.328717E-4,-1.5720524E-3,9.3863247E-4],"categories":[],"categories_nodes":[],"categories_segments":[],"categories_sizes":[],"default_left":[0,0,0,0,0,0,0,0,0,0,0,0,0,0,0,0,0,0,0,0,0,0,0,0,0,0,0,0,0,0,0,0,0,0,0,0,0,0,0,0,0,0,0,0,0,0,0,0,0,0,0,0,0,0,0,0,0,0,0,0,0,0,0,0,0,0,0,0,0,0,0,0,0,0,0,0,0,0,0,0,0,0,0,0,0,0,0,0,0,0,0,0,0,0,0,0,0,0,0,0,0,0,0,0,0,0,0,0,0,0,0,0,0,0,0,0,0,0,0,0,0,0,0,0,0,0,0],"id":7,"left_children":[1,3,5,7,9,11,13,15,17,19,21,23,25,27,29,31,33,35,37,39,41,43,45,47,49,51,53,55,57,59,61,63,65,67,69,71,73,75,77,79,81,83,85,87,89,91,93,95,97,99,101,103,105,107,109,111,113,115,117,119,121,123,125,-1,-1,-1,-1,-1,-1,-1,-1,-1,-1,-1,-1,-1,-1,-1,-1,-1,-1,-1,-1,-1,-1,-1,-1,-1,-1,-1,-1,-1,-1,-1,-1,-1,-1,-1,-1,-1,-1,-1,-1,-1,-1,-1,-1,-1,-1,-1,-1,-1,-1,-1,-1,-1,-1,-1,-1,-1,-1,-1,-1,-1,-1,-1,-1],"loss_changes":[1.4925091E1,1.0162767E1,5.126916E0,5.19021E0,4.730049E0,8.839079E0,6.6270256E-1,1.9335713E0,1.6647515E0,4.3715274E-1,3.6959534E0,9.0987206E-1,6.936095E0,6.8466234E-1,2.8141928E-1,1.3980982E0,1.4241178E0,1.3023052E0,5.9787965E-1,3.014704E-1,7.265397E-1,5.35441E0,4.4160414E0,6.341362E-1,4.3883905E0,1.5997045E0,6.3710294E0,4.686122E-1,5.250368E-1,2.8153276E-1,7.221043E-2,1.0320079E0,7.554226E-1,3.0303288E-1,2.6169044E-1,1.1038519E0,2.0108905E0,2.3793972E-1,8.9049387E-1,2.141462E-1,7.302678E-2,1.3786054E-1,2.6024222E-2,2.4206104E0,2.3689613E0,2.8767333E0,2.8902519E0,3.4040737E-1,4.3249178E-1,3.8069224E0,2.7686393E-1,2.009377E0,2.7358365E-1,6.332483E-1,1.2431321E0,4.581109E-1,1.3220692E-1,2.0795634E-1,2.678697E-1,3.3636892E-1,1.3503885E-1,1.3015214E-1,3.3397257E-2,0E0,0E0,0E0,0E0,0E0,0E0,0E0,0E0,0E0,0E0,0E0,0E0,0E0,0E0,0E0,0E0,0E0,0E0,0E0,0E0,0E0,0E0,0E0,0E0,0E0,0E0,0E0,0E0,0E0,0E0,0E0,0E0,0E0,0E0,0E0,0E0,0E0,0E0,0E0,0E0,0E0,0E0,0E0,0E0,0E0,0E0,0E0,0E0,0E0,0E0,0E0,0E0,0E0,0E0,0E0,0E0,0E0,0E0,0E0,0E0,0E0,0E0,0E0,0E0],"parents":[2147483647,0,0,1,1,2,2,3,3,4,4,5,5,6,6,7,7,8,8,9,9,10,10,11,11,12,12,13,13,14,14,15,15,16,16,17,17,18,18,19,19,20,20,21,21,22,22,23,23,24,24,25,25,26,26,27,27,28,28,29,29,30,30,31,31,32,32,33,33,34,34,35,35,36,36,37,37,38,38,39,39,40,40,41,41,42,42,43,43,44,44,45,45,46,46,47,47,48,48,49,49,50,50,51,51,52,52,53,53,54,54,55,55,56,56,57,57,58,58,59,59,60,60,61,61,62,62],"right_children":[2,4,6,8,10,12,14,16,18,20,22,24,26,28,30,32,34,36,38,40,42,44,46,48,50,52,54,56,58,60,62,64,66,68,70,72,74,76,78,80,82,84,86,88,90,92,94,96,98,100,102,104,106,108,110,112,114,116,118,120,122,124,126,-1,-1,-1,-1,-1,-1,-1,-1,-1,-1,-1,-1,-1,-1,-1,-1,-1,-1,-1,-1,-1,-1,-1,-1,-1,-1,-1,-1,-1,-1,-1,-1,-1,-1,-1,-1,-1,-1,-1,-1,-1,-1,-1,-1,-1,-1,-1,-1,-1,-1,-1,-1,-1,-1,-1,-1,-1,-1,-1,-1,-1,-1,-1,-1],"split_conditions":[7.6037604E-1,1.5104997E-1,7.039499E-1,8.871466E-3,9.10091E-3,1.66E-1,4.87E-1,7.4997497E-1,3.0121723E-2,8.45884E-3,6.0066E-1,5.9507513E-1,1.2624991E-1,7.467499E-1,7.535E-1,3.208E-1,7.5247526E-1,9.1799855E-2,8.55999E-2,8.252527E-4,8.871466E-3,7.4987507E-1,4.7597504E-1,5.633333E-2,6.2625E-1,9.236924E-1,4.745203E-3,4.1262633E-3,7.924792E-1,7.483499E-1,7.6094985E-1,8.499992E-2,1.2624991E-1,4.1262633E-3,1.2367487E-1,7.0249915E-2,3.8799998E-1,8.119E-1,3.85E-1,7.4600005E-1,1.8568184E-3,5.8509374E-1,1.691768E-2,1E-3,7.499001E-1,4.1262633E-3,5.06E-1,7.4450016E-2,1.518E-1,6.2462497E-1,6.391125E-1,6.808335E-3,9.4375014E-2,1.4441921E-3,9.3179315E-1,2.1299998E-1,7.064998E-1,7.4994993E-1,7.495749E-1,7.4794984E-1,2.9296469E-2,7.601249E-1,7.8524995E-1,2.1420857E-3,-3.9832806E-4,1.3978301E-3,3.5006688E-3,8.301553E-3,4.7040195E-3,-5.37406E-4,3.5882373E-3,-1.0959546E-3,7.8317814E-4,-9.451559E-4,2.2387695E-4,-2.2132767E-4,4.5544393E-3,-1.6442258E-3,-6.435876E-4,-2.699387E-4,-2.179684E-3,-1.3943161E-3,-2.1801968E-3,2.2563007E-2,3.805089E-3,-2.167804E-3,-5.082877E-3,6.6463463E-4,1.7669298E-3,6.59937E-3,2.886374E-3,5.5870707E-3,1.4824058E-3,5.524016E-4,-1.1227444E-3,5.0175127E-5,-1.5302832E-3,-4.3934197E-4,-1.7544912E-3,-6.836318E-4,8.356401E-3,-1.744497E-3,-7.4991555E-4,1.4857799E-3,-2.760135E-4,-4.0487447E-4,-1.3449405E-3,-2.5157887E-3,5.697179E-3,1.2997426E-3,-2.4178182E-4,-4.039056E-4,5.332027E-3,-2.24986E-3,-1.5337805E-3,7.193062E-4,-1.0475976E-3,-5.5847154E-4,-1.1958185E-3,-1.496863E-3,9.438907E-4,-2.224084E-3,-1.5585616E-3,-1.0837818E-3,3.328717E-4,-1.5720524E-3,9.3863247E-4],"split_indices":[0,3,3,1,0,2,2,0,1,1,0,3,3,3,3,2,0,3,3,1,1,3,3,2,3,0,1,1,0,3,3,3,3,1,3,3,2,2,2,3,1,3,1,2,3,1,2,3,2,3,3,1,3,1,0,2,3,3,3,3,1,3,3,0,0,0,0,0,0,0,0,0,0,0,0,0,0,0,0,0,0,0,0,0,0,0,0,0,0,0,0,0,0,0,0,0,0,0,0,0,0,0,0,0,0,0,0,0,0,0,0,0,0,0,0,0,0,0,0,0,0,0,0,0,0,0,0],"split_type":[0,0,0,0,0,0,0,0,0,0,0,0,0,0,0,0,0,0,0,0,0,0,0,0,0,0,0,0,0,0,0,0,0,0,0,0,0,0,0,0,0,0,0,0,0,0,0,0,0,0,0,0,0,0,0,0,0,0,0,0,0,0,0,0,0,0,0,0,0,0,0,0,0,0,0,0,0,0,0,0,0,0,0,0,0,0,0,0,0,0,0,0,0,0,0,0,0,0,0,0,0,0,0,0,0,0,0,0,0,0,0,0,0,0,0,0,0,0,0,0,0,0,0,0,0,0,0],"sum_hessian":[5.99897E5,3.46066E5,2.53831E5,1.73225E5,1.72841E5,1.76956E5,7.6875E4,2.2632E4,1.50593E5,1.1615E4,1.61226E5,7.4003E4,1.02953E5,4.9079E4,2.7796E4,2.0963E4,1.669E3,8.6581E4,6.4012E4,1.0904E4,7.11E2,9.0712E4,7.0514E4,5.9468E4,1.4535E4,6.6701E4,3.6252E4,1.8505E4,3.0574E4,2.2618E4,5.178E3,9.536E3,1.1427E4,1.007E3,6.62E2,2.7137E4,5.9444E4,1.6325E4,4.7687E4,4.798E3,6.106E3,4.32E2,2.79E2,8.0026E4,1.0686E4,1.8027E4,5.2487E4,4.4729E4,1.4739E4,1.869E3,1.2666E4,4.9516E4,1.7185E4,3.514E3,3.2738E4,1.386E3,1.7119E4,3.892E3,2.6682E4,7.082E3,1.5536E4,3.361E3,1.817E3,2.031E3,7.505E3,9.336E3,2.091E3,6.24E2,3.83E2,4.21E2,2.41E2,3.604E3,2.3533E4,2.6763E4,3.2681E4,1.6221E4,1.04E2,1.1827E4,3.586E4,4.114E3,6.84E2,4.495E3,1.611E3,3E0,4.29E2,2.44E2,3.5E1,3.7422E4,4.2604E4,2.152E3,8.534E3,1.909E3,1.6118E4,3.8415E4,1.4072E4,1.407E3,4.3322E4,1.1548E4,3.191E3,8.78E2,9.91E2,4.177E3,8.489E3,7.657E3,4.1859E4,4.052E3,1.3133E4,9.6E1,3.418E3,2.6202E4,6.536E3,1.23E3,1.56E2,3.17E3,1.3949E4,3.04E3,8.52E2,1.193E4,1.4752E4,6.464E3,6.18E2,1.1351E4,4.185E3,2.484E3,8.77E2,1.763E3,5.4E1],"tree_param":{"num_deleted":"0","num_feature":"4","num_nodes":"127","size_leaf_vector":"1"}},{"base_weights":[3.5759814E-7,3.8450616E-3,-5.241398E-3,-1.026737E-3,8.727662E-3,-2.5753458E-3,-1.137818E-2,8.298583E-3,-3.708316E-3,-8.812038E-3,9.991299E-3,-1.0236351E-2,2.7424886E-3,-9.105798E-3,-1.4500066E-2,9.8234064E-5,1.494613E-2,6.8046706E-4,-6.217709E-3,-1.0223829E-2,1.2823344E-2,1.3790512E-2,5.1037148E-3,-1.1883938E-2,-3.8323016E-3,-2.690406E-3,1.2731215E-2,-1.3744877E-2,-6.071088E-3,-1.6060742E-2,-7.82964E-3,1.5239528E-2,-3.3627935E-3,2.1054087E-2,2.9926822E-3,-9.414148E-3,2.3114586E-3,-1.1365444E-2,-3.679916E-3,-4.8838058E-3,-1.441845E-2,3.594534E-2,-2.2978969E-2,1.1263404E-2,3.2712854E-2,1.7256651E-2,9.294606E-4,-1.34118255E-2,-7.100148E-3,2.9708622E-2,-9.735817E-3,-7.9514684E-5,-1.0128004E-2,3.9857153E-2,7.2685955E-3,2.0303747E-3,-1.5070703E-2,-4.173877E-3,-1.27046015E-2,-1.1420615E-2,-1.8175388E-2,-4.896559E-3,-1.3328248E-2,6.090565E-4,3.1973813E-3,-1.1649728E-3,1.3633483E-4,1.6624185E-3,4.163482E-3,-1.2988321E-3,5.0147495E-4,2.1880002E-4,-1.1919807E-3,-5.1496754E-4,5.367067E-4,-1.4992744E-3,-8.4450433E-4,5.081608E-4,-5.2769505E-4,-2.4295144E-4,-1.962034E-3,-1.1741311E-3,-1.8088457E-3,2.087078E-2,3.4254657E-3,-1.7479251E-3,-3.7778474E-3,1.2171076E-3,-2.080686E-3,3.9900905E-3,4.235662E-4,5.0286558E-3,1.3341744E-3,4.683494E-4,-1.1095366E-3,1.5347451E-4,-1.384322E-3,-4.3164223E-4,-2.6447438E-3,-7.063862E-4,7.543993E-3,-2.394003E-4,-1.2491738E-3,1.4103526E-3,-2.3757301E-4,-8.820953E-4,-2.096039E-3,5.779113E-3,2.8047897E-3,9.848708E-4,-3.138686E-4,-3.635477E-4,5.367951E-3,-2.0243372E-3,-1.3814693E-3,6.075484E-4,-5.5470475E-4,-1.6633006E-4,-1.5183751E-3,-1.3344471E-3,8.5718615E-4,-1.9643137E-3,-1.3968936E-3,-8.753966E-4,4.4643096E-4,-1.4145462E-3,7.055928E-4],"categories":[],"categories_nodes":[],"categories_segments":[],"categories_sizes":[],"default_left":[0,0,0,0,0,0,0,0,0,0,0,0,0,0,0,0,0,0,0,0,0,0,0,0,0,0,0,0,0,0,0,0,0,0,0,0,0,0,0,0,0,0,0,0,0,0,0,0,0,0,0,0,0,0,0,0,0,0,0,0,0,0,0,0,0,0,0,0,0,0,0,0,0,0,0,0,0,0,0,0,0,0,0,0,0,0,0,0,0,0,0,0,0,0,0,0,0,0,0,0,0,0,0,0,0,0,0,0,0,0,0,0,0,0,0,0,0,0,0,0,0,0,0,0,0,0,0],"id":8,"left_children":[1,3,5,7,9,11,13,15,17,19,21,23,25,27,29,31,33,35,37,39,41,43,45,47,49,51,53,55,57,59,61,63,65,67,69,71,73,75,77,79,81,83,85,87,89,91,93,95,97,99,101,103,105,107,109,111,113,115,117,119,121,123,125,-1,-1,-1,-1,-1,-1,-1,-1,-1,-1,-1,-1,-1,-1,-1,-1,-1,-1,-1,-1,-1,-1,-1,-1,-1,-1,-1,-1,-1,-1,-1,-1,-1,-1,-1,-1,-1,-1,-1,-1,-1,-1,-1,-1,-1,-1,-1,-1,-1,-1,-1,-1,-1,-1,-1,-1,-1,-1,-1,-1,-1,-1,-1,-1],"loss_changes":[1.2089764E1,8.231921E0,4.152912E0,4.331821E0,3.830927E0,7.2092476E0,5.452347E-1,2.1089673E0,1.4817064E0,3.549376E-1,2.9937477E0,7.6497126E-1,5.6684585E0,6.263149E-1,3.3699274E-1,9.0780085E-1,1.5599656E0,8.0583066E-1,1.1181877E0,2.4419487E-1,5.902345E-1,4.3374176E0,3.577171E0,4.214058E-1,2.938352E0,1.3137946E0,5.4523892E0,3.6803412E-1,3.3848822E-1,2.5728512E-1,9.899208E-2,4.932509E-1,5.5224556E-1,1.2885523E0,2.3360316E-1,1.979416E-1,9.6065676E-1,2.9927897E-1,8.022705E-1,1.7352137E-1,5.978954E-2,1.19324505E-1,2.2129744E-2,2.3297796E0,2.1874123E0,2.3305116E0,2.3694444E0,2.8183794E-1,7.51845E-1,3.7354858E0,2.5527596E-1,1.6309397E0,2.4870706E-1,1.3046799E0,8.2253325E-1,3.9964375E-1,1.0517192E-1,2.9445016E-1,1.6372025E-1,3.1620038E-1,1.1101198E-1,1.4472654E-1,3.5681814E-2,0E0,0E0,0E0,0E0,0E0,0E0,0E0,0E0,0E0,0E0,0E0,0E0,0E0,0E0,0E0,0E0,0E0,0E0,0E0,0E0,0E0,0E0,0E0,0E0,0E0,0E0,0E0,0E0,0E0,0E0,0E0,0E0,0E0,0E0,0E0,0E0,0E0,0E0,0E0,0E0,0E0,0E0,0E0,0E0,0E0,0E0,0E0,0E0,0E0,0E0,0E0,0E0,0E0,0E0,0E0,0E0,0E0,0E0,0E0,0E0,0E0,0E0,0E0,0E0],"parents":[2147483647,0,0,1,1,2,2,3,3,4,4,5,5,6,6,7,7,8,8,9,9,10,10,11,11,12,12,13,13,14,14,15,15,16,16,17,17,18,18,19,19,20,20,21,21,22,22,23,23,24,24,25,25,26,26,27,27,28,28,29,29,30,30,31,31,32,32,33,33,34,34,35,35,36,36,37,37,38,38,39,39,40,40,41,41,42,42,43,43,44,44,45,45,46,46,47,47,48,48,49,49,50,50,51,51,52,52,53,53,54,54,55,55,56,56,57,57,58,58,59,59,60,60,61,61,62,62],"right_children":[2,4,6,8,10,12,14,16,18,20,22,24,26,28,30,32,34,36,38,40,42,44,46,48,50,52,54,56,58,60,62,64,66,68,70,72,74,76,78,80,82,84,86,88,90,92,94,96,98,100,102,104,106,108,110,112,114,116,118,120,122,124,126,-1,-1,-1,-1,-1,-1,-1,-1,-1,-1,-1,-1,-1,-1,-1,-1,-1,-1,-1,-1,-1,-1,-1,-1,-1,-1,-1,-1,-1,-1,-1,-1,-1,-1,-1,-1,-1,-1,-1,-1,-1,-1,-1,-1,-1,-1,-1,-1,-1,-1,-1,-1,-1,-1,-1,-1,-1,-1,-1,-1,-1,-1,-1,-1],"split_conditions":[7.6037604E-1,1.5104997E-1,7.039499E-1,1.2791417E-2,9.10091E-3,1.56E-1,4.5759997E-1,3.24E-1,9.507501E-2,8.45884E-3,6.0066E-1,5.8509374E-1,1.2624991E-1,7.467499E-1,7.535E-1,7.969999E-2,5.4039997E-1,7.0249915E-2,3.94E-1,8.252527E-4,8.871466E-3,7.4987507E-1,4.7597504E-1,5.06E-2,6.2625E-1,9.236924E-1,6.189395E-3,4.1262633E-3,3.2597482E-2,7.483499E-1,7.6094985E-1,7.774985E-2,1.084249E-1,1.2624991E-1,7.562494E-2,4.6049953E-2,5.06E-2,1.10000014E-1,1.8568184E-2,7.4600005E-1,1.4441921E-3,5.8509374E-1,1.4029295E-2,7.4965E-1,4.4769958E-2,4.1262633E-3,5.2959996E-1,7.30499E-2,1.518E-1,6.2462497E-1,1.8568184E-3,6.189395E-3,9.9339926E-1,3.7136371E-3,9.3179315E-1,2.1299998E-1,7.064998E-1,7.8907895E-1,7.4907494E-1,7.4794984E-1,2.9296469E-2,7.601249E-1,7.8524995E-1,6.090565E-4,3.1973813E-3,-1.1649728E-3,1.3633483E-4,1.6624185E-3,4.163482E-3,-1.2988321E-3,5.0147495E-4,2.1880002E-4,-1.1919807E-3,-5.1496754E-4,5.367067E-4,-1.4992744E-3,-8.4450433E-4,5.081608E-4,-5.2769505E-4,-2.4295144E-4,-1.962034E-3,-1.1741311E-3,-1.8088457E-3,2.087078E-2,3.4254657E-3,-1.7479251E-3,-3.7778474E-3,1.2171076E-3,-2.080686E-3,3.9900905E-3,4.235662E-4,5.0286558E-3,1.3341744E-3,4.683494E-4,-1.1095366E-3,1.5347451E-4,-1.384322E-3,-4.3164223E-4,-2.6447438E-3,-7.063862E-4,7.543993E-3,-2.394003E-4,-1.2491738E-3,1.4103526E-3,-2.3757301E-4,-8.820953E-4,-2.096039E-3,5.779113E-3,2.8047897E-3,9.848708E-4,-3.138686E-4,-3.635477E-4,5.367951E-3,-2.0243372E-3,-1.3814693E-3,6.075484E-4,-5.5470475E-4,-1.6633006E-4,-1.5183751E-3,-1.3344471E-3,8.5718615E-4,-1.9643137E-3,-1.3968936E-3,-8.753966E-4,4.4643096E-4,-1.4145462E-3,7.055928E-4],"split_indices":[0,3,3,1,0,2,2,2,3,1,0,3,3,3,3,3,2,3,2,1,1,3,3,2,3,0,1,1,1,3,3,3,3,3,3,3,2,3,1,3,1,3,1,3,1,1,2,3,2,3,1,1,0,1,0,2,3,0,3,3,1,3,3,0,0,0,0,0,0,0,0,0,0,0,0,0,0,0,0,0,0,0,0,0,0,0,0,0,0,0,0,0,0,0,0,0,0,0,0,0,0,0,0,0,0,0,0,0,0,0,0,0,0,0,0,0,0,0,0,0,0,0,0,0,0,0,0],"split_type":[0,0,0,0,0,0,0,0,0,0,0,0,0,0,0,0,0,0,0,0,0,0,0,0,0,0,0,0,0,0,0,0,0,0,0,0,0,0,0,0,0,0,0,0,0,0,0,0,0,0,0,0,0,0,0,0,0,0,0,0,0,0,0,0,0,0,0,0,0,0,0,0,0,0,0,0,0,0,0,0,0,0,0,0,0,0,0,0,0,0,0,0,0,0,0,0,0,0,0,0,0,0,0,0,0,0,0,0,0,0,0,0,0,0,0,0,0,0,0,0,0,0,0,0,0,0,0],"sum_hessian":[5.99897E5,3.46066E5,2.53831E5,1.73225E5,1.72841E5,1.76956E5,7.6875E4,3.8687E4,1.34538E5,1.1615E4,1.61226E5,7.2504E4,1.04452E5,4.4493E4,3.2382E4,1.7321E4,2.1366E4,4.8942E4,8.5596E4,1.0904E4,7.11E2,9.0712E4,7.0514E4,5.7667E4,1.4837E4,6.7655E4,3.6797E4,1.7594E4,2.6899E4,2.6241E4,6.141E3,3.222E3,1.4099E4,1.414E4,7.226E3,6.807E3,4.2135E4,2.8263E4,5.7333E4,4.798E3,6.106E3,4.32E2,2.79E2,8.0026E4,1.0686E4,1.8027E4,5.2487E4,4.3706E4,1.3961E4,2.22E3,1.2617E4,5.0077E4,1.7578E4,6.167E3,3.063E4,1.364E3,1.623E4,2.0918E4,5.981E3,8.217E3,1.8024E4,4.006E3,2.135E3,2.084E3,1.138E3,5.12E3,8.979E3,1.1637E4,2.503E3,8.11E2,6.415E3,1.209E3,5.598E3,1.2242E4,2.9893E4,1.2604E4,1.5659E4,8.839E3,4.8494E4,4.114E3,6.84E2,3.533E3,2.573E3,3E0,4.29E2,2.05E2,7.4E1,7.7824E4,2.202E3,8.532E3,2.154E3,1.909E3,1.6118E4,4E4,1.2487E4,1.226E3,4.248E4,1.2206E4,1.755E3,1.231E3,9.89E2,3.444E3,9.173E3,6.977E3,4.31E4,1.5687E4,1.891E3,2.447E3,3.72E3,2.4545E4,6.085E3,1.23E3,1.34E2,3.168E3,1.3062E4,2.471E3,1.8447E4,1.097E3,4.884E3,7.496E3,7.21E2,1.3359E4,4.665E3,2.837E3,1.169E3,2.053E3,8.2E1],"tree_param":{"num_deleted":"0","num_feature":"4","num_nodes":"127","size_leaf_vector":"1"}},{"base_weights":[3.73398E-7,2.7074604E-3,-6.0959286E-3,7.4512274E-3,-7.839235E-4,-2.9188285E-3,-1.0279185E-2,-7.055414E-3,1.0982181E-2,-2.1356915E-3,8.870919E-3,-3.9863214E-3,3.4595665E-2,-8.761891E-3,-1.7171247E-2,-1.1224391E-2,-3.2547058E-3,2.4466568E-3,1.3698855E-2,-6.765996E-3,3.0068497E-4,1.8866189E-2,-1.4153914E-2,3.385919E-3,-6.0162754E-3,5.2511636E-2,4.427772E-3,-6.5080374E-3,-1.2154491E-2,2.1935374E-2,-1.7480064E-2,2.0950435E-2,-1.4591348E-2,1.2820077E-3,-1.5891127E-2,9.99025E-3,-3.1703743E-3,2.0014953E-2,4.974656E-3,1.5430057E-2,-8.124022E-3,-2.2759496E-3,7.2524776E-3,2.9114373E-2,-2.7633444E-4,3.5713326E-2,-1.6734019E-2,8.952628E-3,-7.1580466E-3,-3.4653815E-3,-8.7522715E-3,-7.2127944E-3,6.273938E-2,-2.6927834E-2,1.01395175E-2,-7.490728E-3,4.969432E-2,-9.5873466E-4,-1.2655574E-2,3.2135822E-2,8.904715E-3,-2.3772454E-2,-1.4921281E-2,7.719441E-5,3.28244E-2,-1.9595425E-3,-1.3199024E-3,-5.4494815E-4,5.423298E-4,-2.7591162E-3,-9.866897E-4,1.6429251E-3,4.2506625E-4,1.8613907E-3,-5.691919E-4,1.7277179E-3,1.6975014E-2,6.6619505E-5,2.743028E-3,2.3549541E-3,4.040823E-4,-2.062449E-4,-1.2905371E-3,1.4249664E-5,-5.8119476E-4,1.2675979E-3,-9.020556E-4,1.3431201E-3,4.5258105E-3,-1.6609693E-3,1.2189301E-3,6.5258928E-3,1.0839545E-3,-2.224217E-3,4.998729E-5,7.705353E-4,7.599638E-3,-3.2850783E-4,-9.798681E-4,-8.867796E-5,-7.4976677E-4,2.1497665E-3,-9.049045E-4,5.054741E-4,-1.1854985E-3,7.6886206E-3,-4.8214267E-4,-3.1730153E-3,4.5184154E-4,4.064967E-3,-2.8098773E-4,-1.0192634E-3,7.791667E-5,7.6296874E-3,9.6064276E-4,-5.564747E-4,2.4732198E-3,-1.3348154E-3,-8.557073E-4,2.3540067E-3,4.1401875E-3,-9.0012254E-5,1.2638982E-3,-2.6209343E-3,-2.2451407E-3,5.6592184E-3,-1.5011636E-3],"categories":[],"categories_nodes":[],"categories_segments":[],"categories_sizes":[],"default_left":[0,0,0,0,0,0,0,0,0,0,0,0,0,0,0,0,0,0,0,0,0,0,0,0,0,0,0,0,0,0,0,0,0,0,0,0,0,0,0,0,0,0,0,0,0,0,0,0,0,0,0,0,0,0,0,0,0,0,0,0,0,0,0,0,0,0,0,0,0,0,0,0,0,0,0,0,0,0,0,0,0,0,0,0,0,0,0,0,0,0,0,0,0,0,0,0,0,0,0,0,0,0,0,0,0,0,0,0,0,0,0,0,0,0,0,0,0,0,0,0,0,0,0,0,0,0,0],"id":9,"left_children":[1,3,5,7,9,11,13,15,17,19,21,23,25,27,29,31,33,35,37,39,41,43,45,47,49,51,53,55,57,59,61,63,65,67,69,71,73,75,77,79,81,83,85,87,89,91,93,95,97,99,101,103,105,107,109,111,113,115,117,119,121,123,125,-1,-1,-1,-1,-1,-1,-1,-1,-1,-1,-1,-1,-1,-1,-1,-1,-1,-1,-1,-1,-1,-1,-1,-1,-1,-1,-1,-1,-1,-1,-1,-1,-1,-1,-1,-1,-1,-1,-1,-1,-1,-1,-1,-1,-1,-1,-1,-1,-1,-1,-1,-1,-1,-1,-1,-1,-1,-1,-1,-1,-1,-1,-1,-1],"loss_changes":[9.900265E0,6.8804364E0,2.4517188E0,9.021604E0,3.1231883E0,4.1988482E0,8.325319E-1,5.462698E-1,3.2845345E0,2.3680766E0,6.764065E0,1.5256736E0,1.5677202E0,4.9894142E-1,1.7387867E-1,1.7814882E0,1.0340422E0,1.4491745E0,5.9206486E0,2.1816208E0,2.4637182E0,4.0204406E0,1.1453102E0,1.292004E0,5.578618E-1,1.1121926E0,1.940541E-1,2.166143E0,1.4612293E-1,1.4733627E-2,2.2914743E-1,9.660468E0,1.0344958E-1,3.7004164E-1,3.355825E-1,5.393945E-1,1.0769544E0,2.5547058E1,4.3656917E0,3.858016E-1,1.9765797E0,8.581559E-1,3.2827387E0,3.3789043E0,1.4553723E0,3.2118362E-1,8.03092E-1,1.204073E0,7.775509E-2,4.301342E-1,3.464346E-1,1.5265102E-2,1.4856396E0,2.5362857E-2,3.6201477E-1,8.61186E-1,7.18048E-1,1.3231531E-1,7.0658684E-2,4.0432736E-3,1.8786844E-3,1.2671709E-2,6.634426E-2,0E0,0E0,0E0,0E0,0E0,0E0,0E0,0E0,0E0,0E0,0E0,0E0,0E0,0E0,0E0,0E0,0E0,0E0,0E0,0E0,0E0,0E0,0E0,0E0,0E0,0E0,0E0,0E0,0E0,0E0,0E0,0E0,0E0,0E0,0E0,0E0,0E0,0E0,0E0,0E0,0E0,0E0,0E0,0E0,0E0,0E0,0E0,0E0,0E0,0E0,0E0,0E0,0E0,0E0,0E0,0E0,0E0,0E0,0E0,0E0,0E0,0E0,0E0,0E0],"parents":[2147483647,0,0,1,1,2,2,3,3,4,4,5,5,6,6,7,7,8,8,9,9,10,10,11,11,12,12,13,13,14,14,15,15,16,16,17,17,18,18,19,19,20,20,21,21,22,22,23,23,24,24,25,25,26,26,27,27,28,28,29,29,30,30,31,31,32,32,33,33,34,34,35,35,36,36,37,37,38,38,39,39,40,40,41,41,42,42,43,43,44,44,45,45,46,46,47,47,48,48,49,49,50,50,51,51,52,52,53,53,54,54,55,55,56,56,57,57,58,58,59,59,60,60,61,61,62,62],"right_children":[2,4,6,8,10,12,14,16,18,20,22,24,26,28,30,32,34,36,38,40,42,44,46,48,50,52,54,56,58,60,62,64,66,68,70,72,74,76,78,80,82,84,86,88,90,92,94,96,98,100,102,104,106,108,110,112,114,116,118,120,122,124,126,-1,-1,-1,-1,-1,-1,-1,-1,-1,-1,-1,-1,-1,-1,-1,-1,-1,-1,-1,-1,-1,-1,-1,-1,-1,-1,-1,-1,-1,-1,-1,-1,-1,-1,-1,-1,-1,-1,-1,-1,-1,-1,-1,-1,-1,-1,-1,-1,-1,-1,-1,-1,-1,-1,-1,-1,-1,-1,-1,-1,-1,-1,-1,-1],"split_conditions":[8.124812E-1,1.5060862E-2,9.236924E-1,1.6505053E-3,7.4952483E-1,9.224922E-1,9.9509954E-1,6.112249E-1,1.1589992E-1,2.916E-1,5.6159997E-1,7.8399E-3,1.4029295E-2,6.329999E-1,7.8750014E-2,1.010101E-2,7.4600005E-1,5.151515E-1,6.2625E-1,7.562494E-2,1.5104997E-1,7.4994993E-1,7.495749E-1,6.2625E-1,2.0425003E-2,2.1299998E-1,1.4441921E-2,6.2462497E-1,4.1262633E-3,2.7645964E-2,3.6418748E-1,5E-4,7.549755E-1,6.8210006E-1,7.4977493E-1,8.879995E-2,4.1262633E-3,6.2462497E-1,7.4987507E-1,6.39964E-1,5.0295025E-1,3.8167935E-2,7.205374E-1,7.4987507E-1,7.535E-1,5.7675767E-1,7.535E-1,6.2462497E-1,5.1578293E-3,6.655748E-1,4.6049953E-2,4.3325764E-3,2.1429999E-1,6.579833E-1,1.753662E-2,2.4453747E-1,6.2625E-1,7.128572E-2,7.535E-1,2.3379998E-1,7.128572E-2,1.1654997E-1,3.8693762E-1,7.719441E-5,3.28244E-2,-1.9595425E-3,-1.3199024E-3,-5.4494815E-4,5.423298E-4,-2.7591162E-3,-9.866897E-4,1.6429251E-3,4.2506625E-4,1.8613907E-3,-5.691919E-4,1.7277179E-3,1.6975014E-2,6.6619505E-5,2.743028E-3,2.3549541E-3,4.040823E-4,-2.062449E-4,-1.2905371E-3,1.4249664E-5,-5.8119476E-4,1.2675979E-3,-9.020556E-4,1.3431201E-3,4.5258105E-3,-1.6609693E-3,1.2189301E-3,6.5258928E-3,1.0839545E-3,-2.224217E-3,4.998729E-5,7.705353E-4,7.599638E-3,-3.2850783E-4,-9.798681E-4,-8.867796E-5,-7.4976677E-4,2.1497665E-3,-9.049045E-4,5.054741E-4,-1.1854985E-3,7.6886206E-3,-4.8214267E-4,-3.1730153E-3,4.5184154E-4,4.064967E-3,-2.8098773E-4,-1.0192634E-3,7.791667E-5,7.6296874E-3,9.6064276E-4,-5.564747E-4,2.4732198E-3,-1.3348154E-3,-8.557073E-4,2.3540067E-3,4.1401875E-3,-9.0012254E-5,1.2638982E-3,-2.6209343E-3,-2.2451407E-3,5.6592184E-3,-1.5011636E-3],"split_indices":[0,1,0,1,3,0,0,3,3,2,2,1,1,3,3,0,3,0,3,3,3,3,3,3,1,2,1,3,1,1,3,2,0,3,3,3,1,3,3,0,0,1,3,3,3,0,3,3,1,3,3,1,2,3,1,3,3,2,3,2,2,3,3,0,0,0,0,0,0,0,0,0,0,0,0,0,0,0,0,0,0,0,0,0,0,0,0,0,0,0,0,0,0,0,0,0,0,0,0,0,0,0,0,0,0,0,0,0,0,0,0,0,0,0,0,0,0,0,0,0,0,0,0,0,0,0,0],"split_type":[0,0,0,0,0,0,0,0,0,0,0,0,0,0,0,0,0,0,0,0,0,0,0,0,0,0,0,0,0,0,0,0,0,0,0,0,0,0,0,0,0,0,0,0,0,0,0,0,0,0,0,0,0,0,0,0,0,0,0,0,0,0,0,0,0,0,0,0,0,0,0,0,0,0,0,0,0,0,0,0,0,0,0,0,0,0,0,0,0,0,0,0,0,0,0,0,0,0,0,0,0,0,0,0,0,0,0,0,0,0,0,0,0,0,0,0,0,0,0,0,0,0,0,0,0,0,0],"sum_hessian":[5.99897E5,4.15426E5,1.84471E5,1.76124E5,2.39302E5,1.04845E5,7.9626E4,3.4477E4,1.41647E5,2.09913E5,2.9389E4,1.01945E5,2.9E3,6.5261E4,1.4365E4,1.6441E4,1.8036E4,3.4199E4,1.07448E5,7.2371E4,1.37542E5,2.0493E4,8.896E3,2.201E4,7.9935E4,1.819E3,1.081E3,3.9213E4,2.6048E4,1.12E2,1.4253E4,1.557E3,1.4884E4,1.3272E4,4.764E3,1.4596E4,1.9603E4,6.2325E4,4.5123E4,4.172E3,6.8199E4,1.00349E5,3.7193E4,1.3347E4,7.146E3,4.37E2,8.459E3,1.4405E4,7.605E3,4.1368E4,3.8567E4,2.66E2,1.553E3,1.66E2,9.15E2,3.854E4,6.73E2,1.116E3,2.4932E4,6.2E1,5E1,4.118E3,1.0135E4,1.462E3,9.5E1,3.237E3,1.1647E4,5.055E3,8.217E3,1.618E3,3.146E3,6.878E3,7.718E3,2.033E3,1.757E4,6.1207E4,1.118E3,3.786E4,7.263E3,2.435E3,1.737E3,3.0074E4,3.8125E4,5.9592E4,4.0757E4,2.7896E4,9.297E3,6.771E3,6.576E3,3.093E3,4.053E3,1.99E2,2.38E2,6.41E3,2.049E3,1.4143E4,2.62E2,3.084E3,4.521E3,2.5233E4,1.6135E4,3.74E2,3.8193E4,7.3E1,1.93E2,1.284E3,2.69E2,1.44E2,2.2E1,2.72E2,6.43E2,2.9049E4,9.491E3,4.04E2,2.69E2,9.47E2,1.69E2,2.1326E4,3.606E3,3.4E1,2.8E1,1.4E1,3.6E1,1.441E3,2.677E3,1.2E1,1.0123E4],"tree_param":{"num_deleted":"0","num_feature":"4","num_nodes":"127","size_leaf_vector":"1"}},{"base_weights":[4.893418E-7,1.9311149E-3,-7.0732026E-3,6.1597005E-3,-1.0590451E-3,-5.9227087E-3,-1.4866584E-2,-6.519686E-3,9.029458E-3,-3.580514E-3,2.2535205E-3,5.5394527E-3,-7.2563244E-3,-1.9991875E-2,-1.2870899E-2,-1.027034E-2,-3.0198125E-3,1.2178519E-2,2.445066E-3,1.5681486E-4,-5.594044E-3,6.4940723E-3,-3.000897E-3,-5.478833E-3,2.1304581E-2,-5.3447857E-3,-1.1821336E-2,1.9494938E-2,-2.1018757E-2,-1.003603E-2,-1.4486405E-2,1.8876508E-2,-1.3137621E-2,-9.674983E-3,3.9890106E-3,1.0580248E-2,6.665582E-2,-1.1069833E-3,2.1167308E-2,3.4521262E-3,-3.0967395E-3,-1.1224312E-2,-2.667955E-3,3.0299556E-3,1.6904732E-2,5.7226424E-3,-5.88681E-3,-1.14849545E-2,-1.7014865E-3,6.608836E-2,1.4172052E-2,-2.981276E-3,-9.502397E-3,-4.7173966E-3,-1.28275575E-2,2.9014245E-2,7.675497E-3,-2.2411643E-2,-1.8248511E-2,-3.9374908E-3,-1.14330705E-2,-1.6458396E-2,-1.0848054E-2,6.9480164E-5,2.9576153E-2,-1.7654406E-3,-1.1984562E-3,-7.4278505E-4,-2.4974751E-3,-4.738687E-4,1.4885757E-3,1.8583341E-4,1.5664374E-3,1.4717636E-2,9.883366E-4,2.0674946E-5,-2.1896516E-3,3.49542E-3,2.9940688E-4,8.2685094E-4,-1.04548155E-4,-1.831607E-3,-2.1929182E-4,-9.436033E-4,-1.5955504E-3,-7.965493E-4,-6.733548E-5,-6.3549733E-4,6.9527904E-4,2.5863096E-3,-8.695745E-4,-3.054981E-4,8.622086E-4,-3.870703E-4,-1.2429343E-3,-7.2998734E-4,-1.3699926E-3,-8.889483E-4,6.038639E-4,8.367315E-3,4.35026E-3,-1.4669835E-4,2.6756057E-3,-7.1633956E-4,8.251454E-4,-7.627871E-4,-1.2760488E-3,-2.2860111E-4,-8.473104E-4,-1.7993758E-3,-1.0241476E-3,2.1653967E-3,3.7404452E-3,-1.0167343E-4,1.136214E-3,-2.5451758E-3,-2.0245912E-3,-1.2042864E-3,-2.2571336E-3,3.7506802E-4,-2.0720947E-3,-1.4137687E-3,-4.6128235E-4,-2.0258888E-3,-1.5794144E-3,4.7116566E-5,-1.2855463E-3],"categories":[],"categories_nodes":[],"categories_segments":[],"categories_sizes":[],"default_left":[0,0,0,0,0,0,0,0,0,0,0,0,0,0,0,0,0,0,0,0,0,0,0,0,0,0,0,0,0,0,0,0,0,0,0,0,0,0,0,0,0,0,0,0,0,0,0,0,0,0,0,0,0,0,0,0,0,0,0,0,0,0,0,0,0,0,0,0,0,0,0,0,0,0,0,0,0,0,0,0,0,0,0,0,0,0,0,0,0,0,0,0,0,0,0,0,0,0,0,0,0,0,0,0,0,0,0,0,0,0,0,0,0,0,0,0,0,0,0,0,0,0,0,0,0,0,0],"id":10,"left_children":[1,3,5,7,9,11,13,15,17,19,21,23,25,27,29,31,33,35,37,39,41,43,45,47,49,51,53,55,57,59,61,63,65,67,69,71,73,75,77,79,81,83,85,87,89,91,93,95,97,99,101,103,105,107,109,111,113,115,117,119,121,123,125,-1,-1,-1,-1,-1,-1,-1,-1,-1,-1,-1,-1,-1,-1,-1,-1,-1,-1,-1,-1,-1,-1,-1,-1,-1,-1,-1,-1,-1,-1,-1,-1,-1,-1,-1,-1,-1,-1,-1,-1,-1,-1,-1,-1,-1,-1,-1,-1,-1,-1,-1,-1,-1,-1,-1,-1,-1,-1,-1,-1,-1,-1,-1,-1],"loss_changes":[8.192612E0,5.9588647E0,1.1531949E0,7.1031914E0,2.305833E0,1.7133241E0,1.6897249E-1,4.7291505E-1,3.3005953E0,1.1795723E0,2.6585522E0,2.029335E0,8.7604713E-1,1.8835115E-1,5.440414E-2,1.4536521E0,8.6945313E-1,9.375195E0,3.4250267E0,5.884374E-1,1.6781945E0,2.381165E0,1.3415792E0,1.5600035E-1,1.534204E0,6.953871E-1,2.1175289E-1,1.305382E-2,1.7024279E-2,3.682062E-2,5.4242134E-2,7.843144E0,8.2253695E-2,3.285274E-1,8.6351526E-1,4.6389456E0,1.4028012E1,1.1823361E0,2.0576835E0,5.906719E-1,3.79847E-1,2.9458618E-1,7.082862E-1,1.8240325E0,3.7808685E0,3.3716542E-1,5.2812374E-1,2.4511397E-2,2.3500447E-1,2.584896E-1,8.1617576E-1,2.119691E0,1.5655065E-1,3.356655E-2,3.4658003E-1,3.20407E-3,1.7419902E-3,1.9250274E-2,4.0423036E-2,1.0433725E-1,6.48652E-2,1.2092948E-2,6.065193E-2,0E0,0E0,0E0,0E0,0E0,0E0,0E0,0E0,0E0,0E0,0E0,0E0,0E0,0E0,0E0,0E0,0E0,0E0,0E0,0E0,0E0,0E0,0E0,0E0,0E0,0E0,0E0,0E0,0E0,0E0,0E0,0E0,0E0,0E0,0E0,0E0,0E0,0E0,0E0,0E0,0E0,0E0,0E0,0E0,0E0,0E0,0E0,0E0,0E0,0E0,0E0,0E0,0E0,0E0,0E0,0E0,0E0,0E0,0E0,0E0,0E0,0E0,0E0,0E0],"parents":[2147483647,0,0,1,1,2,2,3,3,4,4,5,5,6,6,7,7,8,8,9,9,10,10,11,11,12,12,13,13,14,14,15,15,16,16,17,17,18,18,19,19,20,20,21,21,22,22,23,23,24,24,25,25,26,26,27,27,28,28,29,29,30,30,31,31,32,32,33,33,34,34,35,35,36,36,37,37,38,38,39,39,40,40,41,41,42,42,43,43,44,44,45,45,46,46,47,47,48,48,49,49,50,50,51,51,52,52,53,53,54,54,55,55,56,56,57,57,58,58,59,59,60,60,61,61,62,62],"right_children":[2,4,6,8,10,12,14,16,18,20,22,24,26,28,30,32,34,36,38,40,42,44,46,48,50,52,54,56,58,60,62,64,66,68,70,72,74,76,78,80,82,84,86,88,90,92,94,96,98,100,102,104,106,108,110,112,114,116,118,120,122,124,126,-1,-1,-1,-1,-1,-1,-1,-1,-1,-1,-1,-1,-1,-1,-1,-1,-1,-1,-1,-1,-1,-1,-1,-1,-1,-1,-1,-1,-1,-1,-1,-1,-1,-1,-1,-1,-1,-1,-1,-1,-1,-1,-1,-1,-1,-1,-1,-1,-1,-1,-1,-1,-1,-1,-1,-1,-1,-1,-1,-1,-1,-1,-1,-1],"split_conditions":[8.674867E-1,1.4441921E-2,9.9339926E-1,1.6505053E-3,1.4499998E-1,4.1262633E-3,3.6418748E-1,6.112249E-1,6.329999E-1,9.4375014E-2,6.7116714E-1,2.1299998E-1,2.475758E-2,7.8750014E-2,6.8210006E-1,1.010101E-2,2.5072506E-1,6.2462497E-1,7.4987507E-1,3.0121723E-2,3.9119998E-1,7.4952483E-1,4.7597504E-1,1.6505053E-3,2.1429999E-1,6.3205814E-1,8.112502E-2,2.7645964E-2,1.0521972E-2,9.9509954E-1,7.4942493E-1,5E-4,7.5247526E-1,8.080808E-2,6.8210006E-1,1.1717498E-1,6.2625E-1,7.4965E-1,7.19972E-1,4.8634863E-1,3.053435E-2,3.2597482E-2,4.9995E-1,1E-3,5.632E-1,2.988E-1,3.7548997E-2,4.1262637E-4,1.2624991E-1,3.301011E-3,3.94E-1,2.6660633E-1,4.5939997E-1,3.6311116E-2,1.4625001E-1,2.3379998E-1,7.128572E-2,1.1654997E-1,1.2624991E-1,6.3205814E-1,6.6875005E-1,6.602022E-3,7.4962497E-1,6.9480164E-5,2.9576153E-2,-1.7654406E-3,-1.1984562E-3,-7.4278505E-4,-2.4974751E-3,-4.738687E-4,1.4885757E-3,1.8583341E-4,1.5664374E-3,1.4717636E-2,9.883366E-4,2.0674946E-5,-2.1896516E-3,3.49542E-3,2.9940688E-4,8.2685094E-4,-1.04548155E-4,-1.831607E-3,-2.1929182E-4,-9.436033E-4,-1.5955504E-3,-7.965493E-4,-6.733548E-5,-6.3549733E-4,6.9527904E-4,2.5863096E-3,-8.695745E-4,-3.054981E-4,8.622086E-4,-3.870703E-4,-1.2429343E-3,-7.2998734E-4,-1.3699926E-3,-8.889483E-4,6.038639E-4,8.367315E-3,4.35026E-3,-1.4669835E-4,2.6756057E-3,-7.1633956E-4,8.251454E-4,-7.627871E-4,-1.2760488E-3,-2.2860111E-4,-8.473104E-4,-1.7993758E-3,-1.0241476E-3,2.1653967E-3,3.7404452E-3,-1.0167343E-4,1.136214E-3,-2.5451758E-3,-2.0245912E-3,-1.2042864E-3,-2.2571336E-3,3.7506802E-4,-2.0720947E-3,-1.4137687E-3,-4.6128235E-4,-2.0258888E-3,-1.5794144E-3,4.7116566E-5,-1.2855463E-3],"split_indices":[0,1,0,1,3,1,3,3,3,3,0,2,1,3,3,0,0,3,3,1,2,3,3,1,2,3,3,1,1,0,3,2,0,0,3,3,3,3,0,0,1,1,0,2,2,2,1,1,3,1,2,3,2,1,3,2,2,3,3,3,3,1,3,0,0,0,0,0,0,0,0,0,0,0,0,0,0,0,0,0,0,0,0,0,0,0,0,0,0,0,0,0,0,0,0,0,0,0,0,0,0,0,0,0,0,0,0,0,0,0,0,0,0,0,0,0,0,0,0,0,0,0,0,0,0,0,0],"split_type":[0,0,0,0,0,0,0,0,0,0,0,0,0,0,0,0,0,0,0,0,0,0,0,0,0,0,0,0,0,0,0,0,0,0,0,0,0,0,0,0,0,0,0,0,0,0,0,0,0,0,0,0,0,0,0,0,0,0,0,0,0,0,0,0,0,0,0,0,0,0,0,0,0,0,0,0,0,0,0,0,0,0,0,0,0,0,0,0,0,0,0,0,0,0,0,0,0,0,0,0,0,0,0,0,0,0,0,0,0,0,0,0,0,0,0,0,0,0,0,0,0,0,0,0,0,0,0],"sum_hessian":[5.99897E5,4.71273E5,1.28624E5,1.95211E5,2.76062E5,1.1208E5,1.6544E4,3.6028E4,1.59183E5,1.56748E5,1.19314E5,1.1681E4,1.00399E5,4.634E3,1.191E4,1.739E4,1.8638E4,1.07682E5,5.1501E4,5.4882E4,1.01866E5,6.6027E4,5.3287E4,6.876E3,4.805E3,7.0768E4,2.9631E4,1.17E2,4.517E3,4.326E3,7.584E3,1.557E3,1.5833E4,9.56E3,9.078E3,1.04614E5,3.068E3,4.3289E4,8.212E3,2.7266E4,2.7616E4,3.4835E4,6.7031E4,4.9543E4,1.6484E4,1.3246E4,4.0041E4,2.654E3,4.222E3,6.59E2,4.146E3,4.512E4,2.5648E4,3.677E3,2.5954E4,6.4E1,5.3E1,3.001E3,1.516E3,8.07E2,3.519E3,4.916E3,2.668E3,1.462E3,9.5E1,3.217E3,1.2616E4,8.337E3,1.223E3,5.041E3,4.037E3,3.8525E4,6.6089E4,1.268E3,1.8E3,4.0717E4,2.572E3,4.669E3,3.543E3,1.3166E4,1.41E4,1.547E3,2.6069E4,2.5282E4,9.553E3,1.8334E4,4.8697E4,1.4604E4,3.4939E4,1.2211E4,4.273E3,3.289E3,9.957E3,3.061E4,9.431E3,9.2E2,1.734E3,2.189E3,2.033E3,3.69E2,2.9E2,1.849E3,2.297E3,3.2879E4,1.2241E4,1.6283E4,9.365E3,2.233E3,1.444E3,8.656E3,1.7298E4,3.6E1,2.8E1,1.6E1,3.7E1,1.244E3,1.757E3,6.24E2,8.92E2,5.54E2,2.53E2,2.519E3,1E3,7.27E2,4.189E3,4.02E2,2.266E3],"tree_param":{"num_deleted":"0","num_feature":"4","num_nodes":"127","size_leaf_vector":"1"}},{"base_weights":[5.0192125E-7,2.87537E-3,-3.9190077E-3,-6.392913E-4,6.9906316E-3,-8.067404E-3,-1.2873474E-3,1.1269003E-2,-1.75805E-3,1.27244545E-2,3.5904448E-3,-7.7057416E-3,-2.3623856E-2,2.6410043E-3,-9.638083E-3,8.596791E-3,4.1164823E-2,-8.264665E-3,-5.128588E-4,1.0556339E-2,1.1939708E-1,-3.9434998E-4,1.0784042E-2,-1.1571555E-2,-6.2910425E-3,-2.9032325E-2,-9.588117E-3,-3.5206093E-3,8.525658E-3,4.3475606E-2,-9.785813E-3,2.3502568E-3,1.33483E-2,6.2750086E-2,5.396519E-3,1.8437136E-2,-1.0693994E-2,1.2858016E-3,-5.1579946E-3,-3.1685645E-3,1.8351864E-2,2.1979448E-1,-2.9449815E-2,-1.012349E-2,1.6304399E-3,1.7072847E-2,-1.1683575E-2,-3.315143E-3,-1.3316592E-2,-7.391686E-3,3.9663693E-4,1.670083E-2,-3.0868871E-2,-1.6554834E-2,-3.325795E-4,1.9796299E-2,-4.084718E-3,2.0967633E-2,4.593008E-3,-3.0053824E-2,5.6930065E-2,-6.430746E-3,-1.1500653E-2,1.8885144E-3,-2.2618966E-4,8.454686E-4,2.3148316E-3,1.674266E-3,7.3448443E-3,-1.1988261E-3,2.3546056E-3,2.7929854E-3,6.8344333E-4,-5.666231E-4,-1.4294336E-3,5.408669E-4,-4.137915E-5,-6.278842E-4,3.6998696E-4,-1.6518802E-3,1.2586529E-4,1.6189305E-2,1.4838944E-3,2.3809312E-2,-2.5045224E-3,-3.6353709E-3,-4.0283566E-4,-4.5646966E-4,-2.5653853E-3,1.1078118E-3,-2.8119082E-4,2.9374263E-3,4.6004434E-4,3.5750282E-3,-1.4305804E-3,6.165521E-5,-5.25641E-4,-1.6482305E-3,-1.0116447E-3,-7.1620196E-4,-2.834309E-3,4.7868752E-4,-8.098171E-4,3.1323105E-3,-1.40353E-3,-2.1410177E-3,-3.54734E-3,-2.038352E-3,-6.2073144E-5,4.9529253E-3,-1.658436E-4,1.8470788E-2,1.8964943E-3,-8.1635267E-4,-1.8872286E-4,2.9275762E-3,-4.9225433E-4,6.561888E-4,-4.6121515E-4,-3.6429353E-3,-2.0366535E-3,4.3010954E-3,8.366544E-3,-4.46159E-4,-1.3994384E-3,-1.2893941E-3,-5.686146E-4],"categories":[],"categories_nodes":[],"categories_segments":[],"categories_sizes":[],"default_left":[0,0,0,0,0,0,0,0,0,0,0,0,0,0,0,0,0,0,0,0,0,0,0,0,0,0,0,0,0,0,0,0,0,0,0,0,0,0,0,0,0,0,0,0,0,0,0,0,0,0,0,0,0,0,0,0,0,0,0,0,0,0,0,0,0,0,0,0,0,0,0,0,0,0,0,0,0,0,0,0,0,0,0,0,0,0,0,0,0,0,0,0,0,0,0,0,0,0,0,0,0,0,0,0,0,0,0,0,0,0,0,0,0,0,0,0,0,0,0,0,0,0,0,0,0,0,0],"id":11,"left_children":[1,3,5,7,9,11,13,15,17,19,21,23,25,27,29,31,33,35,37,39,41,43,45,47,49,51,53,55,57,59,61,63,65,67,69,71,73,75,77,79,81,83,85,87,89,91,93,95,97,99,101,103,105,107,109,111,113,115,117,119,121,123,125,-1,-1,-1,-1,-1,-1,-1,-1,-1,-1,-1,-1,-1,-1,-1,-1,-1,-1,-1,-1,-1,-1,-1,-1,-1,-1,-1,-1,-1,-1,-1,-1,-1,-1,-1,-1,-1,-1,-1,-1,-1,-1,-1,-1,-1,-1,-1,-1,-1,-1,-1,-1,-1,-1,-1,-1,-1,-1,-1,-1,-1,-1,-1,-1],"loss_changes":[6.7597055E0,5.005432E0,2.7711172E0,2.4867327E0,3.1078806E0,5.54132E-1,5.0948787E0,1.2802503E0,1.382404E0,1.3723273E1,2.868569E0,5.2651787E-1,1.6961229E-1,3.8298104E0,3.902955E-1,4.3674648E-1,1.0149312E0,1.7780849E0,1.1966045E0,6.2228684E0,1.7670094E1,1.268662E0,5.0405955E0,3.716035E-1,5.188842E-1,1.3616109E-1,4.023046E-2,6.787631E-1,2.6433916E0,1.3823417E-1,2.8500652E-1,4.8498917E-1,4.0063298E-1,4.0237737E-1,1.5678303E-1,2.5159192E-1,4.5468712E-1,7.2344637E-1,3.9692736E-1,1.2452914E0,1.8701696E1,3.1690025E0,8.357042E-2,9.576286E-1,2.2373195E0,4.2762175E0,9.7094345E-1,3.4364626E-2,2.155571E-1,2.9106236E-1,3.716012E-1,2.8753856E-2,6.687796E-2,2.1705717E-2,1.7865632E-2,1.6362214E-1,4.5154762E-1,2.7910528E0,7.440505E-1,6.1681494E-4,3.9941013E-2,2.4959052E-1,2.6555967E-1,0E0,0E0,0E0,0E0,0E0,0E0,0E0,0E0,0E0,0E0,0E0,0E0,0E0,0E0,0E0,0E0,0E0,0E0,0E0,0E0,0E0,0E0,0E0,0E0,0E0,0E0,0E0,0E0,0E0,0E0,0E0,0E0,0E0,0E0,0E0,0E0,0E0,0E0,0E0,0E0,0E0,0E0,0E0,0E0,0E0,0E0,0E0,0E0,0E0,0E0,0E0,0E0,0E0,0E0,0E0,0E0,0E0,0E0,0E0,0E0,0E0,0E0,0E0,0E0],"parents":[2147483647,0,0,1,1,2,2,3,3,4,4,5,5,6,6,7,7,8,8,9,9,10,10,11,11,12,12,13,13,14,14,15,15,16,16,17,17,18,18,19,19,20,20,21,21,22,22,23,23,24,24,25,25,26,26,27,27,28,28,29,29,30,30,31,31,32,32,33,33,34,34,35,35,36,36,37,37,38,38,39,39,40,40,41,41,42,42,43,43,44,44,45,45,46,46,47,47,48,48,49,49,50,50,51,51,52,52,53,53,54,54,55,55,56,56,57,57,58,58,59,59,60,60,61,61,62,62],"right_children":[2,4,6,8,10,12,14,16,18,20,22,24,26,28,30,32,34,36,38,40,42,44,46,48,50,52,54,56,58,60,62,64,66,68,70,72,74,76,78,80,82,84,86,88,90,92,94,96,98,100,102,104,106,108,110,112,114,116,118,120,122,124,126,-1,-1,-1,-1,-1,-1,-1,-1,-1,-1,-1,-1,-1,-1,-1,-1,-1,-1,-1,-1,-1,-1,-1,-1,-1,-1,-1,-1,-1,-1,-1,-1,-1,-1,-1,-1,-1,-1,-1,-1,-1,-1,-1,-1,-1,-1,-1,-1,-1,-1,-1,-1,-1,-1,-1,-1,-1,-1,-1,-1,-1,-1,-1,-1],"split_conditions":[7.6037604E-1,2.2593749E-1,1.56E-1,6.808335E-3,6.2625E-1,1.518E-1,7.205374E-1,7.4997497E-1,5.06E-2,6.2462497E-1,7.4952483E-1,1.2367487E-1,1.2172477E-2,1.20000005E-1,2.6820714E-3,3.208E-1,4.1262633E-3,7.562494E-2,3.8167935E-2,1E-3,5E-4,1.9491948E-1,5.6159997E-1,8.55999E-2,5.633333E-2,3.301011E-3,8.749875E-1,4.6049953E-2,6.808335E-3,1.8568184E-3,4.4959998E-1,8.55999E-2,5.983082E-3,3.91995E-3,1.20000005E-1,3.0740662E-2,4.5384538E-1,9.4375014E-2,1.4499998E-1,3.8693762E-1,1.0701071E-2,1.0728285E-2,1.5679799E-2,7.4600005E-1,5.0295025E-1,7.4994993E-1,7.495749E-1,7.30499E-2,1.0792494E-1,2.5500306E-1,9.40594E-1,9.583958E-1,1.5767503E-1,7.467499E-1,8.774877E-1,2.6820714E-3,3.9959997E-1,9.5279527E-1,5.4599994E-1,7.430999E-1,9.1999197E-1,3.197854E-2,7.535E-1,1.8885144E-3,-2.2618966E-4,8.454686E-4,2.3148316E-3,1.674266E-3,7.3448443E-3,-1.1988261E-3,2.3546056E-3,2.7929854E-3,6.8344333E-4,-5.666231E-4,-1.4294336E-3,5.408669E-4,-4.137915E-5,-6.278842E-4,3.6998696E-4,-1.6518802E-3,1.2586529E-4,1.6189305E-2,1.4838944E-3,2.3809312E-2,-2.5045224E-3,-3.6353709E-3,-4.0283566E-4,-4.5646966E-4,-2.5653853E-3,1.1078118E-3,-2.8119082E-4,2.9374263E-3,4.6004434E-4,3.5750282E-3,-1.4305804E-3,6.165521E-5,-5.25641E-4,-1.6482305E-3,-1.0116447E-3,-7.1620196E-4,-2.834309E-3,4.7868752E-4,-8.098171E-4,3.1323105E-3,-1.40353E-3,-2.1410177E-3,-3.54734E-3,-2.038352E-3,-6.2073144E-5,4.9529253E-3,-1.658436E-4,1.8470788E-2,1.8964943E-3,-8.1635267E-4,-1.8872286E-4,2.9275762E-3,-4.9225433E-4,6.561888E-4,-4.6121515E-4,-3.6429353E-3,-2.0366535E-3,4.3010954E-3,8.366544E-3,-4.46159E-4,-1.3994384E-3,-1.2893941E-3,-5.686146E-4],"split_indices":[0,3,2,1,3,2,3,0,2,3,3,3,1,3,1,2,1,3,1,2,2,0,2,3,2,1,0,3,1,1,2,3,1,1,3,1,0,3,3,3,0,1,1,3,0,3,3,3,3,1,0,0,3,3,0,1,2,0,2,3,0,1,3,0,0,0,0,0,0,0,0,0,0,0,0,0,0,0,0,0,0,0,0,0,0,0,0,0,0,0,0,0,0,0,0,0,0,0,0,0,0,0,0,0,0,0,0,0,0,0,0,0,0,0,0,0,0,0,0,0,0,0,0,0,0,0,0],"split_type":[0,0,0,0,0,0,0,0,0,0,0,0,0,0,0,0,0,0,0,0,0,0,0,0,0,0,0,0,0,0,0,0,0,0,0,0,0,0,0,0,0,0,0,0,0,0,0,0,0,0,0,0,0,0,0,0,0,0,0,0,0,0,0,0,0,0,0,0,0,0,0,0,0,0,0,0,0,0,0,0,0,0,0,0,0,0,0,0,0,0,0,0,0,0,0,0,0,0,0,0,0,0,0,0,0,0,0,0,0,0,0,0,0,0,0,0,0,0,0,0,0,0,0,0,0,0,0],"sum_hessian":[5.99897E5,3.46066E5,2.53831E5,1.86654E5,1.59412E5,9.8523E4,1.55308E5,1.6029E4,1.70625E5,5.9341E4,1.00071E5,9.6286E4,2.237E3,1.05622E5,4.9686E4,1.4715E4,1.314E3,2.7407E4,1.43218E5,5.816E4,1.181E3,6.4399E4,3.5672E4,2.5794E4,7.0492E4,1.614E3,6.23E2,5.1597E4,5.4025E4,1.37E2,4.9549E4,6.358E3,8.357E3,8.19E2,4.95E2,2.285E3,2.5122E4,1.03242E5,3.9976E4,2.1068E4,3.7092E4,7.05E2,4.76E2,1.1093E4,5.3306E4,2.7871E4,7.801E3,4.501E3,2.1293E4,6.053E4,9.962E3,6.2E1,1.552E3,3.55E2,2.68E2,1.218E3,5.0379E4,1.2974E4,4.1051E4,2.1E1,1.16E2,1.6761E4,3.2788E4,1.386E3,4.972E3,5.575E3,2.782E3,1.55E2,6.64E2,2.53E2,2.42E2,1.256E3,1.029E3,1.0484E4,1.4638E4,3.0136E4,7.3106E4,3.5486E4,4.49E3,5.246E3,1.5822E4,8.85E2,3.6207E4,6.56E2,4.9E1,3.74E2,1.02E2,8.17E3,2.923E3,1.7048E4,3.6258E4,1.4031E4,1.384E4,4.08E2,7.393E3,1.488E3,3.013E3,1.0702E4,1.0591E4,5.9875E4,6.55E2,6.568E3,3.394E3,4.2E1,2E1,5.1E2,1.042E3,2.86E2,6.9E1,6E0,2.62E2,5E0,1.213E3,1.7638E4,3.2741E4,9.822E3,3.152E3,3.3818E4,7.233E3,1.1E1,1E1,7.8E1,3.8E1,1.33E4,3.461E3,2.6449E4,6.339E3],"tree_param":{"num_deleted":"0","num_feature":"4","num_nodes":"127","size_leaf_vector":"1"}},{"base_weights":[5.693924E-7,1.6038127E-3,-5.8736145E-3,4.018027E-3,-2.341978E-3,-4.878201E-3,-1.2616499E-2,-1.332387E-4,8.144831E-3,3.591902E-2,-2.6772395E-3,4.8714555E-3,-6.0125696E-3,-1.7368624E-2,-1.0766217E-2,-1.2900013E-3,1.53481485E-2,1.2730689E-2,9.3907607E-4,5.3869756E-3,1.14698984E-1,-3.5224468E-3,2.5428876E-3,-4.2947982E-3,1.7986614E-2,-4.383025E-3,-9.904148E-3,1.833716E-2,-1.8281125E-2,4.0491648E-2,-1.0829939E-2,3.8034571E-3,-4.5867283E-3,-8.853347E-3,2.62902E-2,2.6246276E-2,9.759008E-3,-1.5483856E-2,1.9773955E-3,1.4283E-2,-8.834421E-3,-1.3150239E-2,1.4407274E-1,-7.048354E-3,-1.5996337E-3,3.1872682E-2,-2.5493465E-3,-2.4749753E-3,-1.5268888E-2,5.734747E-2,1.171795E-2,-2.4343259E-3,-7.810951E-3,-3.8857486E-3,-1.0756615E-2,2.7090274E-2,7.42138E-3,-6.96291E-3,-1.8577663E-2,1.699549E-1,-4.123547E-3,-8.600475E-3,-1.2096233E-2,-3.8293077E-4,7.8887556E-4,-7.4202934E-4,-3.737259E-5,-9.1115816E-4,3.9364845E-3,3.7743654E-3,7.428493E-4,1.6288975E-3,3.6384482E-3,9.121646E-4,5.8968696E-3,-1.0011051E-3,-1.8185697E-3,2.9249394E-3,1.318068E-4,-8.9051295E-4,2.8762433E-3,7.220227E-4,-1.7575588E-3,1.9393211E-2,-2.3468963E-3,1.0953822E-2,2.0106208E-2,1.6418885E-4,-1.0114744E-3,-1.1640984E-4,-1.6499497E-3,4.170392E-3,1.8812878E-3,-2.3949218E-3,2.1157006E-4,-9.427946E-4,2.097884E-4,-1.865616E-3,-1.0410104E-3,7.844851E-3,3.965312E-3,1.7052034E-3,-2.297961E-3,-3.050869E-4,5.639804E-3,-6.331253E-4,-1.0382765E-3,-1.6781563E-4,-7.2960433E-4,-1.5525572E-3,-8.369447E-4,1.986774E-3,3.5666828E-3,-9.169844E-5,1.073697E-3,-1.1951894E-3,1.0109702E-3,-2.1162427E-3,-1.7465679E-3,-2.8786885E-3,2.7652252E-2,-6.610013E-4,-1.2746103E-3,-1.4778586E-3,-9.839133E-4],"categories":[],"categories_nodes":[],"categories_segments":[],"categories_sizes":[],"default_left":[0,0,0,0,0,0,0,0,0,0,0,0,0,0,0,0,0,0,0,0,0,0,0,0,0,0,0,0,0,0,0,0,0,0,0,0,0,0,0,0,0,0,0,0,0,0,0,0,0,0,0,0,0,0,0,0,0,0,0,0,0,0,0,0,0,0,0,0,0,0,0,0,0,0,0,0,0,0,0,0,0,0,0,0,0,0,0,0,0,0,0,0,0,0,0,0,0,0,0,0,0,0,0,0,0,0,0,0,0,0,0,0,0,0,0,0,0,0,0,0,0,0,0,0,0],"id":12,"left_children":[1,3,5,7,9,11,13,15,17,19,21,23,25,27,29,31,33,35,37,39,41,43,45,47,49,51,53,55,57,59,61,63,65,67,69,71,73,75,77,79,81,83,85,87,89,91,93,95,97,99,101,103,105,107,109,111,113,115,117,119,-1,121,123,-1,-1,-1,-1,-1,-1,-1,-1,-1,-1,-1,-1,-1,-1,-1,-1,-1,-1,-1,-1,-1,-1,-1,-1,-1,-1,-1,-1,-1,-1,-1,-1,-1,-1,-1,-1,-1,-1,-1,-1,-1,-1,-1,-1,-1,-1,-1,-1,-1,-1,-1,-1,-1,-1,-1,-1,-1,-1,-1,-1,-1,-1],"loss_changes":[5.6496964E0,4.489358E0,8.632641E-1,5.0089326E0,2.2948344E0,1.2396121E0,1.4528942E-1,2.6103323E0,4.8450804E0,3.7372391E0,7.824489E-1,1.4044507E0,6.366434E-1,1.5135062E-1,3.934288E-2,2.2774312E0,2.6838577E0,3.5984402E0,9.72418E-1,1.4194825E-1,1.6317434E0,1.0347548E0,3.6910708E0,1.3730209E-1,1.1851606E0,4.7271752E-1,1.5198469E-1,1.0882415E-2,1.5041113E-2,1.6571805E-1,3.3483148E-2,1.6617881E0,9.8290944E-1,3.9655894E-2,1.5074048E0,1.6296339E0,2.3032389E0,4.995954E-2,9.6436393E-1,2.319243E-1,6.07522E-2,1.7977108E-1,6.7271566E-1,1.435287E0,6.409277E-1,4.6862435E-1,2.1023006E0,1.8761002E-1,1.5901744E-2,2.4331284E-1,7.6791734E-1,1.636832E0,9.754169E-2,2.767773E-2,2.9534936E-1,3.2558255E-3,1.4751158E-3,1.0086306E-2,1.2288451E-2,1.3503686E-1,0E0,3.5505384E-2,4.5776844E-2,0E0,0E0,0E0,0E0,0E0,0E0,0E0,0E0,0E0,0E0,0E0,0E0,0E0,0E0,0E0,0E0,0E0,0E0,0E0,0E0,0E0,0E0,0E0,0E0,0E0,0E0,0E0,0E0,0E0,0E0,0E0,0E0,0E0,0E0,0E0,0E0,0E0,0E0,0E0,0E0,0E0,0E0,0E0,0E0,0E0,0E0,0E0,0E0,0E0,0E0,0E0,0E0,0E0,0E0,0E0,0E0,0E0,0E0,0E0,0E0,0E0,0E0],"parents":[2147483647,0,0,1,1,2,2,3,3,4,4,5,5,6,6,7,7,8,8,9,9,10,10,11,11,12,12,13,13,14,14,15,15,16,16,17,17,18,18,19,19,20,20,21,21,22,22,23,23,24,24,25,25,26,26,27,27,28,28,29,29,30,30,31,31,32,32,33,33,34,34,35,35,36,36,37,37,38,38,39,39,40,40,41,41,42,42,43,43,44,44,45,45,46,46,47,47,48,48,49,49,50,50,51,51,52,52,53,53,54,54,55,55,56,56,57,57,58,58,59,59,61,61,62,62],"right_children":[2,4,6,8,10,12,14,16,18,20,22,24,26,28,30,32,34,36,38,40,42,44,46,48,50,52,54,56,58,60,62,64,66,68,70,72,74,76,78,80,82,84,86,88,90,92,94,96,98,100,102,104,106,108,110,112,114,116,118,120,-1,122,124,-1,-1,-1,-1,-1,-1,-1,-1,-1,-1,-1,-1,-1,-1,-1,-1,-1,-1,-1,-1,-1,-1,-1,-1,-1,-1,-1,-1,-1,-1,-1,-1,-1,-1,-1,-1,-1,-1,-1,-1,-1,-1,-1,-1,-1,-1,-1,-1,-1,-1,-1,-1,-1,-1,-1,-1,-1,-1,-1,-1,-1,-1],"split_conditions":[8.674867E-1,2.2694448E-2,9.9339926E-1,2.2662857E-1,8.080808E-2,4.1262633E-3,3.6418748E-1,7.4952483E-1,5.176E-1,5.0600004E-1,7.4952483E-1,2.1299998E-1,2.475758E-2,7.4450016E-2,3.8693762E-1,5.19952E-1,1.6505053E-3,6.189395E-3,7.649994E-2,5.4599994E-1,1.010101E-2,3.55E-1,7.495749E-1,9.8069805E-1,2.1429999E-1,6.3205814E-1,8.112502E-2,2.7645964E-2,9.592497E-2,4.3E-2,6.8210006E-1,3.8693762E-1,5.9507513E-1,4.9664962E-1,7.1677166E-1,1.2624991E-1,5.166E-1,3.7993798E-1,7.969999E-2,2.6408084E-2,1.01799846E-1,2.2900762E-2,2.9709097E-2,8.55999E-2,7.488251E-1,4.043738E-2,7.4987507E-1,1.6505053E-3,3.6418748E-1,3.2576656E-1,4.806E-1,6.2462497E-1,4.5939997E-1,3.6311116E-2,1.4625001E-1,2.3379998E-1,7.128572E-2,4.43E-1,1.1384988E-1,9.961996E-1,-4.123547E-3,8.3333335E-4,7.4462485E-1,-3.8293077E-4,7.8887556E-4,-7.4202934E-4,-3.737259E-5,-9.1115816E-4,3.9364845E-3,3.7743654E-3,7.428493E-4,1.6288975E-3,3.6384482E-3,9.121646E-4,5.8968696E-3,-1.0011051E-3,-1.8185697E-3,2.9249394E-3,1.318068E-4,-8.9051295E-4,2.8762433E-3,7.220227E-4,-1.7575588E-3,1.9393211E-2,-2.3468963E-3,1.0953822E-2,2.0106208E-2,1.6418885E-4,-1.0114744E-3,-1.1640984E-4,-1.6499497E-3,4.170392E-3,1.8812878E-3,-2.3949218E-3,2.1157006E-4,-9.427946E-4,2.097884E-4,-1.865616E-3,-1.0410104E-3,7.844851E-3,3.965312E-3,1.7052034E-3,-2.297961E-3,-3.050869E-4,5.639804E-3,-6.331253E-4,-1.0382765E-3,-1.6781563E-4,-7.2960433E-4,-1.5525572E-3,-8.369447E-4,1.986774E-3,3.5666828E-3,-9.169844E-5,1.073697E-3,-1.1951894E-3,1.0109702E-3,-2.1162427E-3,-1.7465679E-3,-2.8786885E-3,2.7652252E-2,-6.610013E-4,-1.2746103E-3,-1.4778586E-3,-9.839133E-4],"split_indices":[0,1,0,2,0,1,3,3,2,3,3,2,1,3,3,0,1,1,3,2,0,2,3,0,2,3,3,1,3,2,3,3,3,0,0,3,2,0,3,1,3,1,1,3,3,1,3,1,3,3,2,3,2,1,3,2,2,2,3,0,0,2,3,0,0,0,0,0,0,0,0,0,0,0,0,0,0,0,0,0,0,0,0,0,0,0,0,0,0,0,0,0,0,0,0,0,0,0,0,0,0,0,0,0,0,0,0,0,0,0,0,0,0,0,0,0,0,0,0,0,0,0,0,0,0],"split_type":[0,0,0,0,0,0,0,0,0,0,0,0,0,0,0,0,0,0,0,0,0,0,0,0,0,0,0,0,0,0,0,0,0,0,0,0,0,0,0,0,0,0,0,0,0,0,0,0,0,0,0,0,0,0,0,0,0,0,0,0,0,0,0,0,0,0,0,0,0,0,0,0,0,0,0,0,0,0,0,0,0,0,0,0,0,0,0,0,0,0,0,0,0,0,0,0,0,0,0,0,0,0,0,0,0,0,0,0,0,0,0,0,0,0,0,0,0,0,0,0,0,0,0,0,0],"sum_hessian":[5.99897E5,4.71273E5,1.28624E5,2.92381E5,1.78892E5,1.1208E5,1.6544E4,1.45759E5,1.46622E5,1.553E3,1.77339E5,1.1681E4,1.00399E5,4.634E3,1.191E4,1.35626E5,1.0133E4,8.9599E4,5.7023E4,1.12E3,4.33E2,1.52627E5,2.4712E4,6.876E3,4.805E3,7.0768E4,2.9631E4,1.15E2,4.519E3,1.4E1,1.1896E4,5.3291E4,8.2335E4,3.155E3,6.978E3,1.6148E4,7.3451E4,3.39E3,5.3633E4,6.89E2,4.31E2,8.1E1,3.52E2,5.386E4,9.8767E4,3.655E3,2.1057E4,5.899E3,9.77E2,6.59E2,4.146E3,4.512E4,2.5648E4,3.677E3,2.5954E4,6.3E1,5.2E1,1.16E2,4.403E3,5E0,9E0,4.312E3,7.584E3,1.8579E4,3.4712E4,4.9226E4,3.3109E4,3.139E3,1.6E1,4.341E3,2.637E3,8.148E3,8E3,7.2513E4,9.38E2,1.122E3,2.268E3,1.265E3,5.2368E4,2.65E2,4.24E2,1.52E2,2.79E2,3E0,7.8E1,2.21E2,1.31E2,1.4048E4,3.9812E4,9.5963E4,2.804E3,2.084E3,1.571E3,3.768E3,1.7289E4,2.34E3,3.559E3,5.74E2,4.03E2,2.99E2,3.6E2,3.594E3,5.52E2,4.4653E4,4.67E2,1.6283E4,9.365E3,2.233E3,1.444E3,8.656E3,1.7298E4,3.6E1,2.7E1,1.5E1,3.7E1,9E1,2.6E1,1.319E3,3.084E3,2E0,3E0,2.915E3,1.397E3,3.463E3,4.121E3],"tree_param":{"num_deleted":"0","num_feature":"4","num_nodes":"125","size_leaf_vector":"1"}},{"base_weights":[6.731829E-7,1.0987404E-3,-7.173949E-3,4.4226767E-3,-1.321984E-3,-6.136394E-3,-1.1886863E-2,-5.791441E-3,6.525376E-3,4.6368514E-5,-4.9267067E-3,-3.1423042E-5,