{"learner":{"attributes":{},"feature_names":[],"feature_types":[],"gradient_booster":{"model":{"gbtree_model_param":{"num_parallel_tree":"1","num_trees":"150"},"iteration_indptr":[0,1,2,3,4,5,6,7,8,9,10,11,12,13,14,15,16,17,18,19,20,21,22,23,24,25,26,27,28,29,30,31,32,33,34,35,36,37,38,39,40,41,42,43,44,45,46,47,48,49,50,51,52,53,54,55,56,57,58,59,60,61,62,63,64,65,66,67,68,69,70,71,72,73,74,75,76,77,78,79,80,81,82,83,84,85,86,87,88,89,90,91,92,93,94,95,96,97,98,99,100,101,102,103,104,105,106,107,108,109,110,111,112,113,114,115,116,117,118,119,120,121,122,123,124,125,126,127,128,129,130,131,132,133,134,135,136,137,138,139,140,141,142,143,144,145,146,147,148,149,150],"tree_info":[0,0,0,0,0,0,0,0,0,0,0,0,0,0,0,0,0,0,0,0,0,0,0,0,0,0,0,0,0,0,0,0,0,0,0,0,0,0,0,0,0,0,0,0,0,0,0,0,0,0,0,0,0,0,0,0,0,0,0,0,0,0,0,0,0,0,0,0,0,0,0,0,0,0,0,0,0,0,0,0,0,0,0,0,0,0,0,0,0,0,0,0,0,0,0,0,0,0,0,0,0,0,0,0,0,0,0,0,0,0,0,0,0,0,0,0,0,0,0,0,0,0,0,0,0,0,0,0,0,0,0,0,0,0,0,0,0,0,0,0,0,0,0,0,0,0,0,0,0,0],"trees":[{"base_weights":[4.923808E-10,1.4505691E-2,-1.3914034E-2,1.2995961E-2,1.3319173E-1,-2.2024238E-2,-8.672347E-3,6.103206E-2,1.0999212E-2,-4.9705417E-3,3.5045874E-1,-1.2231799E-2,-2.7671246E-2,-3.595908E-3,-2.3815272E-2,-3.0711737E-2,6.970183E-2,-2.4608243E-3,1.5013875E-2,-1.4051446E-2,1.0152299E-2,3.9206475E-1,-1.9271357E-2,-3.116155E-3,-2.0991558E-2,-2.129611E-2,-3.1770974E-2,-6.6220667E-3,7.598334E-2,-1.3592265E-2,-3.4520842E-2,-3.5316575E-2,2.408261E-3,9.8785475E-2,2.685226E-2,1.7767671E-2,-1.1008928E-2,2.5340103E-2,9.087093E-3,1.9299228E-2,-1.7860131E-2,1.18864484E-1,-5.2244603E-3,2.2162253E-1,4.1846412E-1,-4.4523858E-2,1.6646454E-2,1.2274724E-2,-1.0372063E-2,-2.1267574E-2,3.668469E-1,-2.1857325E-2,1.20258205E-1,-3.888212E-2,-2.705566E-2,-3.137643E-3,-1.919417E-2,5.03418E-2,8.500876E-2,-2.2537192E-2,-1.8599813E-3,6.806221E-2,-3.5577994E-2,-3.05388E-3,-3.9751963E-3,4.6234345E-3,-1.4853774E-3,4.7305347E-3,1.1419745E-2,-6.80457E-4,4.312851E-3,3.7048392E-3,9.147031E-4,6.051015E-4,-1.5561364E-3,1.8879984E-3,3.4992385E-3,-1.1611598E-3,1.3257376E-3,2.4351446E-4,1.2457799E-2,2.4235188E-3,-1.953896E-3,1.0160483E-2,3.867146E-2,3.1952604E-3,-1.1122959E-3,1.5569411E-2,3.2307323E-2,4.2375155E-2,2.8637752E-2,-4.6864706E-3,2.770792E-4,1.788752E-2,8.115391E-4,4.306029E-3,-1.4604638E-4,-5.0309836E-4,-1.5599866E-3,-1.7908156E-3,-2.546446E-3,2.4567472E-4,4.1872714E-2,-2.826951E-3,-1.7645287E-3,-1.9122964E-3,4.259068E-2,-5.3269747E-3,-3.7935846E-3,-2.5300782E-3,-3.2604074E-3,-2.6787324E-3,-5.9473252E-5,-8.030644E-4,-3.3975176E-3,6.0812137E-3,2.573236E-3,8.928363E-3,4.9822903E-3,-1.1437206E-3,-3.2190108E-3,1.1073842E-3,-1.8699464E-3,7.509724E-5,3.6546648E-2,-2.539048E-3,-4.143808E-3],"categories":[],"categories_nodes":[],"categories_segments":[],"categories_sizes":[],"default_left":[0,0,0,0,0,0,0,0,0,0,0,0,0,0,0,0,0,0,0,0,0,0,0,0,0,0,0,0,0,0,0,0,0,0,0,0,0,0,0,0,0,0,0,0,0,0,0,0,0,0,0,0,0,0,0,0,0,0,0,0,0,0,0,0,0,0,0,0,0,0,0,0,0,0,0,0,0,0,0,0,0,0,0,0,0,0,0,0,0,0,0,0,0,0,0,0,0,0,0,0,0,0,0,0,0,0,0,0,0,0,0,0,0,0,0,0,0,0,0,0,0,0,0,0,0,0,0],"id":0,"left_children":[1,3,5,7,9,11,13,15,17,19,21,23,25,27,29,31,33,35,37,39,41,43,45,47,49,51,53,55,57,59,61,63,65,67,69,71,73,75,77,79,81,83,85,87,89,91,93,95,97,99,101,103,105,107,109,111,113,115,117,119,121,123,125,-1,-1,-1,-1,-1,-1,-1,-1,-1,-1,-1,-1,-1,-1,-1,-1,-1,-1,-1,-1,-1,-1,-1,-1,-1,-1,-1,-1,-1,-1,-1,-1,-1,-1,-1,-1,-1,-1,-1,-1,-1,-1,-1,-1,-1,-1,-1,-1,-1,-1,-1,-1,-1,-1,-1,-1,-1,-1,-1,-1,-1,-1,-1,-1],"loss_changes":[1.2107922E2,5.2625458E1,1.3016468E1,2.7816616E1,1.1073852E2,6.646755E0,1.4297361E1,9.208065E0,1.5046455E1,3.0995703E-1,2.2066788E1,3.510737E0,1.9919243E0,3.3545444E1,5.1100883E0,1.5259725E-1,1.317614E1,1.1061758E1,1.3125858E1,1.7944604E-1,1.4165009E0,5.707199E0,1.331653E-1,2.4063845E0,2.4079638E0,2.3733492E0,1.5547371E0,5.87847E0,1.1766872E0,2.5068703E0,2.4759655E0,1.739204E-2,9.373962E-2,4.9922905E0,2.3432636E0,3.1581903E0,3.4925804E0,4.876053E0,1.1762548E1,2.5713396E-1,8.9942664E-2,4.4612277E-1,1.6328703E-1,1.1201849E0,6.573639E-1,9.650871E-3,8.297136E-2,2.9193878E0,4.0881276E-1,3.1544876E-1,3.0144596E-1,8.023243E-1,5.03514E0,2.4980927E-1,2.7084923E-1,6.3189716E0,4.8049307E0,3.41393E-1,5.630665E-1,1.4519057E0,2.2511587E0,4.6640706E0,1.3467884E0,0E0,0E0,0E0,0E0,0E0,0E0,0E0,0E0,0E0,0E0,0E0,0E0,0E0,0E0,0E0,0E0,0E0,0E0,0E0,0E0,0E0,0E0,0E0,0E0,0E0,0E0,0E0,0E0,0E0,0E0,0E0,0E0,0E0,0E0,0E0,0E0,0E0,0E0,0E0,0E0,0E0,0E0,0E0,0E0,0E0,0E0,0E0,0E0,0E0,0E0,0E0,0E0,0E0,0E0,0E0,0E0,0E0,0E0,0E0,0E0,0E0,0E0,0E0,0E0],"parents":[2147483647,0,0,1,1,2,2,3,3,4,4,5,5,6,6,7,7,8,8,9,9,10,10,11,11,12,12,13,13,14,14,15,15,16,16,17,17,18,18,19,19,20,20,21,21,22,22,23,23,24,24,25,25,26,26,27,27,28,28,29,29,30,30,31,31,32,32,33,33,34,34,35,35,36,36,37,37,38,38,39,39,40,40,41,41,42,42,43,43,44,44,45,45,46,46,47,47,48,48,49,49,50,50,51,51,52,52,53,53,54,54,55,55,56,56,57,57,58,58,59,59,60,60,61,61,62,62],"right_children":[2,4,6,8,10,12,14,16,18,20,22,24,26,28,30,32,34,36,38,40,42,44,46,48,50,52,54,56,58,60,62,64,66,68,70,72,74,76,78,80,82,84,86,88,90,92,94,96,98,100,102,104,106,108,110,112,114,116,118,120,122,124,126,-1,-1,-1,-1,-1,-1,-1,-1,-1,-1,-1,-1,-1,-1,-1,-1,-1,-1,-1,-1,-1,-1,-1,-1,-1,-1,-1,-1,-1,-1,-1,-1,-1,-1,-1,-1,-1,-1,-1,-1,-1,-1,-1,-1,-1,-1,-1,-1,-1,-1,-1,-1,-1,-1,-1,-1,-1,-1,-1,-1,-1,-1,-1,-1],"split_conditions":[1.6505053E-2,7.3599994E-1,1.1717498E-1,9.10091E-3,7.4997497E-1,8.55999E-2,7.494998E-1,7.45625E-1,1.1829996E-1,4.9995E-1,8.3058304E-1,5.8055806E-1,2.6201772E-2,7.4944997E-1,4.953333E-1,5.3987503E-1,7.4600005E-1,5.5575556E-1,4.5124984E-1,4.745203E-3,5.0295025E-1,7.79978E-1,4.3147492E-1,7.562494E-2,8.5359997E-1,9.2300004E-1,3.654E-1,7.0974994E-1,1.1657142E-2,7.499249E-1,1.6711365E-2,1.6505053E-3,6.8210006E-1,3.30033E-3,7.497499E-1,7.6335873E-3,5.7767686E-3,3.9959997E-1,4.5384538E-1,7.3317504E-1,7.969999E-2,1.5473488E-2,5.246525E-1,8.5359997E-1,8.146815E-1,1.5679799E-2,4.5124984E-1,3.9119998E-1,2.8264903E-2,7.924792E-1,5.890589E-1,2.49E-1,7.679768E-1,8.667493E-2,5.6323495E-2,1.9491948E-1,4.3279997E-1,8.331833E-1,8.9408946E-1,2.9090155E-2,4.304E-1,6.3339996E-1,2.6614398E-2,-3.05388E-3,-3.9751963E-3,4.6234345E-3,-1.4853774E-3,4.7305347E-3,1.1419745E-2,-6.80457E-4,4.312851E-3,3.7048392E-3,9.147031E-4,6.051015E-4,-1.5561364E-3,1.8879984E-3,3.4992385E-3,-1.1611598E-3,1.3257376E-3,2.4351446E-4,1.2457799E-2,2.4235188E-3,-1.953896E-3,1.0160483E-2,3.867146E-2,3.1952604E-3,-1.1122959E-3,1.5569411E-2,3.2307323E-2,4.2375155E-2,2.8637752E-2,-4.6864706E-3,2.770792E-4,1.788752E-2,8.115391E-4,4.306029E-3,-1.4604638E-4,-5.0309836E-4,-1.5599866E-3,-1.7908156E-3,-2.546446E-3,2.4567472E-4,4.1872714E-2,-2.826951E-3,-1.7645287E-3,-1.9122964E-3,4.259068E-2,-5.3269747E-3,-3.7935846E-3,-2.5300782E-3,-3.2604074E-3,-2.6787324E-3,-5.9473252E-5,-8.030644E-4,-3.3975176E-3,6.0812137E-3,2.573236E-3,8.928363E-3,4.9822903E-3,-1.1437206E-3,-3.2190108E-3,1.1073842E-3,-1.8699464E-3,7.509724E-5,3.6546648E-2,-2.539048E-3,-4.143808E-3],"split_indices":[1,2,3,0,0,3,3,3,3,0,0,0,1,3,2,3,3,0,3,1,0,0,3,3,2,2,2,3,2,3,1,1,3,0,3,1,1,2,0,3,3,1,0,2,0,1,3,2,1,0,0,2,0,3,1,0,2,0,0,1,2,2,1,0,0,0,0,0,0,0,0,0,0,0,0,0,0,0,0,0,0,0,0,0,0,0,0,0,0,0,0,0,0,0,0,0,0,0,0,0,0,0,0,0,0,0,0,0,0,0,0,0,0,0,0,0,0,0,0,0,0,0,0,0,0,0,0],"split_type":[0,0,0,0,0,0,0,0,0,0,0,0,0,0,0,0,0,0,0,0,0,0,0,0,0,0,0,0,0,0,0,0,0,0,0,0,0,0,0,0,0,0,0,0,0,0,0,0,0,0,0,0,0,0,0,0,0,0,0,0,0,0,0,0,0,0,0,0,0,0,0,0,0,0,0,0,0,0,0,0,0,0,0,0,0,0,0,0,0,0,0,0,0,0,0,0,0,0,0,0,0,0,0,0,0,0,0,0,0,0,0,0,0,0,0,0,0,0,0,0,0,0,0,0,0,0,0],"sum_hessian":[5.99897E5,2.93704E5,3.06193E5,2.90016E5,3.688E3,1.20204E5,1.85989E5,1.1573E4,2.78443E5,2.255E3,1.433E3,4.3966E4,7.6238E4,1.39294E5,4.6695E4,9.99E2,1.0574E4,6.397E4,2.14473E5,1.409E3,8.46E2,1.288E3,1.45E2,2.1546E4,2.242E4,2.9841E4,4.6397E4,1.34192E5,5.102E3,2.3887E4,2.2808E4,8.77E2,1.22E2,6.298E3,4.276E3,1.9002E4,4.4968E4,7.8208E4,1.36265E5,1.44E2,1.265E3,1.04E2,7.42E2,1.74E2,1.114E3,8.5E1,6E1,6.903E3,1.4643E4,2.2405E4,1.5E1,2.9724E4,1.17E2,1.8496E4,2.7901E4,1.05072E5,2.912E4,1.33E3,3.772E3,1.3553E4,1.0334E4,2.32E2,2.2576E4,4.26E2,4.51E2,3.4E1,8.8E1,1.452E3,4.846E3,1.394E3,2.882E3,5.87E3,1.3132E4,9.472E3,3.5496E4,4.6853E4,3.1355E4,2.285E4,1.13415E5,1.25E2,1.9E1,4.8E1,1.217E3,9.9E1,5E0,1.01E2,6.41E2,1.07E2,6.7E1,1.069E3,4.5E1,8.1E1,4E0,2E0,5.8E1,2.129E3,4.774E3,7.244E3,7.399E3,1.2447E4,9.958E3,2E0,1.3E1,1.1782E4,1.7942E4,8.1E1,3.6E1,1.138E3,1.7358E4,2.1201E4,6.7E3,1.02E4,9.4872E4,1.6591E4,1.2529E4,9.32E2,3.98E2,3.362E3,4.1E2,6.305E3,7.248E3,5.845E3,4.489E3,1.9E2,4.2E1,8.246E3,1.433E4],"tree_param":{"num_deleted":"0","num_feature":"4","num_nodes":"127","size_leaf_vector":"1"}},{"base_weights":[5.404009E-7,1.3055881E-2,-1.25223E-2,1.1696452E-2,1.19926035E-1,-4.0494413E-3,-1.7121045E-2,5.493023E-2,9.899325E-3,-4.4450816E-3,3.1550574E-1,-4.636302E-3,1.954384E-1,-2.2473201E-2,-1.323591E-2,8.524405E-2,3.345281E-2,-1.791458E-3,1.3679066E-2,-1.2636962E-2,9.197182E-3,3.529505E-1,-1.7246349E-2,-1.3612427E-2,9.0083055E-4,-2.4784297E-2,3.823219E-1,-1.3498217E-2,-2.8083613E-2,-7.891941E-3,-2.6849795E-2,9.7201265E-2,1.3289081E-2,-3.29339E-2,4.0263183E-2,6.8254336E-3,-1.620218E-2,2.3787517E-2,8.178388E-3,7.365004E-3,-1.7981032E-2,1.074431E-1,-4.6992092E-3,1.9973387E-1,3.7668142E-1,-4.0122747E-2,1.528835E-2,-5.303558E-3,-1.87886E-2,-3.3542257E-2,3.2667627E-3,2.045321E-2,-2.7776355E-2,2.5709516E-1,4.2368314E-1,-5.376362E-3,-2.0104745E-2,-3.429349E-2,-2.3930006E-2,-1.1514882E-2,6.540152E-2,-2.8818619E-2,1.8164614E-2,-2.5551762E-3,1.0675685E-2,-4.4427763E-4,5.8190036E-3,-3.3708983E-3,-4.6652602E-4,5.9982194E-3,2.6235185E-3,2.9129558E-3,1.3981994E-4,7.728048E-6,-2.0410474E-3,1.7746603E-3,3.2718559E-3,-1.1484575E-3,1.2066698E-3,3.9721263E-4,2.0539323E-2,-2.0742863E-3,-7.287813E-4,9.154595E-3,3.5448838E-2,2.3016983E-3,-1.122911E-3,1.4026888E-2,2.91241E-2,3.81416E-2,2.5836235E-2,-4.223539E-3,2.5491283E-4,1.669502E-2,7.3176064E-4,2.3489918E-3,-8.713527E-4,-1.9120846E-3,2.4362884E-2,-3.4648217E-3,9.392233E-3,1.2798306E-3,-4.2352598E-4,-3.7013032E-3,-1.7897323E-3,2.9238878E-2,1.6701538E-2,4.316717E-2,-5.0399587E-3,7.7003916E-4,-1.2359064E-3,-2.234522E-3,-1.4691071E-3,-2.886691E-3,-3.6884707E-3,-2.08715E-3,-2.7035822E-3,-7.1391085E-4,-2.0350432E-3,4.1874195E-3,7.3626856E-3,-2.212228E-3,-3.918577E-3,-2.3172263E-3,4.194939E-3],"categories":[],"categories_nodes":[],"categories_segments":[],"categories_sizes":[],"default_left":[0,0,0,0,0,0,0,0,0,0,0,0,0,0,0,0,0,0,0,0,0,0,0,0,0,0,0,0,0,0,0,0,0,0,0,0,0,0,0,0,0,0,0,0,0,0,0,0,0,0,0,0,0,0,0,0,0,0,0,0,0,0,0,0,0,0,0,0,0,0,0,0,0,0,0,0,0,0,0,0,0,0,0,0,0,0,0,0,0,0,0,0,0,0,0,0,0,0,0,0,0,0,0,0,0,0,0,0,0,0,0,0,0,0,0,0,0,0,0,0,0,0,0,0,0],"id":1,"left_children":[1,3,5,7,9,11,13,15,17,19,21,23,25,27,29,31,33,35,37,39,41,43,45,47,49,51,53,55,57,59,61,63,65,67,69,71,73,75,77,79,81,83,85,87,89,91,93,95,97,99,101,-1,103,105,107,109,111,113,115,117,119,121,123,-1,-1,-1,-1,-1,-1,-1,-1,-1,-1,-1,-1,-1,-1,-1,-1,-1,-1,-1,-1,-1,-1,-1,-1,-1,-1,-1,-1,-1,-1,-1,-1,-1,-1,-1,-1,-1,-1,-1,-1,-1,-1,-1,-1,-1,-1,-1,-1,-1,-1,-1,-1,-1,-1,-1,-1,-1,-1,-1,-1,-1,-1],"loss_changes":[9.807745E1,4.266871E1,1.1930634E1,2.2532795E1,8.973436E1,1.2612322E1,4.1266823E0,7.532547E0,1.2303942E1,2.5223732E-1,1.7873474E1,5.338454E0,1.3014768E1,4.202816E0,8.366142E0,4.127678E0,3.0648804E0,8.447779E0,1.1699577E1,1.5085003E-1,1.1568832E0,4.6115265E0,1.09277815E-1,1.7623305E0,5.4135723E0,1.0585585E-1,7.7677345E-1,1.7228804E0,1.3240318E0,2.1929663E1,2.8734055E0,4.829521E0,5.4563993E-1,1.3668358E-2,1.6985207E0,5.1535296E0,1.744029E0,3.9999352E0,1.0418451E1,1.9940604E-1,3.2718897E-2,3.7991607E-1,1.3472958E-1,9.114046E-1,5.260773E-1,7.860601E-3,7.251864E-2,1.5447507E0,2.2060442E0,6.0520077E-1,4.445E0,0E0,1.2568735E-2,9.423232E-2,5.0273323E-1,1.315431E0,2.1444416E-1,2.8837585E-1,2.9182816E-1,3.0423508E0,7.49712E-1,2.155241E0,1.3371251E0,0E0,0E0,0E0,0E0,0E0,0E0,0E0,0E0,0E0,0E0,0E0,0E0,0E0,0E0,0E0,0E0,0E0,0E0,0E0,0E0,0E0,0E0,0E0,0E0,0E0,0E0,0E0,0E0,0E0,0E0,0E0,0E0,0E0,0E0,0E0,0E0,0E0,0E0,0E0,0E0,0E0,0E0,0E0,0E0,0E0,0E0,0E0,0E0,0E0,0E0,0E0,0E0,0E0,0E0,0E0,0E0,0E0,0E0,0E0,0E0,0E0,0E0],"parents":[2147483647,0,0,1,1,2,2,3,3,4,4,5,5,6,6,7,7,8,8,9,9,10,10,11,11,12,12,13,13,14,14,15,15,16,16,17,17,18,18,19,19,20,20,21,21,22,22,23,23,24,24,25,25,26,26,27,27,28,28,29,29,30,30,31,31,32,32,33,33,34,34,35,35,36,36,37,37,38,38,39,39,40,40,41,41,42,42,43,43,44,44,45,45,46,46,47,47,48,48,49,49,50,50,52,52,53,53,54,54,55,55,56,56,57,57,58,58,59,59,60,60,61,61,62,62],"right_children":[2,4,6,8,10,12,14,16,18,20,22,24,26,28,30,32,34,36,38,40,42,44,46,48,50,52,54,56,58,60,62,64,66,68,70,72,74,76,78,80,82,84,86,88,90,92,94,96,98,100,102,-1,104,106,108,110,112,114,116,118,120,122,124,-1,-1,-1,-1,-1,-1,-1,-1,-1,-1,-1,-1,-1,-1,-1,-1,-1,-1,-1,-1,-1,-1,-1,-1,-1,-1,-1,-1,-1,-1,-1,-1,-1,-1,-1,-1,-1,-1,-1,-1,-1,-1,-1,-1,-1,-1,-1,-1,-1,-1,-1,-1,-1,-1,-1,-1,-1,-1,-1,-1,-1,-1],"split_conditions":[1.6505053E-2,7.3599994E-1,2.4344955E-2,9.10091E-3,7.4997497E-1,9.2300004E-1,1.1717498E-1,8.252527E-4,1.20474935E-1,4.9995E-1,8.3058304E-1,1.2312496E-1,7.4757475E-1,8.55999E-2,7.494998E-1,7.4600005E-1,5.3987503E-1,8.124812E-1,4.5124984E-1,7.8399E-3,5.0295025E-1,7.79978E-1,4.3147492E-1,5.687569E-1,8.080808E-2,8.112502E-2,7.7697766E-1,5.687569E-1,3.55E-1,7.4944997E-1,7.67485E-2,7.45625E-1,7.4952483E-1,5.351999E-1,7.4600005E-1,5.983082E-3,4.951516E-3,3.9959997E-1,5.586748E-1,7.4952483E-1,4.1374138E-1,1.5473488E-2,5.3665364E-1,8.5359997E-1,8.146815E-1,1.5679799E-2,4.5124984E-1,7.562494E-2,8.5359997E-1,5.9507513E-1,4.7597504E-1,2.045321E-2,3.391339E-1,4.7597504E-1,8.2208216E-1,7.562494E-2,5.265E-1,3.0121723E-2,3.91995E-2,4.9592495E-1,1.9E-2,5.387333E-1,8.243824E-1,-2.5551762E-3,1.0675685E-2,-4.4427763E-4,5.8190036E-3,-3.3708983E-3,-4.6652602E-4,5.9982194E-3,2.6235185E-3,2.9129558E-3,1.3981994E-4,7.728048E-6,-2.0410474E-3,1.7746603E-3,3.2718559E-3,-1.1484575E-3,1.2066698E-3,3.9721263E-4,2.0539323E-2,-2.0742863E-3,-7.287813E-4,9.154595E-3,3.5448838E-2,2.3016983E-3,-1.122911E-3,1.4026888E-2,2.91241E-2,3.81416E-2,2.5836235E-2,-4.223539E-3,2.5491283E-4,1.669502E-2,7.3176064E-4,2.3489918E-3,-8.713527E-4,-1.9120846E-3,2.4362884E-2,-3.4648217E-3,9.392233E-3,1.2798306E-3,-4.2352598E-4,-3.7013032E-3,-1.7897323E-3,2.9238878E-2,1.6701538E-2,4.316717E-2,-5.0399587E-3,7.7003916E-4,-1.2359064E-3,-2.234522E-3,-1.4691071E-3,-2.886691E-3,-3.6884707E-3,-2.08715E-3,-2.7035822E-3,-7.1391085E-4,-2.0350432E-3,4.1874195E-3,7.3626856E-3,-2.212228E-3,-3.918577E-3,-2.3172263E-3,4.194939E-3],"split_indices":[1,2,1,0,0,2,3,1,3,0,0,3,0,3,3,3,3,0,3,1,0,0,3,0,0,3,0,0,2,3,1,3,3,3,3,1,1,2,3,3,0,1,0,2,0,1,3,3,2,3,3,0,0,3,0,3,2,1,1,3,2,2,0,0,0,0,0,0,0,0,0,0,0,0,0,0,0,0,0,0,0,0,0,0,0,0,0,0,0,0,0,0,0,0,0,0,0,0,0,0,0,0,0,0,0,0,0,0,0,0,0,0,0,0,0,0,0,0,0,0,0,0,0,0,0],"split_type":[0,0,0,0,0,0,0,0,0,0,0,0,0,0,0,0,0,0,0,0,0,0,0,0,0,0,0,0,0,0,0,0,0,0,0,0,0,0,0,0,0,0,0,0,0,0,0,0,0,0,0,0,0,0,0,0,0,0,0,0,0,0,0,0,0,0,0,0,0,0,0,0,0,0,0,0,0,0,0,0,0,0,0,0,0,0,0,0,0,0,0,0,0,0,0,0,0,0,0,0,0,0,0,0,0,0,0,0,0,0,0,0,0,0,0,0,0,0,0,0,0,0,0,0,0],"sum_hessian":[5.99897E5,2.93704E5,3.06193E5,2.90016E5,3.688E3,1.07723E5,1.9847E5,1.1573E4,2.78443E5,2.255E3,1.433E3,1.07408E5,3.15E2,8.3473E4,1.14997E5,4.798E3,6.775E3,6.8029E4,2.10414E5,1.409E3,8.46E2,1.288E3,1.45E2,4.0978E4,6.643E4,1.45E2,1.7E2,3.211E4,5.1363E4,8.2582E4,3.2415E4,4.114E3,6.84E2,6.3E2,6.145E3,4.2573E4,2.5456E4,7.4149E4,1.36265E5,2.97E2,1.112E3,1.04E2,7.42E2,1.74E2,1.114E3,8.5E1,6E1,1.573E4,2.5248E4,4.269E3,6.2161E4,1E0,1.44E2,4.4E1,1.26E2,1.4404E4,1.7706E4,2.0583E4,3.078E4,7.8693E4,3.889E3,3.1057E4,1.358E3,2.97E2,3.817E3,4.91E2,1.93E2,6.13E2,1.7E1,2.553E3,3.592E3,8.331E3,3.4242E4,5.229E3,2.0227E4,4.4233E4,2.9916E4,2.2497E4,1.13768E5,2.93E2,4E0,8.83E2,2.29E2,9.9E1,5E0,1.41E2,6.01E2,1.07E2,6.7E1,1.069E3,4.5E1,8.1E1,4E0,2E0,5.8E1,1.665E3,1.4065E4,2.5217E4,3.1E1,4.233E3,3.6E1,2.7377E4,3.4784E4,7.3E1,7.1E1,3E1,1.4E1,1.24E2,2E0,5.014E3,9.39E3,1.2521E4,5.185E3,6.656E3,1.3927E4,1.5512E4,1.5268E4,5.263E4,2.6063E4,1.009E3,2.88E3,1.8871E4,1.2186E4,4.96E2,8.62E2],"tree_param":{"num_deleted":"0","num_feature":"4","num_nodes":"125","size_leaf_vector":"1"}},{"base_weights":[1.0332335E-6,1.2490568E-2,-1.0662963E-2,1.1314984E-2,1.12216674E-1,-3.1350444E-3,-1.5408997E-2,4.9418546E-2,9.630055E-3,-8.140451E-4,2.9308474E-1,-3.6575627E-3,1.7499223E-1,-2.0267162E-2,-1.1935485E-2,7.990337E-2,3.186435E-2,1.4346969E-2,1.4032329E-3,-2.321386E-3,1.27673E-1,3.3188736E-1,-1.1159E-2,-1.2597357E-2,8.803805E-4,5.66083E-3,3.6805633E-1,-1.2148526E-2,-2.541563E-2,-7.1771313E-3,-2.4164949E-2,3.282599E-2,9.8007604E-2,-2.8895063E-2,3.8173053E-2,-1.657883E-2,1.698725E-2,-1.7803324E-2,6.2194103E-3,-9.675597E-3,9.922133E-3,2.2155006E-1,-1.6522186E-2,1.9589247E-1,3.4281513E-1,1.2005116E-1,-1.9953981E-2,-2.7114607E-3,-1.675746E-2,-3.0077958E-2,2.633787E-3,-2.5276762E-2,1.538128E-1,3.7324706E-1,-4.7039613E-3,-4.9951826E-3,-1.8244073E-2,-3.0974854E-2,-2.1687917E-2,-1.0411515E-2,5.8864333E-2,-2.5936956E-2,1.6349535E-2,4.662879E-3,-6.1793847E-4,-2.4952556E-3,1.0696601E-2,-2.9834446E-3,-7.202881E-4,5.66653E-3,2.3260438E-3,-2.2145992E-3,1.1736178E-3,1.0139521E-3,2.3621016E-3,-1.1579455E-3,-2.2096694E-3,9.443882E-4,-1.9000724E-3,-1.0426206E-3,1.2241994E-2,6.325267E-3,-6.453938E-4,-2.8353054E-3,3.2434665E-2,-5.818868E-3,1.0009586E-2,3.554448E-2,1.1824064E-2,3.24859E-2,3.6278408E-2,-2.1469959E-3,3.0232007E-2,-3.7493084E-3,2.834563E-3,-2.0314094E-3,1.8278124E-4,-2.3191783E-3,-1.2527563E-3,-3.1236676E-3,9.188968E-3,9.074916E-4,-3.2592285E-4,-2.977352E-3,-2.5326313E-4,1.0675079E-2,3.5564374E-2,2.7781902E-2,3.863774E-2,6.356565E-4,-1.1126073E-3,-7.8072667E-4,-1.9416834E-3,-2.6005874E-3,-3.3332673E-3,-1.9406815E-3,-2.4997222E-3,-7.0030504E-4,-1.9521601E-3,3.7632417E-3,6.6247503E-3,-1.8688462E-3,-3.3928123E-3,-2.0859698E-3,3.7759317E-3],"categories":[],"categories_nodes":[],"categories_segments":[],"categories_sizes":[],"default_left":[0,0,0,0,0,0,0,0,0,0,0,0,0,0,0,0,0,0,0,0,0,0,0,0,0,0,0,0,0,0,0,0,0,0,0,0,0,0,0,0,0,0,0,0,0,0,0,0,0,0,0,0,0,0,0,0,0,0,0,0,0,0,0,0,0,0,0,0,0,0,0,0,0,0,0,0,0,0,0,0,0,0,0,0,0,0,0,0,0,0,0,0,0,0,0,0,0,0,0,0,0,0,0,0,0,0,0,0,0,0,0,0,0,0,0,0,0,0,0,0,0,0,0,0,0],"id":2,"left_children":[1,3,5,7,9,11,13,15,17,19,21,23,25,27,29,31,33,35,37,39,41,43,45,47,49,51,53,55,57,59,61,63,65,67,69,71,73,75,77,79,81,83,85,87,89,91,93,95,97,99,101,103,105,107,-1,109,111,113,115,117,119,121,123,-1,-1,-1,-1,-1,-1,-1,-1,-1,-1,-1,-1,-1,-1,-1,-1,-1,-1,-1,-1,-1,-1,-1,-1,-1,-1,-1,-1,-1,-1,-1,-1,-1,-1,-1,-1,-1,-1,-1,-1,-1,-1,-1,-1,-1,-1,-1,-1,-1,-1,-1,-1,-1,-1,-1,-1,-1,-1,-1,-1,-1,-1],"loss_changes":[7.989957E1,3.239115E1,1.156142E1,1.7531876E1,6.580834E1,1.1646987E1,3.3489342E0,6.185774E0,1.0148279E1,3.841578E-1,1.4618851E1,5.061472E0,1.1963121E1,3.4581833E0,6.7344E0,3.5977516E0,2.814622E0,1.3572357E1,8.815847E0,1.765772E-1,3.1500274E-1,1.5646057E0,1.6510822E-1,1.7275896E0,4.4923406E0,9.0224695E-1,3.860016E-1,1.4000621E0,1.048584E0,1.7796982E1,2.327633E0,6.328887E-1,3.3634243E0,1.3865769E-2,1.8325377E0,2.0613272E0,6.9564743E0,5.103092E-1,6.196643E0,1.2273781E-1,6.4318985E-1,3.688448E-1,5.44151E-2,9.98693E-1,2.4609375E-1,2.3864488E-1,1.13731295E-1,9.942722E-1,8.0439377E-1,6.297927E-1,2.9729505E0,1.6595393E-2,2.8498614E-1,1.04413986E-1,0E0,1.0283564E0,2.1205091E-1,2.3721313E-1,2.2833538E-1,2.4661531E0,6.0729885E-1,1.7983665E0,1.0834235E0,0E0,0E0,0E0,0E0,0E0,0E0,0E0,0E0,0E0,0E0,0E0,0E0,0E0,0E0,0E0,0E0,0E0,0E0,0E0,0E0,0E0,0E0,0E0,0E0,0E0,0E0,0E0,0E0,0E0,0E0,0E0,0E0,0E0,0E0,0E0,0E0,0E0,0E0,0E0,0E0,0E0,0E0,0E0,0E0,0E0,0E0,0E0,0E0,0E0,0E0,0E0,0E0,0E0,0E0,0E0,0E0,0E0,0E0,0E0,0E0,0E0,0E0],"parents":[2147483647,0,0,1,1,2,2,3,3,4,4,5,5,6,6,7,7,8,8,9,9,10,10,11,11,12,12,13,13,14,14,15,15,16,16,17,17,18,18,19,19,20,20,21,21,22,22,23,23,24,24,25,25,26,26,27,27,28,28,29,29,30,30,31,31,32,32,33,33,34,34,35,35,36,36,37,37,38,38,39,39,40,40,41,41,42,42,43,43,44,44,45,45,46,46,47,47,48,48,49,49,50,50,51,51,52,52,53,53,55,55,56,56,57,57,58,58,59,59,60,60,61,61,62,62],"right_children":[2,4,6,8,10,12,14,16,18,20,22,24,26,28,30,32,34,36,38,40,42,44,46,48,50,52,54,56,58,60,62,64,66,68,70,72,74,76,78,80,82,84,86,88,90,92,94,96,98,100,102,104,106,108,-1,110,112,114,116,118,120,122,124,-1,-1,-1,-1,-1,-1,-1,-1,-1,-1,-1,-1,-1,-1,-1,-1,-1,-1,-1,-1,-1,-1,-1,-1,-1,-1,-1,-1,-1,-1,-1,-1,-1,-1,-1,-1,-1,-1,-1,-1,-1,-1,-1,-1,-1,-1,-1,-1,-1,-1,-1,-1,-1,-1,-1,-1,-1,-1,-1,-1,-1,-1],"split_conditions":[1.5473488E-2,7.3599994E-1,2.4344955E-2,9.10091E-3,7.69977E-1,9.2300004E-1,1.1654997E-1,6.189395E-4,8.124812E-1,7.5997597E-1,8.2648265E-1,1.1717498E-1,7.679768E-1,8.55999E-2,7.494998E-1,3.30033E-3,5.8509374E-1,2.0342034E-1,1.15274906E-1,4.9995E-1,7.6037604E-1,7.79978E-1,8.356835E-1,8.384991E-2,8.080808E-2,7.4157417E-1,8.2208216E-1,5.8055806E-1,3.55E-1,7.4944997E-1,7.67485E-2,7.4600005E-1,7.414501E-1,5.351999E-1,7.4600005E-1,4.0714285E-1,1.66E-1,8.9408946E-1,4.994E-1,7.497499E-1,5.151515E-1,1.1347225E-2,8.119E-1,8.252527E-3,8.5359997E-1,8.119E-1,5.698874E-1,7.0249915E-2,2.49E-1,6.3205814E-1,4.7597504E-1,4.8054805E-1,2.0631315E-2,7.7697766E-1,-4.7039613E-3,7.562494E-2,4.6049953E-2,3.0121723E-2,4.3532077E-2,6.391125E-1,1.1657142E-2,5.09E-1,8.243824E-1,4.662879E-3,-6.1793847E-4,-2.4952556E-3,1.0696601E-2,-2.9834446E-3,-7.202881E-4,5.66653E-3,2.3260438E-3,-2.2145992E-3,1.1736178E-3,1.0139521E-3,2.3621016E-3,-1.1579455E-3,-2.2096694E-3,9.443882E-4,-1.9000724E-3,-1.0426206E-3,1.2241994E-2,6.325267E-3,-6.453938E-4,-2.8353054E-3,3.2434665E-2,-5.818868E-3,1.0009586E-2,3.554448E-2,1.1824064E-2,3.24859E-2,3.6278408E-2,-2.1469959E-3,3.0232007E-2,-3.7493084E-3,2.834563E-3,-2.0314094E-3,1.8278124E-4,-2.3191783E-3,-1.2527563E-3,-3.1236676E-3,9.188968E-3,9.074916E-4,-3.2592285E-4,-2.977352E-3,-2.5326313E-4,1.0675079E-2,3.5564374E-2,2.7781902E-2,3.863774E-2,6.356565E-4,-1.1126073E-3,-7.8072667E-4,-1.9416834E-3,-2.6005874E-3,-3.3332673E-3,-1.9406815E-3,-2.4997222E-3,-7.0030504E-4,-1.9521601E-3,3.7632417E-3,6.6247503E-3,-1.8688462E-3,-3.3928123E-3,-2.0859698E-3,3.7759317E-3],"split_indices":[1,2,1,0,0,2,3,1,0,0,0,3,0,3,3,0,3,0,3,0,0,0,0,3,0,0,0,0,2,3,1,3,3,3,3,2,2,0,2,3,0,1,2,1,2,2,3,3,2,3,3,0,1,0,0,3,3,1,1,3,2,2,0,0,0,0,0,0,0,0,0,0,0,0,0,0,0,0,0,0,0,0,0,0,0,0,0,0,0,0,0,0,0,0,0,0,0,0,0,0,0,0,0,0,0,0,0,0,0,0,0,0,0,0,0,0,0,0,0,0,0,0,0,0,0],"split_type":[0,0,0,0,0,0,0,0,0,0,0,0,0,0,0,0,0,0,0,0,0,0,0,0,0,0,0,0,0,0,0,0,0,0,0,0,0,0,0,0,0,0,0,0,0,0,0,0,0,0,0,0,0,0,0,0,0,0,0,0,0,0,0,0,0,0,0,0,0,0,0,0,0,0,0,0,0,0,0,0,0,0,0,0,0,0,0,0,0,0,0,0,0,0,0,0,0,0,0,0,0,0,0,0,0,0,0,0,0,0,0,0,0,0,0,0,0,0,0,0,0,0,0,0,0],"sum_hessian":[5.99897E5,2.76299E5,3.23598E5,2.73081E5,3.218E3,1.25128E5,1.9847E5,1.1563E4,2.61518E5,1.981E3,1.237E3,1.24763E5,3.65E2,8.2741E4,1.15729E5,4.224E3,7.339E3,1.66216E5,9.5302E4,1.959E3,2.2E1,1.097E3,1.4E2,4.2007E4,8.2756E4,1.95E2,1.7E2,3.211E4,5.0631E4,8.3314E4,3.2415E4,1.174E3,3.05E3,6.9E2,6.649E3,1.3074E4,1.53142E5,1.9106E4,7.6196E4,1.224E3,7.35E2,1.3E1,9E0,8.3E1,1.014E3,8E0,1.32E2,1.2442E4,2.9565E4,4.435E3,7.8321E4,1.62E2,3.3E1,1.68E2,2E0,1.4774E4,1.7336E4,2.032E4,3.0311E4,7.9425E4,3.889E3,3.1057E4,1.358E3,8.67E2,3.07E2,2.07E2,2.843E3,6.61E2,2.9E1,2.967E3,3.682E3,1.0926E4,2.148E3,7.5357E4,7.7785E4,7.801E3,1.1305E4,6.7559E4,8.637E3,1.218E3,6E0,1.72E2,5.63E2,4E0,9E0,7E0,2E0,2.6E1,5.7E1,5.43E2,4.71E2,5E0,3E0,9.7E1,3.5E1,2.55E3,9.892E3,1.1725E4,1.784E4,4.394E3,4.1E1,3.742E4,4.0901E4,1.35E2,2.7E1,2.8E1,5E0,2.3E1,1.45E2,5.181E3,9.593E3,1.752E3,1.5584E4,6.543E3,1.3777E4,1.7947E4,1.2364E4,5.7801E4,2.1624E4,1.005E3,2.884E3,1.6287E4,1.477E4,4.96E2,8.62E2],"tree_param":{"num_deleted":"0","num_feature":"4","num_nodes":"125","size_leaf_vector":"1"}},{"base_weights":[1.4386787E-6,8.536907E-3,-1.2641539E-2,7.925179E-3,1.3239482E-1,-7.1959808E-3,-1.5699727E-2,4.4460196E-2,6.6960077E-3,-1.54816145E-2,2.988638E-1,3.3820272E-4,-9.768792E-3,-1.5851367E-2,1.832454E-1,-2.3439167E-2,5.0931763E-2,-3.48606E-3,1.0329964E-2,-2.5196794E-2,1.8293444E-2,3.1569088E-1,-2.3559203E-2,2.7425983E-3,-1.72289E-2,3.7776139E-3,-1.0968724E-2,-2.150561E-2,-1.2071296E-2,-6.97582E-3,3.3322236E-1,-2.6437407E-2,-6.2078657E-3,7.2501525E-2,1.907709E-2,9.753155E-3,-8.774337E-3,-1.8992618E-2,1.2258865E-2,-8.955622E-3,-4.058437E-2,3.261469E-2,-3.4062006E-3,2.0097405E-1,3.3871284E-1,-4.4601694E-2,3.979706E-2,3.614461E-2,1.0235608E-3,-2.2107841E-2,-1.3510819E-2,-4.775314E-3,2.051699E-2,-1.7122135E-2,-6.670905E-3,-2.532789E-2,-1.8740183E-2,-6.8466133E-3,-2.3150632E-2,-2.0513697E-2,6.1488654E-2,3.649985E-1,1.32522695E-2,-2.2020466E-3,-3.0469124E-3,1.1855869E-3,-1.8924803E-3,2.8407013E-3,8.566419E-3,-1.0039001E-3,3.3158907E-3,2.8115888E-3,3.4733926E-4,-9.766199E-4,7.0788204E-3,-2.4869314E-3,6.30725E-4,1.7050727E-3,5.125019E-4,-9.869093E-4,1.5674962E-2,-3.5574676E-3,-6.1689415E-3,1.5994778E-3,6.6680484E-3,4.3880413E-3,-1.6059229E-3,2.4889348E-2,1.493398E-2,3.2810014E-2,3.7672218E-2,1.1086141E-3,-4.8683756E-3,2.2327954E-2,-8.7913904E-5,1.0569509E-2,-1.3065742E-3,-6.445524E-4,9.908983E-4,-2.935843E-3,-2.084747E-3,-3.2869654E-4,-2.352991E-3,6.3447433E-4,-2.704957E-3,2.499597E-3,-3.06672E-3,-1.0720415E-3,-2.0901344E-3,-3.8826084E-4,-2.2616033E-3,-1.7125721E-3,-2.888128E-3,-6.048567E-4,-1.9400386E-3,-9.842988E-4,4.929085E-3,-1.2914151E-3,-3.1712824E-3,-3.768028E-3,2.8285466E-4,-2.2793317E-3,7.487307E-3,3.724423E-2,-3.7092585E-3,5.7496317E-3,-3.4304846E-3],"categories":[],"categories_nodes":[],"categories_segments":[],"categories_sizes":[],"default_left":[0,0,0,0,0,0,0,0,0,0,0,0,0,0,0,0,0,0,0,0,0,0,0,0,0,0,0,0,0,0,0,0,0,0,0,0,0,0,0,0,0,0,0,0,0,0,0,0,0,0,0,0,0,0,0,0,0,0,0,0,0,0,0,0,0,0,0,0,0,0,0,0,0,0,0,0,0,0,0,0,0,0,0,0,0,0,0,0,0,0,0,0,0,0,0,0,0,0,0,0,0,0,0,0,0,0,0,0,0,0,0,0,0,0,0,0,0,0,0,0,0,0,0,0,0,0,0],"id":3,"left_children":[1,3,5,7,9,11,13,15,17,19,21,23,25,27,29,31,33,35,37,39,41,43,45,47,49,51,53,55,57,59,61,63,65,67,69,71,73,75,77,79,81,83,85,87,89,91,93,95,97,99,101,103,105,107,109,111,113,115,117,119,121,123,125,-1,-1,-1,-1,-1,-1,-1,-1,-1,-1,-1,-1,-1,-1,-1,-1,-1,-1,-1,-1,-1,-1,-1,-1,-1,-1,-1,-1,-1,-1,-1,-1,-1,-1,-1,-1,-1,-1,-1,-1,-1,-1,-1,-1,-1,-1,-1,-1,-1,-1,-1,-1,-1,-1,-1,-1,-1,-1,-1,-1,-1,-1,-1,-1],"loss_changes":[6.473734E1,2.7133062E1,4.0262985E0,1.6003265E1,4.3330265E1,1.6854649E0,4.6736526E0,5.097971E0,1.2756823E1,3.0660695E-1,4.499695E0,9.349912E-1,1.0536265E0,3.306385E0,3.3687234E0,5.201614E-2,7.2749844E0,6.349041E0,1.437137E1,1.8082297E-1,6.506116E-2,2.0104065E0,5.7768315E-2,1.1179745E0,4.8045218E-2,7.5532323E-1,1.5745754E0,6.5472984E-1,5.3672066E0,5.038513E-2,6.662116E-1,1.4643788E-2,3.491139E-2,3.6622162E0,1.7539345E0,2.9846795E0,5.114386E0,2.3318996E0,8.149578E0,5.5130795E-2,3.7136853E-2,7.0270956E-2,5.0963473E-2,2.94384E-1,1.4020538E-1,7.81399E-3,8.229336E-2,3.2631226E0,1.2290953E0,9.906352E-3,1.5510973E-1,8.6510855E-1,4.097538E-1,5.921521E-1,1.5586264E0,7.578144E-1,3.0126953E-1,1.0599491E1,2.603838E0,1.8138377E-2,1.1859186E-2,1.9340038E-1,1.6701236E-2,0E0,0E0,0E0,0E0,0E0,0E0,0E0,0E0,0E0,0E0,0E0,0E0,0E0,0E0,0E0,0E0,0E0,0E0,0E0,0E0,0E0,0E0,0E0,0E0,0E0,0E0,0E0,0E0,0E0,0E0,0E0,0E0,0E0,0E0,0E0,0E0,0E0,0E0,0E0,0E0,0E0,0E0,0E0,0E0,0E0,0E0,0E0,0E0,0E0,0E0,0E0,0E0,0E0,0E0,0E0,0E0,0E0,0E0,0E0,0E0,0E0,0E0,0E0,0E0],"parents":[2147483647,0,0,1,1,2,2,3,3,4,4,5,5,6,6,7,7,8,8,9,9,10,10,11,11,12,12,13,13,14,14,15,15,16,16,17,17,18,18,19,19,20,20,21,21,22,22,23,23,24,24,25,25,26,26,27,27,28,28,29,29,30,30,31,31,32,32,33,33,34,34,35,35,36,36,37,37,38,38,39,39,40,40,41,41,42,42,43,43,44,44,45,45,46,46,47,47,48,48,49,49,50,50,51,51,52,52,53,53,54,54,55,55,56,56,57,57,58,58,59,59,60,60,61,61,62,62],"right_children":[2,4,6,8,10,12,14,16,18,20,22,24,26,28,30,32,34,36,38,40,42,44,46,48,50,52,54,56,58,60,62,64,66,68,70,72,74,76,78,80,82,84,86,88,90,92,94,96,98,100,102,104,106,108,110,112,114,116,118,120,122,124,126,-1,-1,-1,-1,-1,-1,-1,-1,-1,-1,-1,-1,-1,-1,-1,-1,-1,-1,-1,-1,-1,-1,-1,-1,-1,-1,-1,-1,-1,-1,-1,-1,-1,-1,-1,-1,-1,-1,-1,-1,-1,-1,-1,-1,-1,-1,-1,-1,-1,-1,-1,-1,-1,-1,-1,-1,-1,-1,-1,-1,-1,-1,-1,-1],"split_conditions":[2.083763E-2,8.5359997E-1,6.048605E-1,9.10091E-3,7.4757475E-1,2.5582831E-2,9.2300004E-1,7.45625E-1,1.20474935E-1,4.7554755E-1,8.3058304E-1,6.306E-1,7.562494E-2,1.1764991E-1,7.449745E-1,5.351999E-1,7.4600005E-1,5.246525E-1,1.9491948E-1,1.4545078E-2,4.1562486E-1,7.79978E-1,5.8509374E-1,7.562494E-2,1.1384988E-1,5.4879304E-2,1.1589992E-1,3.6900002E-1,7.494998E-1,6.2306575E-2,2.991541E-2,1.6505053E-3,6.8210006E-1,3.30033E-3,7.497499E-1,8.45884E-3,7.15E-1,1.8333334E-1,6.579833E-1,7.4952483E-1,2.0425003E-2,2.6660633E-1,5.0295025E-1,1.6505053E-2,1.6505053E-2,8.3778375E-1,6.189395E-3,3.62E-1,4.2839998E-1,7.562494E-2,2.97575E-1,5.586E-1,5.529193E-2,8.499992E-2,7.4985003E-1,8.112502E-2,4.6049953E-2,7.4944997E-1,4.87E-1,5.351999E-1,6.3326335E-1,8.356835E-1,7.6327634E-1,-2.2020466E-3,-3.0469124E-3,1.1855869E-3,-1.8924803E-3,2.8407013E-3,8.566419E-3,-1.0039001E-3,3.3158907E-3,2.8115888E-3,3.4733926E-4,-9.766199E-4,7.0788204E-3,-2.4869314E-3,6.30725E-4,1.7050727E-3,5.125019E-4,-9.869093E-4,1.5674962E-2,-3.5574676E-3,-6.1689415E-3,1.5994778E-3,6.6680484E-3,4.3880413E-3,-1.6059229E-3,2.4889348E-2,1.493398E-2,3.2810014E-2,3.7672218E-2,1.1086141E-3,-4.8683756E-3,2.2327954E-2,-8.7913904E-5,1.0569509E-2,-1.3065742E-3,-6.445524E-4,9.908983E-4,-2.935843E-3,-2.084747E-3,-3.2869654E-4,-2.352991E-3,6.3447433E-4,-2.704957E-3,2.499597E-3,-3.06672E-3,-1.0720415E-3,-2.0901344E-3,-3.8826084E-4,-2.2616033E-3,-1.7125721E-3,-2.888128E-3,-6.048567E-4,-1.9400386E-3,-9.842988E-4,4.929085E-3,-1.2914151E-3,-3.1712824E-3,-3.768028E-3,2.8285466E-4,-2.2793317E-3,7.487307E-3,3.724423E-2,-3.7092585E-3,5.7496317E-3,-3.4304846E-3],"split_indices":[1,2,0,0,0,1,2,3,3,0,0,2,3,3,0,3,3,0,0,1,3,0,3,3,3,1,3,2,3,1,1,1,3,0,3,1,2,2,3,3,1,3,0,1,1,0,1,2,2,3,3,2,1,3,3,3,3,3,2,3,0,0,0,0,0,0,0,0,0,0,0,0,0,0,0,0,0,0,0,0,0,0,0,0,0,0,0,0,0,0,0,0,0,0,0,0,0,0,0,0,0,0,0,0,0,0,0,0,0,0,0,0,0,0,0,0,0,0,0,0,0,0,0,0,0,0,0],"split_type":[0,0,0,0,0,0,0,0,0,0,0,0,0,0,0,0,0,0,0,0,0,0,0,0,0,0,0,0,0,0,0,0,0,0,0,0,0,0,0,0,0,0,0,0,0,0,0,0,0,0,0,0,0,0,0,0,0,0,0,0,0,0,0,0,0,0,0,0,0,0,0,0,0,0,0,0,0,0,0,0,0,0,0,0,0,0,0,0,0,0,0,0,0,0,0,0,0,0,0,0,0,0,0,0,0,0,0,0,0,0,0,0,0,0,0,0,0,0,0,0,0,0,0,0,0,0,0],"sum_hessian":[5.99897E5,3.58123E5,2.41774E5,3.56364E5,1.759E3,8.695E4,1.54824E5,1.1598E4,3.44766E5,9.32E2,8.27E2,2.2134E4,6.4816E4,1.54707E5,1.17E2,1.009E3,1.0589E4,9.0682E4,2.54084E5,7.24E2,2.08E2,7.86E2,4.1E1,1.947E4,2.664E3,5.274E3,5.9542E4,6.1985E4,9.2722E4,5.2E1,6.5E1,8.59E2,1.5E2,6.313E3,4.276E3,2.5883E4,6.4799E4,1.5682E4,2.38402E5,3.53E2,3.71E2,1.25E2,8.3E1,1.33E2,6.53E2,3.1E1,1E1,9.52E2,1.8518E4,1.15E3,1.514E3,3.491E3,1.783E3,2.4484E4,3.5058E4,2.6017E4,3.5968E4,6.301E4,2.9712E4,4.4E1,8E0,5.9E1,6E0,4.13E2,4.46E2,6.2E1,8.8E1,1.452E3,4.861E3,1.394E3,2.882E3,6.595E3,1.9288E4,6.4002E4,7.97E2,1.2726E4,2.956E3,1.42609E5,9.5793E4,3.52E2,1E0,3.02E2,6.9E1,8.5E1,4E1,1.7E1,6.6E1,6.7E1,6.6E1,5.18E2,1.35E2,2E0,2.9E1,1E0,9E0,3.94E2,5.58E2,1.0061E4,8.457E3,1.67E2,9.83E2,7.5E2,7.64E2,2.329E3,1.162E3,1.64E3,1.43E2,9.09E3,1.5394E4,2.9841E4,5.217E3,7.866E3,1.8151E4,1.779E3,3.4189E4,5.9818E4,3.192E3,1.3534E4,1.6178E4,2.5E1,1.9E1,1E0,7E0,5.8E1,1E0,3E0,3E0],"tree_param":{"num_deleted":"0","num_feature":"4","num_nodes":"127","size_leaf_vector":"1"}},{"base_weights":[1.603917E-6,1.02898255E-2,-8.782835E-3,9.2968E-3,9.452938E-2,-3.1761166E-3,-1.2802768E-2,4.0033925E-2,7.937612E-3,-2.1451185E-3,2.4922593E-1,-3.5863677E-3,1.4231163E-1,-1.6645543E-2,-1.00060655E-2,6.625451E-2,2.4935558E-2,1.20392E-2,4.1754675E-4,-3.4491739E-3,1.0907636E-1,2.824898E-1,-1.1575251E-2,-1.0165472E-2,4.5783643E-4,3.2780883E-3,3.0174965E-1,-1.00596575E-2,-2.0832283E-2,-6.0594254E-3,-2.0208811E-2,7.589608E-2,7.305293E-3,-2.1291744E-2,3.0254617E-2,-1.3676234E-2,1.4192397E-2,-1.4650695E-2,4.535698E-3,-1.0984353E-2,4.0664976E-3,1.9546247E-1,-2.2771817E-2,1.6637501E-1,2.91821E-1,1.0240671E-1,-1.9201284E-2,-6.876279E-3,-1.7873175E-2,-2.5461487E-2,1.9444611E-3,-2.0204743E-2,1.21286504E-1,3.058952E-1,-4.0658056E-3,-3.088793E-3,-1.4213388E-2,-2.5823008E-2,-1.7787058E-2,-8.8582905E-3,4.9324796E-2,-2.1930125E-2,1.6623663E-2,-1.9481921E-3,8.265226E-3,-5.8693445E-4,3.973983E-3,-2.3769685E-3,9.322322E-5,4.483869E-3,1.8758923E-3,-1.8208061E-3,9.962964E-4,1.0572161E-3,2.4885635E-3,1.403263E-4,-1.6550244E-3,2.0598085E-3,-2.7328128E-5,-1.1873358E-3,1.35161495E-2,2.1889594E-3,-1.003057E-3,-2.852362E-3,2.8790927E-2,-5.7275984E-3,7.6829903E-3,3.1922847E-2,1.0350849E-2,2.9497957E-2,2.0521192E-2,-2.159979E-3,2.6281476E-2,-3.5145327E-3,2.4735318E-3,9.857033E-4,-8.929915E-4,-1.8075478E-3,2.6574133E-2,-2.758255E-3,2.283439E-3,9.203451E-4,-3.578691E-4,-2.3008909E-3,-5.680599E-4,-1.5606932E-4,1.7253786E-2,2.3192016E-2,3.1556305E-2,8.1125426E-4,-9.067E-4,-1.1813053E-3,-1.8411868E-3,-2.6266915E-3,-2.3217544E-4,-1.6513622E-3,-2.255804E-3,-5.8361475E-4,-1.7045351E-3,7.3160636E-3,4.147655E-3,-1.4169476E-3,-2.7418176E-3,-1.6754133E-3,3.5826608E-3],"categories":[],"categories_nodes":[],"categories_segments":[],"categories_sizes":[],"default_left":[0,0,0,0,0,0,0,0,0,0,0,0,0,0,0,0,0,0,0,0,0,0,0,0,0,0,0,0,0,0,0,0,0,0,0,0,0,0,0,0,0,0,0,0,0,0,0,0,0,0,0,0,0,0,0,0,0,0,0,0,0,0,0,0,0,0,0,0,0,0,0,0,0,0,0,0,0,0,0,0,0,0,0,0,0,0,0,0,0,0,0,0,0,0,0,0,0,0,0,0,0,0,0,0,0,0,0,0,0,0,0,0,0,0,0,0,0,0,0,0,0,0,0,0,0],"id":4,"left_children":[1,3,5,7,9,11,13,15,17,19,21,23,25,27,29,31,33,35,37,39,41,43,45,47,49,51,53,55,57,59,61,63,65,67,69,71,73,75,77,79,81,83,85,87,89,91,93,95,97,99,101,103,105,107,-1,109,111,113,115,117,119,121,123,-1,-1,-1,-1,-1,-1,-1,-1,-1,-1,-1,-1,-1,-1,-1,-1,-1,-1,-1,-1,-1,-1,-1,-1,-1,-1,-1,-1,-1,-1,-1,-1,-1,-1,-1,-1,-1,-1,-1,-1,-1,-1,-1,-1,-1,-1,-1,-1,-1,-1,-1,-1,-1,-1,-1,-1,-1,-1,-1,-1,-1,-1],"loss_changes":[5.421662E1,2.3112179E1,7.29344E0,1.1408369E1,4.8141357E1,8.0660095E0,2.0253277E0,4.576397E0,8.066345E0,2.878435E-1,1.074324E1,3.5853834E0,8.42256E0,2.1887302E0,4.392317E0,2.4007778E0,1.8054452E0,9.370079E0,5.7274613E0,1.1104325E-1,2.6641762E-1,1.1411209E0,1.2452779E-1,1.300415E0,3.2157245E0,5.677695E-1,2.6368332E-1,8.9336586E-1,7.371235E-1,1.21936035E1,1.9293795E0,2.3413925E0,2.5448465E-1,4.1764945E-2,1.1028247E0,1.4008896E0,6.044546E0,6.0416555E-1,5.599245E0,1.2880076E-1,2.4695039E-1,2.9810727E-1,3.8767252E-2,7.741442E-1,2.1713257E-1,1.8470153E-1,9.403944E-2,1.2357187E0,8.8511705E-1,4.643693E-1,3.164454E0,6.833799E-3,2.1433628E-1,5.196953E-2,0E0,7.716316E-1,1.946261E-1,1.9177914E-1,1.8276882E-1,1.8525176E0,7.048378E-1,1.2376404E0,8.7165403E-1,0E0,0E0,0E0,0E0,0E0,0E0,0E0,0E0,0E0,0E0,0E0,0E0,0E0,0E0,0E0,0E0,0E0,0E0,0E0,0E0,0E0,0E0,0E0,0E0,0E0,0E0,0E0,0E0,0E0,0E0,0E0,0E0,0E0,0E0,0E0,0E0,0E0,0E0,0E0,0E0,0E0,0E0,0E0,0E0,0E0,0E0,0E0,0E0,0E0,0E0,0E0,0E0,0E0,0E0,0E0,0E0,0E0,0E0,0E0,0E0,0E0,0E0],"parents":[2147483647,0,0,1,1,2,2,3,3,4,4,5,5,6,6,7,7,8,8,9,9,10,10,11,11,12,12,13,13,14,14,15,15,16,16,17,17,18,18,19,19,20,20,21,21,22,22,23,23,24,24,25,25,26,26,27,27,28,28,29,29,30,30,31,31,32,32,33,33,34,34,35,35,36,36,37,37,38,38,39,39,40,40,41,41,42,42,43,43,44,44,45,45,46,46,47,47,48,48,49,49,50,50,51,51,52,52,53,53,55,55,56,56,57,57,58,58,59,59,60,60,61,61,62,62],"right_children":[2,4,6,8,10,12,14,16,18,20,22,24,26,28,30,32,34,36,38,40,42,44,46,48,50,52,54,56,58,60,62,64,66,68,70,72,74,76,78,80,82,84,86,88,90,92,94,96,98,100,102,104,106,108,-1,110,112,114,116,118,120,122,124,-1,-1,-1,-1,-1,-1,-1,-1,-1,-1,-1,-1,-1,-1,-1,-1,-1,-1,-1,-1,-1,-1,-1,-1,-1,-1,-1,-1,-1,-1,-1,-1,-1,-1,-1,-1,-1,-1,-1,-1,-1,-1,-1,-1,-1,-1,-1,-1,-1,-1,-1,-1,-1,-1,-1,-1,-1,-1,-1,-1,-1,-1],"split_conditions":[1.5473488E-2,7.3599994E-1,2.5170207E-2,9.10091E-3,7.69977E-1,9.2300004E-1,1.1654997E-1,6.189395E-4,8.190819E-1,7.5997597E-1,8.2648265E-1,1.2374997E-1,7.679768E-1,8.55999E-2,7.494998E-1,7.4600005E-1,7.45625E-1,2.0342034E-1,1.1717498E-1,4.1374138E-1,7.6037604E-1,7.79978E-1,8.356835E-1,8.066806E-1,8.080808E-2,7.4157417E-1,8.356835E-1,4.9184915E-1,3.32E-1,7.4944997E-1,7.67485E-2,7.45625E-1,7.4952483E-1,5.3987503E-1,7.4600005E-1,4.1849998E-1,7.6037604E-1,3.507324E-3,1.6332495E-1,7.4967504E-1,5.246525E-1,1.1347225E-2,8.119E-1,7.220961E-3,8.146815E-1,8.119E-1,5.698874E-1,7.649994E-2,7.8499997E-1,4.3E-2,4.7597504E-1,4.8054805E-1,1.7123992E-2,7.7697766E-1,-4.0658056E-3,7.562494E-2,7.924792E-1,2.5500306E-1,5.756137E-2,6.391125E-1,5.8055806E-1,4.5759997E-1,8.243824E-1,-1.9481921E-3,8.265226E-3,-5.8693445E-4,3.973983E-3,-2.3769685E-3,9.322322E-5,4.483869E-3,1.8758923E-3,-1.8208061E-3,9.962964E-4,1.0572161E-3,2.4885635E-3,1.403263E-4,-1.6550244E-3,2.0598085E-3,-2.7328128E-5,-1.1873358E-3,1.35161495E-2,2.1889594E-3,-1.003057E-3,-2.852362E-3,2.8790927E-2,-5.7275984E-3,7.6829903E-3,3.1922847E-2,1.0350849E-2,2.9497957E-2,2.0521192E-2,-2.159979E-3,2.6281476E-2,-3.5145327E-3,2.4735318E-3,9.857033E-4,-8.929915E-4,-1.8075478E-3,2.6574133E-2,-2.758255E-3,2.283439E-3,9.203451E-4,-3.578691E-4,-2.3008909E-3,-5.680599E-4,-1.5606932E-4,1.7253786E-2,2.3192016E-2,3.1556305E-2,8.1125426E-4,-9.067E-4,-1.1813053E-3,-1.8411868E-3,-2.6266915E-3,-2.3217544E-4,-1.6513622E-3,-2.255804E-3,-5.8361475E-4,-1.7045351E-3,7.3160636E-3,4.147655E-3,-1.4169476E-3,-2.7418176E-3,-1.6754133E-3,3.5826608E-3],"split_indices":[1,2,1,0,0,2,3,1,0,0,0,3,0,3,3,3,3,0,3,0,0,0,0,0,0,0,0,0,2,3,1,3,3,3,3,2,0,1,3,3,0,1,2,1,0,2,3,3,2,2,3,0,1,0,0,3,0,1,1,3,0,2,0,0,0,0,0,0,0,0,0,0,0,0,0,0,0,0,0,0,0,0,0,0,0,0,0,0,0,0,0,0,0,0,0,0,0,0,0,0,0,0,0,0,0,0,0,0,0,0,0,0,0,0,0,0,0,0,0,0,0,0,0,0,0],"split_type":[0,0,0,0,0,0,0,0,0,0,0,0,0,0,0,0,0,0,0,0,0,0,0,0,0,0,0,0,0,0,0,0,0,0,0,0,0,0,0,0,0,0,0,0,0,0,0,0,0,0,0,0,0,0,0,0,0,0,0,0,0,0,0,0,0,0,0,0,0,0,0,0,0,0,0,0,0,0,0,0,0,0,0,0,0,0,0,0,0,0,0,0,0,0,0,0,0,0,0,0,0,0,0,0,0,0,0,0,0,0,0,0,0,0,0,0,0,0,0,0,0,0,0,0,0],"sum_hessian":[5.99897E5,2.76299E5,3.23598E5,2.73081E5,3.218E3,1.3513E5,1.88468E5,1.1563E4,2.61518E5,1.981E3,1.237E3,1.34751E5,3.79E2,7.9385E4,1.09083E5,4.224E3,7.339E3,1.69221E5,9.2297E4,1.959E3,2.2E1,1.097E3,1.4E2,5.1298E4,8.3453E4,2.03E2,1.76E2,3.0854E4,4.8531E4,7.8658E4,3.0425E4,3.63E3,5.94E2,7.57E2,6.582E3,1.3074E4,1.56147E5,1.981E4,7.2487E4,9.78E2,9.81E2,1.3E1,9E0,8.3E1,1.014E3,8E0,1.32E2,3.5956E4,1.5342E4,4.526E3,7.8927E4,1.7E2,3.3E1,1.74E2,2E0,1.1521E4,1.9333E4,1.8388E4,3.0143E4,7.4875E4,3.783E3,2.9067E4,1.358E3,2.4E2,3.39E3,4.23E2,1.71E2,6.81E2,7.6E1,2.9E3,3.682E3,1.0971E4,2.103E3,1.16655E5,3.9492E4,2.096E3,1.7714E4,1.6701E4,5.5786E4,9.73E2,5E0,4.33E2,5.48E2,4E0,9E0,7E0,2E0,2.3E1,6E1,9.76E2,3.8E1,5E0,3E0,9.7E1,3.5E1,3.93E3,3.2026E4,1.5332E4,1E1,4.336E3,1.9E2,3.4104E4,4.4823E4,1.42E2,2.8E1,1E1,2.3E1,2.3E1,1.51E2,4.009E3,7.512E3,1.2303E4,7.03E3,1.8047E4,3.41E2,2.3796E4,6.347E3,5.4689E4,2.0186E4,9.35E2,2.848E3,1.2042E4,1.7025E4,4.96E2,8.62E2],"tree_param":{"num_deleted":"0","num_feature":"4","num_nodes":"125","size_leaf_vector":"1"}},{"base_weights":[1.87764E-6,9.261473E-3,-7.904285E-3,8.367183E-3,8.512515E-2,-3.1882508E-3,-1.1813943E-2,5.787067E-3,2.1632373E-2,-1.9097121E-3,2.2439653E-1,-3.5334162E-3,1.208663E-1,-8.044708E-3,-1.4247919E-2,1.3370194E-3,1.1501932E-2,5.8935206E-2,1.5058293E-2,-3.0973593E-3,9.938151E-2,2.5432488E-1,-1.0254034E-2,-9.287759E-3,2.4313188E-6,1.049609E-3,2.7347612E-1,-6.9562467E-3,-1.9501034E-2,-1.8442366E-2,-1.123699E-2,1.680825E-2,-1.3807074E-3,2.9008621E-2,6.313381E-3,6.864013E-2,6.9993446E-3,-4.847866E-3,2.1321664E-2,1.0109246E-3,-1.6307887E-2,1.7776898E-1,-2.0299096E-2,1.5024076E-1,2.626882E-1,9.4846204E-2,-1.7288983E-2,-2.7640965E-3,-1.324004E-2,-2.3135195E-2,1.251637E-3,-1.7796451E-2,1.0966073E-1,2.772094E-1,-3.7947518E-3,-8.472642E-3,1.5606852E-2,-5.608261E-3,-2.4222402E-2,-1.3738274E-2,-2.0567361E-2,-3.7170202E-3,-1.6611386E-2,-8.246577E-4,2.9876241E-3,-2.0053578E-3,6.178105E-5,1.3291633E-3,4.002425E-3,1.3325902E-3,-8.489516E-4,2.0576625E-3,8.456141E-3,-9.0641435E-4,4.608529E-3,-2.7893453E-3,3.0329125E-4,5.711636E-3,1.2670733E-3,4.8539205E-5,1.3143728E-2,-1.9887525E-3,8.538872E-3,-2.6241727E-3,2.6199743E-2,-5.226434E-3,7.1707913E-3,2.5781346E-2,7.557973E-3,-9.30883E-3,2.6313085E-2,-1.9799809E-3,2.4310367E-2,-3.166666E-3,2.2330494E-3,1.8672968E-3,-5.763065E-4,-1.3805536E-3,1.1698002E-2,-2.4057906E-3,7.381391E-3,7.496808E-4,-3.5968106E-4,-2.4059995E-3,-1.1788283E-3,7.0514292E-3,2.8059173E-2,2.0969449E-2,2.8593117E-2,-1.3095449E-3,-5.265994E-4,4.7511705E-3,-6.6965417E-4,-1.0987625E-3,1.7419485E-4,-1.7757396E-3,-2.7089803E-3,-1.4591313E-3,4.919997E-4,-2.5794085E-3,-1.7964011E-3,-6.486017E-4,1.737083E-3,-6.292547E-4,-2.576469E-3],"categories":[],"categories_nodes":[],"categories_segments":[],"categories_sizes":[],"default_left":[0,0,0,0,0,0,0,0,0,0,0,0,0,0,0,0,0,0,0,0,0,0,0,0,0,0,0,0,0,0,0,0,0,0,0,0,0,0,0,0,0,0,0,0,0,0,0,0,0,0,0,0,0,0,0,0,0,0,0,0,0,0,0,0,0,0,0,0,0,0,0,0,0,0,0,0,0,0,0,0,0,0,0,0,0,0,0,0,0,0,0,0,0,0,0,0,0,0,0,0,0,0,0,0,0,0,0,0,0,0,0,0,0,0,0,0,0,0,0,0,0,0,0,0,0],"id":5,"left_children":[1,3,5,7,9,11,13,15,17,19,21,23,25,27,29,31,33,35,37,39,41,43,45,47,49,51,53,55,57,59,61,63,65,67,69,71,73,75,77,79,81,83,85,87,89,91,93,95,97,99,101,103,105,107,-1,109,111,113,115,117,119,121,123,-1,-1,-1,-1,-1,-1,-1,-1,-1,-1,-1,-1,-1,-1,-1,-1,-1,-1,-1,-1,-1,-1,-1,-1,-1,-1,-1,-1,-1,-1,-1,-1,-1,-1,-1,-1,-1,-1,-1,-1,-1,-1,-1,-1,-1,-1,-1,-1,-1,-1,-1,-1,-1,-1,-1,-1,-1,-1,-1,-1,-1,-1],"loss_changes":[4.3917316E1,1.8744616E1,5.966507E0,9.346306E0,3.901943E1,6.2809563E0,1.6230354E0,5.8140397E0,1.0903589E1,2.3873891E-1,8.6967125E0,2.9760587E0,7.441791E0,8.655524E-1,1.3574677E0,5.404396E0,9.090974E0,3.3573933E0,4.7136173E0,1.06390774E-1,2.1938209E-1,9.1632843E-1,1.0589163E-1,1.4353223E0,2.6187003E0,4.7068977E-1,2.1863079E-1,2.1693697E0,3.9493012E-1,4.4875622E-1,2.5292492E0,6.288276E0,4.0799584E0,3.9609127E0,8.014427E0,4.2935085E0,6.596672E-1,1.6435382E0,8.904097E0,1.02476954E-1,1.7097548E-1,2.4744433E-1,3.315803E-2,6.5515983E-1,1.8434906E-1,1.5778756E-1,7.646872E-2,1.3504354E0,2.5544524E0,4.1694117E-1,2.6028426E0,7.092323E-3,2.077198E-1,4.4268608E-2,0E0,8.805933E-1,2.8416831E0,6.0474955E-2,8.2846165E-2,2.225964E-1,4.205513E-1,1.5233312E0,3.4471283E0,0E0,0E0,0E0,0E0,0E0,0E0,0E0,0E0,0E0,0E0,0E0,0E0,0E0,0E0,0E0,0E0,0E0,0E0,0E0,0E0,0E0,0E0,0E0,0E0,0E0,0E0,0E0,0E0,0E0,0E0,0E0,0E0,0E0,0E0,0E0,0E0,0E0,0E0,0E0,0E0,0E0,0E0,0E0,0E0,0E0,0E0,0E0,0E0,0E0,0E0,0E0,0E0,0E0,0E0,0E0,0E0,0E0,0E0,0E0,0E0,0E0,0E0],"parents":[2147483647,0,0,1,1,2,2,3,3,4,4,5,5,6,6,7,7,8,8,9,9,10,10,11,11,12,12,13,13,14,14,15,15,16,16,17,17,18,18,19,19,20,20,21,21,22,22,23,23,24,24,25,25,26,26,27,27,28,28,29,29,30,30,31,31,32,32,33,33,34,34,35,35,36,36,37,37,38,38,39,39,40,40,41,41,42,42,43,43,44,44,45,45,46,46,47,47,48,48,49,49,50,50,51,51,52,52,53,53,55,55,56,56,57,57,58,58,59,59,60,60,61,61,62,62],"right_children":[2,4,6,8,10,12,14,16,18,20,22,24,26,28,30,32,34,36,38,40,42,44,46,48,50,52,54,56,58,60,62,64,66,68,70,72,74,76,78,80,82,84,86,88,90,92,94,96,98,100,102,104,106,108,-1,110,112,114,116,118,120,122,124,-1,-1,-1,-1,-1,-1,-1,-1,-1,-1,-1,-1,-1,-1,-1,-1,-1,-1,-1,-1,-1,-1,-1,-1,-1,-1,-1,-1,-1,-1,-1,-1,-1,-1,-1,-1,-1,-1,-1,-1,-1,-1,-1,-1,-1,-1,-1,-1,-1,-1,-1,-1,-1,-1,-1,-1,-1,-1,-1,-1,-1,-1],"split_conditions":[1.5473488E-2,7.3599994E-1,2.6201772E-2,7.4574995E-1,7.69977E-1,9.2300004E-1,6.3326335E-1,2.2253333E-1,7.4600005E-1,7.5997597E-1,8.2648265E-1,1.2312496E-1,7.679768E-1,7.497499E-1,1.1764991E-1,6.189395E-4,5.7767686E-3,4.951516E-3,7.4927497E-1,1.361667E-2,7.6037604E-1,7.79978E-1,8.356835E-1,5.687569E-1,8.080808E-2,7.4157417E-1,8.356835E-1,7.4907494E-1,3.3629045E-2,8.55999E-2,4.516E-1,4.1262637E-4,1.6505053E-3,3.9119998E-1,8.124812E-1,3.30033E-3,8.665154E-3,3.91995E-3,7.494998E-1,7.497499E-1,7.2697264E-1,1.1347225E-2,8.119E-1,9.903032E-3,1.237879E-3,8.119E-1,5.698874E-1,7.649994E-2,7.8499997E-1,6.3205814E-1,4.7597504E-1,3.270327E-1,2.0631315E-2,7.7697766E-1,-3.7947518E-3,3.784E-1,7.494998E-1,7.4994993E-1,4.1468944E-2,8.499992E-2,3.32E-1,7.499249E-1,7.039499E-1,-8.246577E-4,2.9876241E-3,-2.0053578E-3,6.178105E-5,1.3291633E-3,4.002425E-3,1.3325902E-3,-8.489516E-4,2.0576625E-3,8.456141E-3,-9.0641435E-4,4.608529E-3,-2.7893453E-3,3.0329125E-4,5.711636E-3,1.2670733E-3,4.8539205E-5,1.3143728E-2,-1.9887525E-3,8.538872E-3,-2.6241727E-3,2.6199743E-2,-5.226434E-3,7.1707913E-3,2.5781346E-2,7.557973E-3,-9.30883E-3,2.6313085E-2,-1.9799809E-3,2.4310367E-2,-3.166666E-3,2.2330494E-3,1.8672968E-3,-5.763065E-4,-1.3805536E-3,1.1698002E-2,-2.4057906E-3,7.381391E-3,7.496808E-4,-3.5968106E-4,-2.4059995E-3,-1.1788283E-3,7.0514292E-3,2.8059173E-2,2.0969449E-2,2.8593117E-2,-1.3095449E-3,-5.265994E-4,4.7511705E-3,-6.6965417E-4,-1.0987625E-3,1.7419485E-4,-1.7757396E-3,-2.7089803E-3,-1.4591313E-3,4.919997E-4,-2.5794085E-3,-1.7964011E-3,-6.486017E-4,1.737083E-3,-6.292547E-4,-2.576469E-3],"split_indices":[1,2,1,3,0,2,0,2,3,0,0,3,0,3,3,1,1,1,3,1,0,0,0,0,0,0,0,3,1,3,2,1,1,2,0,0,1,1,3,3,0,1,2,1,1,2,3,3,2,3,3,0,1,0,0,2,3,3,1,3,2,3,3,0,0,0,0,0,0,0,0,0,0,0,0,0,0,0,0,0,0,0,0,0,0,0,0,0,0,0,0,0,0,0,0,0,0,0,0,0,0,0,0,0,0,0,0,0,0,0,0,0,0,0,0,0,0,0,0,0,0,0,0,0,0],"split_type":[0,0,0,0,0,0,0,0,0,0,0,0,0,0,0,0,0,0,0,0,0,0,0,0,0,0,0,0,0,0,0,0,0,0,0,0,0,0,0,0,0,0,0,0,0,0,0,0,0,0,0,0,0,0,0,0,0,0,0,0,0,0,0,0,0,0,0,0,0,0,0,0,0,0,0,0,0,0,0,0,0,0,0,0,0,0,0,0,0,0,0,0,0,0,0,0,0,0,0,0,0,0,0,0,0,0,0,0,0,0,0,0,0,0,0,0,0,0,0,0,0,0,0,0,0],"sum_hessian":[5.99897E5,2.76299E5,3.23598E5,2.73081E5,3.218E3,1.46674E5,1.76924E5,2.28616E5,4.4465E4,1.981E3,1.237E3,1.46268E5,4.06E2,6.9422E4,1.07502E5,1.28532E5,1.00084E5,6.661E3,3.7804E4,1.959E3,2.2E1,1.097E3,1.4E2,5.5669E4,9.0599E4,2.28E2,1.78E2,6.34E4,6.022E3,4.492E4,6.2582E4,1.9204E4,1.09328E5,2.288E4,7.7204E4,5.612E3,1.049E3,9.048E3,2.8756E4,1.495E3,4.64E2,1.3E1,9E0,8.3E1,1.014E3,8E0,1.32E2,2.1003E4,3.4666E4,4.64E3,8.5959E4,1.95E2,3.3E1,1.76E2,2E0,5.9408E4,3.992E3,1.528E3,4.494E3,1.398E4,3.094E4,2.6085E4,3.6497E4,6.583E3,1.2621E4,1.0569E4,9.8759E4,9.429E3,1.3451E4,5.2387E4,2.4817E4,1.397E3,4.215E3,7.44E2,3.05E2,2.305E3,6.743E3,5.596E3,2.316E4,1.49E3,5E0,4.49E2,1.5E1,4E0,9E0,7E0,2E0,3.3E1,5E1,1E0,1.013E3,5E0,3E0,9.7E1,3.5E1,2.577E3,1.8426E4,3.4517E4,1.49E2,4.597E3,4.3E1,3.7568E4,4.8391E4,9.4E1,1.01E2,2.8E1,5E0,2.3E1,1.53E2,2.433E4,3.5078E4,1.642E3,2.35E3,8.82E2,6.46E2,1.383E3,3.111E3,1.3369E4,6.11E2,1.0284E4,2.0656E4,2.3058E4,3.027E3,1.7157E4,1.934E4],"tree_param":{"num_deleted":"0","num_feature":"4","num_nodes":"125","size_leaf_vector":"1"}},{"base_weights":[2.066604E-6,8.335839E-3,-7.113596E-3,7.530556E-3,7.664898E-2,-7.051103E-4,-9.494246E-3,1.1450103E-2,2.1888205E-4,-1.6959051E-3,2.0201482E-1,-1.4188589E-3,8.3011515E-2,-5.296617E-3,-1.1988668E-2,8.494429E-3,2.6150713E-2,-1.47124855E-2,3.5414088E-3,-2.7775515E-3,9.055292E-2,2.2893825E-1,-9.076881E-3,-7.3619303E-3,1.9872268E-3,-2.2609035E-2,2.4458358E-1,-1.6027736E-2,-4.0588565E-3,-1.21319825E-2,9.7262904E-2,6.921658E-3,4.4867273E-2,5.408355E-2,1.823777E-2,4.909307E-3,-1.5716285E-2,6.44215E-3,-1.875165E-2,-8.291741E-3,6.404051E-3,1.3960728E-1,-7.170232E-2,1.3561358E-1,2.3643611E-1,8.784274E-2,-1.5567104E-2,1.0309911E-5,-9.803228E-3,-1.6456781E-2,4.0332247E-3,-3.3140045E-2,1.9184832E-2,1.5990424E-1,2.86972E-1,-3.5942484E-2,-1.4536295E-2,7.942103E-3,-5.1725814E-3,-1.6158001E-2,-9.431739E-3,1.5495781E-2,2.2679345E-1,-1.3213737E-3,8.766291E-4,2.7550224E-3,2.8043723E-2,1.695781E-3,6.4615034E-3,6.4028936E-5,2.9925604E-3,7.0230775E-3,-9.061722E-4,-1.2299353E-3,-1.975766E-3,1.7189743E-3,2.3775874E-4,-2.0081282E-3,3.132058E-4,4.0212725E-3,-1.0005336E-3,7.255932E-3,-3.991445E-4,-2.3964465E-4,2.8187728E-2,-1.7611393E-3,-7.899823E-3,2.6392862E-2,8.2905805E-3,2.3926212E-2,1.5957853E-2,-1.8149822E-3,2.2487089E-2,-2.8532303E-3,2.0159471E-3,5.483359E-4,-1.2551841E-3,-1.696069E-3,-6.4824434E-4,-2.1672884E-3,3.047215E-4,8.4153604E-4,-5.122448E-4,-5.5367146E-3,-2.7660604E-3,1.718486E-2,1.3823303E-3,2.8711287E-2,1.2245495E-2,2.9534234E-2,-2.4522708E-3,-3.8357303E-3,6.412347E-4,-2.4790277E-3,-1.2517658E-3,-1.970558E-3,1.2259936E-3,-1.1664265E-3,-1.1655749E-4,-1.2200812E-3,-1.7889598E-3,-3.4598715E-4,-1.5881455E-3,-6.686974E-4,8.86208E-3,2.880164E-2,9.729985E-5],"categories":[],"categories_nodes":[],"categories_segments":[],"categories_sizes":[],"default_left":[0,0,0,0,0,0,0,0,0,0,0,0,0,0,0,0,0,0,0,0,0,0,0,0,0,0,0,0,0,0,0,0,0,0,0,0,0,0,0,0,0,0,0,0,0,0,0,0,0,0,0,0,0,0,0,0,0,0,0,0,0,0,0,0,0,0,0,0,0,0,0,0,0,0,0,0,0,0,0,0,0,0,0,0,0,0,0,0,0,0,0,0,0,0,0,0,0,0,0,0,0,0,0,0,0,0,0,0,0,0,0,0,0,0,0,0,0,0,0,0,0,0,0,0,0,0,0],"id":6,"left_children":[1,3,5,7,9,11,13,15,17,19,21,23,25,27,29,31,33,35,37,39,41,43,45,47,49,51,53,55,57,59,61,63,65,67,69,71,73,75,77,79,81,83,85,87,89,91,93,95,97,99,101,103,105,107,109,111,113,115,117,119,121,123,125,-1,-1,-1,-1,-1,-1,-1,-1,-1,-1,-1,-1,-1,-1,-1,-1,-1,-1,-1,-1,-1,-1,-1,-1,-1,-1,-1,-1,-1,-1,-1,-1,-1,-1,-1,-1,-1,-1,-1,-1,-1,-1,-1,-1,-1,-1,-1,-1,-1,-1,-1,-1,-1,-1,-1,-1,-1,-1,-1,-1,-1,-1,-1,-1],"loss_changes":[3.55742E1,1.5199076E1,4.9369354E0,7.826105E0,3.1616627E1,5.237554E0,2.4704666E0,7.72435E0,4.7280216E0,1.980167E-1,7.0380173E0,1.7593404E0,1.265094E1,1.1681356E0,2.3184586E0,8.467406E0,6.576893E0,3.4174967E-1,5.0413194E0,9.928613E-2,1.930747E-1,7.362442E-1,9.006068E-2,5.698836E-1,2.0849648E0,1.9825487E-1,1.0058136E0,2.6961398E-1,1.0540115E0,1.6066818E0,2.051206E0,5.2701406E0,2.5019249E1,2.5673141E0,4.770028E0,7.7179027E-1,2.2764874E-1,3.0133872E0,2.6124024E-1,1.0222066E-1,5.064492E-1,3.6432716E-1,9.76583E-4,5.462277E-1,1.8227768E-1,1.3479704E-1,6.2181093E-2,5.4170704E-1,5.6526875E-1,5.6133735E-1,1.9954005E0,4.2191863E-2,7.210901E-2,4.4122863E-1,5.1306343E-1,6.498867E-2,1.7486596E-1,7.997167E-1,1.8770281E0,4.0636158E-1,3.407607E0,1.9524634E-1,1.0366247E0,0E0,0E0,0E0,0E0,0E0,0E0,0E0,0E0,0E0,0E0,0E0,0E0,0E0,0E0,0E0,0E0,0E0,0E0,0E0,0E0,0E0,0E0,0E0,0E0,0E0,0E0,0E0,0E0,0E0,0E0,0E0,0E0,0E0,0E0,0E0,0E0,0E0,0E0,0E0,0E0,0E0,0E0,0E0,0E0,0E0,0E0,0E0,0E0,0E0,0E0,0E0,0E0,0E0,0E0,0E0,0E0,0E0,0E0,0E0,0E0,0E0,0E0,0E0,0E0],"parents":[2147483647,0,0,1,1,2,2,3,3,4,4,5,5,6,6,7,7,8,8,9,9,10,10,11,11,12,12,13,13,14,14,15,15,16,16,17,17,18,18,19,19,20,20,21,21,22,22,23,23,24,24,25,25,26,26,27,27,28,28,29,29,30,30,31,31,32,32,33,33,34,34,35,35,36,36,37,37,38,38,39,39,40,40,41,41,42,42,43,43,44,44,45,45,46,46,47,47,48,48,49,49,50,50,51,51,52,52,53,53,54,54,55,55,56,56,57,57,58,58,59,59,60,60,61,61,62,62],"right_children":[2,4,6,8,10,12,14,16,18,20,22,24,26,28,30,32,34,36,38,40,42,44,46,48,50,52,54,56,58,60,62,64,66,68,70,72,74,76,78,80,82,84,86,88,90,92,94,96,98,100,102,104,106,108,110,112,114,116,118,120,122,124,126,-1,-1,-1,-1,-1,-1,-1,-1,-1,-1,-1,-1,-1,-1,-1,-1,-1,-1,-1,-1,-1,-1,-1,-1,-1,-1,-1,-1,-1,-1,-1,-1,-1,-1,-1,-1,-1,-1,-1,-1,-1,-1,-1,-1,-1,-1,-1,-1,-1,-1,-1,-1,-1,-1,-1,-1,-1,-1,-1,-1,-1,-1,-1,-1],"split_conditions":[1.5473488E-2,7.3599994E-1,2.1250255E-2,8.124812E-1,7.69977E-1,8.5359997E-1,6.149615E-1,7.4574995E-1,1.13325E-1,7.5997597E-1,8.2648265E-1,1.2374997E-1,7.4757475E-1,1.7191719E-1,8.5359997E-1,7.9998E-1,7.4600005E-1,2.6820714E-3,4.994E-1,4.9995E-1,1.3410357E-2,7.79978E-1,8.356835E-1,8.384991E-2,1.9491948E-1,4.6994698E-1,7.791779E-1,1.0701071E-2,7.649994E-2,1.1764991E-1,7.724772E-1,2.0342034E-1,5.986E-1,3.30033E-3,4.8054805E-1,8.749875E-1,9.224922E-1,1.8748116E-1,7.601249E-1,7.969999E-2,5.0295025E-1,1.1553537E-2,1.48545485E-2,7.220961E-3,8.146815E-1,8.119E-1,5.698874E-1,5.0259995E-1,1.7040001E-1,4.79E-1,5.043E-1,1.2561256E-1,8.55999E-2,7.5247526E-1,8.3058304E-1,2.8714284E-2,7.8750014E-2,6.1625004E-2,1.1589992E-1,8.55999E-2,4.8866662E-1,7.1677166E-1,2.991541E-2,-1.3213737E-3,8.766291E-4,2.7550224E-3,2.8043723E-2,1.695781E-3,6.4615034E-3,6.4028936E-5,2.9925604E-3,7.0230775E-3,-9.061722E-4,-1.2299353E-3,-1.975766E-3,1.7189743E-3,2.3775874E-4,-2.0081282E-3,3.132058E-4,4.0212725E-3,-1.0005336E-3,7.255932E-3,-3.991445E-4,-2.3964465E-4,2.8187728E-2,-1.7611393E-3,-7.899823E-3,2.6392862E-2,8.2905805E-3,2.3926212E-2,1.5957853E-2,-1.8149822E-3,2.2487089E-2,-2.8532303E-3,2.0159471E-3,5.483359E-4,-1.2551841E-3,-1.696069E-3,-6.4824434E-4,-2.1672884E-3,3.047215E-4,8.4153604E-4,-5.122448E-4,-5.5367146E-3,-2.7660604E-3,1.718486E-2,1.3823303E-3,2.8711287E-2,1.2245495E-2,2.9534234E-2,-2.4522708E-3,-3.8357303E-3,6.412347E-4,-2.4790277E-3,-1.2517658E-3,-1.970558E-3,1.2259936E-3,-1.1664265E-3,-1.1655749E-4,-1.2200812E-3,-1.7889598E-3,-3.4598715E-4,-1.5881455E-3,-6.686974E-4,8.86208E-3,2.880164E-2,9.729985E-5],"split_indices":[1,2,1,0,0,2,0,3,3,0,0,3,0,0,2,0,3,1,2,0,1,0,0,3,0,0,0,0,3,3,0,0,2,0,0,0,0,3,3,3,0,1,1,1,0,2,3,2,2,2,2,0,3,0,0,2,3,3,3,3,2,0,1,0,0,0,0,0,0,0,0,0,0,0,0,0,0,0,0,0,0,0,0,0,0,0,0,0,0,0,0,0,0,0,0,0,0,0,0,0,0,0,0,0,0,0,0,0,0,0,0,0,0,0,0,0,0,0,0,0,0,0,0,0,0,0,0],"split_type":[0,0,0,0,0,0,0,0,0,0,0,0,0,0,0,0,0,0,0,0,0,0,0,0,0,0,0,0,0,0,0,0,0,0,0,0,0,0,0,0,0,0,0,0,0,0,0,0,0,0,0,0,0,0,0,0,0,0,0,0,0,0,0,0,0,0,0,0,0,0,0,0,0,0,0,0,0,0,0,0,0,0,0,0,0,0,0,0,0,0,0,0,0,0,0,0,0,0,0,0,0,0,0,0,0,0,0,0,0,0,0,0,0,0,0,0,0,0,0,0,0,0,0,0,0,0,0],"sum_hessian":[5.99897E5,2.76299E5,3.23598E5,2.73081E5,3.218E3,8.7651E4,2.35947E5,1.77779E5,9.5302E4,1.981E3,1.237E3,8.6911E4,7.4E2,8.7949E4,1.47998E5,1.4802E5,2.9759E4,1.7346E4,7.7956E4,1.959E3,2.2E1,1.097E3,1.4E2,3.1663E4,5.5248E4,4.48E2,2.92E2,9.094E3,7.8855E4,1.47805E5,1.93E2,1.41886E5,6.134E3,6.568E3,2.3191E4,8.44E2,1.6502E4,6.8981E4,8.975E3,1.224E3,7.35E2,1.7E1,5E0,8.3E1,1.014E3,8E0,1.32E2,7.877E3,2.3786E4,5.516E3,4.9732E4,3.58E2,9E1,9.9E1,1.93E2,6.32E2,8.462E3,6.696E3,7.2159E4,5.9334E4,8.8471E4,1.19E2,7.4E1,1.1907E4,1.29979E5,5.715E3,4.19E2,1.452E3,5.116E3,9.256E3,1.3935E4,1.48E2,6.96E2,8.944E3,7.558E3,1.8928E4,5.0053E4,8.461E3,5.14E2,4.1E1,1.183E3,9.9E1,6.36E2,9E0,8E0,1E0,4E0,2.3E1,6E1,9.76E2,3.8E1,5E0,3E0,9.7E1,3.5E1,5.487E3,2.39E3,7.537E3,1.6249E4,4.352E3,1.164E3,3.3634E4,1.6098E4,6.9E1,2.89E2,2E0,8.8E1,2.1E1,7.8E1,1.88E2,5E0,5.98E2,3.4E1,1.39E3,7.072E3,9.04E2,5.792E3,2.754E4,4.4619E4,1.8063E4,4.1271E4,4.5938E4,4.2533E4,9.2E1,2.7E1,5.8E1,1.6E1],"tree_param":{"num_deleted":"0","num_feature":"4","num_nodes":"127","size_leaf_vector":"1"}},{"base_weights":[2.3009802E-6,7.502862E-3,-6.4019365E-3,6.6978093E-3,6.359963E-2,-2.3623556E-3,-9.579602E-3,-2.4992528E-3,9.4164675E-3,-5.0550257E-3,1.8301514E-1,-2.830975E-3,6.2184386E-2,-8.301286E-3,-1.6145526E-2,1.245419E-2,-7.7412548E-3,2.9916853E-2,8.223219E-3,4.6409716E-4,-1.66879E-2,2.1460652E-1,-1.30091375E-2,-8.008727E-3,-1.6974926E-4,-2.1160007E-2,2.2772327E-1,-9.625947E-3,4.445022E-2,-1.7713532E-2,1.6353719E-2,2.7526563E-2,4.3272646E-3,5.921617E-3,-1.2013288E-2,3.9120868E-2,3.7238048E-3,1.6489064E-2,3.9757644E-3,-6.000369E-4,7.738544E-2,-1.8343665E-2,1.9979183E-2,1.2046546E-1,2.2274767E-1,-2.7809488E-2,7.584312E-3,-1.277489E-3,-1.1604299E-2,-1.4610163E-2,1.0481168E-3,-2.7177919E-2,2.8469334E-3,1.4841478E-1,2.6242197E-1,-7.819796E-3,-1.4929159E-2,2.3998074E-2,5.158081E-2,-1.4413137E-2,-2.4764609E-2,-1.2824299E-2,3.313833E-2,7.270229E-3,1.3700272E-3,-3.028257E-3,9.0848963E-4,1.6584508E-3,-1.1130808E-3,2.4253465E-3,-1.2441038E-3,5.154497E-3,2.0927654E-3,-3.9070495E-5,5.3893663E-3,1.1225156E-3,2.4537295E-3,-1.1068297E-3,7.1588624E-4,4.0252536E-4,-2.048393E-3,-1.0756168E-3,2.1568974E-2,-3.055588E-3,-1.4669608E-3,8.190392E-3,-4.3055504E-3,2.4792325E-2,6.9927336E-3,3.0759126E-2,2.1283181E-2,9.283639E-3,-3.0740437E-3,1.22947125E-2,3.27123E-4,1.7855918E-3,-4.241434E-4,-9.336937E-4,-1.7935187E-3,-2.1989313E-3,3.3036032E-4,5.0725025E-4,-6.1006605E-4,-1.8069892E-3,-3.7768388E-3,1.6039204E-2,-6.4925924E-5,2.5970662E-2,1.1821902E-2,3.2557797E-2,2.2387793E-2,-8.189454E-4,1.1213602E-2,-1.5664641E-3,1.4161876E-3,4.543209E-3,1.0701077E-3,5.452458E-3,2.441858E-3,-1.9318637E-3,-9.6873817E-4,-1.0661863E-3,-2.583879E-3,-2.53827E-3,3.4970586E-4,8.065679E-3,7.5445406E-4],"categories":[],"categories_nodes":[],"categories_segments":[],"categories_sizes":[],"default_left":[0,0,0,0,0,0,0,0,0,0,0,0,0,0,0,0,0,0,0,0,0,0,0,0,0,0,0,0,0,0,0,0,0,0,0,0,0,0,0,0,0,0,0,0,0,0,0,0,0,0,0,0,0,0,0,0,0,0,0,0,0,0,0,0,0,0,0,0,0,0,0,0,0,0,0,0,0,0,0,0,0,0,0,0,0,0,0,0,0,0,0,0,0,0,0,0,0,0,0,0,0,0,0,0,0,0,0,0,0,0,0,0,0,0,0,0,0,0,0,0,0,0,0,0,0,0,0],"id":7,"left_children":[1,3,5,7,9,11,13,15,17,19,21,23,25,27,29,31,33,35,37,39,41,43,45,47,49,51,53,55,57,59,61,63,65,67,69,71,73,75,77,79,81,83,85,87,89,91,93,95,97,99,101,103,105,107,109,111,113,115,117,119,121,123,125,-1,-1,-1,-1,-1,-1,-1,-1,-1,-1,-1,-1,-1,-1,-1,-1,-1,-1,-1,-1,-1,-1,-1,-1,-1,-1,-1,-1,-1,-1,-1,-1,-1,-1,-1,-1,-1,-1,-1,-1,-1,-1,-1,-1,-1,-1,-1,-1,-1,-1,-1,-1,-1,-1,-1,-1,-1,-1,-1,-1,-1,-1,-1,-1],"loss_changes":[2.8816372E1,1.2477513E1,4.1538334E0,6.8108215E0,3.204859E1,4.309829E0,1.5200825E0,4.8717065E0,5.1427555E0,1.5942445E-1,8.839748E0,1.9490893E0,1.4174067E1,1.0594472E1,1.5043445E0,1.9759228E0,2.6860604E0,2.7877178E0,6.9753857E0,1.3797148E-1,4.8875466E-2,9.1508865E-1,6.086418E-2,1.1622202E0,1.6431563E0,9.889597E-2,9.077091E-1,1.416482E0,5.403962E-1,6.548939E-1,6.6598403E-1,3.5286903E0,1.72625E0,1.9933847E0,5.441437E-1,1.9330969E0,6.209455E-1,2.8567867E0,6.284877E0,1.530265E-1,2.8269833E-1,3.387606E-2,1.4014561E-1,6.2681127E-1,8.852043E-1,4.3872215E-2,4.139363E-2,9.483297E-1,4.4914055E-1,9.606854E-1,2.4789784E0,5.2080244E-2,7.611564E-2,3.2887578E-1,5.064697E-1,4.892973E0,8.041086E-1,2.7369165E-1,2.187972E-1,4.44494E-1,1.357007E-1,1.01958916E-1,1.0489526E0,0E0,0E0,0E0,0E0,0E0,0E0,0E0,0E0,0E0,0E0,0E0,0E0,0E0,0E0,0E0,0E0,0E0,0E0,0E0,0E0,0E0,0E0,0E0,0E0,0E0,0E0,0E0,0E0,0E0,0E0,0E0,0E0,0E0,0E0,0E0,0E0,0E0,0E0,0E0,0E0,0E0,0E0,0E0,0E0,0E0,0E0,0E0,0E0,0E0,0E0,0E0,0E0,0E0,0E0,0E0,0E0,0E0,0E0,0E0,0E0,0E0,0E0,0E0,0E0],"parents":[2147483647,0,0,1,1,2,2,3,3,4,4,5,5,6,6,7,7,8,8,9,9,10,10,11,11,12,12,13,13,14,14,15,15,16,16,17,17,18,18,19,19,20,20,21,21,22,22,23,23,24,24,25,25,26,26,27,27,28,28,29,29,30,30,31,31,32,32,33,33,34,34,35,35,36,36,37,37,38,38,39,39,40,40,41,41,42,42,43,43,44,44,45,45,46,46,47,47,48,48,49,49,50,50,51,51,52,52,53,53,54,54,55,55,56,56,57,57,58,58,59,59,60,60,61,61,62,62],"right_children":[2,4,6,8,10,12,14,16,18,20,22,24,26,28,30,32,34,36,38,40,42,44,46,48,50,52,54,56,58,60,62,64,66,68,70,72,74,76,78,80,82,84,86,88,90,92,94,96,98,100,102,104,106,108,110,112,114,116,118,120,122,124,126,-1,-1,-1,-1,-1,-1,-1,-1,-1,-1,-1,-1,-1,-1,-1,-1,-1,-1,-1,-1,-1,-1,-1,-1,-1,-1,-1,-1,-1,-1,-1,-1,-1,-1,-1,-1,-1,-1,-1,-1,-1,-1,-1,-1,-1,-1,-1,-1,-1,-1,-1,-1,-1,-1,-1,-1,-1,-1,-1,-1,-1,-1,-1,-1],"split_conditions":[1.5473488E-2,7.15E-1,2.5789145E-2,1.20474935E-1,7.69977E-1,8.5359997E-1,7.494998E-1,5.246525E-1,9.10091E-3,1.2791417E-2,8.2648265E-1,1.1717498E-1,7.4757475E-1,7.4944997E-1,7.67485E-2,7.969999E-2,5.7767686E-3,1.6505053E-3,4.384749E-1,7.5997597E-1,7.2997296E-1,7.79978E-1,4.3147492E-1,5.3245324E-1,1.9491948E-1,4.6994698E-1,7.791779E-1,7.9998E-1,1.9E-2,5.647E-1,8.243824E-1,6.189395E-3,2.0342034E-1,9.224922E-1,4.6049953E-2,7.4600005E-1,8.871466E-3,3.9959997E-1,5.586748E-1,6.121612E-1,1.2172477E-2,7.3599994E-1,7.5247526E-1,7.220961E-3,7.3599994E-1,8.3058304E-1,4.5124984E-1,7.649994E-2,8.8248825E-1,4.84E-1,5.0259995E-1,2.6660633E-1,8.55999E-2,7.5247526E-1,9.2300004E-1,7.992799E-1,2.5500306E-1,6.991699E-1,8.774877E-1,7.499249E-1,5.09951E-1,9.284093E-2,9.724972E-1,7.270229E-3,1.3700272E-3,-3.028257E-3,9.0848963E-4,1.6584508E-3,-1.1130808E-3,2.4253465E-3,-1.2441038E-3,5.154497E-3,2.0927654E-3,-3.9070495E-5,5.3893663E-3,1.1225156E-3,2.4537295E-3,-1.1068297E-3,7.1588624E-4,4.0252536E-4,-2.048393E-3,-1.0756168E-3,2.1568974E-2,-3.055588E-3,-1.4669608E-3,8.190392E-3,-4.3055504E-3,2.4792325E-2,6.9927336E-3,3.0759126E-2,2.1283181E-2,9.283639E-3,-3.0740437E-3,1.22947125E-2,3.27123E-4,1.7855918E-3,-4.241434E-4,-9.336937E-4,-1.7935187E-3,-2.1989313E-3,3.3036032E-4,5.0725025E-4,-6.1006605E-4,-1.8069892E-3,-3.7768388E-3,1.6039204E-2,-6.4925924E-5,2.5970662E-2,1.1821902E-2,3.2557797E-2,2.2387793E-2,-8.189454E-4,1.1213602E-2,-1.5664641E-3,1.4161876E-3,4.543209E-3,1.0701077E-3,5.452458E-3,2.441858E-3,-1.9318637E-3,-9.6873817E-4,-1.0661863E-3,-2.583879E-3,-2.53827E-3,3.4970586E-4,8.065679E-3,7.5445406E-4],"split_indices":[1,2,1,3,0,2,3,0,0,1,0,3,0,3,1,3,1,1,3,0,0,0,3,0,0,0,0,0,2,2,0,1,0,0,3,3,1,2,3,0,1,2,0,1,2,0,3,3,0,2,2,3,3,0,2,0,1,0,0,3,0,1,0,0,0,0,0,0,0,0,0,0,0,0,0,0,0,0,0,0,0,0,0,0,0,0,0,0,0,0,0,0,0,0,0,0,0,0,0,0,0,0,0,0,0,0,0,0,0,0,0,0,0,0,0,0,0,0,0,0,0,0,0,0,0,0,0],"split_type":[0,0,0,0,0,0,0,0,0,0,0,0,0,0,0,0,0,0,0,0,0,0,0,0,0,0,0,0,0,0,0,0,0,0,0,0,0,0,0,0,0,0,0,0,0,0,0,0,0,0,0,0,0,0,0,0,0,0,0,0,0,0,0,0,0,0,0,0,0,0,0,0,0,0,0,0,0,0,0,0,0,0,0,0,0,0,0,0,0,0,0,0,0,0,0,0,0,0,0,0,0,0,0,0,0,0,0,0,0,0,0,0,0,0,0,0,0,0,0,0,0,0,0,0,0,0,0],"sum_hessian":[5.99897E5,2.76299E5,3.23598E5,2.72391E5,3.908E3,1.42477E5,1.81121E5,6.2148E4,2.10243E5,2.482E3,1.426E3,1.41451E5,1.026E3,1.51607E5,2.9514E4,1.6131E4,4.6017E4,1.1563E4,1.9868E5,1.684E3,7.98E2,1.228E3,1.98E2,4.802E4,9.3431E4,6.83E2,3.43E2,1.47894E5,3.713E3,2.8156E4,1.358E3,5.65E3,1.0481E4,1.0961E4,3.5056E4,8.556E3,3.007E3,6.7438E4,1.31242E5,1.662E3,2.2E1,7.64E2,3.4E1,9.9E1,1.129E3,1.15E2,8.3E1,1.672E4,3.13E4,7.266E3,8.6165E4,5.46E2,1.37E2,1.06E2,2.37E2,1.10323E5,3.7571E4,9.61E2,2.752E3,1.9181E4,8.975E3,4.96E2,8.62E2,1.323E3,4.327E3,1.266E3,9.215E3,6.744E3,4.217E3,4.08E2,3.4648E4,5.083E3,3.473E3,2.78E3,2.27E2,4.0773E4,2.6665E4,2.2919E4,1.08323E5,1.349E3,3.13E2,1.4E1,8E0,1.75E2,5.89E2,1.7E1,1.7E1,2.7E1,7.2E1,1.15E2,1.014E3,2E0,1.13E2,2E0,8.1E1,2.242E3,1.4478E4,2.3048E4,8.252E3,5.146E3,2.12E3,5.513E4,3.1035E4,2.95E2,2.51E2,2E0,1.35E2,2.1E1,8.5E1,8.7E1,1.5E2,1.09985E5,3.38E2,3.6645E4,9.26E2,3.67E2,5.94E2,2.482E3,2.7E2,9.41E3,9.771E3,6.36E2,8.339E3,2.8E2,2.16E2,3.01E2,5.61E2],"tree_param":{"num_deleted":"0","num_feature":"4","num_nodes":"127","size_leaf_vector":"1"}},{"base_weights":[2.5181237E-6,5.16546E-3,-7.6449784E-3,4.4894554E-3,4.9329083E-2,-5.7990295E-3,-1.2343859E-2,-3.047212E-3,7.3049427E-3,-1.0327205E-2,1.6931285E-1,-6.1607235E-3,2.5551805E-2,-1.2402026E-2,2.3627548E-1,1.0080921E-2,-5.9135184E-3,1.76316E-2,5.1630945E-3,1.3988044E-3,-1.8515091E-2,1.8893844E-1,-1.0935081E-2,-5.1168045E-3,-1.5612948E-2,-7.754354E-3,7.011335E-2,-1.2930287E-2,1.484738E-2,2.5846037E-1,-4.8249117E-3,4.4787075E-2,4.5447643E-3,4.2933896E-3,-9.786468E-3,1.3939821E-2,3.7146006E-2,1.8650435E-3,1.366011E-2,-4.8744343E-3,1.1728704E-2,-2.4642266E-2,-1.2569338E-2,1.0558884E-1,2.0715047E-1,-1.8439049E-2,3.7671003E-2,-6.402414E-3,8.469181E-3,-6.1652362E-3,-2.2014832E-2,2.9820938E-2,-1.3645119E-2,1.097431E-1,-1.0336796E-3,-9.788495E-3,-1.635597E-2,-7.1406118E-3,2.1130515E-2,2.8115094E-2,-2.9603704E-3,6.278836E-3,1.6344105E-3,-4.9195997E-3,7.4434635E-4,2.3548305E-4,3.2802136E-3,-1.4258134E-3,-7.6074665E-4,-3.7022965E-4,1.9456899E-3,6.6959523E-3,2.8313464E-3,5.850887E-4,-6.5458583E-4,2.0683203E-3,-9.967491E-4,-5.7373464E-4,1.5487618E-2,1.0174534E-2,-2.5867796E-4,-1.7030124E-3,-3.1229872E-3,-1.5472778E-3,8.2203647E-4,6.1133876E-3,1.2573245E-2,1.9145593E-2,2.6897285E-2,6.999166E-3,-2.1263813E-3,8.72684E-3,-1.9198757E-3,-5.184557E-4,-1.3933444E-3,2.1276227E-3,-8.0156943E-4,-9.401967E-5,-1.9841408E-3,-4.9153557E-3,-2.1179551E-3,-9.012792E-4,1.5286307E-2,-1.3928217E-3,1.318955E-2,1.294051E-2,5.2979285E-5,-1.1224955E-3,9.599479E-3,-1.2077471E-3,2.3310154E-3,-9.290354E-4,-2.367596E-3,7.7997445E-4,-2.7655687E-3,5.0413646E-3,7.3946157E-4],"categories":[],"categories_nodes":[],"categories_segments":[],"categories_sizes":[],"default_left":[0,0,0,0,0,0,0,0,0,0,0,0,0,0,0,0,0,0,0,0,0,0,0,0,0,0,0,0,0,0,0,0,0,0,0,0,0,0,0,0,0,0,0,0,0,0,0,0,0,0,0,0,0,0,0,0,0,0,0,0,0,0,0,0,0,0,0,0,0,0,0,0,0,0,0,0,0,0,0,0,0,0,0,0,0,0,0,0,0,0,0,0,0,0,0,0,0,0,0,0,0,0,0,0,0,0,0,0,0,0,0,0,0,0,0,0,0],"id":8,"left_children":[1,3,5,7,9,11,13,15,17,19,21,23,25,27,29,31,33,35,37,39,41,43,45,47,49,51,53,55,57,59,-1,61,63,65,67,69,71,73,75,77,79,81,83,85,87,89,91,93,95,97,99,101,103,105,107,109,111,113,115,-1,-1,-1,-1,-1,-1,-1,-1,-1,-1,-1,-1,-1,-1,-1,-1,-1,-1,-1,-1,-1,-1,-1,-1,-1,-1,-1,-1,-1,-1,-1,-1,-1,-1,-1,-1,-1,-1,-1,-1,-1,-1,-1,-1,-1,-1,-1,-1,-1,-1,-1,-1,-1,-1,-1,-1,-1,-1],"loss_changes":[2.3686161E1,1.069151E1,2.0970592E0,7.4846525E0,3.8646637E1,1.9685082E0,9.8906326E-1,3.609909E0,5.6797333E0,3.4633848E-1,6.3447533E0,1.6932178E0,2.9392083E0,9.8157024E-1,1.1346495E-1,3.3030453E0,3.1127393E0,3.1774378E0,5.960144E0,9.622323E-2,7.7068985E-2,2.4326744E0,6.525333E-2,2.6992922E0,1.0321298E0,2.5141466E-1,2.3882627E0,7.19656E-1,1.7933598E-1,1.06368184E-1,0E0,1.2098765E0,2.3102467E0,1.1969819E0,5.560856E-1,3.6107345E0,1.8458853E0,5.1365337E0,9.868425E0,1.2826258E-1,7.231856E-1,5.1870584E-2,6.531778E-2,2.537949E-1,1.2350845E0,3.9956845E-2,6.936965E-2,1.2948003E0,2.8207679E0,4.926879E-1,2.2956514E-1,7.3721826E-1,4.2256504E-2,1.1680899E0,3.0168605E-1,2.643467E0,1.6544638E0,8.8794924E-2,4.054774E-1,0E0,0E0,0E0,0E0,0E0,0E0,0E0,0E0,0E0,0E0,0E0,0E0,0E0,0E0,0E0,0E0,0E0,0E0,0E0,0E0,0E0,0E0,0E0,0E0,0E0,0E0,0E0,0E0,0E0,0E0,0E0,0E0,0E0,0E0,0E0,0E0,0E0,0E0,0E0,0E0,0E0,0E0,0E0,0E0,0E0,0E0,0E0,0E0,0E0,0E0,0E0,0E0,0E0,0E0,0E0,0E0,0E0,0E0],"parents":[2147483647,0,0,1,1,2,2,3,3,4,4,5,5,6,6,7,7,8,8,9,9,10,10,11,11,12,12,13,13,14,14,15,15,16,16,17,17,18,18,19,19,20,20,21,21,22,22,23,23,24,24,25,25,26,26,27,27,28,28,29,29,31,31,32,32,33,33,34,34,35,35,36,36,37,37,38,38,39,39,40,40,41,41,42,42,43,43,44,44,45,45,46,46,47,47,48,48,49,49,50,50,51,51,52,52,53,53,54,54,55,55,56,56,57,57,58,58],"right_children":[2,4,6,8,10,12,14,16,18,20,22,24,26,28,30,32,34,36,38,40,42,44,46,48,50,52,54,56,58,60,-1,62,64,66,68,70,72,74,76,78,80,82,84,86,88,90,92,94,96,98,100,102,104,106,108,110,112,114,116,-1,-1,-1,-1,-1,-1,-1,-1,-1,-1,-1,-1,-1,-1,-1,-1,-1,-1,-1,-1,-1,-1,-1,-1,-1,-1,-1,-1,-1,-1,-1,-1,-1,-1,-1,-1,-1,-1,-1,-1,-1,-1,-1,-1,-1,-1,-1,-1,-1,-1,-1,-1,-1,-1,-1,-1,-1,-1],"split_conditions":[2.083763E-2,7.3599994E-1,8.024802E-1,1.2312496E-1,7.4997497E-1,7.992799E-1,9.2300004E-1,5.983082E-3,1.8748116E-1,1.361667E-2,8.3058304E-1,7.497499E-1,1.9445002E-1,2.5500306E-1,8.356835E-1,8.499992E-2,5.151515E-1,1.4812493E-1,7.4574995E-1,4.9995E-1,4.19942E-1,7.79978E-1,7.4794984E-1,7.483499E-1,3.2597482E-2,2.4138639E-2,7.4917483E-1,4.3906665E-1,4.3E-2,2.991541E-2,-4.8249117E-3,5.3665364E-1,2.7842784E-1,4.9995E-1,1.7040001E-1,5.3245324E-1,7.8399E-3,6.655748E-1,4.8866662E-1,7.4952483E-1,5.0295025E-1,1.2477493E-1,8.5359997E-1,7.8499997E-1,1.629874E-2,8.356835E-1,7.494998E-1,5.529193E-2,7.494998E-1,5.7E-1,7.4977493E-1,2.3932327E-2,7.8499997E-1,3.321642E-2,7.6672506E-1,7.499249E-1,7.039499E-1,4E-3,5.06E-2,2.8115094E-2,-2.9603704E-3,6.278836E-3,1.6344105E-3,-4.9195997E-3,7.4434635E-4,2.3548305E-4,3.2802136E-3,-1.4258134E-3,-7.6074665E-4,-3.7022965E-4,1.9456899E-3,6.6959523E-3,2.8313464E-3,5.850887E-4,-6.5458583E-4,2.0683203E-3,-9.967491E-4,-5.7373464E-4,1.5487618E-2,1.0174534E-2,-2.5867796E-4,-1.7030124E-3,-3.1229872E-3,-1.5472778E-3,8.2203647E-4,6.1133876E-3,1.2573245E-2,1.9145593E-2,2.6897285E-2,6.999166E-3,-2.1263813E-3,8.72684E-3,-1.9198757E-3,-5.184557E-4,-1.3933444E-3,2.1276227E-3,-8.0156943E-4,-9.401967E-5,-1.9841408E-3,-4.9153557E-3,-2.1179551E-3,-9.012792E-4,1.5286307E-2,-1.3928217E-3,1.318955E-2,1.294051E-2,5.2979285E-5,-1.1224955E-3,9.599479E-3,-1.2077471E-3,2.3310154E-3,-9.290354E-4,-2.367596E-3,7.7997445E-4,-2.7655687E-3,5.0413646E-3,7.3946157E-4],"split_indices":[1,2,0,3,0,0,2,1,3,1,0,3,3,1,0,3,0,3,3,0,0,0,3,3,1,1,3,2,2,1,0,0,0,0,2,0,1,3,2,3,0,3,2,2,1,0,3,1,3,2,3,1,2,1,3,3,3,2,2,0,0,0,0,0,0,0,0,0,0,0,0,0,0,0,0,0,0,0,0,0,0,0,0,0,0,0,0,0,0,0,0,0,0,0,0,0,0,0,0,0,0,0,0,0,0,0,0,0,0,0,0,0,0,0,0,0,0],"split_type":[0,0,0,0,0,0,0,0,0,0,0,0,0,0,0,0,0,0,0,0,0,0,0,0,0,0,0,0,0,0,0,0,0,0,0,0,0,0,0,0,0,0,0,0,0,0,0,0,0,0,0,0,0,0,0,0,0,0,0,0,0,0,0,0,0,0,0,0,0,0,0,0,0,0,0,0,0,0,0,0,0,0,0,0,0,0,0,0,0,0,0,0,0,0,0,0,0,0,0,0,0,0,0,0,0,0,0,0,0,0,0,0,0,0,0,0,0],"sum_hessian":[5.99897E5,3.58123E5,2.41774E5,3.52725E5,5.398E3,1.73584E5,6.819E4,9.5931E4,2.56794E5,3.606E3,1.792E3,1.71605E5,1.979E3,6.8175E4,1.5E1,1.7191E4,7.874E4,4.4111E4,2.12683E5,1.483E3,2.123E3,1.616E3,1.76E2,1.54539E5,1.7066E4,1.133E3,8.46E2,6.6879E4,1.296E3,1.4E1,1E0,2.364E3,1.4827E4,2.1659E4,5.7081E4,3.7095E4,7.016E3,1.53215E5,5.9468E4,9.23E2,5.6E2,1.044E3,1.079E3,2.91E2,1.325E3,1.53E2,2.3E1,1.4118E5,1.3359E4,6.894E3,1.0172E4,1.53E2,9.8E2,5.43E2,3.03E2,3.4887E4,3.1992E4,2.88E2,1.008E3,1.3E1,1E0,1.447E3,9.17E2,7.58E2,1.4069E4,2.0281E4,1.378E3,1.87E4,3.8381E4,8.837E3,2.8258E4,1.602E3,5.414E3,1.03953E5,4.9262E4,4.5842E4,1.3626E4,9.19E2,4E0,7.6E1,4.84E2,4.86E2,5.58E2,9.47E2,1.32E2,9.2E1,1.99E2,1.06E3,2.65E2,4E0,1.49E2,1.2E1,1.1E1,1.21529E5,1.9651E4,7.518E3,5.841E3,4.989E3,1.905E3,3.02E2,9.87E3,1.17E2,3.6E1,9.79E2,1E0,4.6E2,8.3E1,2.75E2,2.8E1,3.2631E4,2.256E3,1.628E4,1.5712E4,1.67E2,1.21E2,3.21E2,6.87E2],"tree_param":{"num_deleted":"0","num_feature":"4","num_nodes":"117","size_leaf_vector":"1"}},{"base_weights":[2.5547931E-6,6.598431E-3,-5.023599E-3,5.855283E-3,5.363581E-2,-8.925685E-3,-2.5960498E-3,9.22167E-3,-3.8712192E-4,-4.237956E-3,1.5714759E-1,-3.6900146E-3,-1.1846729E-2,-1.4406475E-4,-1.0250194E-2,6.893154E-3,2.0681513E-2,1.7397964E-3,-1.6435964E-2,-1.5074597E-2,1.114064E-3,1.8848935E-1,-5.297922E-3,1.4095312E-3,-7.561103E-3,-1.6288843E-2,-9.4574755E-3,-1.967046E-3,5.0455887E-2,-4.453184E-3,-1.602612E-2,3.3536472E-3,1.895128E-2,4.2896245E-2,1.3905018E-2,-1.3408514E-4,2.2615686E-2,-1.737823E-2,5.5541103E-3,-1.7766795E-3,-2.1604624E-2,-3.7970767E-5,1.10943496E-1,2.6899138E-1,1.7028376E-1,-1.6692728E-2,4.318443E-2,1.0751323E-2,-2.7092015E-3,-7.6878737E-3,1.3304658E-1,-1.8604878E-2,-1.1972761E-2,-6.4448738E-3,-1.2408998E-2,3.8326986E-4,-1.0556529E-2,7.698371E-2,3.8744777E-2,-1.1855047E-2,5.1424243E-3,-7.559728E-3,-1.9410312E-2,-1.3192868E-3,7.5389486E-4,1.6358709E-3,2.1229008E-2,4.9264343E-3,-1.5370233E-3,-3.2088617E-4,2.6210116E-3,-1.3156458E-3,2.3017889E-4,8.783438E-3,1.015257E-3,-1.5932933E-3,-3.6524273E-3,-9.6021005E-4,1.410054E-3,-4.3743677E-3,1.7540477E-4,-1.0139121E-3,-3.1132922E-3,4.437667E-3,-1.1781448E-4,-9.298701E-4,2.3221888E-2,6.1732824E-3,2.9616991E-2,9.895312E-3,1.7567521E-2,1.8380322E-3,-2.0902327E-3,3.267662E-2,7.548006E-4,4.3332167E-3,-1.7159745E-4,-9.071596E-4,8.219172E-5,-1.2608222E-3,-5.6735874E-4,1.9593442E-2,-1.722088E-3,-2.911483E-3,-1.7910184E-3,-7.0706353E-4,-1.4349213E-3,-6.7295966E-4,3.6213666E-3,-1.6752122E-3,-1.0848172E-3,-1.5444928E-3,1.9652337E-4,-1.9171399E-4,-2.209966E-3,8.7387785E-3,3.8382013E-3,2.1215552E-3,4.4874395E-3,-2.5304625E-4,-2.33742E-3,2.6976315E-3,-9.311223E-5,4.0933564E-3,-1.1169511E-3,-2.0543346E-3,-3.1754194E-4],"categories":[],"categories_nodes":[],"categories_segments":[],"categories_sizes":[],"default_left":[0,0,0,0,0,0,0,0,0,0,0,0,0,0,0,0,0,0,0,0,0,0,0,0,0,0,0,0,0,0,0,0,0,0,0,0,0,0,0,0,0,0,0,0,0,0,0,0,0,0,0,0,0,0,0,0,0,0,0,0,0,0,0,0,0,0,0,0,0,0,0,0,0,0,0,0,0,0,0,0,0,0,0,0,0,0,0,0,0,0,0,0,0,0,0,0,0,0,0,0,0,0,0,0,0,0,0,0,0,0,0,0,0,0,0,0,0,0,0,0,0,0,0,0,0,0,0],"id":9,"left_children":[1,3,5,7,9,11,13,15,17,19,21,23,25,27,29,31,33,35,37,39,41,43,45,47,49,51,53,55,57,59,61,63,65,67,69,71,73,75,77,79,81,83,85,87,89,91,93,95,97,99,101,103,105,107,109,111,113,115,117,119,121,123,125,-1,-1,-1,-1,-1,-1,-1,-1,-1,-1,-1,-1,-1,-1,-1,-1,-1,-1,-1,-1,-1,-1,-1,-1,-1,-1,-1,-1,-1,-1,-1,-1,-1,-1,-1,-1,-1,-1,-1,-1,-1,-1,-1,-1,-1,-1,-1,-1,-1,-1,-1,-1,-1,-1,-1,-1,-1,-1,-1,-1,-1,-1,-1,-1],"loss_changes":[1.9887787E1,9.068507E0,3.2250051E0,5.367132E0,2.4172804E1,1.9969063E0,3.939163E0,4.4274464E0,3.0543907E0,1.501734E-1,7.368145E0,9.2312956E-1,8.893814E-1,1.466356E1,1.7050223E0,5.885697E0,4.2174797E0,3.0907907E0,2.170608E-1,7.429303E-2,2.1940261E-1,1.7319527E0,1.3054591E-1,7.764817E-1,4.7486222E-1,2.9278612E-1,4.8453856E-1,3.0976303E0,1.7144032E0,1.8053131E0,7.3070574E-1,7.383209E0,1.5682481E1,2.4307413E0,4.5218277E0,2.299888E0,5.288994E0,2.7726984E-1,5.5963468E-2,4.2009972E-2,6.2391967E-2,8.700188E-2,2.6464283E-1,1.2322388E0,3.6411476E-1,2.858409E-2,4.5229635E-1,2.508329E0,3.1467143E-1,2.6316452E-1,2.301741E-1,1.387415E-1,1.1917961E-1,3.2786608E-1,1.8643332E-1,3.0166798E0,3.2874122E0,6.76178E-1,4.1132355E-1,1.5411859E0,1.4678758E0,1.2758737E0,3.3514118E-1,0E0,0E0,0E0,0E0,0E0,0E0,0E0,0E0,0E0,0E0,0E0,0E0,0E0,0E0,0E0,0E0,0E0,0E0,0E0,0E0,0E0,0E0,0E0,0E0,0E0,0E0,0E0,0E0,0E0,0E0,0E0,0E0,0E0,0E0,0E0,0E0,0E0,0E0,0E0,0E0,0E0,0E0,0E0,0E0,0E0,0E0,0E0,0E0,0E0,0E0,0E0,0E0,0E0,0E0,0E0,0E0,0E0,0E0,0E0,0E0,0E0,0E0,0E0,0E0],"parents":[2147483647,0,0,1,1,2,2,3,3,4,4,5,5,6,6,7,7,8,8,9,9,10,10,11,11,12,12,13,13,14,14,15,15,16,16,17,17,18,18,19,19,20,20,21,21,22,22,23,23,24,24,25,25,26,26,27,27,28,28,29,29,30,30,31,31,32,32,33,33,34,34,35,35,36,36,37,37,38,38,39,39,40,40,41,41,42,42,43,43,44,44,45,45,46,46,47,47,48,48,49,49,50,50,51,51,52,52,53,53,54,54,55,55,56,56,57,57,58,58,59,59,60,60,61,61,62,62],"right_children":[2,4,6,8,10,12,14,16,18,20,22,24,26,28,30,32,34,36,38,40,42,44,46,48,50,52,54,56,58,60,62,64,66,68,70,72,74,76,78,80,82,84,86,88,90,92,94,96,98,100,102,104,106,108,110,112,114,116,118,120,122,124,126,-1,-1,-1,-1,-1,-1,-1,-1,-1,-1,-1,-1,-1,-1,-1,-1,-1,-1,-1,-1,-1,-1,-1,-1,-1,-1,-1,-1,-1,-1,-1,-1,-1,-1,-1,-1,-1,-1,-1,-1,-1,-1,-1,-1,-1,-1,-1,-1,-1,-1,-1,-1,-1,-1,-1,-1,-1,-1,-1,-1,-1,-1,-1,-1],"split_conditions":[1.4441921E-2,6.974E-1,1.1717498E-1,8.124812E-1,7.69977E-1,8.55999E-2,7.494998E-1,7.4574995E-1,4.994E-1,7.3599994E-1,8.243824E-1,5.151515E-1,2.49E-1,7.4944997E-1,4.87E-1,7.6037604E-1,7.4600005E-1,7.4944997E-1,7.601249E-1,8.252527E-3,7.5997597E-1,7.3599994E-1,6.112249E-1,7.562494E-2,8.5359997E-1,1.0749996E-1,2.9296469E-2,7.0974994E-1,2.475758E-2,7.499249E-1,6.59966E-1,2.6820714E-3,6.39E-1,8.45884E-3,4.8054805E-1,1.1057496E-1,7.494998E-1,7.499001E-1,8.749875E-1,2.269445E-3,5.0295025E-1,7.969999E-2,1.1553537E-2,7.79978E-1,7.79978E-1,8.3778375E-1,7.039499E-1,3.9119998E-1,2.4062406E-1,7.184994E-2,2.3726013E-2,8.667493E-2,2.0631315E-2,9.2300004E-1,4.854E-1,1.9491948E-1,4.3279997E-1,8.9698964E-1,1.1657142E-2,7.5997597E-1,7.4994993E-1,1.6711365E-2,6.065607E-2,-1.3192868E-3,7.5389486E-4,1.6358709E-3,2.1229008E-2,4.9264343E-3,-1.5370233E-3,-3.2088617E-4,2.6210116E-3,-1.3156458E-3,2.3017889E-4,8.783438E-3,1.015257E-3,-1.5932933E-3,-3.6524273E-3,-9.6021005E-4,1.410054E-3,-4.3743677E-3,1.7540477E-4,-1.0139121E-3,-3.1132922E-3,4.437667E-3,-1.1781448E-4,-9.298701E-4,2.3221888E-2,6.1732824E-3,2.9616991E-2,9.895312E-3,1.7567521E-2,1.8380322E-3,-2.0902327E-3,3.267662E-2,7.548006E-4,4.3332167E-3,-1.7159745E-4,-9.071596E-4,8.219172E-5,-1.2608222E-3,-5.6735874E-4,1.9593442E-2,-1.722088E-3,-2.911483E-3,-1.7910184E-3,-7.0706353E-4,-1.4349213E-3,-6.7295966E-4,3.6213666E-3,-1.6752122E-3,-1.0848172E-3,-1.5444928E-3,1.9652337E-4,-1.9171399E-4,-2.209966E-3,8.7387785E-3,3.8382013E-3,2.1215552E-3,4.4874395E-3,-2.5304625E-4,-2.33742E-3,2.6976315E-3,-9.311223E-5,4.0933564E-3,-1.1169511E-3,-2.0543346E-3,-3.1754194E-4],"split_indices":[1,2,3,0,0,3,3,3,2,2,0,0,2,3,2,0,3,3,3,1,0,2,3,3,2,3,1,3,1,3,0,1,2,1,0,3,3,3,0,1,0,3,1,0,0,0,3,2,0,3,1,3,1,2,2,0,2,0,2,0,3,1,1,0,0,0,0,0,0,0,0,0,0,0,0,0,0,0,0,0,0,0,0,0,0,0,0,0,0,0,0,0,0,0,0,0,0,0,0,0,0,0,0,0,0,0,0,0,0,0,0,0,0,0,0,0,0,0,0,0,0,0,0,0,0,0,0],"split_type":[0,0,0,0,0,0,0,0,0,0,0,0,0,0,0,0,0,0,0,0,0,0,0,0,0,0,0,0,0,0,0,0,0,0,0,0,0,0,0,0,0,0,0,0,0,0,0,0,0,0,0,0,0,0,0,0,0,0,0,0,0,0,0,0,0,0,0,0,0,0,0,0,0,0,0,0,0,0,0,0,0,0,0,0,0,0,0,0,0,0,0,0,0,0,0,0,0,0,0,0,0,0,0,0,0,0,0,0,0,0,0,0,0,0,0,0,0,0,0,0,0,0,0,0,0,0,0],"sum_hessian":[5.99897E5,2.59436E5,3.40461E5,2.55402E5,4.034E3,1.30573E5,2.09888E5,1.65923E5,8.9479E4,2.588E3,1.446E3,4.6761E4,8.3812E4,1.58965E5,5.0923E4,1.37904E5,2.8019E4,7.9009E4,1.047E4,8.55E2,1.733E3,1.212E3,2.34E2,2.0179E4,2.6582E4,2.9311E4,5.4501E4,1.53438E5,5.527E3,2.5416E4,2.5507E4,1.06611E5,3.1293E4,6.548E3,2.1471E4,7.2502E4,6.507E3,1.004E4,4.3E2,2.82E2,5.73E2,1.716E3,1.7E1,2.21E2,9.91E2,1.9E2,4.4E1,6.174E3,1.4005E4,2.6559E4,2.3E1,1.9073E4,1.0238E4,2.6973E4,2.7528E4,1.20474E5,3.2964E4,1.691E3,3.836E3,1.4348E4,1.1068E4,7.285E3,1.8222E4,2.1522E4,8.5089E4,3.088E4,4.13E2,5.903E3,6.45E2,8.981E3,1.249E4,1.1424E4,6.1078E4,1.043E3,5.464E3,9.337E3,7.03E2,1.55E2,2.75E2,2.1E1,2.61E2,2.61E2,3.12E2,4.2E1,1.674E3,9E0,8E0,2.6E1,1.95E2,7.1E1,9.2E2,2E1,1.7E2,4E0,4E1,1.708E3,4.466E3,4.998E3,9.007E3,7.713E3,1.8846E4,1.6E1,7E0,1.18E3,1.7893E4,3.344E3,6.894E3,2.6795E4,1.78E2,7.275E3,2.0253E4,1.0946E4,1.09528E5,1.8854E4,1.411E4,1.331E3,3.6E2,9.95E2,2.841E3,7.93E3,6.418E3,2.408E3,8.66E3,5.04E2,6.781E3,1.7033E4,1.189E3],"tree_param":{"num_deleted":"0","num_feature":"4","num_nodes":"127","size_leaf_vector":"1"}},{"base_weights":[2.591622E-6,4.2732395E-3,-6.323213E-3,3.706494E-3,4.129891E-2,-2.8483022E-3,-8.154283E-3,-2.677692E-3,6.091447E-3,-9.154288E-3,1.427732E-1,2.3922217E-3,-4.6484843E-3,-8.281315E-3,8.318368E-2,8.992592E-3,-5.225702E-3,1.5438932E-2,4.1526915E-3,2.5977911E-3,-1.5619805E-2,1.5912923E-1,-1.1307258E-2,4.4408734E-3,-1.2660213E-2,-1.2600933E-2,-3.6386864E-3,-1.129581E-2,-6.264745E-3,-4.873843E-3,1.7454772E-1,3.6959734E-2,3.5257149E-3,3.69812E-3,-8.611792E-3,1.2109489E-2,3.303813E-2,7.5384737E-3,-2.282716E-3,-2.3557633E-4,2.5691418E-2,-9.705408E-3,-2.0886788E-2,9.1953486E-2,1.7375794E-1,-1.8234925E-2,3.2461796E-2,-8.180343E-3,7.069094E-3,-2.8278507E-2,-1.1500414E-2,-1.0235919E-2,-2.2245917E-2,1.2463241E-2,-4.3673166E-3,-1.3998293E-2,-9.328084E-3,-3.0588014E-3,-1.3104137E-2,-1.5722483E-2,4.071474E-2,2.2476377E-1,1.5575025E-2,5.42776E-3,1.4100518E-3,-4.730648E-3,6.200248E-4,1.9621929E-4,2.9227037E-3,2.1696182E-3,-8.9200394E-4,-3.0371422E-4,1.7295135E-3,5.725775E-3,2.429162E-3,3.7725712E-4,1.7784311E-3,8.9494395E-5,-1.5815469E-3,5.0736135E-3,-1.8454809E-4,1.7093736E-3,1.0184959E-2,-1.5660357E-3,-2.9584285E-4,-4.2669186E-3,-1.9212002E-3,1.1100875E-2,4.8644515E-3,1.5579037E-2,2.390924E-2,1.4643833E-3,-2.1996594E-3,7.5585134E-3,-1.6960305E-3,-1.614524E-3,1.020667E-3,3.4946413E-3,5.538058E-4,-4.387578E-3,-2.5997602E-3,-8.8084297E-4,-1.79918E-3,-1.1958771E-3,2.3299796E-3,-2.4453427E-3,-6.7413197E-4,2.2409642E-3,-9.604538E-4,-8.1131683E-4,-1.5664742E-4,-8.278927E-4,-1.6488407E-3,1.7197119E-4,-9.89498E-4,-5.005047E-4,3.3543743E-3,-1.4412735E-3,2.1119115E-3,-3.1593957E-3,-1.14968454E-4,4.8489305E-3,-2.468724E-3,2.3922028E-2,-4.571055E-3,-2.4337173E-3,4.4535734E-3],"categories":[],"categories_nodes":[],"categories_segments":[],"categories_sizes":[],"default_left":[0,0,0,0,0,0,0,0,0,0,0,0,0,0,0,0,0,0,0,0,0,0,0,0,0,0,0,0,0,0,0,0,0,0,0,0,0,0,0,0,0,0,0,0,0,0,0,0,0,0,0,0,0,0,0,0,0,0,0,0,0,0,0,0,0,0,0,0,0,0,0,0,0,0,0,0,0,0,0,0,0,0,0,0,0,0,0,0,0,0,0,0,0,0,0,0,0,0,0,0,0,0,0,0,0,0,0,0,0,0,0,0,0,0,0,0,0,0,0,0,0,0,0,0,0,0,0],"id":10,"left_children":[1,3,5,7,9,11,13,15,17,19,21,23,25,27,29,31,33,35,37,39,41,43,45,47,49,51,53,55,57,59,61,63,65,67,69,71,73,75,77,79,81,83,85,87,89,91,93,95,97,99,101,103,105,107,109,111,113,115,117,119,121,123,125,-1,-1,-1,-1,-1,-1,-1,-1,-1,-1,-1,-1,-1,-1,-1,-1,-1,-1,-1,-1,-1,-1,-1,-1,-1,-1,-1,-1,-1,-1,-1,-1,-1,-1,-1,-1,-1,-1,-1,-1,-1,-1,-1,-1,-1,-1,-1,-1,-1,-1,-1,-1,-1,-1,-1,-1,-1,-1,-1,-1,-1,-1,-1,-1],"loss_changes":[1.6206444E1,7.5147676E0,1.5383434E0,5.370617E0,2.7642574E1,7.871471E-1,1.837863E0,2.852681E0,4.653701E0,2.7411225E-1,4.520424E0,6.57937E-1,4.986719E-1,9.611311E-1,1.7708149E0,2.6284049E0,2.3793378E0,2.5843658E0,4.634166E0,8.382538E-2,7.228577E-2,1.5769691E0,5.3048555E-2,6.229825E-1,4.5974404E-2,1.5937746E-1,6.466006E-1,3.3689308E-1,2.0773838E0,5.6527022E-2,8.5866094E-1,1.1120324E0,1.9555606E0,9.598346E-1,5.3347445E-1,2.9137607E0,1.4850707E0,5.377229E0,3.1530428E0,9.380567E-2,8.992873E-2,4.406903E-2,4.4051647E-2,2.3557687E-1,1.5240402E0,1.887396E-2,5.243185E-2,4.7422564E-1,6.632001E-1,5.1206946E-3,4.14488E-2,3.2504344E-1,4.6965122E-2,5.239302E-1,5.531329E-1,3.8013506E-1,2.2972298E-1,4.595559E0,1.3544521E0,2.1242516E-2,1.2383442E-2,3.315649E-1,3.2292783E-2,0E0,0E0,0E0,0E0,0E0,0E0,0E0,0E0,0E0,0E0,0E0,0E0,0E0,0E0,0E0,0E0,0E0,0E0,0E0,0E0,0E0,0E0,0E0,0E0,0E0,0E0,0E0,0E0,0E0,0E0,0E0,0E0,0E0,0E0,0E0,0E0,0E0,0E0,0E0,0E0,0E0,0E0,0E0,0E0,0E0,0E0,0E0,0E0,0E0,0E0,0E0,0E0,0E0,0E0,0E0,0E0,0E0,0E0,0E0,0E0,0E0,0E0,0E0,0E0],"parents":[2147483647,0,0,1,1,2,2,3,3,4,4,5,5,6,6,7,7,8,8,9,9,10,10,11,11,12,12,13,13,14,14,15,15,16,16,17,17,18,18,19,19,20,20,21,21,22,22,23,23,24,24,25,25,26,26,27,27,28,28,29,29,30,30,31,31,32,32,33,33,34,34,35,35,36,36,37,37,38,38,39,39,40,40,41,41,42,42,43,43,44,44,45,45,46,46,47,47,48,48,49,49,50,50,51,51,52,52,53,53,54,54,55,55,56,56,57,57,58,58,59,59,60,60,61,61,62,62],"right_children":[2,4,6,8,10,12,14,16,18,20,22,24,26,28,30,32,34,36,38,40,42,44,46,48,50,52,54,56,58,60,62,64,66,68,70,72,74,76,78,80,82,84,86,88,90,92,94,96,98,100,102,104,106,108,110,112,114,116,118,120,122,124,126,-1,-1,-1,-1,-1,-1,-1,-1,-1,-1,-1,-1,-1,-1,-1,-1,-1,-1,-1,-1,-1,-1,-1,-1,-1,-1,-1,-1,-1,-1,-1,-1,-1,-1,-1,-1,-1,-1,-1,-1,-1,-1,-1,-1,-1,-1,-1,-1,-1,-1,-1,-1,-1,-1,-1,-1,-1,-1,-1,-1,-1,-1,-1,-1],"split_conditions":[2.083763E-2,7.3599994E-1,5.9275925E-1,1.2312496E-1,7.4997497E-1,2.5582831E-2,8.5359997E-1,5.983082E-3,1.8748116E-1,1.25851035E-2,8.356835E-1,6.306E-1,1.7191719E-1,1.1764991E-1,7.391739E-1,8.987498E-2,5.151515E-1,1.4812493E-1,8.0878085E-1,7.22075E-1,1.691768E-2,7.79978E-1,7.4794984E-1,2.2202219E-1,7.649994E-2,1.4625001E-1,1.8141814E-1,3.6900002E-1,7.494998E-1,6.2306575E-2,2.991541E-2,5.3665364E-1,2.7842784E-1,4.9995E-1,4.6049953E-2,5.5575556E-1,8.665154E-3,7.4574995E-1,4.854E-1,7.969999E-2,1.2172477E-2,4.3784377E-1,1.2561256E-1,4.7597504E-1,1.5886113E-2,6.189395E-3,7.494998E-1,5.6E-1,7.562494E-2,1.4171417E-1,2.97575E-1,1.4499998E-1,5.271249E-1,6.687498E-2,1.1589992E-1,8.112502E-2,4.6049953E-2,7.4944997E-1,7.67485E-2,6.4586455E-1,7.494998E-1,8.356835E-1,4.043738E-2,5.42776E-3,1.4100518E-3,-4.730648E-3,6.200248E-4,1.9621929E-4,2.9227037E-3,2.1696182E-3,-8.9200394E-4,-3.0371422E-4,1.7295135E-3,5.725775E-3,2.429162E-3,3.7725712E-4,1.7784311E-3,8.9494395E-5,-1.5815469E-3,5.0736135E-3,-1.8454809E-4,1.7093736E-3,1.0184959E-2,-1.5660357E-3,-2.9584285E-4,-4.2669186E-3,-1.9212002E-3,1.1100875E-2,4.8644515E-3,1.5579037E-2,2.390924E-2,1.4643833E-3,-2.1996594E-3,7.5585134E-3,-1.6960305E-3,-1.614524E-3,1.020667E-3,3.4946413E-3,5.538058E-4,-4.387578E-3,-2.5997602E-3,-8.8084297E-4,-1.79918E-3,-1.1958771E-3,2.3299796E-3,-2.4453427E-3,-6.7413197E-4,2.2409642E-3,-9.604538E-4,-8.1131683E-4,-1.5664742E-4,-8.278927E-4,-1.6488407E-3,1.7197119E-4,-9.89498E-4,-5.005047E-4,3.3543743E-3,-1.4412735E-3,2.1119115E-3,-3.1593957E-3,-1.14968454E-4,4.8489305E-3,-2.468724E-3,2.3922028E-2,-4.571055E-3,-2.4337173E-3,4.4535734E-3],"split_indices":[1,2,0,3,0,1,2,1,3,1,0,2,0,3,0,3,0,3,0,3,1,0,3,0,3,3,0,2,3,1,1,0,0,0,3,0,1,3,2,3,1,0,0,3,1,1,3,2,3,0,3,3,3,3,3,3,3,3,1,0,3,0,1,0,0,0,0,0,0,0,0,0,0,0,0,0,0,0,0,0,0,0,0,0,0,0,0,0,0,0,0,0,0,0,0,0,0,0,0,0,0,0,0,0,0,0,0,0,0,0,0,0,0,0,0,0,0,0,0,0,0,0,0,0,0,0,0],"split_type":[0,0,0,0,0,0,0,0,0,0,0,0,0,0,0,0,0,0,0,0,0,0,0,0,0,0,0,0,0,0,0,0,0,0,0,0,0,0,0,0,0,0,0,0,0,0,0,0,0,0,0,0,0,0,0,0,0,0,0,0,0,0,0,0,0,0,0,0,0,0,0,0,0,0,0,0,0,0,0,0,0,0,0,0,0,0,0,0,0,0,0,0,0,0,0,0,0,0,0,0,0,0,0,0,0,0,0,0,0,0,0,0,0,0,0,0,0,0,0,0,0,0,0,0,0,0,0],"sum_hessian":[5.99897E5,3.58123E5,2.41774E5,3.52725E5,5.398E3,8.3436E4,1.58338E5,9.5931E4,2.56794E5,3.606E3,1.792E3,2.1333E4,6.2103E4,1.58119E5,2.19E2,1.7191E4,7.874E4,4.4111E4,2.12683E5,1.28E3,2.326E3,1.62E3,1.72E2,1.8778E4,2.555E3,6.996E3,5.5107E4,6.3376E4,9.4743E4,1.12E2,1.07E2,2.81E3,1.4381E4,2.1659E4,5.7081E4,3.7095E4,7.016E3,1.39362E5,7.3321E4,1.141E3,1.39E2,1.097E3,1.229E3,2.91E2,1.329E3,1.49E2,2.3E1,3.236E3,1.5542E4,1.75E2,2.38E3,5.62E3,1.376E3,2.385E3,5.2722E4,2.67E4,3.6676E4,6.4507E4,3.0236E4,9.1E1,2.1E1,8.1E1,2.6E1,1.598E3,1.212E3,7.18E2,1.3663E4,2.0281E4,1.378E3,5.74E2,5.6507E4,9.461E3,2.7634E4,1.86E3,5.156E3,1.01907E5,3.7455E4,5.9379E4,1.3942E4,3.4E1,1.107E3,1.26E2,1.3E1,5.82E2,5.15E2,8.6E1,1.143E3,2.01E2,9E1,1.045E3,2.84E2,1.5E1,1.34E2,1.2E1,1.1E1,2.258E3,9.78E2,8.08E2,1.4734E4,2E1,1.55E2,1.684E3,6.96E2,5.346E3,2.74E2,1.204E3,1.72E2,1.644E3,7.41E2,2.2555E4,3.0167E4,8.1E3,1.86E4,1.79E3,3.4886E4,6.1251E4,3.256E3,2.9123E4,1.113E3,4.3E1,4.8E1,1.9E1,2E0,7.7E1,4E0,1.1E1,1.5E1],"tree_param":{"num_deleted":"0","num_feature":"4","num_nodes":"127","size_leaf_vector":"1"}},{"base_weights":[2.4981173E-6,5.4395073E-3,-4.140582E-3,4.822342E-3,4.4502784E-2,-1.4294831E-3,-6.646523E-3,7.702139E-3,-3.458792E-4,-3.9854366E-3,1.3122807E-1,-1.7718211E-3,4.64513E-2,-5.7688747E-3,-1.1134372E-2,6.6414597E-3,4.352054E-2,-1.1454123E-2,1.6603563E-3,-1.3840455E-2,8.818536E-4,1.5733933E-1,-4.1088797E-3,1.378065E-4,-5.7880376E-3,-1.6378872E-2,1.6201285E-1,-6.7383484E-3,3.237731E-2,-1.23748835E-2,1.405008E-2,2.0092282E-2,4.5689885E-3,3.229678E-2,2.3501775E-1,-6.858332E-3,-1.4668555E-2,3.371633E-3,-1.2330039E-2,-2.0013417E-3,-1.9653397E-2,-6.651165E-5,9.129637E-2,2.4224997E-1,1.3817856E-1,-1.4690783E-2,3.635897E-2,-1.21666975E-2,1.4635096E-3,-7.3629693E-4,-1.3836138E-2,-2.1071898E-2,3.9627464E-3,1.0593577E-1,1.8438797E-1,-6.4840345E-3,-3.5770603E-2,5.0304063E-2,2.641817E-2,-1.0021538E-2,-1.7356258E-2,-9.665603E-3,2.826296E-2,-1.4812947E-3,2.3549118E-3,-7.6425675E-4,7.4432255E-4,3.7925024E-6,5.8603175E-3,2.699761E-2,5.150844E-3,2.7067123E-3,-9.0263877E-4,-1.7398356E-4,-1.604379E-3,1.5684639E-4,2.0268213E-3,5.683312E-3,-1.426659E-3,-7.4916537E-4,2.437059E-3,-9.497393E-4,-2.8091797E-3,-4.4967554E-5,1.0927401E-2,-1.7828962E-3,2.0240268E-2,5.5740084E-3,2.6670668E-2,8.015411E-3,1.4256464E-2,1.2943507E-3,-1.8077785E-3,1.7114617E-2,5.884736E-4,-1.7171195E-3,-8.192537E-5,-2.6806907E-4,5.3858606E-4,-1.0511366E-3,5.3592137E-4,-6.9845887E-4,-2.05213E-3,7.1004517E-3,-2.1794445E-3,1.9192639E-3,-1.9085208E-3,1.81406E-2,8.072069E-3,1.9066166E-2,-3.3372536E-3,-6.7862513E-4,3.6242907E-3,-2.8374423E-3,-4.196124E-3,2.5423262E-3,6.43866E-3,8.8624033E-4,3.2920751E-3,-1.421464E-3,-6.01512E-4,-1.8194824E-3,-2.3359158E-4,-2.0813425E-3,4.547475E-4,-2.4467332E-3,4.821535E-3],"categories":[],"categories_nodes":[],"categories_segments":[],"categories_sizes":[],"default_left":[0,0,0,0,0,0,0,0,0,0,0,0,0,0,0,0,0,0,0,0,0,0,0,0,0,0,0,0,0,0,0,0,0,0,0,0,0,0,0,0,0,0,0,0,0,0,0,0,0,0,0,0,0,0,0,0,0,0,0,0,0,0,0,0,0,0,0,0,0,0,0,0,0,0,0,0,0,0,0,0,0,0,0,0,0,0,0,0,0,0,0,0,0,0,0,0,0,0,0,0,0,0,0,0,0,0,0,0,0,0,0,0,0,0,0,0,0,0,0,0,0,0,0,0,0,0,0],"id":11,"left_children":[1,3,5,7,9,11,13,15,17,19,21,23,25,27,29,31,33,35,37,39,41,43,45,47,49,51,53,55,57,59,61,63,65,67,69,71,73,75,77,79,81,83,85,87,89,91,93,95,97,99,101,103,105,107,109,111,113,115,117,119,121,123,125,-1,-1,-1,-1,-1,-1,-1,-1,-1,-1,-1,-1,-1,-1,-1,-1,-1,-1,-1,-1,-1,-1,-1,-1,-1,-1,-1,-1,-1,-1,-1,-1,-1,-1,-1,-1,-1,-1,-1,-1,-1,-1,-1,-1,-1,-1,-1,-1,-1,-1,-1,-1,-1,-1,-1,-1,-1,-1,-1,-1,-1,-1,-1,-1],"loss_changes":[1.3513304E1,6.254418E0,2.3130403E0,3.8012738E0,1.6968323E1,2.6807013E0,6.967988E-1,6.2308693E0,2.036736E0,1.24199376E-1,5.1140823E0,1.2453551E0,8.432386E0,5.473032E0,9.042742E-1,4.4405417E0,1.0130744E1,2.0643866E-1,1.8533721E0,5.8870643E-2,1.486896E-1,1.9400215E0,1.0116747E-1,1.7951992E0,2.1274447E0,7.196768E-2,4.936514E-1,1.0653262E0,3.9051604E-1,3.231554E-1,4.583488E-1,2.5664597E0,4.844794E0,3.782271E0,1.6604576E0,4.236112E-1,1.462307E-1,2.1014562E0,1.1308448E0,4.1158184E-2,4.892525E-2,7.198344E-2,2.2184989E-1,9.9776936E-1,2.4103928E-1,1.77367E-2,2.0026213E-1,6.0784745E-1,1.6149331E0,1.9156235E0,9.2412925E-1,4.2263716E-2,5.0210826E-2,2.1181238E-1,4.0391636E-1,1.8476529E0,5.6180716E-2,3.1861496E-1,3.1421304E-1,3.1463325E-1,1.1140299E-1,8.090152E-2,8.954607E-1,0E0,0E0,0E0,0E0,0E0,0E0,0E0,0E0,0E0,0E0,0E0,0E0,0E0,0E0,0E0,0E0,0E0,0E0,0E0,0E0,0E0,0E0,0E0,0E0,0E0,0E0,0E0,0E0,0E0,0E0,0E0,0E0,0E0,0E0,0E0,0E0,0E0,0E0,0E0,0E0,0E0,0E0,0E0,0E0,0E0,0E0,0E0,0E0,0E0,0E0,0E0,0E0,0E0,0E0,0E0,0E0,0E0,0E0,0E0,0E0,0E0,0E0,0E0,0E0],"parents":[2147483647,0,0,1,1,2,2,3,3,4,4,5,5,6,6,7,7,8,8,9,9,10,10,11,11,12,12,13,13,14,14,15,15,16,16,17,17,18,18,19,19,20,20,21,21,22,22,23,23,24,24,25,25,26,26,27,27,28,28,29,29,30,30,31,31,32,32,33,33,34,34,35,35,36,36,37,37,38,38,39,39,40,40,41,41,42,42,43,43,44,44,45,45,46,46,47,47,48,48,49,49,50,50,51,51,52,52,53,53,54,54,55,55,56,56,57,57,58,58,59,59,60,60,61,61,62,62],"right_children":[2,4,6,8,10,12,14,16,18,20,22,24,26,28,30,32,34,36,38,40,42,44,46,48,50,52,54,56,58,60,62,64,66,68,70,72,74,76,78,80,82,84,86,88,90,92,94,96,98,100,102,104,106,108,110,112,114,116,118,120,122,124,126,-1,-1,-1,-1,-1,-1,-1,-1,-1,-1,-1,-1,-1,-1,-1,-1,-1,-1,-1,-1,-1,-1,-1,-1,-1,-1,-1,-1,-1,-1,-1,-1,-1,-1,-1,-1,-1,-1,-1,-1,-1,-1,-1,-1,-1,-1,-1,-1,-1,-1,-1,-1,-1,-1,-1,-1,-1,-1,-1,-1,-1,-1,-1,-1],"split_conditions":[1.4441921E-2,6.974E-1,2.6201772E-2,8.0878085E-1,7.69977E-1,8.5359997E-1,7.494998E-1,7.9998E-1,1.1057496E-1,7.3599994E-1,8.243824E-1,8.066806E-1,7.4157417E-1,7.4944997E-1,7.67485E-2,6.189395E-4,5.986E-1,8.9698964E-1,4.994E-1,8.252527E-3,7.5997597E-1,7.3599994E-1,5.698874E-1,1.9491948E-1,4.3906665E-1,4.6994698E-1,7.791779E-1,7.493248E-1,5.8055806E-1,5.647E-1,8.49985E-1,5.586748E-1,2.6820714E-3,2.6479998E-1,1.2791417E-2,3.507324E-3,7.969999E-2,7.4944997E-1,8.124812E-1,5.271249E-1,5.0295025E-1,7.497499E-1,1.1553537E-2,7.79978E-1,7.79978E-1,8.3778375E-1,7.039499E-1,5.0759995E-1,1.3874996E-1,1.2109995E-1,7.205374E-1,1.4545078E-2,2.0631315E-2,7.5247526E-1,8.356835E-1,7.4907494E-1,3.7342682E-2,4.4769958E-2,1.1657142E-2,7.499249E-1,9.7549754E-1,9.284093E-2,7.499001E-1,-1.4812947E-3,2.3549118E-3,-7.6425675E-4,7.4432255E-4,3.7925024E-6,5.8603175E-3,2.699761E-2,5.150844E-3,2.7067123E-3,-9.0263877E-4,-1.7398356E-4,-1.604379E-3,1.5684639E-4,2.0268213E-3,5.683312E-3,-1.426659E-3,-7.4916537E-4,2.437059E-3,-9.497393E-4,-2.8091797E-3,-4.4967554E-5,1.0927401E-2,-1.7828962E-3,2.0240268E-2,5.5740084E-3,2.6670668E-2,8.015411E-3,1.4256464E-2,1.2943507E-3,-1.8077785E-3,1.7114617E-2,5.884736E-4,-1.7171195E-3,-8.192537E-5,-2.6806907E-4,5.3858606E-4,-1.0511366E-3,5.3592137E-4,-6.9845887E-4,-2.05213E-3,7.1004517E-3,-2.1794445E-3,1.9192639E-3,-1.9085208E-3,1.81406E-2,8.072069E-3,1.9066166E-2,-3.3372536E-3,-6.7862513E-4,3.6242907E-3,-2.8374423E-3,-4.196124E-3,2.5423262E-3,6.43866E-3,8.8624033E-4,3.2920751E-3,-1.421464E-3,-6.01512E-4,-1.8194824E-3,-2.3359158E-4,-2.0813425E-3,4.547475E-4,-2.4467332E-3,4.821535E-3],"split_indices":[1,2,1,0,0,2,3,0,3,2,0,0,0,3,1,1,2,0,2,1,0,2,3,0,2,0,0,3,0,2,0,3,1,2,1,1,3,3,0,3,0,3,1,0,0,0,3,2,3,3,3,1,1,0,0,3,1,1,2,3,0,1,3,0,0,0,0,0,0,0,0,0,0,0,0,0,0,0,0,0,0,0,0,0,0,0,0,0,0,0,0,0,0,0,0,0,0,0,0,0,0,0,0,0,0,0,0,0,0,0,0,0,0,0,0,0,0,0,0,0,0,0,0,0,0,0,0],"split_type":[0,0,0,0,0,0,0,0,0,0,0,0,0,0,0,0,0,0,0,0,0,0,0,0,0,0,0,0,0,0,0,0,0,0,0,0,0,0,0,0,0,0,0,0,0,0,0,0,0,0,0,0,0,0,0,0,0,0,0,0,0,0,0,0,0,0,0,0,0,0,0,0,0,0,0,0,0,0,0,0,0,0,0,0,0,0,0,0,0,0,0,0,0,0,0,0,0,0,0,0,0,0,0,0,0,0,0,0,0,0,0,0,0,0,0,0,0,0,0,0,0,0,0,0,0,0,0],"sum_hessian":[5.99897E5,2.59436E5,3.40461E5,2.55402E5,4.034E3,1.63537E5,1.76924E5,1.64012E5,9.139E4,2.588E3,1.446E3,1.62377E5,1.16E3,1.47986E5,2.8938E4,1.59296E5,4.716E3,1.398E4,7.741E4,8.55E2,1.733E3,1.212E3,2.34E2,1.10051E5,5.2326E4,7.52E2,4.08E2,1.44319E5,3.667E3,2.758E4,1.358E3,2.1266E4,1.3803E5,4.456E3,2.6E2,5.755E3,8.225E3,6.8974E4,8.436E3,2.82E2,5.73E2,1.716E3,1.7E1,2.21E2,9.91E2,1.86E2,4.8E1,1.0703E4,9.9348E4,3.2148E4,2.0178E4,6.11E2,1.41E2,1.18E2,2.9E2,1.43067E5,1.252E3,9.13E2,2.754E3,1.8733E4,8.847E3,5.09E2,8.49E2,1.916E3,1.935E4,2.6298E4,1.11732E5,2.002E3,2.454E3,2.18E2,4.2E1,3.45E2,5.41E3,7.91E2,7.434E3,6.2324E4,6.65E3,2.29E2,8.207E3,2.34E2,4.8E1,2.61E2,3.12E2,1.711E3,5E0,9E0,8E0,2.6E1,1.95E2,7.1E1,9.2E2,2E1,1.66E2,8E0,4E1,7.427E3,3.276E3,4.8308E4,5.104E4,1.2347E4,1.9801E4,9.966E3,1.0212E4,4E0,6.07E2,8.5E1,5.6E1,2.8E1,9E1,2.82E2,8E0,1.42063E5,1.004E3,5.73E2,6.79E2,3.31E2,5.82E2,7.45E2,2.009E3,9.152E3,9.581E3,8.379E3,4.68E2,2.85E2,2.24E2,2.33E2,6.16E2],"tree_param":{"num_deleted":"0","num_feature":"4","num_nodes":"127","size_leaf_vector":"1"}},{"base_weights":[2.569158E-6,4.8961127E-3,-3.7263825E-3,4.289582E-3,3.7284415E-2,-1.2862772E-3,-5.9818365E-3,2.694772E-3,1.2545508E-2,-6.391873E-3,1.193164E-1,-1.5946683E-3,4.1846547E-2,-8.160227E-3,-4.4062957E-3,4.7007897E-3,-5.413999E-3,3.4866247E-2,8.265127E-3,-1.5437287E-2,8.105855E-4,1.505248E-1,-3.8288685E-3,-1.0756564E-3,-1.4332701E-2,-1.4254382E-2,1.4700164E-1,-3.858088E-3,-1.094677E-2,-2.2025364E-3,-1.00210495E-2,-1.6904819E-3,8.267833E-3,-1.689394E-2,2.6631563E-3,1.1323416E-3,4.4318296E-2,-9.717552E-3,1.40633695E-2,1.5741684E-2,-2.0008085E-2,-5.352542E-5,8.319213E-2,2.2668505E-1,1.247552E-1,-1.4842349E-2,3.340923E-2,-1.0950196E-2,-3.483039E-4,-9.023233E-3,-2.1956643E-2,-1.8956667E-2,5.41945E-3,9.7208105E-2,1.6600323E-1,8.254548E-4,-6.6332533E-3,-1.3855562E-2,-7.927524E-3,-3.8434728E-3,2.9143168E-2,-1.1137542E-2,1.2645622E-2,1.2293797E-3,-4.1896012E-4,-1.5392011E-3,9.976221E-4,-3.1732197E-3,-1.2975041E-3,1.4991162E-3,-3.5465122E-4,1.1732588E-3,-1.953291E-3,5.35511E-3,-1.6068008E-3,-3.0483694E-3,-1.924011E-4,4.2761187E-3,7.064931E-4,3.4237334E-3,-1.2353752E-3,-2.6741747E-3,-1.221662E-3,-4.924022E-4,7.7926443E-4,-1.6224356E-3,1.8441133E-2,4.2946413E-3,2.4812099E-2,1.5055278E-2,1.1574227E-2,-1.6975129E-3,9.002052E-4,1.118197E-2,1.2635414E-3,-9.053426E-4,-3.5512315E-3,1.7967261E-4,-5.257734E-4,-1.8284228E-3,-5.904416E-4,-2.3332264E-3,1.39082E-3,6.5324157E-3,-1.9618587E-3,1.3014129E-2,2.8016226E-4,1.8594284E-2,7.273732E-3,1.7166287E-2,-3.0406087E-3,2.0311381E-4,-2.6819448E-3,-8.517125E-4,-2.2768583E-4,-2.7523716E-3,-1.3026242E-3,-7.168352E-4,-1.311306E-3,-1.396468E-4,-1.0558572E-3,3.256401E-3,1.1134708E-4,-6.9310254E-4,-1.3651743E-3,-8.7022316E-4,2.5439456E-3],"categories":[],"categories_nodes":[],"categories_segments":[],"categories_sizes":[],"default_left":[0,0,0,0,0,0,0,0,0,0,0,0,0,0,0,0,0,0,0,0,0,0,0,0,0,0,0,0,0,0,0,0,0,0,0,0,0,0,0,0,0,0,0,0,0,0,0,0,0,0,0,0,0,0,0,0,0,0,0,0,0,0,0,0,0,0,0,0,0,0,0,0,0,0,0,0,0,0,0,0,0,0,0,0,0,0,0,0,0,0,0,0,0,0,0,0,0,0,0,0,0,0,0,0,0,0,0,0,0,0,0,0,0,0,0,0,0,0,0,0,0,0,0,0,0,0,0],"id":12,"left_children":[1,3,5,7,9,11,13,15,17,19,21,23,25,27,29,31,33,35,37,39,41,43,45,47,49,51,53,55,57,59,61,63,65,67,69,71,73,75,77,79,81,83,85,87,89,91,93,95,97,99,101,103,105,107,109,111,113,115,117,119,121,123,125,-1,-1,-1,-1,-1,-1,-1,-1,-1,-1,-1,-1,-1,-1,-1,-1,-1,-1,-1,-1,-1,-1,-1,-1,-1,-1,-1,-1,-1,-1,-1,-1,-1,-1,-1,-1,-1,-1,-1,-1,-1,-1,-1,-1,-1,-1,-1,-1,-1,-1,-1,-1,-1,-1,-1,-1,-1,-1,-1,-1,-1,-1,-1,-1],"loss_changes":[1.094683E1,5.096354E0,1.8737407E0,3.3530993E0,1.7087387E1,2.175413E0,6.071954E-1,3.4719126E0,3.938878E0,2.0282204E-1,6.368702E0,1.0734963E0,6.851181E0,8.9013433E-1,1.2703846E0,3.9009702E0,3.9251978E0,2.1152306E0,3.6074946E0,1.9698259E-1,1.2344235E-1,2.5663013E0,1.3829656E-1,1.1205884E0,2.5712729E-1,7.02268E-2,3.661108E-1,3.794186E-1,3.9566708E-1,3.7926652E0,7.3250484E-1,2.1421077E0,4.4390593E0,1.0162182E0,1.9023144E0,3.185186E-1,2.890007E0,1.3652384E0,5.2540727E0,9.239981E-2,6.284124E-2,6.565308E-2,1.8412337E-1,1.3009014E0,2.1276093E-1,1.3375077E-2,1.2401124E-1,4.9836373E-1,1.5303456E0,1.08175755E-1,1.2904334E-1,3.542334E-2,4.763093E-2,2.3401558E-1,3.286972E-1,3.620958E-1,1.504128E-1,2.597971E-1,8.6966395E-2,1.1513015E0,3.516705E-1,2.916026E-1,3.7139273E-1,0E0,0E0,0E0,0E0,0E0,0E0,0E0,0E0,0E0,0E0,0E0,0E0,0E0,0E0,0E0,0E0,0E0,0E0,0E0,0E0,0E0,0E0,0E0,0E0,0E0,0E0,0E0,0E0,0E0,0E0,0E0,0E0,0E0,0E0,0E0,0E0,0E0,0E0,0E0,0E0,0E0,0E0,0E0,0E0,0E0,0E0,0E0,0E0,0E0,0E0,0E0,0E0,0E0,0E0,0E0,0E0,0E0,0E0,0E0,0E0,0E0,0E0,0E0,0E0],"parents":[2147483647,0,0,1,1,2,2,3,3,4,4,5,5,6,6,7,7,8,8,9,9,10,10,11,11,12,12,13,13,14,14,15,15,16,16,17,17,18,18,19,19,20,20,21,21,22,22,23,23,24,24,25,25,26,26,27,27,28,28,29,29,30,30,31,31,32,32,33,33,34,34,35,35,36,36,37,37,38,38,39,39,40,40,41,41,42,42,43,43,44,44,45,45,46,46,47,47,48,48,49,49,50,50,51,51,52,52,53,53,54,54,55,55,56,56,57,57,58,58,59,59,60,60,61,61,62,62],"right_children":[2,4,6,8,10,12,14,16,18,20,22,24,26,28,30,32,34,36,38,40,42,44,46,48,50,52,54,56,58,60,62,64,66,68,70,72,74,76,78,80,82,84,86,88,90,92,94,96,98,100,102,104,106,108,110,112,114,116,118,120,122,124,126,-1,-1,-1,-1,-1,-1,-1,-1,-1,-1,-1,-1,-1,-1,-1,-1,-1,-1,-1,-1,-1,-1,-1,-1,-1,-1,-1,-1,-1,-1,-1,-1,-1,-1,-1,-1,-1,-1,-1,-1,-1,-1,-1,-1,-1,-1,-1,-1,-1,-1,-1,-1,-1,-1,-1,-1,-1,-1,-1,-1,-1,-1,-1,-1],"split_conditions":[1.4441921E-2,6.79E-1,2.6201772E-2,7.4574995E-1,7.69977E-1,8.5359997E-1,1.1589992E-1,6.579833E-1,7.4600005E-1,7.3599994E-1,8.2208216E-1,9.789979E-1,7.4757475E-1,8.55999E-2,7.494998E-1,1.2312496E-1,6.8210006E-1,3.30033E-3,7.4927497E-1,4.745203E-3,7.5997597E-1,7.3599994E-1,5.3987503E-1,1.9491948E-1,4.2099997E-1,4.6994698E-1,7.791779E-1,4.9184915E-1,4.854E-1,7.4944997E-1,7.67485E-2,7.969999E-2,1.9491948E-1,1.4441921E-3,6.7666763E-1,8.252527E-4,8.45884E-3,3.91995E-3,7.494998E-1,5.19952E-1,7.054799E-1,4.9995E-1,1.1553537E-2,7.79978E-1,6.189395E-3,9.8069805E-1,7.039499E-1,1.8871886E-1,5.154E-1,1.1944997E-1,7.621999E-1,1.4545078E-2,8.55999E-2,7.5247526E-1,8.356835E-1,5.529193E-2,5.25E-1,8.667493E-2,6.9940165E-2,6.391125E-1,8.8248825E-1,4.3279997E-1,8.49985E-1,1.2293797E-3,-4.1896012E-4,-1.5392011E-3,9.976221E-4,-3.1732197E-3,-1.2975041E-3,1.4991162E-3,-3.5465122E-4,1.1732588E-3,-1.953291E-3,5.35511E-3,-1.6068008E-3,-3.0483694E-3,-1.924011E-4,4.2761187E-3,7.064931E-4,3.4237334E-3,-1.2353752E-3,-2.6741747E-3,-1.221662E-3,-4.924022E-4,7.7926443E-4,-1.6224356E-3,1.8441133E-2,4.2946413E-3,2.4812099E-2,1.5055278E-2,1.1574227E-2,-1.6975129E-3,9.002052E-4,1.118197E-2,1.2635414E-3,-9.053426E-4,-3.5512315E-3,1.7967261E-4,-5.257734E-4,-1.8284228E-3,-5.904416E-4,-2.3332264E-3,1.39082E-3,6.5324157E-3,-1.9618587E-3,1.3014129E-2,2.8016226E-4,1.8594284E-2,7.273732E-3,1.7166287E-2,-3.0406087E-3,2.0311381E-4,-2.6819448E-3,-8.517125E-4,-2.2768583E-4,-2.7523716E-3,-1.3026242E-3,-7.168352E-4,-1.311306E-3,-1.396468E-4,-1.0558572E-3,3.256401E-3,1.1134708E-4,-6.9310254E-4,-1.3651743E-3,-8.7022316E-4,2.5439456E-3],"split_indices":[1,2,1,3,0,2,3,3,3,2,0,0,0,3,3,3,3,0,3,1,0,2,3,0,2,0,0,0,2,3,1,3,0,1,0,1,1,1,3,0,2,0,1,0,1,0,3,0,2,3,3,1,3,0,0,1,2,3,1,3,0,2,0,0,0,0,0,0,0,0,0,0,0,0,0,0,0,0,0,0,0,0,0,0,0,0,0,0,0,0,0,0,0,0,0,0,0,0,0,0,0,0,0,0,0,0,0,0,0,0,0,0,0,0,0,0,0,0,0,0,0,0,0,0,0,0,0],"split_type":[0,0,0,0,0,0,0,0,0,0,0,0,0,0,0,0,0,0,0,0,0,0,0,0,0,0,0,0,0,0,0,0,0,0,0,0,0,0,0,0,0,0,0,0,0,0,0,0,0,0,0,0,0,0,0,0,0,0,0,0,0,0,0,0,0,0,0,0,0,0,0,0,0,0,0,0,0,0,0,0,0,0,0,0,0,0,0,0,0,0,0,0,0,0,0,0,0,0,0,0,0,0,0,0,0,0,0,0,0,0,0,0,0,0,0,0,0,0,0,0,0,0,0,0,0,0,0],"sum_hessian":[5.99897E5,2.59436E5,3.40461E5,2.54668E5,4.768E3,1.63537E5,1.76924E5,2.13439E5,4.1229E4,3.112E3,1.656E3,1.62377E5,1.16E3,7.4254E4,1.0267E5,1.71109E5,4.233E4,6.633E3,3.4596E4,1.379E3,1.733E3,1.321E3,3.35E2,1.56021E5,6.356E3,7.57E2,4.03E2,2.919E4,4.5064E4,7.3732E4,2.8938E4,6.1291E4,1.09818E5,1.7482E4,2.4848E4,1.452E3,5.181E3,8.435E3,2.6161E4,1.76E2,1.203E3,1.716E3,1.7E1,3.32E2,9.89E2,2.59E2,7.6E1,1.0703E4,1.45318E5,3.748E3,2.608E3,6.11E2,1.46E2,1.13E2,2.9E2,1.0861E4,1.8329E4,2.295E4,2.2114E4,7.0065E4,3.667E3,2.758E4,1.358E3,9.292E3,5.1999E4,7.395E3,1.02423E5,3.651E3,1.3831E4,8.323E3,1.6525E4,9.6E2,4.92E2,4.494E3,6.87E2,2.301E3,6.134E3,5.128E3,2.1033E4,1.06E2,7E1,6.44E2,5.59E2,1.059E3,6.57E2,9E0,8E0,3.5E1,2.97E2,2.52E2,7.37E2,2.38E2,2.1E1,1.5E1,6.1E1,9.937E3,7.66E2,1.01132E5,4.4186E4,9.43E2,2.805E3,2.512E3,9.6E1,4E0,6.07E2,2E0,1.44E2,2.3E1,9E1,2.82E2,8E0,1.0408E4,4.53E2,1.2795E4,5.534E3,1.311E3,2.1639E4,1.9292E4,2.822E3,5.1353E4,1.8712E4,3.268E3,3.99E2,1.0319E4,1.7261E4,5.09E2,8.49E2],"tree_param":{"num_deleted":"0","num_feature":"4","num_nodes":"127","size_leaf_vector":"1"}},{"base_weights":[2.522384E-6,3.379154E-3,-4.3961806E-3,2.9394347E-3,3.297125E-2,-1.5056654E-3,-5.9153554E-3,5.204274E-3,-1.2880117E-3,-6.3191657E-3,1.0732484E-1,-6.569045E-3,3.0244666E-5,-6.042593E-3,7.386272E-2,4.3947576E-3,3.321565E-2,9.3008805E-4,-1.1746986E-2,2.351857E-3,-1.1948609E-2,1.2221603E-1,4.8402813E-3,1.2364149E-2,-8.602128E-3,1.1609816E-3,-7.854806E-3,-8.763544E-3,-4.273754E-3,-4.64408E-3,1.368029E-1,2.314709E-3,1.4957907E-2,2.2813503E-2,1.8260422E-1,-9.697921E-3,3.1100237E-3,1.8747214E-2,-1.2864505E-2,7.516276E-3,-1.0881327E-2,-8.207502E-3,-1.6629508E-2,7.412557E-2,1.3295133E-1,7.558478E-2,-8.569976E-3,-2.4321415E-2,2.0656971E-2,-2.4681179E-2,-7.913731E-3,-2.0446103E-2,1.6462381E-3,-1.4326995E-2,-5.0879624E-3,-1.1455772E-2,-7.3971446E-3,5.2278634E-4,-8.235802E-3,-1.253066E-2,3.1773586E-2,1.6227345E-1,8.106981E-3,-1.1559435E-3,3.8825625E-4,1.7360194E-3,-1.8919157E-3,5.1091877E-3,1.8302734E-4,2.5321424E-2,8.3417855E-3,-1.1966217E-3,-2.828757E-4,-1.3091306E-3,4.3388634E-4,-5.239508E-6,1.6547652E-2,-9.177999E-4,-1.7199861E-3,-2.504674E-4,6.398324E-3,-4.939094E-4,-2.029352E-3,-1.2987143E-3,-2.7913423E-4,-2.1916656E-3,-1.3260844E-3,9.561188E-3,3.5950174E-3,1.1733805E-2,2.0144844E-2,1.4879468E-2,6.103033E-4,-7.1598003E-3,-6.27411E-6,-2.9567734E-3,-1.7041374E-3,-2.16982E-3,2.4621112E-3,-2.6649046E-3,9.392307E-4,-9.972955E-4,-3.4274798E-4,-1.4901891E-3,-2.4727518E-3,2.448485E-3,6.297738E-5,-2.0962146E-3,-9.711681E-4,-1.3332283E-4,-1.5455241E-3,-5.835055E-4,-1.3737177E-3,2.6676847E-4,-7.8290014E-4,-1.3908197E-4,7.3028414E-4,-1.431999E-4,-1.3721889E-3,-1.7276689E-3,3.2385874E-3,3.8088695E-3,-2.0918322E-3,1.6986085E-2,-1.7784812E-3,-3.1367508E-3,3.4739003E-3],"categories":[],"categories_nodes":[],"categories_segments":[],"categories_sizes":[],"default_left":[0,0,0,0,0,0,0,0,0,0,0,0,0,0,0,0,0,0,0,0,0,0,0,0,0,0,0,0,0,0,0,0,0,0,0,0,0,0,0,0,0,0,0,0,0,0,0,0,0,0,0,0,0,0,0,0,0,0,0,0,0,0,0,0,0,0,0,0,0,0,0,